{"learner":{"attributes":{"best_iteration":"78","best_score":"0.1048707250098821","scikit_learn":"{\"_estimator_type\": \"regressor\"}"},"feature_names":[],"feature_types":[],"gradient_booster":{"model":{"cats":{"enc":[],"feature_segments":[],"sorted_idx":[]},"gbtree_model_param":{"num_parallel_tree":"1","num_trees":"129"},"iteration_indptr":[0,1,2,3,4,5,6,7,8,9,10,11,12,13,14,15,16,17,18,19,20,21,22,23,24,25,26,27,28,29,30,31,32,33,34,35,36,37,38,39,40,41,42,43,44,45,46,47,48,49,50,51,52,53,54,55,56,57,58,59,60,61,62,63,64,65,66,67,68,69,70,71,72,73,74,75,76,77,78,79,80,81,82,83,84,85,86,87,88,89,90,91,92,93,94,95,96,97,98,99,100,101,102,103,104,105,106,107,108,109,110,111,112,113,114,115,116,117,118,119,120,121,122,123,124,125,126,127,128,129],"tree_info":[0,0,0,0,0,0,0,0,0,0,0,0,0,0,0,0,0,0,0,0,0,0,0,0,0,0,0,0,0,0,0,0,0,0,0,0,0,0,0,0,0,0,0,0,0,0,0,0,0,0,0,0,0,0,0,0,0,0,0,0,0,0,0,0,0,0,0,0,0,0,0,0,0,0,0,0,0,0,0,0,0,0,0,0,0,0,0,0,0,0,0,0,0,0,0,0,0,0,0,0,0,0,0,0,0,0,0,0,0,0,0,0,0,0,0,0,0,0,0,0,0,0,0,0,0,0,0,0,0],"trees":[{"base_weights":[8.89773E-4,-1.5808807E-1,1.8827869E-1,-3.372285E-1,-8.34525E-2,9.5189616E-2,3.4419063E-1,-5.844376E-1,-2.7711362E-1,-1.3871846E-1,-2.9234687E-2,6.490574E-2,1.8355277E-1,2.9603103E-1,4.5984715E-1,-1.9787721E-2,-1.4040027E-2,-9.829737E-3,-6.8128505E-3,-5.1021622E-3,-3.048829E-3,-1.8652137E-3,5.9331735E-5,1.2750888E-3,3.1811108E-3,5.2595837E-3,9.287997E-3,7.2984104E-3,9.813641E-3,1.1835503E-2,1.55002205E-2],"categories":[],"categories_nodes":[],"categories_segments":[],"categories_sizes":[],"default_left":[0,0,0,0,0,0,0,0,0,0,0,0,0,0,0,0,0,0,0,0,0,0,0,0,0,0,0,0,0,0,0],"id":0,"left_children":[1,3,5,7,9,11,13,15,17,19,21,23,25,27,29,-1,-1,-1,-1,-1,-1,-1,-1,-1,-1,-1,-1,-1,-1,-1,-1],"loss_changes":[6.895382E2,1.6735202E2,1.5411682E2,5.446994E1,2.6470314E1,1.7769207E1,2.1906677E1,5.8702087E0,7.363571E0,5.0456924E0,4.596649E0,4.5492153E0,1.6583481E0,4.4669495E0,4.030121E0,0E0,0E0,0E0,0E0,0E0,0E0,0E0,0E0,0E0,0E0,0E0,0E0,0E0,0E0,0E0,0E0],"parents":[2147483647,0,0,1,1,2,2,3,3,4,4,5,5,6,6,7,7,8,8,9,9,10,10,11,11,12,12,13,13,14,14],"right_children":[2,4,6,8,10,12,14,16,18,20,22,24,26,28,30,-1,-1,-1,-1,-1,-1,-1,-1,-1,-1,-1,-1,-1,-1,-1,-1],"split_conditions":[9.666737E-1,7.000056E-1,1.183355E0,4.6494192E-1,8.5000795E-1,1.1166681E0,1.3833584E0,3.8333493E-1,6.3337183E-1,8.000062E-1,9.000579E-1,1.0666667E0,1.2E1,1.233334E0,1.4333352E0,-1.9787721E-2,-1.4040027E-2,-9.829737E-3,-6.8128505E-3,-5.1021622E-3,-3.048829E-3,-1.8652137E-3,5.9331735E-5,1.2750888E-3,3.1811108E-3,5.2595837E-3,9.287997E-3,7.2984104E-3,9.813641E-3,1.1835503E-2,1.55002205E-2],"split_indices":[356,356,356,352,352,352,356,332,352,356,348,356,343,352,352,0,0,0,0,0,0,0,0,0,0,0,0,0,0,0,0],"split_type":[0,0,0,0,0,0,0,0,0,0,0,0,0,0,0,0,0,0,0,0,0,0,0,0,0,0,0,0,0,0,0],"sum_hessian":[2.3144E4,1.2521E4,1.0623E4,3.681E3,8.84E3,6.653E3,3.97E3,7.18E2,2.963E3,4.376E3,4.464E3,4.957E3,1.696E3,2.806E3,1.164E3,4.33E2,2.85E2,1.47E3,1.493E3,2.368E3,2.008E3,2.173E3,2.291E3,3.212E3,1.745E3,1.595E3,1.01E2,1.045E3,1.761E3,5.46E2,6.18E2],"tree_param":{"num_deleted":"0","num_feature":"360","num_nodes":"31","size_leaf_vector":"1"}},{"base_weights":[-1.4189363E-3,-1.5370001E-1,1.8234882E-1,-3.2654265E-1,-8.07682E-2,9.0669036E-2,3.3315873E-1,-5.637075E-1,-2.688044E-1,-1.3431679E-1,-2.7949523E-2,5.6793306E-2,1.6262875E-1,2.8448415E-1,4.4875476E-1,-1.9219758E-2,-1.3743379E-2,-9.516799E-3,-6.65306E-3,-4.533668E-3,-2.0346749E-3,-1.5645958E-3,2.9872532E-4,1.0100161E-3,2.647982E-3,4.0309564E-3,5.90737E-3,6.890768E-3,9.487129E-3,1.1591804E-2,1.5095374E-2],"categories":[],"categories_nodes":[],"categories_segments":[],"categories_sizes":[],"default_left":[0,0,0,0,0,0,0,0,0,0,0,0,0,0,0,0,0,0,0,0,0,0,0,0,0,0,0,0,0,0,0],"id":1,"left_children":[1,3,5,7,9,11,13,15,17,19,21,23,25,27,29,-1,-1,-1,-1,-1,-1,-1,-1,-1,-1,-1,-1,-1,-1,-1,-1],"loss_changes":[6.5301196E2,1.6079459E2,1.4612589E2,5.1608765E1,2.536742E1,1.6003937E1,2.2288513E1,5.609619E0,6.8155212E0,4.947296E0,4.152709E0,3.241928E0,1.9791374E0,4.7721405E0,3.7282867E0,0E0,0E0,0E0,0E0,0E0,0E0,0E0,0E0,0E0,0E0,0E0,0E0,0E0,0E0,0E0,0E0],"parents":[2147483647,0,0,1,1,2,2,3,3,4,4,5,5,6,6,7,7,8,8,9,9,10,10,11,11,12,12,13,13,14,14],"right_children":[2,4,6,8,10,12,14,16,18,20,22,24,26,28,30,-1,-1,-1,-1,-1,-1,-1,-1,-1,-1,-1,-1,-1,-1,-1,-1],"split_conditions":[9.666737E-1,7.000056E-1,1.183355E0,4.6494192E-1,8.5000795E-1,1.0849588E0,1.3833584E0,3.797812E-1,6.3337183E-1,8.570892E-1,9.333338E-1,1.0342245E0,1.1333351E0,1.233334E0,1.4333352E0,-1.9219758E-2,-1.3743379E-2,-9.516799E-3,-6.65306E-3,-4.533668E-3,-2.0346749E-3,-1.5645958E-3,2.9872532E-4,1.0100161E-3,2.647982E-3,4.0309564E-3,5.90737E-3,6.890768E-3,9.487129E-3,1.1591804E-2,1.5095374E-2],"split_indices":[356,356,356,352,352,352,356,324,352,320,348,356,348,352,352,0,0,0,0,0,0,0,0,0,0,0,0,0,0,0,0],"split_type":[0,0,0,0,0,0,0,0,0,0,0,0,0,0,0,0,0,0,0,0,0,0,0,0,0,0,0,0,0,0,0],"sum_hessian":[2.3333E4,1.276E4,1.0573E4,3.785E3,8.975E3,6.577E3,3.996E3,7.39E2,3.046E3,4.455E3,4.52E3,4.474E3,2.103E3,2.815E3,1.181E3,4.24E2,3.15E2,1.497E3,1.549E3,3.554E3,9.01E2,2.76E3,1.76E3,2.582E3,1.892E3,1.157E3,9.46E2,1.037E3,1.778E3,5.55E2,6.26E2],"tree_param":{"num_deleted":"0","num_feature":"360","num_nodes":"31","size_leaf_vector":"1"}},{"base_weights":[-9.529823E-4,-1.5264001E-1,1.7466797E-1,-3.7463325E-1,-9.718327E-2,7.858253E-2,3.1089672E-1,-5.934815E-1,-3.115677E-1,-1.6018203E-1,-3.956621E-2,5.2524462E-2,1.4480093E-1,2.619901E-1,4.2261693E-1,-1.982905E-2,-1.5855225E-2,-1.0252995E-2,-7.183717E-3,-5.875807E-3,-3.5074581E-3,-2.1091523E-3,-1.5052273E-4,1.0744309E-3,2.7290143E-3,3.643911E-3,5.1651453E-3,6.7020673E-3,8.993262E-3,1.1290585E-2,1.4789676E-2],"categories":[],"categories_nodes":[],"categories_segments":[],"categories_sizes":[],"default_left":[0,0,0,0,0,0,0,0,0,0,0,0,0,0,0,0,0,0,0,0,0,0,0,0,0,0,0,0,0,0,0],"id":2,"left_children":[1,3,5,7,9,11,13,15,17,19,21,23,25,27,29,-1,-1,-1,-1,-1,-1,-1,-1,-1,-1,-1,-1,-1,-1,-1,-1],"loss_changes":[6.169135E2,1.5289316E2,1.4041418E2,3.3994415E1,3.606845E1,1.0834831E1,2.4069427E1,1.960968E0,4.062912E0,7.276764E0,5.5102186E0,2.8876266E0,1.0841522E0,4.386093E0,4.1194916E0,0E0,0E0,0E0,0E0,0E0,0E0,0E0,0E0,0E0,0E0,0E0,0E0,0E0,0E0,0E0,0E0],"parents":[2147483647,0,0,1,1,2,2,3,3,4,4,5,5,6,6,7,7,8,8,9,9,10,10,11,11,12,12,13,13,14,14],"right_children":[2,4,6,8,10,12,14,16,18,20,22,24,26,28,30,-1,-1,-1,-1,-1,-1,-1,-1,-1,-1,-1,-1,-1,-1,-1,-1],"split_conditions":[9.666681E-1,6.333743E-1,1.1666707E0,4.1526014E-1,8.167209E-1,1.0844367E0,1.3666883E0,3.1667972E-1,6.3334054E-1,7.666693E-1,9.084136E-1,1.0508152E0,1.150017E0,1.2500006E0,1.466764E0,-1.982905E-2,-1.5855225E-2,-1.0252995E-2,-7.183717E-3,-5.875807E-3,-3.5074581E-3,-2.1091523E-3,-1.5052273E-4,1.0744309E-3,2.7290143E-3,3.643911E-3,5.1651453E-3,6.7020673E-3,8.993262E-3,1.1290585E-2,1.4789676E-2],"split_indices":[356,356,356,348,348,344,356,336,344,356,348,356,344,356,356,0,0,0,0,0,0,0,0,0,0,0,0,0,0,0,0],"split_type":[0,0,0,0,0,0,0,0,0,0,0,0,0,0,0,0,0,0,0,0,0,0,0,0,0,0,0,0,0,0,0],"sum_hessian":[2.3156E4,1.2425E4,1.0731E4,2.482E3,9.943E3,6.294E3,4.437E3,5.53E2,1.929E3,4.748E3,5.195E3,4.519E3,1.775E3,3.089E3,1.348E3,2.66E2,2.87E2,1.356E3,5.73E2,2.599E3,2.149E3,2.747E3,2.448E3,3.153E3,1.366E3,9.63E2,8.12E2,1.533E3,1.556E3,8.18E2,5.3E2],"tree_param":{"num_deleted":"0","num_feature":"360","num_nodes":"31","size_leaf_vector":"1"}},{"base_weights":[-1.7967423E-4,-1.4465128E-1,1.7181066E-1,-3.1036502E-1,-7.822456E-2,7.958572E-2,2.99738E-1,-5.3147435E-1,-2.5475395E-1,-1.3511746E-1,-2.9738335E-2,5.337649E-2,1.4702882E-1,2.57358E-1,4.2131004E-1,-1.8116342E-2,-1.2803924E-2,-9.066811E-3,-6.2720412E-3,-4.4766525E-3,-2.0416605E-3,-1.9426466E-3,-1.7681686E-4,1.0257361E-3,2.4465176E-3,4.148849E-3,6.924108E-3,6.495552E-3,8.955096E-3,1.0961401E-2,1.412431E-2],"categories":[],"categories_nodes":[],"categories_segments":[],"categories_sizes":[],"default_left":[0,0,0,0,0,0,0,0,0,0,0,0,0,0,0,0,0,0,0,0,0,0,0,0,0,0,0,0,0,0,0],"id":3,"left_children":[1,3,5,7,9,11,13,15,17,19,21,23,25,27,29,-1,-1,-1,-1,-1,-1,-1,-1,-1,-1,-1,-1,-1,-1,-1,-1],"loss_changes":[5.7673773E2,1.388005E2,1.24950775E2,4.416269E1,2.4825504E1,1.0858955E1,2.268927E1,5.1263733E0,6.144989E0,3.8868256E0,4.0545845E0,2.3845024E0,1.1911163E0,5.4189453E0,2.9143372E0,0E0,0E0,0E0,0E0,0E0,0E0,0E0,0E0,0E0,0E0,0E0,0E0,0E0,0E0,0E0,0E0],"parents":[2147483647,0,0,1,1,2,2,3,3,4,4,5,5,6,6,7,7,8,8,9,9,10,10,11,11,12,12,13,13,14,14],"right_children":[2,4,6,8,10,12,14,16,18,20,22,24,26,28,30,-1,-1,-1,-1,-1,-1,-1,-1,-1,-1,-1,-1,-1,-1,-1,-1],"split_conditions":[9.6667266E-1,7.0000154E-1,1.1666707E0,4.6494192E-1,8.333547E-1,1.1000004E0,1.3833578E0,3.8333493E-1,6.333428E-1,8.5500056E-1,8.833382E-1,1.0493605E0,8E0,1.2495366E0,1.431692E0,-1.8116342E-2,-1.2803924E-2,-9.066811E-3,-6.2720412E-3,-4.4766525E-3,-2.0416605E-3,-1.9426466E-3,-1.7681686E-4,1.0257361E-3,2.4465176E-3,4.148849E-3,6.924108E-3,6.495552E-3,8.955096E-3,1.0961401E-2,1.412431E-2],"split_indices":[352,352,352,352,348,348,352,332,348,316,344,352,335,348,348,0,0,0,0,0,0,0,0,0,0,0,0,0,0,0,0],"split_type":[0,0,0,0,0,0,0,0,0,0,0,0,0,0,0,0,0,0,0,0,0,0,0,0,0,0,0,0,0,0,0],"sum_hessian":[2.3209E4,1.2614E4,1.0595E4,3.608E3,9.006E3,6.158E3,4.437E3,7.23E2,2.885E3,4.142E3,4.864E3,4.437E3,1.721E3,3.293E3,1.144E3,4.24E2,2.99E2,1.411E3,1.474E3,3.42E3,7.22E2,1.968E3,2.896E3,2.643E3,1.794E3,1.562E3,1.59E2,1.657E3,1.636E3,5.42E2,6.02E2],"tree_param":{"num_deleted":"0","num_feature":"360","num_nodes":"31","size_leaf_vector":"1"}},{"base_weights":[-7.71703E-4,-1.434991E-1,1.6235124E-1,-3.1318566E-1,-8.221114E-2,7.3301844E-2,2.9226324E-1,-5.542346E-1,-2.636561E-1,-1.3383895E-1,-3.3811804E-2,4.6230737E-2,1.3026772E-1,2.500803E-1,4.0601876E-1,-1.9388394E-2,-1.51172895E-2,-9.181566E-3,-6.26724E-3,-5.0952556E-3,-3.1905065E-3,-2.0505174E-3,-2.4697356E-4,7.75619E-4,2.4109576E-3,3.5128754E-3,5.4700607E-3,6.307094E-3,8.570082E-3,1.1016874E-2,1.4044408E-2],"categories":[],"categories_nodes":[],"categories_segments":[],"categories_sizes":[],"default_left":[0,0,0,0,0,0,0,0,0,0,0,0,0,0,0,0,0,0,0,0,0,0,0,0,0,0,0,0,0,0,0],"id":4,"left_children":[1,3,5,7,9,11,13,15,17,19,21,23,25,27,29,-1,-1,-1,-1,-1,-1,-1,-1,-1,-1,-1,-1,-1,-1,-1,-1],"loss_changes":[5.398871E2,1.2855876E2,1.2512567E2,3.894409E1,2.2687366E1,9.879883E0,2.0946472E1,2.1440735E0,6.2072754E0,4.3049316E0,4.137949E0,3.0171213E0,1.3663139E0,4.446396E0,2.607544E0,0E0,0E0,0E0,0E0,0E0,0E0,0E0,0E0,0E0,0E0,0E0,0E0,0E0,0E0,0E0,0E0],"parents":[2147483647,0,0,1,1,2,2,3,3,4,4,5,5,6,6,7,7,8,8,9,9,10,10,11,11,12,12,13,13,14,14],"right_children":[2,4,6,8,10,12,14,16,18,20,22,24,26,28,30,-1,-1,-1,-1,-1,-1,-1,-1,-1,-1,-1,-1,-1,-1,-1,-1],"split_conditions":[9.5868313E-1,6.833356E-1,1.1666707E0,4.1666713E-1,8.333495E-1,1.0833346E0,1.3833578E0,2.5001886E-1,6.3333845E-1,7.666718E-1,8.833382E-1,1.0336136E0,5E0,1.2500005E0,1.466694E0,-1.9388394E-2,-1.51172895E-2,-9.181566E-3,-6.26724E-3,-5.0952556E-3,-3.1905065E-3,-2.0505174E-3,-2.4697356E-4,7.75619E-4,2.4109576E-3,3.5128754E-3,5.4700607E-3,6.307094E-3,8.570082E-3,1.1016874E-2,1.4044408E-2],"split_indices":[352,352,352,352,340,340,352,352,340,352,344,352,271,352,340,0,0,0,0,0,0,0,0,0,0,0,0,0,0,0,0],"split_type":[0,0,0,0,0,0,0,0,0,0,0,0,0,0,0,0,0,0,0,0,0,0,0,0,0,0,0,0,0,0,0],"sum_hessian":[2.3187E4,1.2367E4,1.082E4,3.28E3,9.087E3,6.421E3,4.399E3,5.57E2,2.723E3,4.395E3,4.692E3,4.355E3,2.066E3,3.212E3,1.187E3,1.92E2,3.65E2,1.531E3,1.192E3,1.899E3,2.496E3,1.994E3,2.698E3,2.73E3,1.625E3,1.653E3,4.13E2,1.52E3,1.692E3,7.36E2,4.51E2],"tree_param":{"num_deleted":"0","num_feature":"360","num_nodes":"31","size_leaf_vector":"1"}},{"base_weights":[-4.6742815E-4,-1.31949E-1,1.6547386E-1,-2.9439673E-1,-6.891873E-2,7.601737E-2,2.8348053E-1,-5.014434E-1,-2.4176696E-1,-1.24908E-1,-2.59871E-2,4.8463378E-2,1.2868114E-1,2.4311797E-1,3.9495718E-1,-1.7022293E-2,-1.2123354E-2,-8.580885E-3,-5.952501E-3,-4.843779E-3,-3.067345E-3,-1.5403345E-3,1.7893556E-4,6.177251E-4,1.9722579E-3,2.98928E-3,4.6536284E-3,5.928264E-3,8.361743E-3,1.047724E-2,1.3534722E-2],"categories":[],"categories_nodes":[],"categories_segments":[],"categories_sizes":[],"default_left":[0,0,0,0,0,0,0,0,0,0,0,0,0,0,0,0,0,0,0,0,0,0,0,0,0,0,0,0,0,0,0],"id":5,"left_children":[1,3,5,7,9,11,13,15,17,19,21,23,25,27,29,-1,-1,-1,-1,-1,-1,-1,-1,-1,-1,-1,-1,-1,-1,-1,-1],"loss_changes":[5.0831757E2,1.3304175E2,1.0866351E2,3.939258E1,2.2497223E1,8.479477E0,1.9817871E1,4.392685E0,5.457382E0,3.3236084E0,4.3021965E0,1.844163E0,1.5030556E0,5.1847687E0,2.788971E0,0E0,0E0,0E0,0E0,0E0,0E0,0E0,0E0,0E0,0E0,0E0,0E0,0E0,0E0,0E0,0E0],"parents":[2147483647,0,0,1,1,2,2,3,3,4,4,5,5,6,6,7,7,8,8,9,9,10,10,11,11,12,12,13,13,14,14],"right_children":[2,4,6,8,10,12,14,16,18,20,22,24,26,28,30,-1,-1,-1,-1,-1,-1,-1,-1,-1,-1,-1,-1,-1,-1,-1,-1],"split_conditions":[9.719873E-1,7.0000154E-1,1.1666707E0,4.6494192E-1,8.333439E-1,1.0833355E0,1.3833578E0,3.8333493E-1,6.333428E-1,7.666718E-1,9.333379E-1,9.833607E-1,1.1333405E0,1.2333341E0,1.4500273E0,-1.7022293E-2,-1.2123354E-2,-8.580885E-3,-5.952501E-3,-4.843779E-3,-3.067345E-3,-1.5403345E-3,1.7893556E-4,6.177251E-4,1.9722579E-3,2.98928E-3,4.6536284E-3,5.928264E-3,8.361743E-3,1.047724E-2,1.3534722E-2],"split_indices":[352,352,352,352,348,348,352,332,348,352,348,340,348,348,348,0,0,0,0,0,0,0,0,0,0,0,0,0,0,0,0],"split_type":[0,0,0,0,0,0,0,0,0,0,0,0,0,0,0,0,0,0,0,0,0,0,0,0,0,0,0,0,0,0,0],"sum_hessian":[2.3296E4,1.2998E4,1.0298E4,3.632E3,9.366E3,5.859E3,4.439E3,7.34E2,2.898E3,4.063E3,5.303E3,3.849E3,2.01E3,3.262E3,1.177E3,4.34E2,3E2,1.43E3,1.468E3,1.551E3,2.512E3,2.958E3,2.345E3,1.476E3,2.373E3,9.62E2,1.048E3,1.436E3,1.826E3,6.54E2,5.23E2],"tree_param":{"num_deleted":"0","num_feature":"360","num_nodes":"31","size_leaf_vector":"1"}},{"base_weights":[-4.8166153E-4,-1.2412337E-1,1.6688453E-1,-2.817912E-1,-6.318884E-2,8.598956E-2,2.8669629E-1,-5.0257564E-1,-2.373386E-1,-1.1837569E-1,-2.2350203E-2,6.0867403E-2,1.528028E-1,2.5425845E-1,4.1173697E-1,-1.6782207E-2,-1.1939239E-2,-8.551436E-3,-5.9320275E-3,-4.6971133E-3,-2.9155908E-3,-1.5372165E-3,1.1928408E-4,1.3516585E-3,2.9712867E-3,4.238266E-3,6.5905247E-3,6.085332E-3,8.462335E-3,1.0949224E-2,1.3455221E-2],"categories":[],"categories_nodes":[],"categories_segments":[],"categories_sizes":[],"default_left":[0,0,0,0,0,0,0,0,0,0,0,0,0,0,0,0,0,0,0,0,0,0,0,0,0,0,0,0,0,0,0],"id":6,"left_children":[1,3,5,7,9,11,13,15,17,19,21,23,25,27,29,-1,-1,-1,-1,-1,-1,-1,-1,-1,-1,-1,-1,-1,-1,-1,-1],"loss_changes":[4.778073E2,1.2753415E2,9.501828E1,3.6130005E1,2.157426E1,9.801937E0,1.5862274E1,3.3613434E0,5.7206726E0,3.2557755E0,4.194189E0,2.5526161E0,1.1656303E0,4.388321E0,1.1511841E0,0E0,0E0,0E0,0E0,0E0,0E0,0E0,0E0,0E0,0E0,0E0,0E0,0E0,0E0,0E0,0E0],"parents":[2147483647,0,0,1,1,2,2,3,3,4,4,5,5,6,6,7,7,8,8,9,9,10,10,11,11,12,12,13,13,14,14],"right_children":[2,4,6,8,10,12,14,16,18,20,22,24,26,28,30,-1,-1,-1,-1,-1,-1,-1,-1,-1,-1,-1,-1,-1,-1,-1,-1],"split_conditions":[9.8335004E-1,7.000056E-1,1.183355E0,4.333457E-1,8.3335716E-1,1.1166681E0,1.4333357E0,3.8213393E-1,6.1670446E-1,7.6667464E-1,9.018982E-1,1.0833356E0,7E0,1.2333534E0,1.4843774E0,-1.6782207E-2,-1.1939239E-2,-8.551436E-3,-5.9320275E-3,-4.6971133E-3,-2.9155908E-3,-1.5372165E-3,1.1928408E-4,1.3516585E-3,2.9712867E-3,4.238266E-3,6.5905247E-3,6.085332E-3,8.462335E-3,1.0949224E-2,1.3455221E-2],"split_indices":[356,356,356,356,352,352,356,328,352,356,340,356,275,352,356,0,0,0,0,0,0,0,0,0,0,0,0,0,0,0,0],"split_type":[0,0,0,0,0,0,0,0,0,0,0,0,0,0,0,0,0,0,0,0,0,0,0,0,0,0,0,0,0,0,0],"sum_hessian":[2.3088E4,1.3279E4,9.809E3,3.7E3,9.579E3,5.857E3,3.952E3,6.18E2,3.082E3,4.072E3,5.507E3,4.259E3,1.598E3,3.141E3,8.11E2,3.97E2,2.21E2,1.394E3,1.688E3,1.449E3,2.623E3,2.627E3,2.88E3,3.015E3,1.244E3,1.367E3,2.31E2,1.107E3,2.034E3,3.63E2,4.48E2],"tree_param":{"num_deleted":"0","num_feature":"360","num_nodes":"31","size_leaf_vector":"1"}},{"base_weights":[-9.872965E-4,-1.4292459E-1,1.3448071E-1,-3.282826E-1,-9.863191E-2,5.65309E-2,2.6471874E-1,-5.124814E-1,-2.7031755E-1,-1.5755421E-1,-5.6491517E-2,3.425249E-2,1.135796E-1,2.2346668E-1,3.5903147E-1,-1.713083E-2,-1.3601738E-2,-8.7766405E-3,-5.879516E-3,-5.337334E-3,-2.9809936E-3,-2.5944274E-3,-7.198378E-4,5.9161964E-4,2.128199E-3,3.2018148E-3,6.632766E-3,5.770204E-3,7.6315235E-3,9.370994E-3,1.246187E-2],"categories":[],"categories_nodes":[],"categories_segments":[],"categories_sizes":[],"default_left":[0,0,0,0,0,0,0,0,0,0,0,0,0,0,0,0,0,0,0,0,0,0,0,0,0,0,0,0,0,0,0],"id":7,"left_children":[1,3,5,7,9,11,13,15,17,19,21,23,25,27,29,-1,-1,-1,-1,-1,-1,-1,-1,-1,-1,-1,-1,-1,-1,-1,-1],"loss_changes":[4.4582037E2,9.288681E1,1.2038641E2,2.3091263E1,2.2666885E1,9.415617E0,1.7139648E1,1.4410553E0,2.6426926E0,4.467621E0,5.1832485E0,2.8370166E0,1.4782181E0,2.8829498E0,3.3456573E0,0E0,0E0,0E0,0E0,0E0,0E0,0E0,0E0,0E0,0E0,0E0,0E0,0E0,0E0,0E0,0E0],"parents":[2147483647,0,0,1,1,2,2,3,3,4,4,5,5,6,6,7,7,8,8,9,9,10,10,11,11,12,12,13,13,14,14],"right_children":[2,4,6,8,10,12,14,16,18,20,22,24,26,28,30,-1,-1,-1,-1,-1,-1,-1,-1,-1,-1,-1,-1,-1,-1,-1,-1],"split_conditions":[9.333379E-1,6.16699E-1,1.1666707E0,4.0003392E-1,7.8334594E-1,1.0833346E0,1.3666825E0,3.1667644E-1,6.333634E-1,7.6667094E-1,8.671808E-1,1.0335585E0,9E0,1.2495366E0,6E0,-1.713083E-2,-1.3601738E-2,-8.7766405E-3,-5.879516E-3,-5.337334E-3,-2.9809936E-3,-2.5944274E-3,-7.198378E-4,5.9161964E-4,2.128199E-3,3.2018148E-3,6.632766E-3,5.770204E-3,7.6315235E-3,9.370994E-3,1.246187E-2],"split_indices":[348,348,348,312,340,340,348,348,336,348,328,348,335,348,355,0,0,0,0,0,0,0,0,0,0,0,0,0,0,0,0],"split_type":[0,0,0,0,0,0,0,0,0,0,0,0,0,0,0,0,0,0,0,0,0,0,0,0,0,0,0,0,0,0,0],"sum_hessian":[2.3184E4,1.1322E4,1.1862E4,2.182E3,9.14E3,7.422E3,4.44E3,5.2E2,1.662E3,3.809E3,5.331E3,5.34E3,2.082E3,3.092E3,1.348E3,2.56E2,2.64E2,1.276E3,3.86E2,2.819E3,9.9E2,2.77E3,2.561E3,3.828E3,1.512E3,1.96E3,1.22E2,1.546E3,1.546E3,7.42E2,6.06E2],"tree_param":{"num_deleted":"0","num_feature":"360","num_nodes":"31","size_leaf_vector":"1"}},{"base_weights":[-9.167984E-4,-1.3815361E-1,1.3321969E-1,-3.0922034E-1,-9.168149E-2,5.661432E-2,2.5934872E-1,-4.983026E-1,-2.5959462E-1,-1.4459383E-1,-4.892043E-2,3.3017125E-2,1.1504848E-1,2.2172284E-1,3.635727E-1,-1.6599974E-2,-1.3292624E-2,-8.557365E-3,-5.8993446E-3,-5.2149384E-3,-3.2917666E-3,-2.1417574E-3,-4.2190406E-4,2.1491911E-4,1.5895098E-3,2.6448972E-3,4.240446E-3,5.4962207E-3,7.534058E-3,9.385444E-3,1.2288868E-2],"categories":[],"categories_nodes":[],"categories_segments":[],"categories_sizes":[],"default_left":[0,0,0,0,0,0,0,0,0,0,0,0,0,0,0,0,0,0,0,0,0,0,0,0,0,0,0,0,0,0,0],"id":8,"left_children":[1,3,5,7,9,11,13,15,17,19,21,23,25,27,29,-1,-1,-1,-1,-1,-1,-1,-1,-1,-1,-1,-1,-1,-1,-1,-1],"loss_changes":[4.2656146E2,9.098895E1,1.1317493E2,2.2746521E1,2.0357239E1,1.0036203E1,1.7221405E1,1.195694E0,3.0282745E0,4.0558853E0,3.8951397E0,2.6762857E0,1.4466171E0,3.5990448E0,2.5375977E0,0E0,0E0,0E0,0E0,0E0,0E0,0E0,0E0,0E0,0E0,0E0,0E0,0E0,0E0,0E0,0E0],"parents":[2147483647,0,0,1,1,2,2,3,3,4,4,5,5,6,6,7,7,8,8,9,9,10,10,11,11,12,12,13,13,14,14],"right_children":[2,4,6,8,10,12,14,16,18,20,22,24,26,28,30,-1,-1,-1,-1,-1,-1,-1,-1,-1,-1,-1,-1,-1,-1,-1,-1],"split_conditions":[9.3334854E-1,6.3337183E-1,1.1666707E0,4.0006533E-1,8.000034E-1,1.0833355E0,1.3833578E0,3.1667644E-1,6.3333845E-1,7.500132E-1,9.000579E-1,9.8333335E-1,1.1333405E0,1.2333341E0,1.431692E0,-1.6599974E-2,-1.3292624E-2,-8.557365E-3,-5.8993446E-3,-5.2149384E-3,-3.2917666E-3,-2.1417574E-3,-4.2190406E-4,2.1491911E-4,1.5895098E-3,2.6448972E-3,4.240446E-3,5.4962207E-3,7.534058E-3,9.385444E-3,1.2288868E-2],"split_indices":[352,352,352,316,348,348,352,352,340,352,348,348,348,348,348,0,0,0,0,0,0,0,0,0,0,0,0,0,0,0,0],"split_type":[0,0,0,0,0,0,0,0,0,0,0,0,0,0,0,0,0,0,0,0,0,0,0,0,0,0,0,0,0,0,0],"sum_hessian":[2.317E4,1.1453E4,1.1717E4,2.445E3,9.008E3,7.291E3,4.426E3,5.06E2,1.939E3,4.024E3,4.984E3,5.196E3,2.095E3,3.255E3,1.171E3,2.48E2,2.58E2,1.374E3,5.65E2,2.185E3,1.839E3,3.028E3,1.956E3,2.267E3,2.929E3,1.04E3,1.055E3,1.414E3,1.841E3,5.62E2,6.09E2],"tree_param":{"num_deleted":"0","num_feature":"360","num_nodes":"31","size_leaf_vector":"1"}},{"base_weights":[-2.6076936E-4,-1.307891E-1,1.3380331E-1,-3.03941E-1,-8.543625E-2,5.9115037E-2,2.5220272E-1,-4.8387638E-1,-2.5205904E-1,-1.2839465E-1,-3.4265578E-2,2.6959669E-2,1.00019716E-1,1.9934541E-1,3.2458222E-1,-1.625873E-2,-1.2722455E-2,-8.333843E-3,-5.7017817E-3,-4.9655857E-3,-2.9376885E-3,-1.8776875E-3,-4.5487814E-4,6.9519907E-4,3.8744952E-3,2.3946266E-3,4.1636163E-3,5.6504346E-3,7.974429E-3,8.551581E-3,1.1728689E-2],"categories":[],"categories_nodes":[],"categories_segments":[],"categories_sizes":[],"default_left":[0,0,0,0,0,0,0,0,0,0,0,0,0,0,0,0,0,0,0,0,0,0,0,0,0,0,0,0,0,0,0],"id":9,"left_children":[1,3,5,7,9,11,13,15,17,19,21,23,25,27,29,-1,-1,-1,-1,-1,-1,-1,-1,-1,-1,-1,-1,-1,-1,-1,-1],"loss_changes":[4.0496524E2,9.20186E1,1.00906204E2,2.2517471E1,2.04095E1,9.194372E0,1.6773712E1,1.559372E0,2.9177094E0,5.6714325E0,2.287589E0,1.4996984E0,2.3788795E0,1.7722244E0,4.7037506E0,0E0,0E0,0E0,0E0,0E0,0E0,0E0,0E0,0E0,0E0,0E0,0E0,0E0,0E0,0E0,0E0],"parents":[2147483647,0,0,1,1,2,2,3,3,4,4,5,5,6,6,7,7,8,8,9,9,10,10,11,11,12,12,13,13,14,14],"right_children":[2,4,6,8,10,12,14,16,18,20,22,24,26,28,30,-1,-1,-1,-1,-1,-1,-1,-1,-1,-1,-1,-1,-1,-1,-1,-1],"split_conditions":[9.500012E-1,6.333743E-1,1.1666707E0,4.1526014E-1,8.3334714E-1,1.0493605E0,1.3166804E0,3.1667644E-1,6.3334054E-1,7.5001645E-1,8.667244E-1,1.2E1,1.1333417E0,1E1,1.4333352E0,-1.625873E-2,-1.2722455E-2,-8.333843E-3,-5.7017817E-3,-4.9655857E-3,-2.9376885E-3,-1.8776875E-3,-4.5487814E-4,6.9519907E-4,3.8744952E-3,2.3946266E-3,4.1636163E-3,5.6504346E-3,7.974429E-3,8.551581E-3,1.1728689E-2],"split_indices":[356,356,356,348,352,352,356,352,344,356,324,359,352,43,352,0,0,0,0,0,0,0,0,0,0,0,0,0,0,0,0],"split_type":[0,0,0,0,0,0,0,0,0,0,0,0,0,0,0,0,0,0,0,0,0,0,0,0,0,0,0,0,0,0,0],"sum_hessian":[2.314E4,1.1725E4,1.1415E4,2.432E3,9.293E3,7.001E3,4.414E3,5.42E2,1.89E3,5.05E3,4.243E3,3.922E3,3.079E3,2.554E3,1.86E3,2.7E2,2.72E2,1.332E3,5.58E2,2.273E3,2.777E3,1.706E3,2.537E3,3.784E3,1.38E2,2.028E3,1.051E3,2.196E3,3.58E2,1.17E3,6.9E2],"tree_param":{"num_deleted":"0","num_feature":"360","num_nodes":"31","size_leaf_vector":"1"}},{"base_weights":[1.4244225E-3,-1.2923135E-1,1.2825103E-1,-2.97983E-1,-8.5706554E-2,5.557389E-2,2.4609083E-1,-4.6854007E-1,-2.4658439E-1,-1.3846776E-1,-4.5943614E-2,3.546429E-2,1.1580574E-1,2.0579627E-1,3.384088E-1,-1.6396897E-2,-1.2825135E-2,-8.670061E-3,-6.3813236E-3,-5.005217E-3,-3.0665663E-3,-2.2321332E-3,-5.147954E-4,5.24527E-4,1.8423146E-3,3.1742027E-3,5.2020154E-3,5.117393E-3,6.9835773E-3,8.590987E-3,1.17500555E-2],"categories":[],"categories_nodes":[],"categories_segments":[],"categories_sizes":[],"default_left":[0,0,0,0,0,0,0,0,0,0,0,0,0,0,0,0,0,0,0,0,0,0,0,0,0,0,0,0,0,0,0],"id":10,"left_children":[1,3,5,7,9,11,13,15,17,19,21,23,25,27,29,-1,-1,-1,-1,-1,-1,-1,-1,-1,-1,-1,-1,-1,-1,-1,-1],"loss_changes":[3.8245E2,8.343266E1,1.0026077E2,2.0238663E1,1.8938477E1,8.757399E0,1.6492767E1,1.3914642E0,2.4645996E0,3.949646E0,4.2142305E0,2.5265417E0,9.97242E-1,2.8788147E0,3.5757904E0,0E0,0E0,0E0,0E0,0E0,0E0,0E0,0E0,0E0,0E0,0E0,0E0,0E0,0E0,0E0,0E0],"parents":[2147483647,0,0,1,1,2,2,3,3,4,4,5,5,6,6,7,7,8,8,9,9,10,10,11,11,12,12,13,13,14,14],"right_children":[2,4,6,8,10,12,14,16,18,20,22,24,26,28,30,-1,-1,-1,-1,-1,-1,-1,-1,-1,-1,-1,-1,-1,-1,-1,-1],"split_conditions":[9.333495E-1,6.333439E-1,1.1666707E0,4.1526014E-1,7.984695E-1,1.0849588E0,1.3666883E0,2.5000525E-1,5.666719E-1,7.5001645E-1,8.667244E-1,1.0244584E0,6E0,1.2167177E0,1.4333352E0,-1.6396897E-2,-1.2825135E-2,-8.670061E-3,-6.3813236E-3,-5.005217E-3,-3.0665663E-3,-2.2321332E-3,-5.147954E-4,5.24527E-4,1.8423146E-3,3.1742027E-3,5.2020154E-3,5.117393E-3,6.9835773E-3,8.590987E-3,1.17500555E-2],"split_indices":[356,356,356,348,352,352,356,356,352,356,324,356,339,352,352,0,0,0,0,0,0,0,0,0,0,0,0,0,0,0,0],"split_type":[0,0,0,0,0,0,0,0,0,0,0,0,0,0,0,0,0,0,0,0,0,0,0,0,0,0,0,0,0,0,0],"sum_hessian":[2.3078E4,1.1367E4,1.1711E4,2.329E3,9.038E3,7.245E3,4.466E3,5.37E2,1.792E3,3.882E3,5.156E3,5.434E3,1.811E3,3.112E3,1.354E3,1.8E2,3.57E2,7.91E2,1.001E3,2.174E3,1.708E3,2.59E3,2.566E3,3.213E3,2.221E3,1.547E3,2.64E2,1.355E3,1.757E3,6.89E2,6.65E2],"tree_param":{"num_deleted":"0","num_feature":"360","num_nodes":"31","size_leaf_vector":"1"}},{"base_weights":[-1.9616469E-4,-1.1198835E-1,1.4177471E-1,-2.4847464E-1,-5.9216887E-2,7.231397E-2,2.4952734E-1,-4.2238483E-1,-2.0586944E-1,-1.06273636E-1,-2.3442509E-2,4.9601596E-2,1.3365802E-1,2.1172251E-1,3.369216E-1,-1.4294186E-2,-1.0185072E-2,-7.227453E-3,-5.0388766E-3,-3.7050543E-3,-1.801621E-3,-1.4670651E-3,2.9643721E-5,1.3077111E-3,3.9689317E-3,3.7166472E-3,6.9946744E-3,5.0449497E-3,7.0372345E-3,8.811661E-3,1.1507599E-2],"categories":[],"categories_nodes":[],"categories_segments":[],"categories_sizes":[],"default_left":[0,0,0,0,0,0,0,0,0,0,0,0,0,0,0,0,0,0,0,0,0,0,0,0,0,0,0,0,0,0,0],"id":11,"left_children":[1,3,5,7,9,11,13,15,17,19,21,23,25,27,29,-1,-1,-1,-1,-1,-1,-1,-1,-1,-1,-1,-1,-1,-1,-1,-1],"loss_changes":[3.65829E2,9.283902E1,7.594815E1,2.6487305E1,1.56437645E1,8.579872E0,1.3020126E1,2.9216003E0,3.757927E0,3.1720848E0,3.2933302E0,2.218587E0,1.5558529E0,2.6884155E0,2.236679E0,0E0,0E0,0E0,0E0,0E0,0E0,0E0,0E0,0E0,0E0,0E0,0E0,0E0,0E0,0E0,0E0],"parents":[2147483647,0,0,1,1,2,2,3,3,4,4,5,5,6,6,7,7,8,8,9,9,10,10,11,11,12,12,13,13,14,14],"right_children":[2,4,6,8,10,12,14,16,18,20,22,24,26,28,30,-1,-1,-1,-1,-1,-1,-1,-1,-1,-1,-1,-1,-1,-1,-1,-1],"split_conditions":[9.7302586E-1,7.000019E-1,1.183355E0,4.6478078E-1,8.333376E-1,1.1166681E0,1.3833584E0,3.8333508E-1,6.3337183E-1,8.3870286E-1,9.0038687E-1,8E0,9E0,1.2167177E0,1.466764E0,-1.4294186E-2,-1.0185072E-2,-7.227453E-3,-5.0388766E-3,-3.7050543E-3,-1.801621E-3,-1.4670651E-3,2.9643721E-5,1.3077111E-3,3.9689317E-3,3.7166472E-3,6.9946744E-3,5.0449497E-3,7.0372345E-3,8.811661E-3,1.1507599E-2],"split_indices":[356,356,356,356,356,352,356,336,352,292,352,359,351,352,356,0,0,0,0,0,0,0,0,0,0,0,0,0,0,0,0],"split_type":[0,0,0,0,0,0,0,0,0,0,0,0,0,0,0,0,0,0,0,0,0,0,0,0,0,0,0,0,0,0,0],"sum_hessian":[2.3048E4,1.2895E4,1.0153E4,3.594E3,9.301E3,6.175E3,3.978E3,7.05E2,2.889E3,4.015E3,5.286E3,4.509E3,1.666E3,2.78E3,1.198E3,4.23E2,2.82E2,1.497E3,1.392E3,2.922E3,1.093E3,2.59E3,2.696E3,4.206E3,3.03E2,1.52E3,1.46E2,9.61E2,1.819E3,6.27E2,5.71E2],"tree_param":{"num_deleted":"0","num_feature":"360","num_nodes":"31","size_leaf_vector":"1"}},{"base_weights":[-2.481433E-4,-1.0256533E-1,1.4318903E-1,-2.3837566E-1,-5.0887194E-2,7.546259E-2,2.4316168E-1,-4.121932E-1,-1.9592348E-1,-9.484014E-2,-1.3717465E-2,5.198126E-2,1.3233638E-1,2.062556E-1,3.2581472E-1,-1.429624E-2,-1.0517268E-2,-6.3503357E-3,-3.4776637E-3,-3.2693478E-3,-1.3725741E-3,-8.628988E-4,6.4421806E-4,1.2150124E-3,2.6530987E-3,3.7280477E-3,7.2691715E-3,5.7898695E-3,8.295442E-3,8.629607E-3,1.1524122E-2],"categories":[],"categories_nodes":[],"categories_segments":[],"categories_sizes":[],"default_left":[0,0,0,0,0,0,0,0,0,0,0,0,0,0,0,0,0,0,0,0,0,0,0,0,0,0,0,0,0,0,0],"id":12,"left_children":[1,3,5,7,9,11,13,15,17,19,21,23,25,27,29,-1,-1,-1,-1,-1,-1,-1,-1,-1,-1,-1,-1,-1,-1,-1,-1],"loss_changes":[3.4042245E2,9.49814E1,6.533531E1,2.7389236E1,1.6012989E1,7.665676E0,1.1773102E1,2.6486206E0,3.7250748E0,3.0977173E0,2.816612E0,1.6907434E0,1.4246922E0,2.414154E0,2.4953384E0,0E0,0E0,0E0,0E0,0E0,0E0,0E0,0E0,0E0,0E0,0E0,0E0,0E0,0E0,0E0,0E0],"parents":[2147483647,0,0,1,1,2,2,3,3,4,4,5,5,6,6,7,7,8,8,9,9,10,10,11,11,12,12,13,13,14,14],"right_children":[2,4,6,8,10,12,14,16,18,20,22,24,26,28,30,-1,-1,-1,-1,-1,-1,-1,-1,-1,-1,-1,-1,-1,-1,-1,-1],"split_conditions":[9.833978E-1,7.000056E-1,1.1834117E0,4.6478078E-1,8.5000795E-1,1.1166681E0,1.3833584E0,3.5000837E-1,7.333386E-1,8.522338E-1,9.719873E-1,1.0857011E0,1.2E1,9E0,1.4666966E0,-1.429624E-2,-1.0517268E-2,-6.3503357E-3,-3.4776637E-3,-3.2693478E-3,-1.3725741E-3,-8.628988E-4,6.4421806E-4,1.2150124E-3,2.6530987E-3,3.7280477E-3,7.2691715E-3,5.7898695E-3,8.295442E-3,8.629607E-3,1.1524122E-2],"split_indices":[356,356,356,356,352,352,356,336,336,312,352,356,343,359,352,0,0,0,0,0,0,0,0,0,0,0,0,0,0,0,0],"split_type":[0,0,0,0,0,0,0,0,0,0,0,0,0,0,0,0,0,0,0,0,0,0,0,0,0,0,0,0,0,0,0],"sum_hessian":[2.3194E4,1.3538E4,9.656E3,3.73E3,9.808E3,5.758E3,3.898E3,7.3E2,3E3,4.492E3,5.316E3,4.078E3,1.68E3,2.698E3,1.2E3,3.53E2,3.77E2,2.504E3,4.96E2,3.485E3,1.007E3,3.726E3,1.59E3,3.105E3,9.73E2,1.568E3,1.12E2,2.274E3,4.24E2,7.3E2,4.7E2],"tree_param":{"num_deleted":"0","num_feature":"360","num_nodes":"31","size_leaf_vector":"1"}},{"base_weights":[-2.2307695E-4,-1.1443337E-1,1.217568E-1,-2.791455E-1,-7.757858E-2,5.462781E-2,2.2803451E-1,-4.295414E-1,-2.3131914E-1,-1.345232E-1,-4.1911345E-2,3.4565922E-2,1.0782323E-1,1.9152673E-1,3.0719748E-1,-1.4491651E-2,-1.1368691E-2,-8.882219E-3,-6.302157E-3,-4.5851697E-3,-2.4555756E-3,-2.1327958E-3,-4.739309E-4,9.265979E-4,4.201257E-3,2.8569703E-3,4.509297E-3,4.6875994E-3,6.5035988E-3,7.901689E-3,1.0743001E-2],"categories":[],"categories_nodes":[],"categories_segments":[],"categories_sizes":[],"default_left":[0,0,0,0,0,0,0,0,0,0,0,0,0,0,0,0,0,0,0,0,0,0,0,0,0,0,0,0,0,0,0],"id":13,"left_children":[1,3,5,7,9,11,13,15,17,19,21,23,25,27,29,-1,-1,-1,-1,-1,-1,-1,-1,-1,-1,-1,-1,-1,-1,-1,-1],"loss_changes":[3.227749E2,7.258145E1,7.988501E1,1.5565399E1,1.9840458E1,7.3115673E0,1.2422623E1,1.1546173E0,2.173874E0,3.596138E0,4.574648E0,1.9151025E0,9.6629333E-1,2.5759888E0,2.8896027E0,0E0,0E0,0E0,0E0,0E0,0E0,0E0,0E0,0E0,0E0,0E0,0E0,0E0,0E0,0E0,0E0],"parents":[2147483647,0,0,1,1,2,2,3,3,4,4,5,5,6,6,7,7,8,8,9,9,10,10,11,11,12,12,13,13,14,14],"right_children":[2,4,6,8,10,12,14,16,18,20,22,24,26,28,30,-1,-1,-1,-1,-1,-1,-1,-1,-1,-1,-1,-1,-1,-1,-1,-1],"split_conditions":[9.5000577E-1,6.1670446E-1,1.1666862E0,4.0038574E-1,7.833375E-1,1.0849588E0,1.3666883E0,3.1667644E-1,5.000018E-1,7.6667464E-1,8.6668676E-1,1.2E1,1.1666707E0,1.2167177E0,6E0,-1.4491651E-2,-1.1368691E-2,-8.882219E-3,-6.302157E-3,-4.5851697E-3,-2.4555756E-3,-2.1327958E-3,-4.739309E-4,9.265979E-4,4.201257E-3,2.8569703E-3,4.509297E-3,4.6875994E-3,6.5035988E-3,7.901689E-3,1.0743001E-2],"split_indices":[356,356,356,320,348,352,356,356,356,356,336,351,348,352,339,0,0,0,0,0,0,0,0,0,0,0,0,0,0,0,0],"split_type":[0,0,0,0,0,0,0,0,0,0,0,0,0,0,0,0,0,0,0,0,0,0,0,0,0,0,0,0,0,0,0],"sum_hessian":[2.3167E4,1.1965E4,1.1202E4,2.186E3,9.779E3,6.867E3,4.335E3,5.25E2,1.661E3,3.764E3,6.015E3,4.989E3,1.878E3,2.97E3,1.365E3,2.5E2,2.75E2,4.06E2,1.255E3,2.79E3,9.74E2,2.838E3,3.177E3,4.823E3,1.66E2,1.453E3,4.25E2,1.244E3,1.726E3,7.38E2,6.27E2],"tree_param":{"num_deleted":"0","num_feature":"360","num_nodes":"31","size_leaf_vector":"1"}},{"base_weights":[1.3252235E-3,-1.12044394E-1,1.1661408E-1,-2.7620786E-1,-7.7108145E-2,5.1479418E-2,2.1776462E-1,-4.125624E-1,-2.2534716E-1,-1.3047872E-1,-4.1613776E-2,2.4387045E-2,8.6276926E-2,1.7048128E-1,2.7970797E-1,-1.2559843E-2,1.3516296E-3,-7.4561997E-3,-5.400063E-3,-4.665525E-3,-2.9387856E-3,-2.0303517E-3,-4.7065632E-4,5.93423E-4,4.571413E-3,2.3881157E-3,5.1392475E-3,4.7187596E-3,7.1178502E-3,7.4669644E-3,1.0544186E-2],"categories":[],"categories_nodes":[],"categories_segments":[],"categories_sizes":[],"default_left":[0,0,0,0,0,0,0,0,0,0,0,0,0,0,0,0,0,0,0,0,0,0,0,0,0,0,0,0,0,0,0],"id":14,"left_children":[1,3,5,7,9,11,13,15,17,19,21,23,25,27,29,-1,-1,-1,-1,-1,-1,-1,-1,-1,-1,-1,-1,-1,-1,-1,-1],"loss_changes":[3.0343945E2,6.7074554E1,7.580101E1,1.4080978E1,1.8263577E1,6.5898304E0,1.3110718E1,1.6080246E0,1.4878235E0,3.0975037E0,3.9098415E0,2.3032765E0,1.6998463E0,2.178032E0,4.1617584E0,0E0,0E0,0E0,0E0,0E0,0E0,0E0,0E0,0E0,0E0,0E0,0E0,0E0,0E0,0E0,0E0],"parents":[2147483647,0,0,1,1,2,2,3,3,4,4,5,5,6,6,7,7,8,8,9,9,10,10,11,11,12,12,13,13,14,14],"right_children":[2,4,6,8,10,12,14,16,18,20,22,24,26,28,30,-1,-1,-1,-1,-1,-1,-1,-1,-1,-1,-1,-1,-1,-1,-1,-1],"split_conditions":[9.500012E-1,6.166713E-1,1.1666707E0,4.166674E-1,7.833375E-1,1.0493605E0,1.3166804E0,7.500049E-1,6.000383E-1,7.3333657E-1,8.667234E-1,1.2E1,8E0,8E0,1.4500275E0,-1.2559843E-2,1.3516296E-3,-7.4561997E-3,-5.400063E-3,-4.665525E-3,-2.9387856E-3,-2.0303517E-3,-4.7065632E-4,5.93423E-4,4.571413E-3,2.3881157E-3,5.1392475E-3,4.7187596E-3,7.1178502E-3,7.4669644E-3,1.0544186E-2],"split_indices":[356,352,356,356,348,352,356,320,356,356,320,359,343,315,352,0,0,0,0,0,0,0,0,0,0,0,0,0,0,0,0],"split_type":[0,0,0,0,0,0,0,0,0,0,0,0,0,0,0,0,0,0,0,0,0,0,0,0,0,0,0,0,0,0,0],"sum_hessian":[2.3214E4,1.1704E4,1.151E4,2.052E3,9.652E3,7.003E3,4.507E3,5.55E2,1.497E3,3.853E3,5.799E3,3.94E3,3.063E3,2.559E3,1.948E3,5.48E2,7E0,9.86E2,5.11E2,2.173E3,1.68E3,2.889E3,2.91E3,3.805E3,1.35E2,2.843E3,2.2E2,2.141E3,4.18E2,1.367E3,5.81E2],"tree_param":{"num_deleted":"0","num_feature":"360","num_nodes":"31","size_leaf_vector":"1"}},{"base_weights":[-8.423411E-5,-9.681001E-2,1.2803118E-1,-2.2003357E-1,-5.045525E-2,7.7963375E-2,2.4274898E-1,-3.652996E-1,-1.7740189E-1,-9.461308E-2,-1.9423926E-2,4.7891524E-2,1.3031341E-1,2.1505424E-1,3.2837778E-1,-1.3204016E-2,-9.296729E-3,-5.9310663E-3,-3.4961877E-3,-3.263688E-3,-1.6269692E-3,-1.1232945E-3,2.6872856E-4,1.1205394E-3,2.6235352E-3,3.6932824E-3,6.4455387E-3,5.9706927E-3,8.364128E-3,8.948354E-3,1.1230327E-2],"categories":[],"categories_nodes":[],"categories_segments":[],"categories_sizes":[],"default_left":[0,0,0,0,0,0,0,0,0,0,0,0,0,0,0,0,0,0,0,0,0,0,0,0,0,0,0,0,0,0,0],"id":15,"left_children":[1,3,5,7,9,11,13,15,17,19,21,23,25,27,29,-1,-1,-1,-1,-1,-1,-1,-1,-1,-1,-1,-1,-1,-1,-1,-1],"loss_changes":[2.8671204E2,7.526882E1,5.7115738E1,2.2194077E1,1.3116747E1,1.0887154E1,7.043991E0,3.1721115E0,3.3901825E0,2.2407227E0,2.8824415E0,1.8209934E0,1.4787216E0,2.2350311E0,8.393707E-1,0E0,0E0,0E0,0E0,0E0,0E0,0E0,0E0,0E0,0E0,0E0,0E0,0E0,0E0,0E0,0E0],"parents":[2147483647,0,0,1,1,2,2,3,3,4,4,5,5,6,6,7,7,8,8,9,9,10,10,11,11,12,12,13,13,14,14],"right_children":[2,4,6,8,10,12,14,16,18,20,22,24,26,28,30,-1,-1,-1,-1,-1,-1,-1,-1,-1,-1,-1,-1,-1,-1,-1,-1],"split_conditions":[9.8333937E-1,7.000019E-1,1.2333609E0,4.8333466E-1,8.3333516E-1,1.1166682E0,1.4333656E0,3.5000917E-1,7.000009E-1,8.3870286E-1,9.33341E-1,1.0998819E0,1.2E1,9E0,1.5500054E0,-1.3204016E-2,-9.296729E-3,-5.9310663E-3,-3.4961877E-3,-3.263688E-3,-1.6269692E-3,-1.1232945E-3,2.6872856E-4,1.1205394E-3,2.6235352E-3,3.6932824E-3,6.4455387E-3,5.9706927E-3,8.364128E-3,8.948354E-3,1.1230327E-2],"split_indices":[356,356,356,356,356,356,356,344,344,292,344,344,359,359,356,0,0,0,0,0,0,0,0,0,0,0,0,0,0,0,0],"split_type":[0,0,0,0,0,0,0,0,0,0,0,0,0,0,0,0,0,0,0,0,0,0,0,0,0,0,0,0,0,0,0],"sum_hessian":[2.3135E4,1.3183E4,9.952E3,3.602E3,9.581E3,6.93E3,3.022E3,8.15E2,2.787E3,3.952E3,5.629E3,4.404E3,2.526E3,2.287E3,7.35E2,3.43E2,4.72E2,2.087E3,7E2,2.922E3,1.03E3,3.445E3,2.184E3,3.481E3,9.23E2,2.331E3,1.95E2,1.832E3,4.55E2,4.5E2,2.85E2],"tree_param":{"num_deleted":"0","num_feature":"360","num_nodes":"31","size_leaf_vector":"1"}},{"base_weights":[-6.190496E-4,-9.887305E-2,1.16027854E-1,-2.0938745E-1,-5.290574E-2,5.361391E-2,2.0467792E-1,-3.566561E-1,-1.7356974E-1,-8.5060336E-2,-1.7052595E-2,3.822871E-2,1.04655236E-1,1.7461999E-1,2.856781E-1,-1.2636177E-2,-8.97407E-3,-6.146955E-3,-4.337259E-3,-3.5416782E-3,-2.0686407E-3,-1.1693237E-3,4.8120586E-5,6.98972E-4,1.9193975E-3,2.647055E-3,4.189317E-3,4.866754E-3,7.2140037E-3,7.3731146E-3,9.890808E-3],"categories":[],"categories_nodes":[],"categories_segments":[],"categories_sizes":[],"default_left":[0,0,0,0,0,0,0,0,0,0,0,0,0,0,0,0,0,0,0,0,0,0,0,0,0,0,0,0,0,0,0],"id":16,"left_children":[1,3,5,7,9,11,13,15,17,19,21,23,25,27,29,-1,-1,-1,-1,-1,-1,-1,-1,-1,-1,-1,-1,-1,-1,-1,-1],"loss_changes":[2.651491E2,6.3757957E1,5.848575E1,1.9338638E1,1.0215216E1,4.857523E0,1.054129E1,2.4752808E0,2.6323547E0,2.4575195E0,1.7205563E0,1.8251753E0,7.89896E-1,2.5242767E0,1.934166E0,0E0,0E0,0E0,0E0,0E0,0E0,0E0,0E0,0E0,0E0,0E0,0E0,0E0,0E0,0E0,0E0],"parents":[2147483647,0,0,1,1,2,2,3,3,4,4,5,5,6,6,7,7,8,8,9,9,10,10,11,11,12,12,13,13,14,14],"right_children":[2,4,6,8,10,12,14,16,18,20,22,24,26,28,30,-1,-1,-1,-1,-1,-1,-1,-1,-1,-1,-1,-1,-1,-1,-1,-1],"split_conditions":[9.666719E-1,7.000048E-1,1.1666707E0,4.6494192E-1,8.500562E-1,1.1166681E0,1.3833578E0,3.5000578E-1,6.333428E-1,7.666718E-1,9.0038687E-1,1.0493605E0,4E0,9E0,6E0,-1.2636177E-2,-8.97407E-3,-6.146955E-3,-4.337259E-3,-3.5416782E-3,-2.0686407E-3,-1.1693237E-3,4.8120586E-5,6.98972E-4,1.9193975E-3,2.647055E-3,4.189317E-3,4.866754E-3,7.2140037E-3,7.3731146E-3,9.890808E-3],"split_indices":[348,352,352,352,324,348,352,328,348,352,352,352,279,359,355,0,0,0,0,0,0,0,0,0,0,0,0,0,0,0,0],"split_type":[0,0,0,0,0,0,0,0,0,0,0,0,0,0,0,0,0,0,0,0,0,0,0,0,0,0,0,0,0,0,0],"sum_hessian":[2.3133E4,1.2557E4,1.0576E4,3.687E3,8.87E3,6.208E3,4.368E3,7.19E2,2.968E3,4.674E3,4.196E3,4.773E3,1.435E3,3.189E3,1.179E3,3.35E2,3.84E2,1.422E3,1.546E3,1.529E3,3.145E3,1.931E3,2.265E3,3.025E3,1.748E3,9.81E2,4.54E2,2.688E3,5.01E2,6.23E2,5.56E2],"tree_param":{"num_deleted":"0","num_feature":"360","num_nodes":"31","size_leaf_vector":"1"}},{"base_weights":[-1.7703982E-4,-9.208774E-2,1.1633684E-1,-2.0456389E-1,-4.7234815E-2,5.3811606E-2,1.9993155E-1,-3.4248886E-1,-1.661723E-1,-8.927396E-2,-1.8082472E-2,3.445549E-2,9.319009E-2,1.573182E-1,2.542104E-1,-1.241644E-2,-8.574582E-3,-5.2855085E-3,-2.0369387E-3,-2.9954957E-3,-1.2834183E-3,-6.2192045E-4,4.509995E-3,-1.0028742E-4,1.2991832E-3,2.6179561E-3,5.5351523E-3,4.355583E-3,6.5842047E-3,6.799068E-3,9.6916165E-3],"categories":[],"categories_nodes":[],"categories_segments":[],"categories_sizes":[],"default_left":[0,0,0,0,0,0,0,0,0,0,0,0,0,0,0,0,0,0,0,0,0,0,0,0,0,0,0,0,0,0,0],"id":17,"left_children":[1,3,5,7,9,11,13,15,17,19,21,23,25,27,29,-1,-1,-1,-1,-1,-1,-1,-1,-1,-1,-1,-1,-1,-1,-1,-1],"loss_changes":[2.4739395E2,6.511983E1,5.3209076E1,1.9383698E1,1.1305506E1,4.4277363E0,9.998932E0,3.0483475E0,2.7991028E0,1.8401241E0,2.4235325E0,1.3128586E0,9.949589E-1,1.7753792E0,3.505249E0,0E0,0E0,0E0,0E0,0E0,0E0,0E0,0E0,0E0,0E0,0E0,0E0,0E0,0E0,0E0,0E0],"parents":[2147483647,0,0,1,1,2,2,3,3,4,4,5,5,6,6,7,7,8,8,9,9,10,10,11,11,12,12,13,13,14,14],"right_children":[2,4,6,8,10,12,14,16,18,20,22,24,26,28,30,-1,-1,-1,-1,-1,-1,-1,-1,-1,-1,-1,-1,-1,-1,-1,-1],"split_conditions":[9.719873E-1,7.000056E-1,1.1666707E0,4.833346E-1,8.333376E-1,1.0849588E0,1.3166804E0,3.5000837E-1,7.500003E-1,8.5500056E-1,1.6E1,9.500012E-1,1E1,8E0,1.466764E0,-1.241644E-2,-8.574582E-3,-5.2855085E-3,-2.0369387E-3,-2.9954957E-3,-1.2834183E-3,-6.2192045E-4,4.509995E-3,-1.0028742E-4,1.2991832E-3,2.6179561E-3,5.5351523E-3,4.355583E-3,6.5842047E-3,6.799068E-3,9.6916165E-3],"split_indices":[352,356,356,344,356,352,356,356,348,316,359,356,359,339,356,0,0,0,0,0,0,0,0,0,0,0,0,0,0,0,0],"split_type":[0,0,0,0,0,0,0,0,0,0,0,0,0,0,0,0,0,0,0,0,0,0,0,0,0,0,0,0,0,0,0],"sum_hessian":[2.31E4,1.2914E4,1.0186E4,3.68E3,9.234E3,5.829E3,4.357E3,7.99E2,2.881E3,3.779E3,5.455E3,3.911E3,1.918E3,2.444E3,1.913E3,3.5E2,4.49E2,2.613E3,2.68E2,3.076E3,7.03E2,5.372E3,8.3E1,7.4E2,3.171E3,1.804E3,1.14E2,2.049E3,3.95E2,1.37E3,5.43E2],"tree_param":{"num_deleted":"0","num_feature":"360","num_nodes":"31","size_leaf_vector":"1"}},{"base_weights":[-2.763731E-4,-8.54197E-2,1.18729874E-1,-1.9494984E-1,-4.4296596E-2,5.6213662E-2,1.9398351E-1,-3.294851E-1,-1.5744367E-1,-7.36817E-2,-4.618244E-3,4.0690154E-2,1.01329565E-1,1.7246176E-1,2.9196975E-1,-1.1977743E-2,-8.178436E-3,-5.5404566E-3,-3.6917403E-3,-2.6403144E-3,-1.1213243E-3,-5.6784565E-4,6.1422755E-4,1.077941E-3,4.08859E-3,2.8070854E-3,5.247021E-3,4.1521094E-3,5.90173E-3,7.029503E-3,9.596754E-3],"categories":[],"categories_nodes":[],"categories_segments":[],"categories_sizes":[],"default_left":[0,0,0,0,0,0,0,0,0,0,0,0,0,0,0,0,0,0,0,0,0,0,0,0,0,0,0,0,0,0,0],"id":18,"left_children":[1,3,5,7,9,11,13,15,17,19,21,23,25,27,29,-1,-1,-1,-1,-1,-1,-1,-1,-1,-1,-1,-1,-1,-1,-1,-1],"loss_changes":[2.3591371E2,6.1103195E1,4.5645462E1,1.8589462E1,1.1499781E1,3.6977692E0,9.192627E0,3.022194E0,2.6617126E0,2.933157E0,1.5090544E0,1.7752762E0,7.3095036E-1,2.9264603E0,1.1429672E0,0E0,0E0,0E0,0E0,0E0,0E0,0E0,0E0,0E0,0E0,0E0,0E0,0E0,0E0,0E0,0E0],"parents":[2147483647,0,0,1,1,2,2,3,3,4,4,5,5,6,6,7,7,8,8,9,9,10,10,11,11,12,12,13,13,14,14],"right_children":[2,4,6,8,10,12,14,16,18,20,22,24,26,28,30,-1,-1,-1,-1,-1,-1,-1,-1,-1,-1,-1,-1,-1,-1,-1,-1],"split_conditions":[9.833806E-1,7.0000404E-1,1.1666707E0,4.833346E-1,8.833377E-1,1.1166673E0,1.431692E0,3.5000917E-1,6.50717E-1,8.502893E-1,9.6667176E-1,1E1,8E0,1.2333534E0,4E0,-1.1977743E-2,-8.178436E-3,-5.5404566E-3,-3.6917403E-3,-2.6403144E-3,-1.1213243E-3,-5.6784565E-4,6.1422755E-4,1.077941E-3,4.08859E-3,2.8070854E-3,5.247021E-3,4.1521094E-3,5.90173E-3,7.029503E-3,9.596754E-3],"split_indices":[348,348,344,344,340,340,348,348,328,308,344,351,335,348,339,0,0,0,0,0,0,0,0,0,0,0,0,0,0,0,0],"split_type":[0,0,0,0,0,0,0,0,0,0,0,0,0,0,0,0,0,0,0,0,0,0,0,0,0,0,0,0,0,0,0],"sum_hessian":[2.3281E4,1.3572E4,9.709E3,3.703E3,9.869E3,5.305E3,4.404E3,8.05E2,2.898E3,5.668E3,4.201E3,3.95E3,1.355E3,3.614E3,7.9E2,3.58E2,4.47E2,1.613E3,1.285E3,4.061E3,1.607E3,2.678E3,1.523E3,3.765E3,1.85E2,1.229E3,1.26E2,1.508E3,2.106E3,2.62E2,5.28E2],"tree_param":{"num_deleted":"0","num_feature":"360","num_nodes":"31","size_leaf_vector":"1"}},{"base_weights":[-1.4675051E-3,-1.100358E-1,8.9424275E-2,-2.3691857E-1,-7.663246E-2,3.3261996E-2,1.8108208E-1,-3.6060223E-1,-1.9591059E-1,-1.1483757E-1,-4.6124015E-2,9.368164E-3,6.535737E-2,1.4241895E-1,2.4031912E-1,-1.0989859E-2,-2.1103118E-4,-6.4032297E-3,-4.461094E-3,-3.8749878E-3,-2.2729E-3,-2.0849437E-3,-7.0957455E-4,1.6884199E-4,3.643828E-3,1.5379019E-3,2.7237446E-3,3.916413E-3,6.134561E-3,6.2684366E-3,8.851619E-3],"categories":[],"categories_nodes":[],"categories_segments":[],"categories_sizes":[],"default_left":[0,0,0,0,0,0,0,0,0,0,0,0,0,0,0,0,0,0,0,0,0,0,0,0,0,0,0,0,0,0,0],"id":19,"left_children":[1,3,5,7,9,11,13,15,17,19,21,23,25,27,29,-1,-1,-1,-1,-1,-1,-1,-1,-1,-1,-1,-1,-1,-1,-1,-1],"loss_changes":[2.2871187E2,4.4715492E1,6.491091E1,1.103215E1,9.726341E0,5.991995E0,1.0902573E1,1.0655518E0,1.3016701E0,2.0474434E0,2.4330387E0,1.8681477E0,1.1773481E0,2.0788536E0,3.1332703E0,0E0,0E0,0E0,0E0,0E0,0E0,0E0,0E0,0E0,0E0,0E0,0E0,0E0,0E0,0E0,0E0],"parents":[2147483647,0,0,1,1,2,2,3,3,4,4,5,5,6,6,7,7,8,8,9,9,10,10,11,11,12,12,13,13,14,14],"right_children":[2,4,6,8,10,12,14,16,18,20,22,24,26,28,30,-1,-1,-1,-1,-1,-1,-1,-1,-1,-1,-1,-1,-1,-1,-1,-1],"split_conditions":[9.1666865E-1,6.1670446E-1,1.1500033E0,4.1342247E-1,7.8333634E-1,1.0231409E0,1.3166804E0,6E0,6.1670446E-1,7.6667464E-1,8.5023147E-1,1.2E1,1.1166681E0,8E0,1.4333352E0,-1.0989859E-2,-2.1103118E-4,-6.4032297E-3,-4.461094E-3,-3.8749878E-3,-2.2729E-3,-2.0849437E-3,-7.0957455E-4,1.6884199E-4,3.643828E-3,1.5379019E-3,2.7237446E-3,3.916413E-3,6.134561E-3,6.2684366E-3,8.851619E-3],"split_indices":[356,356,356,340,340,352,356,283,352,356,328,359,352,319,352,0,0,0,0,0,0,0,0,0,0,0,0,0,0,0,0],"split_type":[0,0,0,0,0,0,0,0,0,0,0,0,0,0,0,0,0,0,0,0,0,0,0,0,0,0,0,0,0,0,0],"sum_hessian":[2.3175E4,1.0561E4,1.2614E4,2.199E3,8.362E3,7.823E3,4.791E3,5.45E2,1.654E3,3.71E3,4.652E3,4.487E3,3.336E3,2.902E3,1.889E3,5.36E2,9E0,1.202E3,4.52E2,2.711E3,9.99E2,2.277E3,2.375E3,4.344E3,1.43E2,2.151E3,1.185E3,2.44E3,4.62E2,1.205E3,6.84E2],"tree_param":{"num_deleted":"0","num_feature":"360","num_nodes":"31","size_leaf_vector":"1"}},{"base_weights":[-6.082353E-4,-8.3062E-2,1.0950906E-1,-1.8967892E-1,-4.2839266E-2,6.7650095E-2,2.101839E-1,-3.1665877E-1,-1.5200877E-1,-8.043586E-2,-1.5519172E-2,3.7691113E-2,1.06411785E-1,1.8839014E-1,2.9029778E-1,-1.1399251E-2,-7.9941405E-3,-4.8624137E-3,-2.2505515E-3,-2.6717812E-3,-9.283447E-4,-1.0899653E-3,8.5780615E-5,6.980438E-4,1.7530809E-3,2.508147E-3,3.8055964E-3,5.1942044E-3,7.440199E-3,7.492551E-3,9.49048E-3],"categories":[],"categories_nodes":[],"categories_segments":[],"categories_sizes":[],"default_left":[0,0,0,0,0,0,0,0,0,0,0,0,0,0,0,0,0,0,0,0,0,0,0,0,0,0,0,0,0,0,0],"id":20,"left_children":[1,3,5,7,9,11,13,15,17,19,21,23,25,27,29,-1,-1,-1,-1,-1,-1,-1,-1,-1,-1,-1,-1,-1,-1,-1,-1],"loss_changes":[2.0970856E2,5.6610123E1,4.1631668E1,1.720639E1,9.841507E0,8.095306E0,4.966034E0,2.4588623E0,2.1291122E0,1.7073288E0,2.129455E0,1.1705294E0,1.3874779E0,1.9932632E0,5.1716995E-1,0E0,0E0,0E0,0E0,0E0,0E0,0E0,0E0,0E0,0E0,0E0,0E0,0E0,0E0,0E0,0E0],"parents":[2147483647,0,0,1,1,2,2,3,3,4,4,5,5,6,6,7,7,8,8,9,9,10,10,11,11,12,12,13,13,14,14],"right_children":[2,4,6,8,10,12,14,16,18,20,22,24,26,28,30,-1,-1,-1,-1,-1,-1,-1,-1,-1,-1,-1,-1,-1,-1,-1,-1],"split_conditions":[9.8333937E-1,7.0000154E-1,1.2500006E0,4.8333466E-1,8.3333516E-1,1.100001E0,1.4500295E0,3.5001045E-1,7.5001645E-1,8.8333535E-1,9.0038687E-1,1.0493605E0,1.1500033E0,9E0,6E0,-1.1399251E-2,-7.9941405E-3,-4.8624137E-3,-2.2505515E-3,-2.6717812E-3,-9.283447E-4,-1.0899653E-3,8.5780615E-5,6.980438E-4,1.7530809E-3,2.508147E-3,3.8055964E-3,5.1942044E-3,7.440199E-3,7.492551E-3,9.49048E-3],"split_indices":[356,352,356,356,356,356,356,340,356,336,352,352,352,359,359,0,0,0,0,0,0,0,0,0,0,0,0,0,0,0,0],"split_type":[0,0,0,0,0,0,0,0,0,0,0,0,0,0,0,0,0,0,0,0,0,0,0,0,0,0,0,0,0,0,0],"sum_hessian":[2.3095E4,1.3207E4,9.888E3,3.616E3,9.591E3,6.986E3,2.902E3,8.25E2,2.791E3,4.034E3,5.557E3,3.943E3,3.043E3,2.285E3,6.17E2,3.61E2,4.64E2,2.466E3,3.25E2,3.433E3,6.01E2,2.608E3,2.949E3,2.33E3,1.613E3,1.443E3,1.6E3,1.824E3,4.61E2,2.47E2,3.7E2],"tree_param":{"num_deleted":"0","num_feature":"360","num_nodes":"31","size_leaf_vector":"1"}},{"base_weights":[-4.8545486E-4,-1.0160178E-1,8.469235E-2,-2.2565746E-1,-7.127086E-2,3.493257E-2,1.7617089E-1,-3.4330216E-1,-1.8755612E-1,-1.04790986E-1,-3.817211E-2,1.9703545E-2,8.438827E-2,1.4821675E-1,2.5187504E-1,-1.3240399E-2,-9.625299E-3,-7.25752E-3,-5.131122E-3,-4.062666E-3,-2.6140888E-3,-1.5451683E-3,-3.0553807E-4,-5.9757946E-5,1.1704921E-3,2.3773157E-3,5.309878E-3,3.700049E-3,5.3623356E-3,6.698968E-3,9.248546E-3],"categories":[],"categories_nodes":[],"categories_segments":[],"categories_sizes":[],"default_left":[0,0,0,0,0,0,0,0,0,0,0,0,0,0,0,0,0,0,0,0,0,0,0,0,0,0,0,0,0,0,0],"id":21,"left_children":[1,3,5,7,9,11,13,15,17,19,21,23,25,27,29,-1,-1,-1,-1,-1,-1,-1,-1,-1,-1,-1,-1,-1,-1,-1,-1],"loss_changes":[1.9953595E2,3.981275E1,5.7208977E1,9.205971E0,9.427769E0,6.123186E0,9.295517E0,8.985748E-1,1.3307419E0,2.2523804E0,1.5930924E0,2.6145804E0,8.7315655E-1,2.4072876E0,1.7994766E0,0E0,0E0,0E0,0E0,0E0,0E0,0E0,0E0,0E0,0E0,0E0,0E0,0E0,0E0,0E0,0E0],"parents":[2147483647,0,0,1,1,2,2,3,3,4,4,5,5,6,6,7,7,8,8,9,9,10,10,11,11,12,12,13,13,14,14],"right_children":[2,4,6,8,10,12,14,16,18,20,22,24,26,28,30,-1,-1,-1,-1,-1,-1,-1,-1,-1,-1,-1,-1,-1,-1,-1,-1],"split_conditions":[9.1667014E-1,6.166713E-1,1.1666707E0,4.041023E-1,8.000062E-1,1.0849588E0,1.3833578E0,2.0005943E-1,5.0000185E-1,7.0000356E-1,9.000596E-1,9.8333937E-1,1.2E1,1.2666874E0,1.4843774E0,-1.3240399E-2,-9.625299E-3,-7.25752E-3,-5.131122E-3,-4.062666E-3,-2.6140888E-3,-1.5451683E-3,-3.0553807E-4,-5.9757946E-5,1.1704921E-3,2.3773157E-3,5.309878E-3,3.700049E-3,5.3623356E-3,6.698968E-3,9.248546E-3],"split_indices":[352,356,356,324,356,352,352,348,352,344,308,356,275,356,356,0,0,0,0,0,0,0,0,0,0,0,0,0,0,0,0],"split_type":[0,0,0,0,0,0,0,0,0,0,0,0,0,0,0,0,0,0,0,0,0,0,0,0,0,0,0,0,0,0,0],"sum_hessian":[2.3165E4,1.0592E4,1.2573E4,2.079E3,8.513E3,8.145E3,4.428E3,5.06E2,1.573E3,4.227E3,4.286E3,6.23E3,1.915E3,3.237E3,1.191E3,9E1,4.16E2,3.62E2,1.211E3,1.541E3,2.686E3,2.9E3,1.386E3,2.932E3,3.298E3,1.817E3,9.8E1,1.788E3,1.449E3,7.95E2,3.96E2],"tree_param":{"num_deleted":"0","num_feature":"360","num_nodes":"31","size_leaf_vector":"1"}},{"base_weights":[2.5715595E-4,-9.2342645E-2,8.816689E-2,-2.0615281E-1,-6.0686223E-2,4.215753E-2,1.7873853E-1,-3.3252585E-1,-1.7034781E-1,-8.388155E-2,-2.0084113E-2,2.3975572E-2,8.867596E-2,1.5816149E-1,2.6722676E-1,-1.2937497E-2,-9.292837E-3,-5.6742225E-3,-3.755173E-3,-3.2681392E-3,-1.8406732E-3,-9.445556E-4,1.496718E-4,6.070909E-4,3.8068588E-3,2.5553908E-3,6.15827E-3,4.3345075E-3,6.571416E-3,7.2259367E-3,9.260961E-3],"categories":[],"categories_nodes":[],"categories_segments":[],"categories_sizes":[],"default_left":[0,0,0,0,0,0,0,0,0,0,0,0,0,0,0,0,0,0,0,0,0,0,0,0,0,0,0,0,0,0,0],"id":22,"left_children":[1,3,5,7,9,11,13,15,17,19,21,23,25,27,29,-1,-1,-1,-1,-1,-1,-1,-1,-1,-1,-1,-1,-1,-1,-1,-1],"loss_changes":[1.8888997E2,4.06727E1,4.957605E1,1.1014999E1,8.316071E0,6.665015E0,7.2148895E0,1.0081673E0,1.5732269E0,3.1516914E0,9.227078E-1,2.168601E0,8.5725975E-1,2.6435623E0,6.950302E-1,0E0,0E0,0E0,0E0,0E0,0E0,0E0,0E0,0E0,0E0,0E0,0E0,0E0,0E0,0E0,0E0],"parents":[2147483647,0,0,1,1,2,2,3,3,4,4,5,5,6,6,7,7,8,8,9,9,10,10,11,11,12,12,13,13,14,14],"right_children":[2,4,6,8,10,12,14,16,18,20,22,24,26,28,30,-1,-1,-1,-1,-1,-1,-1,-1,-1,-1,-1,-1,-1,-1,-1,-1],"split_conditions":[9.333397E-1,6.333743E-1,1.183355E0,4.1526014E-1,8.5202044E-1,1.0844367E0,1.4333656E0,2.0005924E-1,6.3334054E-1,7.666693E-1,9.666833E-1,1.2E1,1.8E1,9E0,1.5500054E0,-1.2937497E-2,-9.292837E-3,-5.6742225E-3,-3.755173E-3,-3.2681392E-3,-1.8406732E-3,-9.445556E-4,1.496718E-4,6.070909E-4,3.8068588E-3,2.5553908E-3,6.15827E-3,4.3345075E-3,6.571416E-3,7.2259367E-3,9.260961E-3],"split_indices":[356,356,356,344,332,344,356,356,344,356,196,351,347,359,356,0,0,0,0,0,0,0,0,0,0,0,0,0,0,0,0],"split_type":[0,0,0,0,0,0,0,0,0,0,0,0,0,0,0,0,0,0,0,0,0,0,0,0,0,0,0,0,0,0,0],"sum_hessian":[2.3202E4,1.1299E4,1.1903E4,2.457E3,8.842E3,7.895E3,4.008E3,5.4E2,1.917E3,5.625E3,3.217E3,5.679E3,2.216E3,3.255E3,7.53E2,9.7E1,4.43E2,1.35E3,5.67E2,2.659E3,2.966E3,2.214E3,1.003E3,5.482E3,1.97E2,2.154E3,6.2E1,2.662E3,5.93E2,4.66E2,2.87E2],"tree_param":{"num_deleted":"0","num_feature":"360","num_nodes":"31","size_leaf_vector":"1"}},{"base_weights":[-1.6019445E-4,-8.89764E-2,8.5316405E-2,-1.8813987E-1,-5.4835234E-2,3.7036665E-2,1.6645876E-1,-3.1907535E-1,-1.5936027E-1,-8.4126785E-2,-2.6007531E-2,2.2574311E-2,8.34749E-2,1.3036014E-1,2.1596803E-1,-1.2415198E-2,-9.032917E-3,-5.5541755E-3,-3.8011174E-3,-2.7771648E-3,-1.3702605E-3,-9.4578165E-4,1.0767453E-3,1.0579522E-4,1.1508815E-3,2.2779366E-3,4.7987965E-3,3.601451E-3,5.8048614E-3,5.5530057E-3,7.7351015E-3],"categories":[],"categories_nodes":[],"categories_segments":[],"categories_sizes":[],"default_left":[0,0,0,0,0,0,0,0,0,0,0,0,0,0,0,0,0,0,0,0,0,0,0,0,0,0,0,0,0,0,0],"id":23,"left_children":[1,3,5,7,9,11,13,15,17,19,21,23,25,27,29,-1,-1,-1,-1,-1,-1,-1,-1,-1,-1,-1,-1,-1,-1,-1,-1],"loss_changes":[1.763709E2,3.854042E1,4.6349236E1,1.0893349E1,7.145689E0,4.9735146E0,7.827774E0,6.966362E-1,1.9607353E0,1.3468151E0,1.461339E0,1.6990359E0,9.803219E-1,1.610115E0,2.3105469E0,0E0,0E0,0E0,0E0,0E0,0E0,0E0,0E0,0E0,0E0,0E0,0E0,0E0,0E0,0E0,0E0],"parents":[2147483647,0,0,1,1,2,2,3,3,4,4,5,5,6,6,7,7,8,8,9,9,10,10,11,11,12,12,13,13,14,14],"right_children":[2,4,6,8,10,12,14,16,18,20,22,24,26,28,30,-1,-1,-1,-1,-1,-1,-1,-1,-1,-1,-1,-1,-1,-1,-1,-1],"split_conditions":[9.3333876E-1,6.66669E-1,1.1666707E0,4.0038574E-1,8.1796813E-1,1.100001E0,1.3166804E0,2.0005924E-1,6.166713E-1,8.500018E-1,6E0,9.833607E-1,9E0,1E1,6E0,-1.2415198E-2,-9.032917E-3,-5.5541755E-3,-3.8011174E-3,-2.7771648E-3,-1.3702605E-3,-9.4578165E-4,1.0767453E-3,1.0579522E-4,1.1508815E-3,2.2779366E-3,4.7987965E-3,3.601451E-3,5.8048614E-3,5.5530057E-3,7.7351015E-3],"split_indices":[352,356,352,320,356,356,356,356,352,304,355,340,335,39,351,0,0,0,0,0,0,0,0,0,0,0,0,0,0,0,0],"split_type":[0,0,0,0,0,0,0,0,0,0,0,0,0,0,0,0,0,0,0,0,0,0,0,0,0,0,0,0,0,0,0],"sum_hessian":[2.323E4,1.1393E4,1.1837E4,2.916E3,8.477E3,7.423E3,4.414E3,5.23E2,2.393E3,4.202E3,4.275E3,5.663E3,1.76E3,2.556E3,1.858E3,7.9E1,4.44E2,1.333E3,1.06E3,3.442E3,7.6E2,3.927E3,3.48E2,2.57E3,3.093E3,1.605E3,1.55E2,2.201E3,3.55E2,1.074E3,7.84E2],"tree_param":{"num_deleted":"0","num_feature":"360","num_nodes":"31","size_leaf_vector":"1"}},{"base_weights":[-8.016138E-4,-9.502783E-2,7.562046E-2,-1.9521739E-1,-6.410502E-2,3.0472392E-2,1.6095325E-1,-3.107072E-1,-1.617013E-1,-1.0033506E-1,-4.194792E-2,1.0919151E-2,6.424594E-2,1.3437523E-1,2.2157443E-1,-1.2300704E-2,-8.705011E-3,-5.7835435E-3,-4.18902E-3,-3.2886916E-3,-1.8162275E-3,-1.7123896E-3,-5.2550016E-4,2.2617656E-4,2.4878145E-3,2.0351994E-3,-9.976962E-4,3.6393658E-3,5.574916E-3,5.565107E-3,7.911317E-3],"categories":[],"categories_nodes":[],"categories_segments":[],"categories_sizes":[],"default_left":[0,0,0,0,0,0,0,0,0,0,0,0,0,0,0,0,0,0,0,0,0,0,0,0,0,0,0,0,0,0,0],"id":24,"left_children":[1,3,5,7,9,11,13,15,17,19,21,23,25,27,29,-1,-1,-1,-1,-1,-1,-1,-1,-1,-1,-1,-1,-1,-1,-1,-1],"loss_changes":[1.673163E2,3.220082E1,4.94011E1,9.397514E0,6.3666573E0,5.533712E0,7.0850983E0,9.32991E-1,1.2458458E0,1.0910835E0,1.8174257E0,1.2846344E0,1.0832796E0,2.023056E0,1.9580002E0,0E0,0E0,0E0,0E0,0E0,0E0,0E0,0E0,0E0,0E0,0E0,0E0,0E0,0E0,0E0,0E0],"parents":[2147483647,0,0,1,1,2,2,3,3,4,4,5,5,6,6,7,7,8,8,9,9,10,10,11,11,12,12,13,13,14,14],"right_children":[2,4,6,8,10,12,14,16,18,20,22,24,26,28,30,-1,-1,-1,-1,-1,-1,-1,-1,-1,-1,-1,-1,-1,-1,-1,-1],"split_conditions":[9.0103954E-1,6.3336587E-1,1.1666707E0,4.166674E-1,7.6667094E-1,1.0500023E0,1.3666883E0,2.0005924E-1,5.6667346E-1,7.833466E-1,8.667244E-1,1E1,1.3411559E0,7E0,6E0,-1.2300704E-2,-8.705011E-3,-5.7835435E-3,-4.18902E-3,-3.2886916E-3,-1.8162275E-3,-1.7123896E-3,-5.2550016E-4,2.2617656E-4,2.4878145E-3,2.0351994E-3,-9.976962E-4,3.6393658E-3,5.574916E-3,5.565107E-3,7.911317E-3],"split_indices":[356,344,356,356,348,344,356,356,356,324,324,359,156,319,359,0,0,0,0,0,0,0,0,0,0,0,0,0,0,0,0],"split_type":[0,0,0,0,0,0,0,0,0,0,0,0,0,0,0,0,0,0,0,0,0,0,0,0,0,0,0,0,0,0,0],"sum_hessian":[2.3233E4,1.0405E4,1.2828E4,2.452E3,7.953E3,8.391E3,4.437E3,5.49E2,1.903E3,3.015E3,4.938E3,5.317E3,3.074E3,3.088E3,1.349E3,9E1,4.59E2,7.85E2,1.118E3,2.441E3,5.74E2,3.046E3,1.892E3,5.081E3,2.36E2,2.966E3,1.08E2,2.467E3,6.21E2,7.31E2,6.18E2],"tree_param":{"num_deleted":"0","num_feature":"360","num_nodes":"31","size_leaf_vector":"1"}},{"base_weights":[8.166726E-4,-7.265686E-2,9.2943795E-2,-1.6203107E-1,-3.7843537E-2,4.8783693E-2,1.689637E-1,-2.7070707E-1,-1.304264E-1,-6.767607E-2,-1.3319525E-2,3.107903E-2,8.66564E-2,1.4761756E-1,2.4453624E-1,-9.9327E-3,-6.765928E-3,-4.7330693E-3,-3.3259494E-3,-2.3195513E-3,-9.632538E-4,-6.5217103E-4,6.488493E-4,7.8953116E-4,3.060254E-3,3.4248775E-3,2.1404938E-3,4.0408457E-3,6.1491947E-3,6.120704E-3,7.885688E-3],"categories":[],"categories_nodes":[],"categories_segments":[],"categories_sizes":[],"default_left":[0,0,0,0,0,0,0,0,0,0,0,0,0,0,0,0,0,0,0,0,0,0,0,0,0,0,0,0,0,0,0],"id":25,"left_children":[1,3,5,7,9,11,13,15,17,19,21,23,25,27,29,-1,-1,-1,-1,-1,-1,-1,-1,-1,-1,-1,-1,-1,-1,-1,-1],"loss_changes":[1.5661418E2,4.002088E1,3.443342E1,1.2313431E1,6.769395E0,4.3412533E0,6.0079956E0,2.0819626E0,1.4516525E0,1.4194355E0,1.4975927E0,1.4805732E0,8.43565E-1,2.1204834E0,5.142212E-1,0E0,0E0,0E0,0E0,0E0,0E0,0E0,0E0,0E0,0E0,0E0,0E0,0E0,0E0,0E0,0E0],"parents":[2147483647,0,0,1,1,2,2,3,3,4,4,5,5,6,6,7,7,8,8,9,9,10,10,11,11,12,12,13,13,14,14],"right_children":[2,4,6,8,10,12,14,16,18,20,22,24,26,28,30,-1,-1,-1,-1,-1,-1,-1,-1,-1,-1,-1,-1,-1,-1,-1,-1],"split_conditions":[9.6672904E-1,7.0000154E-1,1.2000029E0,4.8333466E-1,8.34061E-1,1.1000042E0,1.4333352E0,3.5000837E-1,6.1670446E-1,8.522338E-1,9.837449E-1,8E0,3.1057333E2,9E0,4E0,-9.9327E-3,-6.765928E-3,-4.7330693E-3,-3.3259494E-3,-2.3195513E-3,-9.632538E-4,-6.5217103E-4,6.488493E-4,7.8953116E-4,3.060254E-3,3.4248775E-3,2.1404938E-3,4.0408457E-3,6.1491947E-3,6.120704E-3,7.885688E-3],"split_indices":[352,352,356,356,356,348,352,336,356,312,332,343,273,351,339,0,0,0,0,0,0,0,0,0,0,0,0,0,0,0,0],"split_type":[0,0,0,0,0,0,0,0,0,0,0,0,0,0,0,0,0,0,0,0,0,0,0,0,0,0,0,0,0,0,0],"sum_hessian":[2.3135E4,1.287E4,1.0265E4,3.606E3,9.264E3,6.495E3,3.77E3,8.1E2,2.796E3,4.177E3,5.087E3,4.429E3,2.066E3,2.943E3,8.27E2,3.43E2,4.67E2,1.161E3,1.635E3,3.283E3,8.94E2,4.102E3,9.85E2,4.153E3,2.76E2,7.34E2,1.332E3,2.406E3,5.37E2,2.63E2,5.64E2],"tree_param":{"num_deleted":"0","num_feature":"360","num_nodes":"31","size_leaf_vector":"1"}},{"base_weights":[-9.1331276E-5,-6.011837E-2,1.0632854E-1,-1.5491655E-1,-2.82735E-2,6.5588444E-2,1.7028692E-1,-2.6384005E-1,-1.24997444E-1,-5.715765E-2,2.0731275E-3,5.0082285E-2,1.0036688E-1,1.498472E-1,2.3330364E-1,-9.501796E-3,-6.6597164E-3,-4.011782E-3,-1.2351599E-3,-2.1004875E-3,-7.8349037E-4,-1.4584264E-4,1.3350494E-3,1.3275137E-3,3.8631042E-3,2.6019788E-3,4.0687337E-3,4.0838066E-3,6.200718E-3,5.7069E-3,7.673417E-3],"categories":[],"categories_nodes":[],"categories_segments":[],"categories_sizes":[],"default_left":[0,0,0,0,0,0,0,0,0,0,0,0,0,0,0,0,0,0,0,0,0,0,0,0,0,0,0,0,0,0,0],"id":26,"left_children":[1,3,5,7,9,11,13,15,17,19,21,23,25,27,29,-1,-1,-1,-1,-1,-1,-1,-1,-1,-1,-1,-1,-1,-1,-1,-1],"loss_changes":[1.4784087E2,4.4650032E1,2.1712166E1,1.2051231E1,9.716774E0,2.730795E0,4.1077194E0,1.646431E0,2.1142426E0,2.254919E0,1.5935711E0,1.5978136E0,7.207165E-1,1.8522606E0,6.735306E-1,0E0,0E0,0E0,0E0,0E0,0E0,0E0,0E0,0E0,0E0,0E0,0E0,0E0,0E0,0E0,0E0],"parents":[2147483647,0,0,1,1,2,2,3,3,4,4,5,5,6,6,7,7,8,8,9,9,10,10,11,11,12,12,13,13,14,14],"right_children":[2,4,6,8,10,12,14,16,18,20,22,24,26,28,30,-1,-1,-1,-1,-1,-1,-1,-1,-1,-1,-1,-1,-1,-1,-1,-1],"split_conditions":[1.0167341E0,7.000048E-1,1.2167177E0,4.8333442E-1,8.833382E-1,1.1500033E0,1.4244775E0,3.5000578E-1,7.418365E-1,8.522338E-1,1.0500051E0,8E0,5E0,9E0,4E0,-9.501796E-3,-6.6597164E-3,-4.011782E-3,-1.2351599E-3,-2.1004875E-3,-7.8349037E-4,-1.4584264E-4,1.3350494E-3,1.3275137E-3,3.8631042E-3,2.6019788E-3,4.0687337E-3,4.0838066E-3,6.200718E-3,5.7069E-3,7.673417E-3],"split_indices":[352,352,352,352,344,344,340,320,344,312,340,335,271,351,335,0,0,0,0,0,0,0,0,0,0,0,0,0,0,0,0],"split_type":[0,0,0,0,0,0,0,0,0,0,0,0,0,0,0,0,0,0,0,0,0,0,0,0,0,0,0,0,0,0,0],"sum_hessian":[2.3142E4,1.4797E4,8.345E3,3.719E3,1.1078E4,5.1E3,3.245E3,7.99E2,2.92E3,5.677E3,5.401E3,3.531E3,1.569E3,2.454E3,7.91E2,3.49E2,4.5E2,2.643E3,2.77E2,4.011E3,1.666E3,4.641E3,7.6E2,3.29E3,2.41E2,1.136E3,4.33E2,1.981E3,4.73E2,2.76E2,5.15E2],"tree_param":{"num_deleted":"0","num_feature":"360","num_nodes":"31","size_leaf_vector":"1"}},{"base_weights":[-2.8973192E-5,-7.8830965E-2,7.684578E-2,-1.5286545E-1,-4.3286618E-2,3.300939E-2,1.4827344E-1,-2.6357067E-1,-1.2613939E-1,-6.386202E-2,-1.4275339E-2,1.4560328E-2,5.9090212E-2,1.2468016E-1,2.1318428E-1,-9.28911E-3,-6.517945E-3,-4.4129076E-3,-3.129952E-3,-2.229981E-3,-1.0567012E-3,-4.963965E-4,3.7524465E-3,3.489295E-4,4.029369E-3,1.5088083E-3,2.881863E-3,3.4231E-3,5.4706624E-3,5.0833183E-3,7.2372383E-3],"categories":[],"categories_nodes":[],"categories_segments":[],"categories_sizes":[],"default_left":[0,0,0,0,0,0,0,0,0,0,0,0,0,0,0,0,0,0,0,0,0,0,0,0,0,0,0,0,0,0,0],"id":27,"left_children":[1,3,5,7,9,11,13,15,17,19,21,23,25,27,29,-1,-1,-1,-1,-1,-1,-1,-1,-1,-1,-1,-1,-1,-1,-1,-1],"loss_changes":[1.4057945E2,3.0130852E1,3.675525E1,1.0922371E1,4.6144114E0,3.4951506E0,6.779129E0,1.4180336E0,1.328785E0,1.3445187E0,1.0094255E0,1.4810357E0,9.607668E-1,1.9498062E0,1.3759918E0,0E0,0E0,0E0,0E0,0E0,0E0,0E0,0E0,0E0,0E0,0E0,0E0,0E0,0E0,0E0,0E0],"parents":[2147483647,0,0,1,1,2,2,3,3,4,4,5,5,6,6,7,7,8,8,9,9,10,10,11,11,12,12,13,13,14,14],"right_children":[2,4,6,8,10,12,14,16,18,20,22,24,26,28,30,-1,-1,-1,-1,-1,-1,-1,-1,-1,-1,-1,-1,-1,-1,-1,-1],"split_conditions":[9.3334854E-1,7.0000356E-1,1.1666707E0,4.6494192E-1,8.570892E-1,1.0500027E0,1.3833578E0,3.666677E-1,6.3334364E-1,8.3335716E-1,1.4E1,1.6E1,5E0,9E0,4E0,-9.28911E-3,-6.517945E-3,-4.4129076E-3,-3.129952E-3,-2.229981E-3,-1.0567012E-3,-4.963965E-4,3.7524465E-3,3.489295E-4,4.029369E-3,1.5088083E-3,2.881863E-3,3.4231E-3,5.4706624E-3,5.0833183E-3,7.2372383E-3],"split_indices":[352,344,352,352,320,348,352,260,352,352,359,359,307,359,351,0,0,0,0,0,0,0,0,0,0,0,0,0,0,0,0],"split_type":[0,0,0,0,0,0,0,0,0,0,0,0,0,0,0,0,0,0,0,0,0,0,0,0,0,0,0,0,0,0,0],"sum_hessian":[2.3204E4,1.1459E4,1.1745E4,3.715E3,7.744E3,7.28E3,4.465E3,7.2E2,2.995E3,4.528E3,3.216E3,4.267E3,3.013E3,3.278E3,1.187E3,3.57E2,3.63E2,1.522E3,1.473E3,3.312E3,1.216E3,3.166E3,5E1,4.167E3,1E2,2.438E3,5.75E2,2.774E3,5.04E2,4.68E2,7.19E2],"tree_param":{"num_deleted":"0","num_feature":"360","num_nodes":"31","size_leaf_vector":"1"}},{"base_weights":[4.2996084E-4,-6.50281E-2,8.727941E-2,-1.5574951E-1,-3.5295997E-2,5.3773265E-2,1.6896848E-1,-2.4820732E-1,-1.24341846E-1,-6.1690968E-2,-7.540163E-3,3.0653091E-2,8.388062E-2,1.497399E-1,2.2765945E-1,-9.005174E-3,-6.256435E-3,-3.965605E-3,-1.5073546E-3,-2.5625948E-3,-1.3985571E-3,-4.5555728E-4,6.974003E-4,7.681485E-4,2.5512776E-3,2.2909879E-3,4.391674E-3,6.322125E-3,4.0200967E-3,5.245203E-3,7.2811036E-3],"categories":[],"categories_nodes":[],"categories_segments":[],"categories_sizes":[],"default_left":[0,0,0,0,0,0,0,0,0,0,0,0,0,0,0,0,0,0,0,0,0,0,0,0,0,0,0,0,0,0,0],"id":28,"left_children":[1,3,5,7,9,11,13,15,17,19,21,23,25,27,29,-1,-1,-1,-1,-1,-1,-1,-1,-1,-1,-1,-1,-1,-1,-1,-1],"loss_changes":[1.3112099E2,3.5448112E1,2.7101364E1,9.354988E0,7.2506237E0,4.8808613E0,3.180626E0,1.578537E0,1.3847389E0,1.7982483E0,1.1368444E0,1.0798047E0,1.4001045E0,2.025074E0,4.7839737E-1,0E0,0E0,0E0,0E0,0E0,0E0,0E0,0E0,0E0,0E0,0E0,0E0,0E0,0E0,0E0,0E0],"parents":[2147483647,0,0,1,1,2,2,3,3,4,4,5,5,6,6,7,7,8,8,9,9,10,10,11,11,12,12,13,13,14,14],"right_children":[2,4,6,8,10,12,14,16,18,20,22,24,26,28,30,-1,-1,-1,-1,-1,-1,-1,-1,-1,-1,-1,-1,-1,-1,-1,-1],"split_conditions":[9.8333937E-1,6.8333584E-1,1.2500006E0,4.8333466E-1,8.5202044E-1,1.100001E0,1.4333656E0,3.583532E-1,7.8333586E-1,7.6667464E-1,1.0000173E0,7E0,9E0,9.8334974E-1,3E0,-9.005174E-3,-6.256435E-3,-3.965605E-3,-1.5073546E-3,-2.5625948E-3,-1.3985571E-3,-4.5555728E-4,6.974003E-4,7.681485E-4,2.5512776E-3,2.2909879E-3,4.391674E-3,6.322125E-3,4.0200967E-3,5.245203E-3,7.2811036E-3],"split_indices":[356,356,356,356,332,356,356,252,320,356,332,343,351,96,343,0,0,0,0,0,0,0,0,0,0,0,0,0,0,0,0],"split_type":[0,0,0,0,0,0,0,0,0,0,0,0,0,0,0,0,0,0,0,0,0,0,0,0,0,0,0,0,0,0,0],"sum_hessian":[2.3062E4,1.315E4,9.912E3,3.244E3,9.906E3,7.031E3,2.881E3,8.2E2,2.424E3,5.075E3,4.831E3,3.98E3,3.051E3,2.174E3,7.07E2,3.51E2,4.69E2,2.19E3,2.34E2,1.967E3,3.108E3,3.873E3,9.58E2,3.645E3,3.35E2,2.727E3,3.24E2,4.42E2,1.732E3,1.61E2,5.46E2],"tree_param":{"num_deleted":"0","num_feature":"360","num_nodes":"31","size_leaf_vector":"1"}},{"base_weights":[4.382572E-4,-8.175121E-2,6.63391E-2,-1.7460482E-1,-5.7040017E-2,2.5812104E-2,1.3801569E-1,-2.722583E-1,-1.4377798E-1,-8.7773085E-2,-3.7010342E-2,6.7907455E-3,5.0138514E-2,1.0766384E-1,1.828665E-1,-1.0681943E-2,-7.601222E-3,-5.7845176E-3,-3.8998518E-3,-2.938188E-3,-1.6194717E-3,-1.4842274E-3,-3.7654987E-4,9.8032426E-5,3.3806243E-3,1.3622079E-3,3.3875154E-3,2.9631476E-3,5.041257E-3,4.6486175E-3,6.67096E-3],"categories":[],"categories_nodes":[],"categories_segments":[],"categories_sizes":[],"default_left":[0,0,0,0,0,0,0,0,0,0,0,0,0,0,0,0,0,0,0,0,0,0,0,0,0,0,0,0,0,0,0],"id":29,"left_children":[1,3,5,7,9,11,13,15,17,19,21,23,25,27,29,-1,-1,-1,-1,-1,-1,-1,-1,-1,-1,-1,-1,-1,-1,-1,-1],"loss_changes":[1.2579873E2,2.3680779E1,3.7426304E1,6.454727E0,5.0104294E0,3.8054028E0,6.2881317E0,6.702194E-1,1.0599213E0,1.0853539E0,1.5012727E0,1.7138764E0,1.0519581E0,1.449295E0,1.9961281E0,0E0,0E0,0E0,0E0,0E0,0E0,0E0,0E0,0E0,0E0,0E0,0E0,0E0,0E0,0E0,0E0],"parents":[2147483647,0,0,1,1,2,2,3,3,4,4,5,5,6,6,7,7,8,8,9,9,10,10,11,11,12,12,13,13,14,14],"right_children":[2,4,6,8,10,12,14,16,18,20,22,24,26,28,30,-1,-1,-1,-1,-1,-1,-1,-1,-1,-1,-1,-1,-1,-1,-1,-1],"split_conditions":[9.0103954E-1,6.1670446E-1,1.1500242E0,4.0038574E-1,7.666701E-1,1.0167341E0,1.3166751E0,2.0005943E-1,5.0000185E-1,7.666693E-1,8.833553E-1,1.2E1,8E0,1E1,6E0,-1.0681943E-2,-7.601222E-3,-5.7845176E-3,-3.8998518E-3,-2.938188E-3,-1.6194717E-3,-1.4842274E-3,-3.7654987E-4,9.8032426E-5,3.3806243E-3,1.3622079E-3,3.3875154E-3,2.9631476E-3,5.041257E-3,4.6486175E-3,6.67096E-3],"split_indices":[356,356,356,320,340,352,352,352,352,356,320,359,343,343,355,0,0,0,0,0,0,0,0,0,0,0,0,0,0,0,0],"split_type":[0,0,0,0,0,0,0,0,0,0,0,0,0,0,0,0,0,0,0,0,0,0,0,0,0,0,0,0,0,0,0],"sum_hessian":[2.3224E4,1.0334E4,1.289E4,2.17E3,8.164E3,8.236E3,4.654E3,5.18E2,1.652E3,3.218E3,4.946E3,4.625E3,3.611E3,2.779E3,1.875E3,9.1E1,4.27E2,3.58E2,1.294E3,2.47E3,7.48E2,3.273E3,1.673E3,4.478E3,1.47E2,3.361E3,2.5E2,2.426E3,3.53E2,1.103E3,7.72E2],"tree_param":{"num_deleted":"0","num_feature":"360","num_nodes":"31","size_leaf_vector":"1"}},{"base_weights":[3.0288595E-4,-7.271039E-2,7.106306E-2,-1.6109487E-1,-4.7086775E-2,3.592873E-2,1.4636695E-1,-2.6122618E-1,-1.355278E-1,-7.333984E-2,-1.959818E-2,1.9987734E-2,7.226551E-2,1.2835924E-1,2.111394E-1,-7.962469E-3,7.801266E-4,-4.360492E-3,-2.1612572E-3,-3.006125E-3,-1.8916505E-3,-6.8948325E-4,4.0886486E-3,5.1309064E-4,4.4599515E-3,2.069732E-3,5.276979E-3,3.4864477E-3,5.4814597E-3,4.96551E-3,6.9726785E-3],"categories":[],"categories_nodes":[],"categories_segments":[],"categories_sizes":[],"default_left":[0,0,0,0,0,0,0,0,0,0,0,0,0,0,0,0,0,0,0,0,0,0,0,0,0,0,0,0,0,0,0],"id":30,"left_children":[1,3,5,7,9,11,13,15,17,19,21,23,25,27,29,-1,-1,-1,-1,-1,-1,-1,-1,-1,-1,-1,-1,-1,-1,-1,-1],"loss_changes":[1.19215256E2,2.5689869E1,3.0982075E1,6.4556503E0,6.344206E0,4.619232E0,4.286133E0,6.5296555E-1,1.2367172E0,1.2212353E0,2.2631743E0,2.044364E0,7.896786E-1,1.8764191E0,7.062988E-1,0E0,0E0,0E0,0E0,0E0,0E0,0E0,0E0,0E0,0E0,0E0,0E0,0E0,0E0,0E0,0E0],"parents":[2147483647,0,0,1,1,2,2,3,3,4,4,5,5,6,6,7,7,8,8,9,9,10,10,11,11,12,12,13,13,14,14],"right_children":[2,4,6,8,10,12,14,16,18,20,22,24,26,28,30,-1,-1,-1,-1,-1,-1,-1,-1,-1,-1,-1,-1,-1,-1,-1,-1],"split_conditions":[9.3334854E-1,6.5000063E-1,1.2000188E0,4.0038574E-1,8.1796813E-1,1.0844367E0,1.4333357E0,7E0,6.833512E-1,7.0000356E-1,1.2E1,1.6E1,1.8E1,9E0,4E0,-7.962469E-3,7.801266E-4,-4.360492E-3,-2.1612572E-3,-3.006125E-3,-1.8916505E-3,-6.8948325E-4,4.0886486E-3,5.1309064E-4,4.4599515E-3,2.069732E-3,5.276979E-3,3.4864477E-3,5.4814597E-3,4.96551E-3,6.9726785E-3],"split_indices":[352,356,356,320,356,344,356,267,332,344,359,359,47,359,339,0,0,0,0,0,0,0,0,0,0,0,0,0,0,0,0],"split_type":[0,0,0,0,0,0,0,0,0,0,0,0,0,0,0,0,0,0,0,0,0,0,0,0,0,0,0,0,0,0,0],"sum_hessian":[2.3073E4,1.1355E4,1.1718E4,2.55E3,8.805E3,7.992E3,3.726E3,5.16E2,2.034E3,4.501E3,4.304E3,5.558E3,2.434E3,2.919E3,8.07E2,5.09E2,7E0,1.759E3,2.75E2,1.241E3,3.26E3,4.214E3,9E1,5.438E3,1.2E2,2.362E3,7.2E1,2.39E3,5.29E2,2.61E2,5.46E2],"tree_param":{"num_deleted":"0","num_feature":"360","num_nodes":"31","size_leaf_vector":"1"}},{"base_weights":[1.6428783E-4,-5.891741E-2,8.2767814E-2,-1.272589E-1,-2.5171576E-2,5.0132424E-2,1.5218967E-1,-2.218547E-1,-1.02610484E-1,-4.789927E-2,-3.3335346E-3,3.142492E-2,8.363226E-2,1.2903918E-1,1.9393457E-1,-8.28662E-3,-5.6250226E-3,-3.453948E-3,-1.8382327E-3,-1.7233682E-3,-6.624842E-4,-1.6775765E-4,3.4318988E-3,8.322282E-4,4.158404E-3,2.355238E-3,5.3224317E-3,4.6190717E-3,2.8784603E-3,5.443033E-3,7.5977733E-3],"categories":[],"categories_nodes":[],"categories_segments":[],"categories_sizes":[],"default_left":[0,0,0,0,0,0,0,0,0,0,0,0,0,0,0,0,0,0,0,0,0,0,0,0,0,0,0,0,0,0,0],"id":31,"left_children":[1,3,5,7,9,11,13,15,17,19,21,23,25,27,29,-1,-1,-1,-1,-1,-1,-1,-1,-1,-1,-1,-1,-1,-1,-1,-1],"loss_changes":[1.1295823E2,3.1099655E1,2.1839813E1,1.034156E1,4.4790435E0,4.1020203E0,2.9240646E0,1.6201057E0,1.807518E0,1.0813322E0,1.2157333E0,1.6451244E0,1.0902977E0,1.6010475E0,7.240753E-1,0E0,0E0,0E0,0E0,0E0,0E0,0E0,0E0,0E0,0E0,0E0,0E0,0E0,0E0,0E0,0E0],"parents":[2147483647,0,0,1,1,2,2,3,3,4,4,5,5,6,6,7,7,8,8,9,9,10,10,11,11,12,12,13,13,14,14],"right_children":[2,4,6,8,10,12,14,16,18,20,22,24,26,28,30,-1,-1,-1,-1,-1,-1,-1,-1,-1,-1,-1,-1,-1,-1,-1,-1],"split_conditions":[9.833846E-1,7.3333657E-1,1.2333534E0,5.000018E-1,8.667222E-1,1.1166681E0,6E0,3.5000837E-1,7.333355E-1,8.666697E-1,1.6E1,1.2E1,1.6E1,3.879885E2,1.5500054E0,-8.28662E-3,-5.6250226E-3,-3.453948E-3,-1.8382327E-3,-1.7233682E-3,-6.624842E-4,-1.6775765E-4,3.4318988E-3,8.322282E-4,4.158404E-3,2.355238E-3,5.3224317E-3,4.6190717E-3,2.8784603E-3,5.443033E-3,7.5977733E-3],"split_indices":[352,356,356,356,356,348,311,336,344,308,359,359,19,41,356,0,0,0,0,0,0,0,0,0,0,0,0,0,0,0,0],"split_type":[0,0,0,0,0,0,0,0,0,0,0,0,0,0,0,0,0,0,0,0,0,0,0,0,0,0,0,0,0,0,0],"sum_hessian":[2.3143E4,1.3492E4,9.651E3,4.458E3,9.034E3,6.567E3,3.084E3,9.19E2,3.539E3,4.424E3,4.61E3,4.217E3,2.35E3,1.988E3,1.096E3,3.52E2,5.67E2,2.713E3,8.26E2,3.226E3,1.198E3,4.525E3,8.5E1,4.079E3,1.38E2,2.231E3,1.19E2,1.13E3,8.58E2,9.1E2,1.86E2],"tree_param":{"num_deleted":"0","num_feature":"360","num_nodes":"31","size_leaf_vector":"1"}},{"base_weights":[2.8479844E-4,-6.8412766E-2,6.651277E-2,-1.629153E-1,-4.737034E-2,2.8692443E-2,1.2846185E-1,-2.4578115E-1,-1.3547944E-1,-7.425147E-2,-2.4105636E-2,1.645867E-2,5.7322606E-2,1.0794525E-1,1.8514007E-1,-7.5022066E-3,3.2371646E-4,-2.4777898E-3,-4.4610915E-3,-2.8803747E-3,-1.7790562E-3,-1.0923002E-3,-9.23859E-5,1.6758559E-4,1.0930337E-3,1.6075782E-3,5.6186956E-3,2.9554104E-3,4.7332067E-3,4.8594046E-3,6.856417E-3],"categories":[],"categories_nodes":[],"categories_segments":[],"categories_sizes":[],"default_left":[0,0,0,0,0,0,0,0,0,0,0,0,0,0,0,0,0,0,0,0,0,0,0,0,0,0,0,0,0,0,0],"id":32,"left_children":[1,3,5,7,9,11,13,15,17,19,21,23,25,27,29,-1,-1,-1,-1,-1,-1,-1,-1,-1,-1,-1,-1,-1,-1,-1,-1],"loss_changes":[1.0527533E2,2.2555359E1,2.7585045E1,4.627899E0,5.798794E0,2.554844E0,5.1428146E0,5.9049416E-1,1.0527782E0,1.380249E0,1.2853646E0,1.1099778E0,1.0284653E0,1.5012321E0,1.1142082E0,0E0,0E0,0E0,0E0,0E0,0E0,0E0,0E0,0E0,0E0,0E0,0E0,0E0,0E0,0E0,0E0],"parents":[2147483647,0,0,1,1,2,2,3,3,4,4,5,5,6,6,7,7,8,8,9,9,10,10,11,11,12,12,13,13,14,14],"right_children":[2,4,6,8,10,12,14,16,18,20,22,24,26,28,30,-1,-1,-1,-1,-1,-1,-1,-1,-1,-1,-1,-1,-1,-1,-1,-1],"split_conditions":[9.333495E-1,6.166713E-1,1.1666707E0,4.0006533E-1,8.000073E-1,1.0833356E0,1.3833578E0,7E0,4.8333928E-1,7.1666783E-1,9.0000206E-1,1.0183986E0,1.8E1,9E0,1.4843774E0,-7.5022066E-3,3.2371646E-4,-2.4777898E-3,-4.4610915E-3,-2.8803747E-3,-1.7790562E-3,-1.0923002E-3,-9.23859E-5,1.6758559E-4,1.0930337E-3,1.6075782E-3,5.6186956E-3,2.9554104E-3,4.7332067E-3,4.8594046E-3,6.856417E-3],"split_indices":[356,352,352,316,336,356,352,255,172,356,348,324,359,359,356,0,0,0,0,0,0,0,0,0,0,0,0,0,0,0,0],"split_type":[0,0,0,0,0,0,0,0,0,0,0,0,0,0,0,0,0,0,0,0,0,0,0,0,0,0,0,0,0,0,0],"sum_hessian":[2.3137E4,1.1356E4,1.1781E4,2.066E3,9.29E3,7.317E3,4.464E3,5.11E2,1.555E3,4.307E3,4.983E3,5.13E3,2.187E3,3.281E3,1.183E3,5.03E2,8E0,3.14E2,1.241E3,1.749E3,2.558E3,3.14E3,1.843E3,3.326E3,1.804E3,2.128E3,5.9E1,2.763E3,5.18E2,7.76E2,4.07E2],"tree_param":{"num_deleted":"0","num_feature":"360","num_nodes":"31","size_leaf_vector":"1"}},{"base_weights":[-1.3893482E-4,-5.6688383E-2,7.577567E-2,-1.3403423E-1,-3.1484213E-2,4.3926068E-2,1.4091569E-1,-2.4018888E-1,-1.141344E-1,-5.0003305E-2,-2.7963808E-3,2.6618907E-2,7.406621E-2,1.2356521E-1,1.9359937E-1,-7.353802E-3,-0E0,-3.6584332E-3,-1.0495128E-3,-1.825732E-3,-6.6361076E-4,-1.8680934E-4,2.334787E-3,6.5638084E-4,2.357858E-3,1.8313795E-3,3.0517743E-3,5.0233896E-3,3.1468624E-3,2.7664306E-3,6.0076504E-3],"categories":[],"categories_nodes":[],"categories_segments":[],"categories_sizes":[],"default_left":[0,0,0,0,0,0,0,0,0,0,0,0,0,0,0,0,0,0,0,0,0,0,0,0,0,0,0,0,0,0,0],"id":33,"left_children":[1,3,5,7,9,11,13,15,17,19,21,23,25,27,29,-1,-1,-1,-1,-1,-1,-1,-1,-1,-1,-1,-1,-1,-1,-1,-1],"loss_changes":[9.920769E1,2.579953E1,2.0442081E1,6.8110924E0,5.303056E0,3.4453897E0,2.9041748E0,6.260967E-1,1.676403E0,1.8274622E0,1.078363E0,1.0263281E0,8.472376E-1,1.954174E0,4.9143982E-1,0E0,0E0,0E0,0E0,0E0,0E0,0E0,0E0,0E0,0E0,0E0,0E0,0E0,0E0,0E0,0E0],"parents":[2147483647,0,0,1,1,2,2,3,3,4,4,5,5,6,6,7,7,8,8,9,9,10,10,11,11,12,12,13,13,14,14],"right_children":[2,4,6,8,10,12,14,16,18,20,22,24,26,28,30,-1,-1,-1,-1,-1,-1,-1,-1,-1,-1,-1,-1,-1,-1,-1,-1],"split_conditions":[9.8334926E-1,6.833356E-1,1.2167177E0,4.0006533E-1,8.8337725E-1,1.1166681E0,1.431692E0,6E0,7.833338E-1,8.5500056E-1,1E1,7E0,4E0,1.1585875E0,1.2666991E0,-7.353802E-3,-0E0,-3.6584332E-3,-1.0495128E-3,-1.825732E-3,-6.6361076E-4,-1.8680934E-4,2.334787E-3,6.5638084E-4,2.357858E-3,1.8313795E-3,3.0517743E-3,5.0233896E-3,3.1468624E-3,2.7664306E-3,6.0076504E-3],"split_indices":[348,352,352,316,352,348,348,259,316,316,355,339,115,188,344,0,0,0,0,0,0,0,0,0,0,0,0,0,0,0,0],"split_type":[0,0,0,0,0,0,0,0,0,0,0,0,0,0,0,0,0,0,0,0,0,0,0,0,0,0,0,0,0,0,0],"sum_hessian":[2.3108E4,1.3244E4,9.864E3,3.253E3,9.991E3,6.627E3,3.237E3,5.11E2,2.742E3,6.069E3,3.922E3,4.213E3,2.414E3,2.439E3,7.98E2,5.01E2,1E1,2.494E3,2.48E2,4.365E3,1.704E3,3.764E3,1.58E2,3.864E3,3.49E2,1.646E3,7.68E2,7.24E2,1.715E3,5.1E1,7.47E2],"tree_param":{"num_deleted":"0","num_feature":"360","num_nodes":"31","size_leaf_vector":"1"}},{"base_weights":[1.2880274E-4,-5.3928573E-2,7.5451136E-2,-1.2384791E-1,-2.7164945E-2,4.6530567E-2,1.3929874E-1,-2.061526E-1,-1.0049414E-1,-4.6445113E-2,-2.622236E-3,2.5367256E-2,7.226168E-2,1.1863414E-1,1.7764474E-1,-7.6285154E-3,-5.0507113E-3,-3.3920154E-3,-2.1696195E-3,-1.5050579E-3,6.8653555E-4,-2.8434856E-4,7.0845307E-4,6.3415145E-4,2.7236107E-3,2.0682155E-3,5.1269378E-3,4.4107344E-3,2.69274E-3,7.517192E-3,4.821211E-3],"categories":[],"categories_nodes":[],"categories_segments":[],"categories_sizes":[],"default_left":[0,0,0,0,0,0,0,0,0,0,0,0,0,0,0,0,0,0,0,0,0,0,0,0,0,0,0,0,0,0,0],"id":34,"left_children":[1,3,5,7,9,11,13,15,17,19,21,23,25,27,29,-1,-1,-1,-1,-1,-1,-1,-1,-1,-1,-1,-1,-1,-1,-1,-1],"loss_changes":[9.410385E1,2.5157944E1,1.7806675E1,7.1046906E0,4.6000323E0,3.6091537E0,2.3336449E0,1.4084473E0,1.0016041E0,1.4102659E0,7.6961523E-1,9.9722075E-1,9.463415E-1,1.5699406E0,1.2156029E0,0E0,0E0,0E0,0E0,0E0,0E0,0E0,0E0,0E0,0E0,0E0,0E0,0E0,0E0,0E0,0E0],"parents":[2147483647,0,0,1,1,2,2,3,3,4,4,5,5,6,6,7,7,8,8,9,9,10,10,11,11,12,12,13,13,14,14],"right_children":[2,4,6,8,10,12,14,16,18,20,22,24,26,28,30,-1,-1,-1,-1,-1,-1,-1,-1,-1,-1,-1,-1,-1,-1,-1,-1],"split_conditions":[9.833978E-1,7.0000404E-1,1.2333609E0,4.8333442E-1,8.8333666E-1,1.100001E0,6E0,3.5000837E-1,6.667109E-1,7E0,1.0000651E0,8E0,2.1E1,3.2395966E2,9.2020404E-1,-7.6285154E-3,-5.0507113E-3,-3.3920154E-3,-2.1696195E-3,-1.5050579E-3,6.8653555E-4,-2.8434856E-4,7.0845307E-4,6.3415145E-4,2.7236107E-3,2.0682155E-3,5.1269378E-3,4.4107344E-3,2.69274E-3,7.517192E-3,4.821211E-3],"split_indices":[356,348,356,352,348,356,359,356,356,359,332,339,67,37,44,0,0,0,0,0,0,0,0,0,0,0,0,0,0,0,0],"split_type":[0,0,0,0,0,0,0,0,0,0,0,0,0,0,0,0,0,0,0,0,0,0,0,0,0,0,0,0,0,0,0],"sum_hessian":[2.3109E4,1.3453E4,9.656E3,3.722E3,9.731E3,6.648E3,3.008E3,8.2E2,2.902E3,5.447E3,4.284E3,3.651E3,2.997E3,1.959E3,1.049E3,3.57E2,4.63E2,2.002E3,9E2,5.171E3,2.76E2,3.4E3,8.84E2,3.432E3,2.19E2,2.902E3,9.5E1,9.84E2,9.75E2,1.94E2,8.55E2],"tree_param":{"num_deleted":"0","num_feature":"360","num_nodes":"31","size_leaf_vector":"1"}},{"base_weights":[6.599542E-5,-5.5787504E-2,6.743462E-2,-1.2118682E-1,-3.0099342E-2,4.1211423E-2,1.3799664E-1,-2.0543072E-1,-9.6547365E-2,-4.8617225E-2,-9.554685E-3,2.164479E-2,7.054407E-2,1.15324505E-1,1.7824253E-1,-8.56023E-3,-5.4585086E-3,-3.0668804E-3,-1.1732363E-3,-1.6759186E-3,-4.7983427E-4,-5.061047E-4,6.6571916E-4,5.391347E-4,3.5995292E-3,1.8167996E-3,3.0074571E-3,4.3148594E-3,2.5542858E-3,4.380276E-3,6.2364927E-3],"categories":[],"categories_nodes":[],"categories_segments":[],"categories_sizes":[],"default_left":[0,0,0,0,0,0,0,0,0,0,0,0,0,0,0,0,0,0,0,0,0,0,0,0,0,0,0,0,0,0,0],"id":35,"left_children":[1,3,5,7,9,11,13,15,17,19,21,23,25,27,29,-1,-1,-1,-1,-1,-1,-1,-1,-1,-1,-1,-1,-1,-1,-1,-1],"loss_changes":[8.748188E1,2.1333878E1,1.9477364E1,7.387287E0,3.4664078E0,4.400564E0,2.5542488E0,1.4193001E0,8.8754845E-1,1.1262064E0,1.0056394E0,1.650917E0,8.8921547E-1,1.5392094E0,9.1355896E-1,0E0,0E0,0E0,0E0,0E0,0E0,0E0,0E0,0E0,0E0,0E0,0E0,0E0,0E0,0E0,0E0],"parents":[2147483647,0,0,1,1,2,2,3,3,4,4,5,5,6,6,7,7,8,8,9,9,10,10,11,11,12,12,13,13,14,14],"right_children":[2,4,6,8,10,12,14,16,18,20,22,24,26,28,30,-1,-1,-1,-1,-1,-1,-1,-1,-1,-1,-1,-1,-1,-1,-1,-1],"split_conditions":[9.666825E-1,7.0000154E-1,1.2500005E0,4.8333442E-1,8.5202044E-1,1.0844367E0,6E0,2.5001886E-1,7.418365E-1,4E0,1.033335E0,1.2E1,5E0,3.2395966E2,1.4000034E0,-8.56023E-3,-5.4585086E-3,-3.0668804E-3,-1.1732363E-3,-1.6759186E-3,-4.7983427E-4,-5.061047E-4,6.6571916E-4,5.391347E-4,3.5995292E-3,1.8167996E-3,3.0074571E-3,4.3148594E-3,2.5542858E-3,4.380276E-3,6.2364927E-3],"split_indices":[348,352,352,352,332,344,339,352,344,355,196,355,271,37,348,0,0,0,0,0,0,0,0,0,0,0,0,0,0,0,0],"split_type":[0,0,0,0,0,0,0,0,0,0,0,0,0,0,0,0,0,0,0,0,0,0,0,0,0,0,0,0,0,0,0],"sum_hessian":[2.3247E4,1.2709E4,1.0538E4,3.582E3,9.127E3,7.685E3,2.853E3,8.08E2,2.774E3,4.797E3,4.33E3,4.613E3,3.072E3,1.829E3,1.024E3,1.8E2,6.28E2,2.522E3,2.52E2,3.922E3,8.75E2,3.522E3,8.08E2,4.449E3,1.64E2,2.304E3,7.68E2,9.37E2,8.92E2,4.95E2,5.29E2],"tree_param":{"num_deleted":"0","num_feature":"360","num_nodes":"31","size_leaf_vector":"1"}},{"base_weights":[3.2782258E-4,-6.0586758E-2,5.8957133E-2,-1.4959568E-1,-4.260624E-2,3.2281686E-2,1.2748355E-1,-2.1983159E-1,-1.23506084E-1,-7.390471E-2,-2.5157565E-2,1.6901223E-2,6.419072E-2,1.1431297E-1,1.9420303E-1,-9.065616E-3,-6.043357E-3,-2.2085682E-3,-4.1135633E-3,-2.4156151E-3,-1.2105451E-3,-8.508405E-4,2.0314418E-3,5.6219165E-4,-2.782783E-3,1.730246E-3,3.34398E-3,3.0385605E-3,4.6090335E-3,5.985081E-3,2.6982988E-3],"categories":[],"categories_nodes":[],"categories_segments":[],"categories_sizes":[],"default_left":[0,0,0,0,0,0,0,0,0,0,0,0,0,0,0,0,0,0,0,0,0,0,0,0,0,0,0,0,0,0,0],"id":36,"left_children":[1,3,5,7,9,11,13,15,17,19,21,23,25,27,29,-1,-1,-1,-1,-1,-1,-1,-1,-1,-1,-1,-1,-1,-1,-1,-1],"loss_changes":[8.282371E1,1.817606E1,2.1582893E1,3.4384499E0,5.156683E0,4.1668158E0,2.8555527E0,6.685829E-1,9.1685295E-1,7.3607063E-1,1.8070455E0,1.1525923E0,8.2838535E-1,1.3768959E0,2.531414E-1,0E0,0E0,0E0,0E0,0E0,0E0,0E0,0E0,0E0,0E0,0E0,0E0,0E0,0E0,0E0,0E0],"parents":[2147483647,0,0,1,1,2,2,3,3,4,4,5,5,6,6,7,7,8,8,9,9,10,10,11,11,12,12,13,13,14,14],"right_children":[2,4,6,8,10,12,14,16,18,20,22,24,26,28,30,-1,-1,-1,-1,-1,-1,-1,-1,-1,-1,-1,-1,-1,-1,-1,-1],"split_conditions":[9.33341E-1,6.000383E-1,1.2167177E0,4.1526014E-1,7.666693E-1,1.100001E0,1.466764E0,2.0005943E-1,4.8333928E-1,7.8333914E-1,1E1,1.3423847E0,8E0,7E0,9.55976E2,-9.065616E-3,-6.043357E-3,-2.2085682E-3,-4.1135633E-3,-2.4156151E-3,-1.2105451E-3,-8.508405E-4,2.0314418E-3,5.6219165E-4,-2.782783E-3,1.730246E-3,3.34398E-3,3.0385605E-3,4.6090335E-3,5.985081E-3,2.6982988E-3],"split_indices":[344,352,352,344,356,356,356,352,172,332,355,172,323,339,329,0,0,0,0,0,0,0,0,0,0,0,0,0,0,0,0],"split_type":[0,0,0,0,0,0,0,0,0,0,0,0,0,0,0,0,0,0,0,0,0,0,0,0,0,0,0,0,0,0,0],"sum_hessian":[2.3189E4,1.1372E4,1.1817E4,1.909E3,9.463E3,8.508E3,3.309E3,5.14E2,1.395E3,3.384E3,6.079E3,5.744E3,2.764E3,2.767E3,5.42E2,9E1,4.24E2,3.02E2,1.093E3,2.823E3,5.61E2,5.878E3,2.01E2,5.651E3,9.3E1,2.433E3,3.31E2,2.083E3,6.84E2,5.14E2,2.8E1],"tree_param":{"num_deleted":"0","num_feature":"360","num_nodes":"31","size_leaf_vector":"1"}},{"base_weights":[-2.1507507E-4,-5.128644E-2,6.878908E-2,-1.2599401E-1,-2.9662281E-2,4.2177867E-2,1.3016093E-1,-1.9194917E-1,-9.757496E-2,-4.9740788E-2,-5.4354505E-3,2.6636647E-2,6.885054E-2,1.1938963E-1,2.0824178E-1,-5.944294E-3,1.7996662E-3,-1.7763394E-3,-3.2105942E-3,-1.7974868E-3,-7.092033E-4,-3.1379316E-4,8.195047E-4,6.441314E-4,2.3430993E-3,1.6979959E-3,2.8081255E-3,4.8982915E-3,3.209634E-3,6.5148193E-3,2.9868619E-3],"categories":[],"categories_nodes":[],"categories_segments":[],"categories_sizes":[],"default_left":[0,0,0,0,0,0,0,0,0,0,0,0,0,0,0,0,0,0,0,0,0,0,0,0,0,0,0,0,0,0,0],"id":37,"left_children":[1,3,5,7,9,11,13,15,17,19,21,23,25,27,29,-1,-1,-1,-1,-1,-1,-1,-1,-1,-1,-1,-1,-1,-1,-1,-1],"loss_changes":[8.19591E1,2.1573315E1,1.6131058E1,5.573593E0,5.037608E0,2.8496742E0,2.457058E0,1.4317093E0,7.375889E-1,1.4953032E0,7.723516E-1,1.1488285E0,7.4932575E-1,1.3874931E0,2.956562E-1,0E0,0E0,0E0,0E0,0E0,0E0,0E0,0E0,0E0,0E0,0E0,0E0,0E0,0E0,0E0,0E0],"parents":[2147483647,0,0,1,1,2,2,3,3,4,4,5,5,6,6,7,7,8,8,9,9,10,10,11,11,12,12,13,13,14,14],"right_children":[2,4,6,8,10,12,14,16,18,20,22,24,26,28,30,-1,-1,-1,-1,-1,-1,-1,-1,-1,-1,-1,-1,-1,-1,-1,-1],"split_conditions":[9.8335004E-1,6.666763E-1,1.2333609E0,5.000018E-1,8.666697E-1,1.1166682E0,1.5166882E0,8.335031E-1,5.16691E-1,8.34061E-1,5E0,7E0,4E0,9.720959E-1,1.5231178E0,-5.944294E-3,1.7996662E-3,-1.7763394E-3,-3.2105942E-3,-1.7974868E-3,-7.092033E-4,-3.1379316E-4,8.195047E-4,6.441314E-4,2.3430993E-3,1.6979959E-3,2.8081255E-3,4.8982915E-3,3.209634E-3,6.5148193E-3,2.9868619E-3],"split_indices":[356,344,356,356,308,356,356,84,180,356,359,355,115,48,36,0,0,0,0,0,0,0,0,0,0,0,0,0,0,0,0],"split_type":[0,0,0,0,0,0,0,0,0,0,0,0,0,0,0,0,0,0,0,0,0,0,0,0,0,0,0,0,0,0,0],"sum_hessian":[2.3255E4,1.3365E4,9.89E3,2.998E3,1.0367E4,6.901E3,2.989E3,9E2,2.098E3,5.666E3,4.701E3,4.364E3,2.537E3,2.63E3,3.59E2,8.79E2,2.1E1,4.18E2,1.68E3,4.073E3,1.593E3,4.079E3,6.22E2,3.969E3,3.95E2,1.702E3,8.35E2,5.75E2,2.055E3,3.3E2,2.9E1],"tree_param":{"num_deleted":"0","num_feature":"360","num_nodes":"31","size_leaf_vector":"1"}},{"base_weights":[2.0039877E-5,-4.495385E-2,7.117051E-2,-1.0377525E-1,-1.8054878E-2,4.4700414E-2,1.2498379E-1,-1.8498574E-1,-8.564033E-2,-3.6491666E-2,3.2730348E-4,2.9704468E-2,7.197272E-2,1.0378385E-1,1.6267586E-1,-8.78101E-3,-5.124792E-3,-3.2006083E-3,-1.9974867E-3,-1.2197215E-3,6.2923174E-4,-1.6583786E-4,1.0008445E-3,7.440058E-4,2.4656523E-3,1.653004E-3,3.1495462E-3,3.8162943E-3,2.1328926E-3,4.4893683E-3,6.714851E-3],"categories":[],"categories_nodes":[],"categories_segments":[],"categories_sizes":[],"default_left":[0,0,0,0,0,0,0,0,0,0,0,0,0,0,0,0,0,0,0,0,0,0,0,0,0,0,0,0,0,0,0],"id":38,"left_children":[1,3,5,7,9,11,13,15,17,19,21,23,25,27,29,-1,-1,-1,-1,-1,-1,-1,-1,-1,-1,-1,-1,-1,-1,-1,-1],"loss_changes":[7.414141E1,2.244577E1,1.2760391E1,6.5152283E0,3.3056133E0,2.4489002E0,2.3193245E0,1.1405582E0,1.4367561E0,1.1679201E0,9.462908E-1,9.877598E-1,1.1657324E0,1.4237232E0,7.7459526E-1,0E0,0E0,0E0,0E0,0E0,0E0,0E0,0E0,0E0,0E0,0E0,0E0,0E0,0E0,0E0,0E0],"parents":[2147483647,0,0,1,1,2,2,3,3,4,4,5,5,6,6,7,7,8,8,9,9,10,10,11,11,12,12,13,13,14,14],"right_children":[2,4,6,8,10,12,14,16,18,20,22,24,26,28,30,-1,-1,-1,-1,-1,-1,-1,-1,-1,-1,-1,-1,-1,-1,-1,-1],"split_conditions":[1.0007367E0,7.3333657E-1,1.2333609E0,4.8333466E-1,8.833461E-1,1.1333351E0,6E0,2.0005924E-1,6.500034E-1,6E0,1.0333543E0,7E0,4E0,3.760265E2,1.5500054E0,-8.78101E-3,-5.124792E-3,-3.2006083E-3,-1.9974867E-3,-1.2197215E-3,6.2923174E-4,-1.6583786E-4,1.0008445E-3,7.440058E-4,2.4656523E-3,1.653004E-3,3.1495462E-3,3.8162943E-3,2.1328926E-3,4.4893683E-3,6.714851E-3],"split_indices":[352,356,356,356,356,348,339,356,348,359,332,335,115,13,356,0,0,0,0,0,0,0,0,0,0,0,0,0,0,0,0],"split_type":[0,0,0,0,0,0,0,0,0,0,0,0,0,0,0,0,0,0,0,0,0,0,0,0,0,0,0,0,0,0,0],"sum_hessian":[2.3167E4,1.4194E4,8.973E3,4.452E3,9.742E3,6.017E3,2.956E3,8.1E2,3.642E3,4.866E3,4.876E3,3.886E3,2.131E3,1.896E3,1.06E3,9.1E1,7.19E2,1.726E3,1.916E3,4.539E3,3.27E2,4.14E3,7.36E2,3.557E3,3.29E2,1.414E3,7.17E2,1.101E3,7.95E2,8.78E2,1.82E2],"tree_param":{"num_deleted":"0","num_feature":"360","num_nodes":"31","size_leaf_vector":"1"}},{"base_weights":[-1.0371829E-4,-4.7221098E-2,6.370149E-2,-9.593648E-2,-1.8300043E-2,3.970453E-2,1.2134395E-1,-1.8215916E-1,-7.8472726E-2,-2.2494186E-2,4.3631237E-2,2.1516886E-2,6.326539E-2,1.0108706E-1,1.5748194E-1,-8.672484E-3,-5.0205947E-3,-3.1310124E-3,-1.9409988E-3,-1.091099E-3,-1.5578911E-4,4.5250184E-4,4.1611404E-3,4.5874E-4,1.5683727E-3,1.6781014E-3,2.8438368E-3,4.5317933E-3,2.4877288E-3,6.738093E-3,4.418305E-3],"categories":[],"categories_nodes":[],"categories_segments":[],"categories_sizes":[],"default_left":[0,0,0,0,0,0,0,0,0,0,0,0,0,0,0,0,0,0,0,0,0,0,0,0,0,0,0,0,0,0,0],"id":39,"left_children":[1,3,5,7,9,11,13,15,17,19,21,23,25,27,29,-1,-1,-1,-1,-1,-1,-1,-1,-1,-1,-1,-1,-1,-1,-1,-1],"loss_changes":[6.946271E1,1.871392E1,1.3554234E1,7.413212E0,2.16595E0,2.960638E0,2.0687065E0,1.2231255E0,1.4453297E0,1.8720255E0,1.415596E0,7.424035E-1,6.7675495E-1,1.6450272E0,6.36631E-1,0E0,0E0,0E0,0E0,0E0,0E0,0E0,0E0,0E0,0E0,0E0,0E0,0E0,0E0,0E0,0E0],"parents":[2147483647,0,0,1,1,2,2,3,3,4,4,5,5,6,6,7,7,8,8,9,9,10,10,11,11,12,12,13,13,14,14],"right_children":[2,4,6,8,10,12,14,16,18,20,22,24,26,28,30,-1,-1,-1,-1,-1,-1,-1,-1,-1,-1,-1,-1,-1,-1,-1,-1],"split_conditions":[9.833487E-1,7.5001645E-1,1.2500005E0,4.8333466E-1,7E0,1.1000041E0,6E0,2.0005924E-1,6.3334054E-1,8.8337725E-1,1.016688E0,5E0,6E0,9.83337E-1,9.6666884E-1,-8.672484E-3,-5.0205947E-3,-3.1310124E-3,-1.9409988E-3,-1.091099E-3,-1.5578911E-4,4.5250184E-4,4.1611404E-3,4.5874E-4,1.5683727E-3,1.6781014E-3,2.8438368E-3,4.5317933E-3,2.4877288E-3,6.738093E-3,4.418305E-3],"split_indices":[344,356,352,356,359,344,339,356,344,352,188,335,275,8,140,0,0,0,0,0,0,0,0,0,0,0,0,0,0,0,0],"split_type":[0,0,0,0,0,0,0,0,0,0,0,0,0,0,0,0,0,0,0,0,0,0,0,0,0,0,0,0,0,0,0],"sum_hessian":[2.3104E4,1.3291E4,9.813E3,4.949E3,8.342E3,6.931E3,2.882E3,8.31E2,4.118E3,7.815E3,5.27E2,3.915E3,3.016E3,1.851E3,1.031E3,9.8E1,7.33E2,1.425E3,2.693E3,4.333E3,3.482E3,4.07E2,1.2E2,3.26E3,6.55E2,2.452E3,5.64E2,4.9E2,1.361E3,1.32E2,8.99E2],"tree_param":{"num_deleted":"0","num_feature":"360","num_nodes":"31","size_leaf_vector":"1"}},{"base_weights":[6.6380587E-4,-5.8014862E-2,4.9370028E-2,-1.3462843E-1,-4.1402303E-2,2.6393129E-2,1.1552001E-1,-2.1354385E-1,-1.1447899E-1,-5.5195205E-2,-1.3791405E-2,8.288793E-3,4.7367487E-2,9.6988544E-2,1.5122381E-1,-7.995202E-3,-5.9913346E-3,-1.8890701E-3,-3.9251503E-3,-2.079584E-3,-1.1177938E-3,-4.940848E-4,4.8399386E-3,1.0960413E-4,2.325158E-3,1.062091E-3,1.983845E-3,1.6807138E-3,3.4173646E-3,3.6866772E-3,5.289756E-3],"categories":[],"categories_nodes":[],"categories_segments":[],"categories_sizes":[],"default_left":[0,0,0,0,0,0,0,0,0,0,0,0,0,0,0,0,0,0,0,0,0,0,0,0,0,0,0,0,0,0,0],"id":40,"left_children":[1,3,5,7,9,11,13,15,17,19,21,23,25,27,29,-1,-1,-1,-1,-1,-1,-1,-1,-1,-1,-1,-1,-1,-1,-1,-1],"loss_changes":[6.632513E1,1.337249E1,1.9258404E1,2.9225998E0,3.2873182E0,3.5691705E0,2.1227684E0,1.7781639E-1,1.2330151E0,1.4476814E0,1.3416879E0,1.6140921E0,9.659319E-1,1.4713173E0,7.4001694E-1,0E0,0E0,0E0,0E0,0E0,0E0,0E0,0E0,0E0,0E0,0E0,0E0,0E0,0E0,0E0,0E0],"parents":[2147483647,0,0,1,1,2,2,3,3,4,4,5,5,6,6,7,7,8,8,9,9,10,10,11,11,12,12,13,13,14,14],"right_children":[2,4,6,8,10,12,14,16,18,20,22,24,26,28,30,-1,-1,-1,-1,-1,-1,-1,-1,-1,-1,-1,-1,-1,-1,-1,-1],"split_conditions":[9.166682E-1,6.000301E-1,1.2167177E0,3.6666796E-1,8.500025E-1,1.0333533E0,6E0,2.0005943E-1,4.8333928E-1,7.666718E-1,1.3E1,8E0,1.1333404E0,2E0,1.3666763E0,-7.995202E-3,-5.9913346E-3,-1.8890701E-3,-3.9251503E-3,-2.079584E-3,-1.1177938E-3,-4.940848E-4,4.8399386E-3,1.0960413E-4,2.325158E-3,1.062091E-3,1.983845E-3,1.6807138E-3,3.4173646E-3,3.6866772E-3,5.289756E-3],"split_indices":[352,344,352,264,312,324,347,352,172,352,359,323,344,31,344,0,0,0,0,0,0,0,0,0,0,0,0,0,0,0,0],"split_type":[0,0,0,0,0,0,0,0,0,0,0,0,0,0,0,0,0,0,0,0,0,0,0,0,0,0,0,0,0,0,0],"sum_hessian":[2.3205E4,1.0524E4,1.2681E4,1.873E3,8.651E3,9.414E3,3.267E3,3.78E2,1.495E3,5.766E3,2.885E3,5.056E3,4.358E3,2.155E3,1.112E3,7.3E1,3.05E2,3.63E2,1.132E3,3.221E3,2.545E3,2.843E3,4.2E1,4.741E3,3.15E2,2.666E3,1.692E3,6.33E2,1.522E3,5.27E2,5.85E2],"tree_param":{"num_deleted":"0","num_feature":"360","num_nodes":"31","size_leaf_vector":"1"}},{"base_weights":[-8.4363375E-5,-5.369917E-2,5.0655473E-2,-1.1885357E-1,-3.566089E-2,2.8584152E-2,1.15849555E-1,-2.0048344E-1,-1.00731045E-1,-5.1747836E-2,-1.2789134E-2,1.3474507E-2,5.6743428E-2,9.606637E-2,1.5055755E-1,-8.012622E-3,-5.4537123E-3,-3.5137597E-3,-2.2809966E-3,-1.748158E-3,-6.2280294E-4,-4.730089E-4,3.493365E-3,3.267472E-4,2.6243927E-3,1.5841795E-3,4.060906E-3,2.236461E-3,3.7345644E-3,4.1547897E-3,6.1505116E-3],"categories":[],"categories_nodes":[],"categories_segments":[],"categories_sizes":[],"default_left":[0,0,0,0,0,0,0,0,0,0,0,0,0,0,0,0,0,0,0,0,0,0,0,0,0,0,0,0,0,0,0],"id":41,"left_children":[1,3,5,7,9,11,13,15,17,19,21,23,25,27,29,-1,-1,-1,-1,-1,-1,-1,-1,-1,-1,-1,-1,-1,-1,-1,-1],"loss_changes":[6.3385777E1,1.3296154E1,1.720611E1,3.5814629E0,3.2586899E0,3.7981024E0,2.0386314E0,4.593506E-1,7.864437E-1,1.0437727E0,1.4037411E0,1.1026627E0,9.401798E-1,1.1522598E0,6.5670395E-1,0E0,0E0,0E0,0E0,0E0,0E0,0E0,0E0,0E0,0E0,0E0,0E0,0E0,0E0,0E0,0E0],"parents":[2147483647,0,0,1,1,2,2,3,3,4,4,5,5,6,6,7,7,8,8,9,9,10,10,11,11,12,12,13,13,14,14],"right_children":[2,4,6,8,10,12,14,16,18,20,22,24,26,28,30,-1,-1,-1,-1,-1,-1,-1,-1,-1,-1,-1,-1,-1,-1,-1,-1],"split_conditions":[9.333379E-1,6.3337183E-1,1.2333609E0,3.833394E-1,8.34061E-1,1.0844367E0,6E0,2.0005943E-1,6.000383E-1,4E0,1.2E1,1.1E1,1.6E1,4E0,1.5500054E0,-8.012622E-3,-5.4537123E-3,-3.5137597E-3,-2.2809966E-3,-1.748158E-3,-6.2280294E-4,-4.730089E-4,3.493365E-3,3.267472E-4,2.6243927E-3,1.5841795E-3,4.060906E-3,2.236461E-3,3.7345644E-3,4.1547897E-3,6.1505116E-3],"split_indices":[348,352,356,352,356,344,315,348,356,351,359,331,19,39,356,0,0,0,0,0,0,0,0,0,0,0,0,0,0,0,0],"split_type":[0,0,0,0,0,0,0,0,0,0,0,0,0,0,0,0,0,0,0,0,0,0,0,0,0,0,0,0,0,0,0],"sum_hessian":[2.3298E4,1.1329E4,1.1969E4,2.454E3,8.875E3,8.944E3,3.025E3,4.43E2,2.011E3,5.207E3,3.668E3,5.824E3,3.12E3,1.931E3,1.094E3,9.3E1,3.5E2,1.204E3,8.07E2,4.298E3,9.09E2,3.587E3,8.1E1,5.63E3,1.94E2,2.974E3,1.46E2,1.103E3,8.28E2,9E2,1.94E2],"tree_param":{"num_deleted":"0","num_feature":"360","num_nodes":"31","size_leaf_vector":"1"}},{"base_weights":[-6.063882E-4,-3.769166E-2,6.7200355E-2,-8.8249385E-2,-1.2251668E-2,4.5526255E-2,1.1601914E-1,-1.6369025E-1,-7.142446E-2,-2.7887564E-2,3.9649345E-3,4.0051855E-2,1.0962133E-1,1.0397015E-1,1.6963641E-1,-5.0938646E-3,1.664134E-3,-2.4000192E-3,-9.164888E-4,-8.697371E-4,4.310623E-3,9.9897115E-6,1.126324E-3,7.2574883E-4,1.7222823E-3,4.0449747E-3,1.3664E-3,5.0087487E-3,2.6969211E-3,3.614749E-3,5.592957E-3],"categories":[],"categories_nodes":[],"categories_segments":[],"categories_sizes":[],"default_left":[0,0,0,0,0,0,0,0,0,0,0,0,0,0,0,0,0,0,0,0,0,0,0,0,0,0,0,0,0,0,0],"id":42,"left_children":[1,3,5,7,9,11,13,15,17,19,21,23,25,27,29,-1,-1,-1,-1,-1,-1,-1,-1,-1,-1,-1,-1,-1,-1,-1,-1],"loss_changes":[5.818313E1,1.9228954E1,8.63385E0,6.3188477E0,2.5264506E0,1.9694405E0,1.5784836E0,1.2397976E0,1.4223537E0,9.5295405E-1,5.918416E-1,1.4288664E0,6.9305706E-1,1.7817822E0,3.248825E-1,0E0,0E0,0E0,0E0,0E0,0E0,0E0,0E0,0E0,0E0,0E0,0E0,0E0,0E0,0E0,0E0],"parents":[2147483647,0,0,1,1,2,2,3,3,4,4,5,5,6,6,7,7,8,8,9,9,10,10,11,11,12,12,13,13,14,14],"right_children":[2,4,6,8,10,12,14,16,18,20,22,24,26,28,30,-1,-1,-1,-1,-1,-1,-1,-1,-1,-1,-1,-1,-1,-1,-1,-1],"split_conditions":[1.0244584E0,7.5001645E-1,1.2666874E0,5.0000185E-1,9.0000385E-1,9E0,1.4843774E0,9.333394E-1,7.6666903E-1,2.4E1,6E0,1.1166673E0,7E0,1.1198808E0,4E0,-5.0938646E-3,1.664134E-3,-2.4000192E-3,-9.164888E-4,-8.697371E-4,4.310623E-3,9.9897115E-6,1.126324E-3,7.2574883E-4,1.7222823E-3,4.0449747E-3,1.3664E-3,5.0087487E-3,2.6969211E-3,3.614749E-3,5.592957E-3],"split_indices":[356,356,356,352,308,351,356,60,332,351,359,340,71,224,331,0,0,0,0,0,0,0,0,0,0,0,0,0,0,0,0],"split_type":[0,0,0,0,0,0,0,0,0,0,0,0,0,0,0,0,0,0,0,0,0,0,0,0,0,0,0,0,0,0,0],"sum_hessian":[2.3137E4,1.4958E4,8.179E3,5.005E3,9.953E3,5.667E3,2.512E3,9.1E2,4.095E3,5.07E3,4.883E3,5.224E3,4.43E2,2.055E3,4.57E2,8.86E2,2.4E1,3.382E3,7.13E2,5.039E3,3.1E1,4.41E3,4.73E2,2.734E3,2.49E3,3.16E2,1.27E2,3.72E2,1.683E3,1.2E2,3.37E2],"tree_param":{"num_deleted":"0","num_feature":"360","num_nodes":"31","size_leaf_vector":"1"}},{"base_weights":[4.276315E-4,-3.851186E-2,6.2133368E-2,-9.534327E-2,-1.8611776E-2,4.1748397E-2,1.1359639E-1,-1.5695441E-1,-7.595724E-2,-3.4159683E-2,4.0408147E-5,2.6698302E-2,6.322748E-2,1.632097E-1,9.843818E-2,-6.0138735E-3,-3.863722E-3,-2.3739808E-3,2.1888426E-4,-1.2514909E-3,7.1426048E-6,-5.215353E-5,2.5356559E-3,1.1673608E-3,3.1805117E-4,1.6817887E-3,3.2424177E-3,7.1912576E-3,4.0537147E-3,2.394503E-3,4.5170644E-3],"categories":[],"categories_nodes":[],"categories_segments":[],"categories_sizes":[],"default_left":[0,0,0,0,0,0,0,0,0,0,0,0,0,0,0,0,0,0,0,0,0,0,0,0,0,0,0,0,0,0,0],"id":43,"left_children":[1,3,5,7,9,11,13,15,17,19,21,23,25,27,29,-1,-1,-1,-1,-1,-1,-1,-1,-1,-1,-1,-1,-1,-1,-1,-1],"loss_changes":[5.5790333E1,1.608477E1,9.404591E0,4.3721046E0,3.0614889E0,2.0704823E0,1.8732376E0,1.0207863E0,7.5063515E-1,1.4998121E0,7.2857004E-1,7.3974776E-1,8.291826E-1,1.2042103E0,1.8627529E0,0E0,0E0,0E0,0E0,0E0,0E0,0E0,0E0,0E0,0E0,0E0,0E0,0E0,0E0,0E0,0E0],"parents":[2147483647,0,0,1,1,2,2,3,3,4,4,5,5,6,6,7,7,8,8,9,9,10,10,11,11,12,12,13,13,14,14],"right_children":[2,4,6,8,10,12,14,16,18,20,22,24,26,28,30,-1,-1,-1,-1,-1,-1,-1,-1,-1,-1,-1,-1,-1,-1,-1,-1],"split_conditions":[1.0009952E0,7.0000327E-1,1.2666874E0,5.000018E-1,8.833397E-1,1.1333354E0,9.500455E-1,3.5001045E-1,1.2E1,4E0,1.1333549E0,4.79914E2,8E0,1.2000023E0,1.4333546E0,-6.0138735E-3,-3.863722E-3,-2.3739808E-3,2.1888426E-4,-1.2514909E-3,7.1426048E-6,-5.215353E-5,2.5356559E-3,1.1673608E-3,3.1805117E-4,1.6817887E-3,3.2424177E-3,7.1912576E-3,4.0537147E-3,2.394503E-3,4.5170644E-3],"split_indices":[356,340,356,356,348,356,24,340,359,359,348,341,323,268,304,0,0,0,0,0,0,0,0,0,0,0,0,0,0,0,0],"split_type":[0,0,0,0,0,0,0,0,0,0,0,0,0,0,0,0,0,0,0,0,0,0,0,0,0,0,0,0,0,0,0],"sum_hessian":[2.3216E4,1.4233E4,8.983E3,3.689E3,1.0544E4,6.437E3,2.546E3,8.8E2,2.809E3,5.753E3,4.791E3,3.789E3,2.648E3,5.92E2,1.954E3,3.42E2,5.38E2,2.707E3,1.02E2,4.719E3,1.034E3,4.692E3,9.9E1,2.15E3,1.639E3,2.287E3,3.61E2,1.56E2,4.36E2,1.443E3,5.11E2],"tree_param":{"num_deleted":"0","num_feature":"360","num_nodes":"31","size_leaf_vector":"1"}},{"base_weights":[2.828884E-4,-4.109767E-2,5.6390636E-2,-9.574263E-2,-2.0415E-2,3.463389E-2,1.0813176E-1,-1.5308635E-1,-7.677946E-2,-3.948485E-2,-6.8909465E-3,1.9664576E-2,5.2837368E-2,8.859444E-2,1.4137524E-1,-6.6245245E-3,-4.0677823E-3,-2.4833148E-3,-9.4560964E-4,-1.3354117E-3,1.4759779E-4,-2.683971E-4,3.5740456E-3,3.6684892E-4,1.2929736E-3,1.4888812E-3,3.832519E-3,3.7127875E-3,1.9925353E-3,5.742547E-3,3.8671137E-3],"categories":[],"categories_nodes":[],"categories_segments":[],"categories_sizes":[],"default_left":[0,0,0,0,0,0,0,0,0,0,0,0,0,0,0,0,0,0,0,0,0,0,0,0,0,0,0,0,0,0,0],"id":44,"left_children":[1,3,5,7,9,11,13,15,17,19,21,23,25,27,29,-1,-1,-1,-1,-1,-1,-1,-1,-1,-1,-1,-1,-1,-1,-1,-1],"loss_changes":[5.367156E1,1.5021528E1,1.1028654E1,3.9354248E0,2.4846158E0,1.8749142E0,1.8499413E0,1.0067196E0,7.3163605E-1,8.978486E-1,1.4542629E0,6.556277E-1,7.2452354E-1,1.4022169E0,6.117153E-1,0E0,0E0,0E0,0E0,0E0,0E0,0E0,0E0,0E0,0E0,0E0,0E0,0E0,0E0,0E0,0E0],"parents":[2147483647,0,0,1,1,2,2,3,3,4,4,5,5,6,6,7,7,8,8,9,9,10,10,11,11,12,12,13,13,14,14],"right_children":[2,4,6,8,10,12,14,16,18,20,22,24,26,28,30,-1,-1,-1,-1,-1,-1,-1,-1,-1,-1,-1,-1,-1,-1,-1,-1],"split_conditions":[9.83347E-1,7.0000154E-1,1.2500006E0,5.0000185E-1,8.3335716E-1,1.0989692E0,6E0,2.5001886E-1,5E0,5E0,1.6E1,4E0,1.6E1,2.9060367E2,9.167019E-1,-6.6245245E-3,-4.0677823E-3,-2.4833148E-3,-9.4560964E-4,-1.3354117E-3,1.4759779E-4,-2.683971E-4,3.5740456E-3,3.6684892E-4,1.2929736E-3,1.4888812E-3,3.832519E-3,3.7127875E-3,1.9925353E-3,5.742547E-3,3.8671137E-3],"split_indices":[340,352,356,352,352,340,335,352,359,271,355,359,267,13,36,0,0,0,0,0,0,0,0,0,0,0,0,0,0,0,0],"split_type":[0,0,0,0,0,0,0,0,0,0,0,0,0,0,0,0,0,0,0,0,0,0,0,0,0,0,0,0,0,0,0],"sum_hessian":[2.3114E4,1.3302E4,9.812E3,3.65E3,9.652E3,6.91E3,2.902E3,9.04E2,2.746E3,4.001E3,5.651E3,3.796E3,3.114E3,1.832E3,1.07E3,1.82E2,7.22E2,2.422E3,3.24E2,3.596E3,4.05E2,5.562E3,8.9E1,2.886E3,9.1E2,2.989E3,1.25E2,7.05E2,1.127E3,2.09E2,8.61E2],"tree_param":{"num_deleted":"0","num_feature":"360","num_nodes":"31","size_leaf_vector":"1"}},{"base_weights":[-3.145653E-6,-5.1264465E-2,4.1312084E-2,-1.1641512E-1,-3.6797743E-2,1.7005345E-2,8.742345E-2,-1.8873854E-1,-9.823846E-2,-5.292639E-2,-1.9065486E-2,3.972447E-3,3.381175E-2,7.0266984E-2,1.2616563E-1,-7.2428966E-3,-5.2328277E-3,-1.5360359E-3,-3.4371E-3,-1.7810926E-3,-6.668661E-4,-6.822752E-4,1.3787317E-3,1.5399352E-4,-3.089336E-3,8.492908E-4,3.3984312E-3,1.9822444E-3,4.35177E-3,3.0618752E-3,4.5820824E-3],"categories":[],"categories_nodes":[],"categories_segments":[],"categories_sizes":[],"default_left":[0,0,0,0,0,0,0,0,0,0,0,0,0,0,0,0,0,0,0,0,0,0,0,0,0,0,0,0,0,0,0],"id":45,"left_children":[1,3,5,7,9,11,13,15,17,19,21,23,25,27,29,-1,-1,-1,-1,-1,-1,-1,-1,-1,-1,-1,-1,-1,-1,-1,-1],"loss_changes":[4.9089058E1,9.730726E0,1.4371515E1,2.4215755E0,2.4136171E0,1.8373051E0,2.914688E0,1.9907475E-1,1.1329165E0,8.66951E-1,9.641757E-1,5.7901543E-1,1.5864472E0,9.3281364E-1,8.2735634E-1,0E0,0E0,0E0,0E0,0E0,0E0,0E0,0E0,0E0,0E0,0E0,0E0,0E0,0E0,0E0,0E0],"parents":[2147483647,0,0,1,1,2,2,3,3,4,4,5,5,6,6,7,7,8,8,9,9,10,10,11,11,12,12,13,13,14,14],"right_children":[2,4,6,8,10,12,14,16,18,20,22,24,26,28,30,-1,-1,-1,-1,-1,-1,-1,-1,-1,-1,-1,-1,-1,-1,-1,-1],"split_conditions":[9.0038687E-1,6.000301E-1,1.1666707E0,3.6667186E-1,8.000062E-1,1.0244584E0,1.3666852E0,2.0005924E-1,4.944603E-1,4E0,7E0,1.348075E0,9E0,2.1E1,6E0,-7.2428966E-3,-5.2328277E-3,-1.5360359E-3,-3.4371E-3,-1.7810926E-3,-6.668661E-4,-6.822752E-4,1.3787317E-3,1.5399352E-4,-3.089336E-3,8.492908E-4,3.3984312E-3,1.9822444E-3,4.35177E-3,3.0618752E-3,4.5820824E-3],"split_indices":[352,344,348,268,356,356,352,356,180,267,351,188,351,55,343,0,0,0,0,0,0,0,0,0,0,0,0,0,0,0,0],"split_type":[0,0,0,0,0,0,0,0,0,0,0,0,0,0,0,0,0,0,0,0,0,0,0,0,0,0,0,0,0,0,0],"sum_hessian":[2.3176E4,1.0344E4,1.2832E4,1.877E3,8.467E3,8.405E3,4.427E3,3.74E2,1.503E3,4.43E3,4.037E3,4.738E3,3.667E3,3.072E3,1.355E3,7.5E1,2.99E2,3.9E2,1.113E3,3.658E3,7.72E2,3.823E3,2.14E2,4.689E3,4.9E1,3.432E3,2.35E2,2.912E3,1.6E2,7.15E2,6.4E2],"tree_param":{"num_deleted":"0","num_feature":"360","num_nodes":"31","size_leaf_vector":"1"}},{"base_weights":[-9.226153E-6,-4.5706358E-2,4.435559E-2,-1.1671341E-1,-3.2103997E-2,1.9077858E-2,8.355328E-2,-1.7774948E-1,-9.6637584E-2,-5.3201996E-2,-1.6474567E-2,5.820046E-3,3.3647124E-2,6.2762044E-2,1.1268237E-1,-5.440866E-3,1.9061976E-3,-1.5710029E-3,-3.3593865E-3,-1.7928279E-3,-6.80423E-4,-5.4248696E-4,2.8820485E-3,2.1648924E-4,-3.7430387E-3,8.7850576E-4,2.751916E-3,1.5932588E-3,3.0945647E-3,2.7360043E-3,4.2720237E-3],"categories":[],"categories_nodes":[],"categories_segments":[],"categories_sizes":[],"default_left":[0,0,0,0,0,0,0,0,0,0,0,0,0,0,0,0,0,0,0,0,0,0,0,0,0,0,0,0,0,0,0],"id":46,"left_children":[1,3,5,7,9,11,13,15,17,19,21,23,25,27,29,-1,-1,-1,-1,-1,-1,-1,-1,-1,-1,-1,-1,-1,-1,-1,-1],"loss_changes":[4.703656E1,1.1021193E1,1.165119E1,2.2051277E0,3.156105E0,1.3786652E0,2.7691498E0,4.1732025E-1,9.1839504E-1,8.0716133E-1,9.9236906E-1,6.734485E-1,8.487253E-1,1.0300732E0,1.188137E0,0E0,0E0,0E0,0E0,0E0,0E0,0E0,0E0,0E0,0E0,0E0,0E0,0E0,0E0,0E0,0E0],"parents":[2147483647,0,0,1,1,2,2,3,3,4,4,5,5,6,6,7,7,8,8,9,9,10,10,11,11,12,12,13,13,14,14],"right_children":[2,4,6,8,10,12,14,16,18,20,22,24,26,28,30,-1,-1,-1,-1,-1,-1,-1,-1,-1,-1,-1,-1,-1,-1,-1,-1],"split_conditions":[9.3334854E-1,6.00005E-1,1.1500242E0,3.8333508E-1,7.833375E-1,1.0244584E0,1.3166751E0,6E0,4.9509713E-1,4E0,1.4E1,1.3811089E0,8E0,7E0,6E0,-5.440866E-3,1.9061976E-3,-1.5710029E-3,-3.3593865E-3,-1.7928279E-3,-6.80423E-4,-5.4248696E-4,2.8820485E-3,2.1648924E-4,-3.7430387E-3,8.7850576E-4,2.751916E-3,1.5932588E-3,3.0945647E-3,2.7360043E-3,4.2720237E-3],"split_indices":[352,356,352,336,328,356,352,259,172,359,359,144,343,23,359,0,0,0,0,0,0,0,0,0,0,0,0,0,0,0,0],"split_type":[0,0,0,0,0,0,0,0,0,0,0,0,0,0,0,0,0,0,0,0,0,0,0,0,0,0,0,0,0,0,0],"sum_hessian":[2.3199E4,1.1429E4,1.177E4,1.835E3,9.594E3,7.158E3,4.612E3,4.51E2,1.384E3,4.079E3,5.515E3,3.752E3,3.406E3,2.695E3,1.917E3,4.45E2,6E0,3.59E2,1.025E3,3.354E3,7.25E2,5.439E3,7.6E1,3.714E3,3.8E1,3.171E3,2.35E2,2.179E3,5.16E2,1.117E3,8E2],"tree_param":{"num_deleted":"0","num_feature":"360","num_nodes":"31","size_leaf_vector":"1"}},{"base_weights":[7.300906E-4,-3.974558E-2,4.8420627E-2,-9.3873985E-2,-2.3434795E-2,2.2919584E-2,8.431565E-2,-1.6028883E-1,-7.9080164E-2,-3.5925224E-2,-1.4126188E-3,1.7276492E-2,6.137223E-2,6.455304E-2,1.1124392E-1,-4.9306494E-3,1.0890481E-3,-1.3609987E-3,-2.6670208E-3,-1.2468217E-3,2.7615856E-4,-1.0050508E-4,3.5415096E-3,4.7703314E-4,4.0990785E-3,2.063457E-3,-2.2239583E-3,1.8079181E-3,4.400561E-3,2.9979292E-3,4.884773E-3],"categories":[],"categories_nodes":[],"categories_segments":[],"categories_sizes":[],"default_left":[0,0,0,0,0,0,0,0,0,0,0,0,0,0,0,0,0,0,0,0,0,0,0,0,0,0,0,0,0,0,0],"id":47,"left_children":[1,3,5,7,9,11,13,15,17,19,21,23,25,27,29,-1,-1,-1,-1,-1,-1,-1,-1,-1,-1,-1,-1,-1,-1,-1,-1],"loss_changes":[4.4801342E1,1.1068821E1,9.741425E0,2.8176346E0,2.650332E0,1.3435848E0,2.3295746E0,4.4003773E-1,7.701912E-1,1.5687819E0,7.981288E-1,8.754693E-1,8.0277634E-1,8.7087727E-1,1.0480938E0,0E0,0E0,0E0,0E0,0E0,0E0,0E0,0E0,0E0,0E0,0E0,0E0,0E0,0E0,0E0,0E0],"parents":[2147483647,0,0,1,1,2,2,