{"learner":{"attributes":{"best_iteration":"392","best_score":"134.46698158782226","scikit_learn":"{\"_estimator_type\": \"regressor\"}"},"feature_names":[],"feature_types":[],"gradient_booster":{"model":{"cats":{"enc":[],"feature_segments":[],"sorted_idx":[]},"gbtree_model_param":{"num_parallel_tree":"1","num_trees":"1772"},"iteration_indptr":[0,4,8,12,16,20,24,28,32,36,40,44,48,52,56,60,64,68,72,76,80,84,88,92,96,100,104,108,112,116,120,124,128,132,136,140,144,148,152,156,160,164,168,172,176,180,184,188,192,196,200,204,208,212,216,220,224,228,232,236,240,244,248,252,256,260,264,268,272,276,280,284,288,292,296,300,304,308,312,316,320,324,328,332,336,340,344,348,352,356,360,364,368,372,376,380,384,388,392,396,400,404,408,412,416,420,424,428,432,436,440,444,448,452,456,460,464,468,472,476,480,484,488,492,496,500,504,508,512,516,520,524,528,532,536,540,544,548,552,556,560,564,568,572,576,580,584,588,592,596,600,604,608,612,616,620,624,628,632,636,640,644,648,652,656,660,664,668,672,676,680,684,688,692,696,700,704,708,712,716,720,724,728,732,736,740,744,748,752,756,760,764,768,772,776,780,784,788,792,796,800,804,808,812,816,820,824,828,832,836,840,844,848,852,856,860,864,868,872,876,880,884,888,892,896,900,904,908,912,916,920,924,928,932,936,940,944,948,952,956,960,964,968,972,976,980,984,988,992,996,1000,1004,1008,1012,1016,1020,1024,1028,1032,1036,1040,1044,1048,1052,1056,1060,1064,1068,1072,1076,1080,1084,1088,1092,1096,1100,1104,1108,1112,1116,1120,1124,1128,1132,1136,1140,1144,1148,1152,1156,1160,1164,1168,1172,1176,1180,1184,1188,1192,1196,1200,1204,1208,1212,1216,1220,1224,1228,1232,1236,1240,1244,1248,1252,1256,1260,1264,1268,1272,1276,1280,1284,1288,1292,1296,1300,1304,1308,1312,1316,1320,1324,1328,1332,1336,1340,1344,1348,1352,1356,1360,1364,1368,1372,1376,1380,1384,1388,1392,1396,1400,1404,1408,1412,1416,1420,1424,1428,1432,1436,1440,1444,1448,1452,1456,1460,1464,1468,1472,1476,1480,1484,1488,1492,1496,1500,1504,1508,1512,1516,1520,1524,1528,1532,1536,1540,1544,1548,1552,1556,1560,1564,1568,1572,1576,1580,1584,1588,1592,1596,1600,1604,1608,1612,1616,1620,1624,1628,1632,1636,1640,1644,1648,1652,1656,1660,1664,1668,1672,1676,1680,1684,1688,1692,1696,1700,1704,1708,1712,1716,1720,1724,1728,1732,1736,1740,1744,1748,1752,1756,1760,1764,1768,1772],"tree_info":[0,1,2,3,0,1,2,3,0,1,2,3,0,1,2,3,0,1,2,3,0,1,2,3,0,1,2,3,0,1,2,3,0,1,2,3,0,1,2,3,0,1,2,3,0,1,2,3,0,1,2,3,0,1,2,3,0,1,2,3,0,1,2,3,0,1,2,3,0,1,2,3,0,1,2,3,0,1,2,3,0,1,2,3,0,1,2,3,0,1,2,3,0,1,2,3,0,1,2,3,0,1,2,3,0,1,2,3,0,1,2,3,0,1,2,3,0,1,2,3,0,1,2,3,0,1,2,3,0,1,2,3,0,1,2,3,0,1,2,3,0,1,2,3,0,1,2,3,0,1,2,3,0,1,2,3,0,1,2,3,0,1,2,3,0,1,2,3,0,1,2,3,0,1,2,3,0,1,2,3,0,1,2,3,0,1,2,3,0,1,2,3,0,1,2,3,0,1,2,3,0,1,2,3,0,1,2,3,0,1,2,3,0,1,2,3,0,1,2,3,0,1,2,3,0,1,2,3,0,1,2,3,0,1,2,3,0,1,2,3,0,1,2,3,0,1,2,3,0,1,2,3,0,1,2,3,0,1,2,3,0,1,2,3,0,1,2,3,0,1,2,3,0,1,2,3,0,1,2,3,0,1,2,3,0,1,2,3,0,1,2,3,0,1,2,3,0,1,2,3,0,1,2,3,0,1,2,3,0,1,2,3,0,1,2,3,0,1,2,3,0,1,2,3,0,1,2,3,0,1,2,3,0,1,2,3,0,1,2,3,0,1,2,3,0,1,2,3,0,1,2,3,0,1,2,3,0,1,2,3,0,1,2,3,0,1,2,3,0,1,2,3,0,1,2,3,0,1,2,3,0,1,2,3,0,1,2,3,0,1,2,3,0,1,2,3,0,1,2,3,0,1,2,3,0,1,2,3,0,1,2,3,0,1,2,3,0,1,2,3,0,1,2,3,0,1,2,3,0,1,2,3,0,1,2,3,0,1,2,3,0,1,2,3,0,1,2,3,0,1,2,3,0,1,2,3,0,1,2,3,0,1,2,3,0,1,2,3,0,1,2,3,0,1,2,3,0,1,2,3,0,1,2,3,0,1,2,3,0,1,2,3,0,1,2,3,0,1,2,3,0,1,2,3,0,1,2,3,0,1,2,3,0,1,2,3,0,1,2,3,0,1,2,3,0,1,2,3,0,1,2,3,0,1,2,3,0,1,2,3,0,1,2,3,0,1,2,3,0,1,2,3,0,1,2,3,0,1,2,3,0,1,2,3,0,1,2,3,0,1,2,3,0,1,2,3,0,1,2,3,0,1,2,3,0,1,2,3,0,1,2,3,0,1,2,3,0,1,2,3,0,1,2,3,0,1,2,3,0,1,2,3,0,1,2,3,0,1,2,3,0,1,2,3,0,1,2,3,0,1,2,3,0,1,2,3,0,1,2,3,0,1,2,3,0,1,2,3,0,1,2,3,0,1,2,3,0,1,2,3,0,1,2,3,0,1,2,3,0,1,2,3,0,1,2,3,0,1,2,3,0,1,2,3,0,1,2,3,0,1,2,3,0,1,2,3,0,1,2,3,0,1,2,3,0,1,2,3,0,1,2,3,0,1,2,3,0,1,2,3,0,1,2,3,0,1,2,3,0,1,2,3,0,1,2,3,0,1,2,3,0,1,2,3,0,1,2,3,0,1,2,3,0,1,2,3,0,1,2,3,0,1,2,3,0,1,2,3,0,1,2,3,0,1,2,3,0,1,2,3,0,1,2,3,0,1,2,3,0,1,2,3,0,1,2,3,0,1,2,3,0,1,2,3,0,1,2,3,0,1,2,3,0,1,2,3,0,1,2,3,0,1,2,3,0,1,2,3,0,1,2,3,0,1,2,3,0,1,2,3,0,1,2,3,0,1,2,3,0,1,2,3,0,1,2,3,0,1,2,3,0,1,2,3,0,1,2,3,0,1,2,3,0,1,2,3,0,1,2,3,0,1,2,3,0,1,2,3,0,1,2,3,0,1,2,3,0,1,2,3,0,1,2,3,0,1,2,3,0,1,2,3,0,1,2,3,0,1,2,3,0,1,2,3,0,1,2,3,0,1,2,3,0,1,2,3,0,1,2,3,0,1,2,3,0,1,2,3,0,1,2,3,0,1,2,3,0,1,2,3,0,1,2,3,0,1,2,3,0,1,2,3,0,1,2,3,0,1,2,3,0,1,2,3,0,1,2,3,0,1,2,3,0,1,2,3,0,1,2,3,0,1,2,3,0,1,2,3,0,1,2,3,0,1,2,3,0,1,2,3,0,1,2,3,0,1,2,3,0,1,2,3,0,1,2,3,0,1,2,3,0,1,2,3,0,1,2,3,0,1,2,3,0,1,2,3,0,1,2,3,0,1,2,3,0,1,2,3,0,1,2,3,0,1,2,3,0,1,2,3,0,1,2,3,0,1,2,3,0,1,2,3,0,1,2,3,0,1,2,3,0,1,2,3,0,1,2,3,0,1,2,3,0,1,2,3,0,1,2,3,0,1,2,3,0,1,2,3,0,1,2,3,0,1,2,3,0,1,2,3,0,1,2,3,0,1,2,3,0,1,2,3,0,1,2,3,0,1,2,3,0,1,2,3,0,1,2,3,0,1,2,3,0,1,2,3,0,1,2,3,0,1,2,3,0,1,2,3,0,1,2,3,0,1,2,3,0,1,2,3,0,1,2,3,0,1,2,3,0,1,2,3,0,1,2,3,0,1,2,3,0,1,2,3,0,1,2,3,0,1,2,3,0,1,2,3,0,1,2,3,0,1,2,3,0,1,2,3,0,1,2,3,0,1,2,3,0,1,2,3,0,1,2,3,0,1,2,3,0,1,2,3,0,1,2,3,0,1,2,3,0,1,2,3,0,1,2,3,0,1,2,3,0,1,2,3,0,1,2,3,0,1,2,3,0,1,2,3,0,1,2,3,0,1,2,3,0,1,2,3,0,1,2,3,0,1,2,3,0,1,2,3,0,1,2,3,0,1,2,3,0,1,2,3,0,1,2,3,0,1,2,3,0,1,2,3,0,1,2,3,0,1,2,3,0,1,2,3,0,1,2,3,0,1,2,3,0,1,2,3,0,1,2,3,0,1,2,3,0,1,2,3,0,1,2,3,0,1,2,3,0,1,2,3,0,1,2,3,0,1,2,3,0,1,2,3,0,1,2,3,0,1,2,3,0,1,2,3,0,1,2,3,0,1,2,3,0,1,2,3,0,1,2,3,0,1,2,3,0,1,2,3,0,1,2,3,0,1,2,3,0,1,2,3,0,1,2,3,0,1,2,3,0,1,2,3,0,1,2,3,0,1,2,3,0,1,2,3,0,1,2,3,0,1,2,3,0,1,2,3,0,1,2,3,0,1,2,3,0,1,2,3,0,1,2,3,0,1,2,3,0,1,2,3,0,1,2,3,0,1,2,3,0,1,2,3,0,1,2,3,0,1,2,3,0,1,2,3,0,1,2,3,0,1,2,3,0,1,2,3,0,1,2,3,0,1,2,3,0,1,2,3,0,1,2,3,0,1,2,3,0,1,2,3,0,1,2,3,0,1,2,3,0,1,2,3,0,1,2,3,0,1,2,3,0,1,2,3,0,1,2,3,0,1,2,3,0,1,2,3,0,1,2,3,0,1,2,3,0,1,2,3,0,1,2,3,0,1,2,3,0,1,2,3,0,1,2,3,0,1,2,3,0,1,2,3,0,1,2,3,0,1,2,3,0,1,2,3,0,1,2,3,0,1,2,3,0,1,2,3,0,1,2,3,0,1,2,3,0,1,2,3,0,1,2,3,0,1,2,3,0,1,2,3,0,1,2,3,0,1,2,3,0,1,2,3,0,1,2,3,0,1,2,3,0,1,2,3,0,1,2,3,0,1,2,3,0,1,2,3,0,1,2,3,0,1,2,3,0,1,2,3,0,1,2,3,0,1,2,3,0,1,2,3,0,1,2,3,0,1,2,3],"trees":[{"base_weights":[-1.6526411E-4,1.6104575E-1,-2.2331405E-2,1.3462749E-1,2.3369882E-1,1.5180929E-2,-5.8900587E-2,7.8116134E-2,1.683176E-1,3.99724E-1,1.5307528E-1,7.417597E-2,8.434215E-3,-5.3413138E-2,-3.612888E-1,-4.764505E-4,4.1772025E-3,8.519367E-3,3.6886893E-3,1.3176043E-2,3.552538E-3,1.2169194E-2,3.8402383E-3,3.0479967E-3,7.521075E-4,-3.5574405E-5,1.3373265E-3,-1.5039876E-3,-7.4331807E-3,-4.378842E-2,-1.0028176E-2],"categories":[],"categories_nodes":[],"categories_segments":[],"categories_sizes":[],"default_left":[0,0,0,0,0,0,0,0,0,0,0,0,0,0,0,0,0,0,0,0,0,0,0,0,0,0,0,0,0,0,0],"id":0,"left_children":[1,3,5,7,9,11,13,15,17,19,21,23,25,27,29,-1,-1,-1,-1,-1,-1,-1,-1,-1,-1,-1,-1,-1,-1,-1,-1],"loss_changes":[1.1999608E2,7.7224197E0,4.0507526E1,5.6357536E0,1.4339916E1,5.7918954E0,2.4749683E1,6.426546E0,9.709194E0,3.8012695E0,4.5100937E0,1.9967136E0,4.5526543E0,9.321369E0,7.2256203E0,0E0,0E0,0E0,0E0,0E0,0E0,0E0,0E0,0E0,0E0,0E0,0E0,0E0,0E0,0E0,0E0],"parents":[2147483647,0,0,1,1,2,2,3,3,4,4,5,5,6,6,7,7,8,8,9,9,10,10,11,11,12,12,13,13,14,14],"right_children":[2,4,6,8,10,12,14,16,18,20,22,24,26,28,30,-1,-1,-1,-1,-1,-1,-1,-1,-1,-1,-1,-1,-1,-1,-1,-1],"split_conditions":[5.5209076E-1,5E0,9.50026E-1,9.95801E2,4.1387606E-1,-2.3015946E-2,1.6334375E0,1.3E0,3.666708E-1,4.500209E-1,2.3334415E-1,8.333748E-1,3.1E0,1.7166766E0,1.2044358E0,-4.764505E-4,4.1772025E-3,8.519367E-3,3.6886893E-3,1.3176043E-2,3.552538E-3,1.2169194E-2,3.8402383E-3,3.0479967E-3,7.521075E-4,-3.5574405E-5,1.3373265E-3,-1.5039876E-3,-7.4331807E-3,-4.378842E-2,-1.0028176E-2],"split_indices":[116,167,116,140,0,131,116,162,116,126,116,116,162,0,112,0,0,0,0,0,0,0,0,0,0,0,0,0,0,0,0],"split_type":[0,0,0,0,0,0,0,0,0,0,0,0,0,0,0,0,0,0,0,0,0,0,0,0,0,0,0,0,0,0,0],"sum_hessian":[3.3582E4,4.058E3,2.9524E4,2.979E3,1.079E3,1.4573E4,1.4951E4,1.115E3,1.864E3,3.51E2,7.28E2,1.493E3,1.308E4,1.4686E4,2.65E2,4.39E2,6.76E2,5.23E2,1.341E3,3.07E2,4.4E1,6.4E1,6.64E2,9.56E2,5.37E2,1.0329E4,2.751E3,1.4444E4,2.42E2,5E0,2.6E2],"tree_param":{"num_deleted":"0","num_feature":"172","num_nodes":"31","size_leaf_vector":"1"}},{"base_weights":[-4.0858887E-2,1.1809736E2,-4.1964017E2,1.8222035E2,3.2920116E1,-2.743155E2,-4.3026166E2,1.9683879E2,1.0747398E2,-3.2264946E0,7.4059456E1,-1.5820305E2,-3.3433127E2,-2.9068585E2,-4.3865543E2,7.0650754E0,5.1325917E0,2.6321805E0,5.016398E0,1.017009E0,-8.577643E-1,7.0149183E0,2.0710104E0,-4.3204126E0,-1.2117122E1,-1.2354296E1,-8.4108305E0,-9.379699E0,-3.7601933E0,-1.2385749E1,-1.4454501E1],"categories":[],"categories_nodes":[],"categories_segments":[],"categories_sizes":[],"default_left":[0,0,0,0,0,0,0,0,0,0,0,0,0,0,0,0,0,0,0,0,0,0,0,0,0,0,0,0,0,0,0],"id":1,"left_children":[1,3,5,7,9,11,13,15,17,19,21,23,25,27,29,-1,-1,-1,-1,-1,-1,-1,-1,-1,-1,-1,-1,-1,-1,-1,-1],"loss_changes":[1.6737553E9,1.4389651E8,1.1331968E7,1.6402816E7,1.6829164E7,3.487096E6,7.969152E6,1.2476384E7,2.886658E6,5.674984E6,4.23397E6,5.51884E5,1.281108E6,1.395718E6,7.057152E6,0E0,0E0,0E0,0E0,0E0,0E0,0E0,0E0,0E0,0E0,0E0,0E0,0E0,0E0,0E0,0E0],"parents":[2147483647,0,0,1,1,2,2,3,3,4,4,5,5,6,6,7,7,8,8,9,9,10,10,11,11,12,12,13,13,14,14],"right_children":[2,4,6,8,10,12,14,16,18,20,22,24,26,28,30,-1,-1,-1,-1,-1,-1,-1,-1,-1,-1,-1,-1,-1,-1,-1,-1],"split_conditions":[7.03897E2,3.2805E2,3.4875232E-1,8E0,5.20641E2,9.88005E2,8.59953E2,2.42E2,4.940245E2,4.75817E2,2.759297E-1,3.548832E-1,3.23997E2,9.9582E2,1.7E0,7.0650754E0,5.1325917E0,2.6321805E0,5.016398E0,1.017009E0,-8.577643E-1,7.0149183E0,2.0710104E0,-4.3204126E0,-1.2117122E1,-1.2354296E1,-8.4108305E0,-9.379699E0,-3.7601933E0,-1.2385749E1,-1.4454501E1],"split_indices":[117,117,123,75,136,140,117,117,140,117,88,84,9,21,162,0,0,0,0,0,0,0,0,0,0,0,0,0,0,0,0],"split_type":[0,0,0,0,0,0,0,0,0,0,0,0,0,0,0,0,0,0,0,0,0,0,0,0,0,0,0,0,0,0,0],"sum_hessian":[3.3763E4,2.6346E4,7.417E3,1.503E4,1.1316E4,5.07E2,6.91E3,1.257E4,2.46E3,6.024E3,5.292E3,1.74E2,3.33E2,3.94E2,6.516E3,5.022E3,7.548E3,1.851E3,6.09E2,2.445E3,3.579E3,1.6E2,5.132E3,1.66E2,8E0,1.34E2,1.99E2,3.47E2,4.7E1,4.085E3,2.431E3],"tree_param":{"num_deleted":"0","num_feature":"172","num_nodes":"31","size_leaf_vector":"1"}},{"base_weights":[3.0755991E-2,9.396944E0,-4.5729233E1,7.667345E0,1.7054796E1,-4.2469234E1,-9.726359E1,6.089768E0,1.0076465E1,1.5033361E1,2.2764389E1,-4.509199E1,-3.44304E1,-1.0133879E2,-3.6863503E1,1.4535294E-1,2.2765689E-1,2.7926657E-1,4.364003E-1,3.8992444E-1,6.408847E-1,6.0533845E-1,8.3285856E-1,-1.4704787E0,-1.2439386E0,-1.207401E0,-8.4568596E-1,-2.3101902E0,-3.168199E0,-5.0537996E-3,-1.4939669E0],"categories":[],"categories_nodes":[],"categories_segments":[],"categories_sizes":[],"default_left":[0,0,0,0,0,0,0,0,0,0,0,0,0,0,0,0,0,0,0,0,0,0,0,0,0,0,0,0,0,0,0],"id":2,"left_children":[1,3,5,7,9,11,13,15,17,19,21,23,25,27,29,-1,-1,-1,-1,-1,-1,-1,-1,-1,-1,-1,-1,-1,-1,-1,-1],"loss_changes":[1.4406417E7,3.69429E5,9.55315E5,8.64495E4,5.8977625E4,1.11723E5,7.969275E4,2.5627625E4,3.0764E4,4.8672875E4,1.6781562E4,5.55765E4,4.699075E4,2.476875E4,1.090391E4,0E0,0E0,0E0,0E0,0E0,0E0,0E0,0E0,0E0,0E0,0E0,0E0,0E0,0E0,0E0,0E0],"parents":[2147483647,0,0,1,1,2,2,3,3,4,4,5,5,6,6,7,7,8,8,9,9,10,10,11,11,12,12,13,13,14,14],"right_children":[2,4,6,8,10,12,14,16,18,20,22,24,26,28,30,-1,-1,-1,-1,-1,-1,-1,-1,-1,-1,-1,-1,-1,-1,-1,-1],"split_conditions":[6.000612E1,2.7571894E1,6.1230488E1,1.8068605E1,6.0189777E1,6.0229836E1,6.0018307E1,8.6667246E-1,6.023165E1,6.000828E1,6.000624E1,2.7607143E1,2.4142155E1,2.5554798E0,6.0228868E0,1.4535294E-1,2.2765689E-1,2.7926657E-1,4.364003E-1,3.8992444E-1,6.408847E-1,6.0533845E-1,8.3285856E-1,-1.4704787E0,-1.2439386E0,-1.207401E0,-8.4568596E-1,-2.3101902E0,-3.168199E0,-5.0537996E-3,-1.4939669E0],"split_indices":[118,151,118,151,70,18,152,0,70,38,2,151,148,158,157,0,0,0,0,0,0,0,0,0,0,0,0,0,0,0,0],"split_type":[0,0,0,0,0,0,0,0,0,0,0,0,0,0,0,0,0,0,0,0,0,0,0,0,0,0,0,0,0,0,0],"sum_hessian":[3.3611E4,2.7901E4,5.71E3,2.2762E4,5.139E3,5.372E3,3.38E2,1.3757E4,9.005E3,3.798E3,1.341E3,4.047E3,1.325E3,3.16E2,2.2E1,7.518E3,6.239E3,7.688E3,1.317E3,2.876E3,9.22E2,8.87E2,4.54E2,1.938E3,2.109E3,6.83E2,6.42E2,5E1,2.66E2,6E0,1.6E1],"tree_param":{"num_deleted":"0","num_feature":"172","num_nodes":"31","size_leaf_vector":"1"}},{"base_weights":[-2.3813155E-2,4.444416E-1,-1.4498426E1,1.3019954E0,-9.669291E-1,-1.0430082E1,-2.2400492E1,1.1021035E0,4.24357E0,-6.157048E-1,-4.1111717E0,-6.019381E0,-1.3289854E1,-3.9900062E0,-2.3423302E1,5.841399E-2,2.2210997E-2,1.7543235E-1,9.142725E-2,-2.9775158E-2,6.538803E-2,-1.4311957E-1,-1.631707E-2,-2.6539475E-1,-8.870168E-2,-4.4370666E-1,-2.4328016E-1,-2.731459E-1,1.4423667E-1,-6.3662374E-1,-8.514139E-1],"categories":[],"categories_nodes":[],"categories_segments":[],"categories_sizes":[],"default_left":[0,0,0,0,0,0,0,0,0,0,0,0,0,0,0,0,0,0,0,0,0,0,0,0,0,0,0,0,0,0,0],"id":3,"left_children":[1,3,5,7,9,11,13,15,17,19,21,23,25,27,29,-1,-1,-1,-1,-1,-1,-1,-1,-1,-1,-1,-1,-1,-1,-1,-1],"loss_changes":[2.2775572E5,3.9397418E4,3.361525E4,1.1900547E4,1.3583622E4,8.70975E3,6.62625E3,5.794258E3,2.4524258E3,1.1659666E4,2.904621E3,2.3624004E3,3.1578516E3,9.442046E2,3.083125E3,0E0,0E0,0E0,0E0,0E0,0E0,0E0,0E0,0E0,0E0,0E0,0E0,0E0,0E0,0E0,0E0],"parents":[2147483647,0,0,1,1,2,2,3,3,4,4,5,5,6,6,7,7,8,8,9,9,10,10,11,11,12,12,13,13,14,14],"right_children":[2,4,6,8,10,12,14,16,18,20,22,24,26,28,30,-1,-1,-1,-1,-1,-1,-1,-1,-1,-1,-1,-1,-1,-1,-1,-1],"split_conditions":[2E1,3E0,3E1,3.0594118E0,1.5E0,6.307887E1,6.0241184E0,1E0,1.407918E2,9E0,1.2E1,1.7E1,1.4500054E0,3.4E1,3.9E1,5.841399E-2,2.2210997E-2,1.7543235E-1,9.142725E-2,-2.9775158E-2,6.538803E-2,-1.4311957E-1,-1.631707E-2,-2.6539475E-1,-8.870168E-2,-4.4370666E-1,-2.4328016E-1,-2.731459E-1,1.4423667E-1,-6.3662374E-1,-8.514139E-1],"split_indices":[119,119,119,164,170,138,164,119,139,11,31,63,127,166,119,0,0,0,0,0,0,0,0,0,0,0,0,0,0,0,0],"split_type":[0,0,0,0,0,0,0,0,0,0,0,0,0,0,0,0,0,0,0,0,0,0,0,0,0,0,0,0,0,0,0],"sum_hessian":[3.3601E4,3.2549E4,1.052E3,2.0247E4,1.2302E4,6.96E2,3.56E2,1.896E4,1.287E3,1.1067E4,1.235E3,2.75E2,4.21E2,1.9E1,3.37E2,5.682E3,1.3278E4,5.48E2,7.39E2,9.753E3,1.314E3,1.042E3,1.93E2,1.42E2,1.33E2,3.25E2,9.6E1,1.2E1,7E0,2.37E2,1E2],"tree_param":{"num_deleted":"0","num_feature":"172","num_nodes":"31","size_leaf_vector":"1"}},{"base_weights":[2.0006641E-4,1.5545389E-1,-2.1175774E-2,1.330033E-1,2.3347764E-1,8.570686E-3,-6.1735056E-2,1.7366977E-1,9.73003E-2,3.7323016E-1,1.0787908E-1,7.3279195E-2,-2.0313212E-3,-5.5684507E-2,-3.5446382E-1,9.106398E-3,4.144364E-3,1.0615692E-3,4.218681E-3,1.512273E-2,9.541412E-3,1.1327891E-2,1.7733399E-3,3.0275027E-3,1.425541E-3,4.309358E-4,-7.7177957E-4,-4.057537E-5,-2.0455574E-3,-4.967245E-2,-9.6344575E-3],"categories":[],"categories_nodes":[],"categories_segments":[],"categories_sizes":[],"default_left":[0,0,0,0,0,0,0,0,0,0,0,0,0,0,0,0,0,0,0,0,0,0,0,0,0,0,0,0,0,0,0],"id":4,"left_children":[1,3,5,7,9,11,13,15,17,19,21,23,25,27,29,-1,-1,-1,-1,-1,-1,-1,-1,-1,-1,-1,-1,-1,-1,-1,-1],"loss_changes":[1.1171688E2,7.068634E0,3.5700005E1,4.554222E0,1.5849491E1,1.17159195E1,2.2112526E1,6.733074E0,4.510496E0,2.8554E0,6.247691E0,1.6919508E0,5.6983833E0,8.324581E0,1.0238768E1,0E0,0E0,0E0,0E0,0E0,0E0,0E0,0E0,0E0,0E0,0E0,0E0,0E0,0E0,0E0,0E0],"parents":[2147483647,0,0,1,1,2,2,3,3,4,4,5,5,6,6,7,7,8,8,9,9,10,10,11,11,12,12,13,13,14,14],"right_children":[2,4,6,8,10,12,14,16,18,20,22,24,26,28,30,-1,-1,-1,-1,-1,-1,-1,-1,-1,-1,-1,-1,-1,-1,-1,-1],"split_conditions":[5.5209076E-1,1.6E0,1.0000266E0,4.17978E2,5.166693E-1,-8.333892E-2,1.6334375E0,3.1667626E-1,9.95755E2,3.2012632E-1,2.5005287E-1,8.1666875E-1,8.6579317E-1,-4.9991846E-2,1.2044358E0,9.106398E-3,4.144364E-3,1.0615692E-3,4.218681E-3,1.512273E-2,9.541412E-3,1.1327891E-2,1.7733399E-3,3.0275027E-3,1.425541E-3,4.309358E-4,-7.7177957E-4,-4.057537E-5,-2.0455574E-3,-4.967245E-2,-9.6344575E-3],"split_indices":[116,164,116,1,0,129,116,116,140,126,112,116,116,129,112,0,0,0,0,0,0,0,0,0,0,0,0,0,0,0,0],"split_type":[0,0,0,0,0,0,0,0,0,0,0,0,0,0,0,0,0,0,0,0,0,0,0,0,0,0,0,0,0,0,0],"sum_hessian":[3.3657E4,4.073E3,2.9584E4,3.166E3,9.07E2,1.7066E4,1.2518E4,1.477E3,1.689E3,4.28E2,4.79E2,2.403E3,1.4663E4,1.2266E4,2.52E2,3.15E2,1.162E3,6.97E2,9.92E2,1.24E2,3.04E2,7.2E1,4.07E2,1.156E3,1.247E3,8.664E3,5.999E3,2.296E3,9.97E3,5E0,2.47E2],"tree_param":{"num_deleted":"0","num_feature":"172","num_nodes":"31","size_leaf_vector":"1"}},{"base_weights":[-1.345386E0,1.1384245E2,-4.0852515E2,1.7592134E2,3.1953804E1,-2.7078345E2,-4.194739E2,1.9406963E2,1.1468176E2,9.98461E0,7.518161E1,-2.0082758E2,-3.74804E2,-2.7321323E2,-4.285053E2,6.933393E0,5.0350804E0,4.4527864E0,2.6215959E0,5.689118E-1,-2.5888095E0,8.024922E0,2.066007E0,-1.0852498E1,-5.453791E0,-1.2383188E1,-6.78784E0,-8.826563E0,-3.235354E0,-1.204199E1,-1.3702536E1],"categories":[],"categories_nodes":[],"categories_segments":[],"categories_sizes":[],"default_left":[0,0,0,0,0,0,0,0,0,0,0,0,0,0,0,0,0,0,0,0,0,0,0,0,0,0,0,0,0,0,0],"id":5,"left_children":[1,3,5,7,9,11,13,15,17,19,21,23,25,27,29,-1,-1,-1,-1,-1,-1,-1,-1,-1,-1,-1,-1,-1,-1,-1,-1],"loss_changes":[1.5805553E9,1.3352918E8,1.109312E7,1.658304E7,1.0757217E7,3.926936E6,8.973568E6,1.116E7,3.1352E6,6.4957055E6,4.61698E6,9.48061E5,1.147348E6,1.36811E6,4.777856E6,0E0,0E0,0E0,0E0,0E0,0E0,0E0,0E0,0E0,0E0,0E0,0E0,0E0,0E0,0E0,0E0],"parents":[2147483647,0,0,1,1,2,2,3,3,4,4,5,5,6,6,7,7,8,8,9,9,10,10,11,11,12,12,13,13,14,14],"right_children":[2,4,6,8,10,12,14,16,18,20,22,24,26,28,30,-1,-1,-1,-1,-1,-1,-1,-1,-1,-1,-1,-1,-1,-1,-1,-1],"split_conditions":[7.03897E2,3.2805E2,3.591056E-1,6E0,5.6372473E2,9.9545E2,8.59953E2,2.51908E2,-1.0048315E1,7E0,2.8205365E-1,-1.8787879E-1,9.95874E2,9.9582E2,1.2E0,6.933393E0,5.0350804E0,4.4527864E0,2.6215959E0,5.689118E-1,-2.5888095E0,8.024922E0,2.066007E0,-1.0852498E1,-5.453791E0,-1.2383188E1,-6.78784E0,-8.826563E0,-3.235354E0,-1.204199E1,-1.3702536E1],"split_indices":[117,117,123,79,135,117,117,117,144,63,123,171,77,21,161,0,0,0,0,0,0,0,0,0,0,0,0,0,0,0,0],"split_type":[0,0,0,0,0,0,0,0,0,0,0,0,0,0,0,0,0,0,0,0,0,0,0,0,0,0,0,0,0,0,0],"sum_hessian":[3.3697E4,2.6267E4,7.43E3,1.494E4,1.1327E4,5.49E2,6.881E3,1.1523E4,3.417E3,7.511E3,3.816E3,3.3E2,2.19E2,4.02E2,6.479E3,4.774E3,6.749E3,1.526E3,1.891E3,6.871E3,6.4E2,1.2E2,3.696E3,3.3E1,2.97E2,1.73E2,4.6E1,3.56E2,4.6E1,3.314E3,3.165E3],"tree_param":{"num_deleted":"0","num_feature":"172","num_nodes":"31","size_leaf_vector":"1"}},{"base_weights":[1.7869376E-1,9.115393E0,-4.424839E1,7.4890094E0,1.6382881E1,-4.1182476E1,-9.210698E1,5.897629E0,9.868889E0,1.4234349E1,2.216994E1,-4.550986E1,-3.2477055E1,-9.97636E1,-5.1903835E1,1.288143E-1,2.1172807E-1,2.2883019E-1,3.3590135E-1,3.691447E-1,6.0446054E-1,5.8121604E-1,8.1657255E-1,-1.4632912E0,-1.2607733E0,-1.0091058E0,-2.4273865E-1,-2.8870494E0,-3.965533E0,-2.105615E0,-8.898887E-1],"categories":[],"categories_nodes":[],"categories_segments":[],"categories_sizes":[],"default_left":[0,0,0,0,0,0,0,0,0,0,0,0,0,0,0,0,0,0,0,0,0,0,0,0,0,0,0,0,0,0,0],"id":6,"left_children":[1,3,5,7,9,11,13,15,17,19,21,23,25,27,29,-1,-1,-1,-1,-1,-1,-1,-1,-1,-1,-1,-1,-1,-1,-1,-1],"loss_changes":[1.3302541E7,3.295745E5,8.19497E5,8.6271625E4,6.30925E4,1.97233E5,9.85425E4,2.5387031E4,2.7092E4,4.2223812E4,1.8936438E4,3.80125E4,4.9359875E4,1.951725E4,2.067975E4,0E0,0E0,0E0,0E0,0E0,0E0,0E0,0E0,0E0,0E0,0E0,0E0,0E0,0E0,0E0,0E0],"parents":[2147483647,0,0,1,1,2,2,3,3,4,4,5,5,6,6,7,7,8,8,9,9,10,10,11,11,12,12,13,13,14,14],"right_children":[2,4,6,8,10,12,14,16,18,20,22,24,26,28,30,-1,-1,-1,-1,-1,-1,-1,-1,-1,-1,-1,-1,-1,-1,-1,-1],"split_conditions":[6.000612E1,1.8052265E1,6.1230488E1,1.8068605E1,6.000864E1,2.4101074E1,6.0248596E1,7.000008E-1,8.3890605E-1,6.000828E1,6.000624E1,2.753647E1,6.0248596E1,1.205399E2,1E1,1.288143E-1,2.1172807E-1,2.2883019E-1,3.3590135E-1,3.691447E-1,6.0446054E-1,5.8121604E-1,8.1657255E-1,-1.4632912E0,-1.2607733E0,-1.0091058E0,-2.4273865E-1,-2.8870494E0,-3.965533E0,-2.105615E0,-8.898887E-1],"split_indices":[118,149,118,151,70,149,149,126,121,38,2,151,149,118,91,0,0,0,0,0,0,0,0,0,0,0,0,0,0,0,0],"split_type":[0,0,0,0,0,0,0,0,0,0,0,0,0,0,0,0,0,0,0,0,0,0,0,0,0,0,0,0,0,0,0],"sum_hessian":[3.3503E4,2.7893E4,5.61E3,2.2794E4,5.099E3,5.274E3,3.36E2,1.3662E4,9.132E3,3.721E3,1.378E3,3.52E3,1.754E3,2.81E2,5.5E1,5.736E3,7.926E3,3.4E3,5.732E3,2.808E3,9.13E2,8.9E2,4.88E2,1.81E3,1.71E3,1.674E3,8E1,2.57E2,2.4E1,2.9E1,2.6E1],"tree_param":{"num_deleted":"0","num_feature":"172","num_nodes":"31","size_leaf_vector":"1"}},{"base_weights":[-2.1259047E-2,4.5298818E-1,-1.3229478E1,1.2637631E0,-8.85471E-1,-9.940441E0,-2.0868946E1,1.0558711E0,4.218587E0,-6.2551993E-1,-4.3320794E0,-1.2761355E1,-6.2330494E0,-4.8578115E0,-2.197995E1,5.5974826E-2,2.1281032E-2,1.1150335E-1,2.320646E-1,-3.264936E-2,6.446994E-2,-2.0115563E-1,-5.8791E-2,-3.186104E-1,-4.710301E-1,-4.581792E-1,-1.5494151E-1,-7.86948E-3,-4.7899622E-1,-5.9375477E-1,-8.0670124E-1],"categories":[],"categories_nodes":[],"categories_segments":[],"categories_sizes":[],"default_left":[0,0,0,0,0,0,0,0,0,0,0,0,0,0,0,0,0,0,0,0,0,0,0,0,0,0,0,0,0,0,0],"id":7,"left_children":[1,3,5,7,9,11,13,15,17,19,21,23,25,27,29,-1,-1,-1,-1,-1,-1,-1,-1,-1,-1,-1,-1,-1,-1,-1,-1],"loss_changes":[2.1072067E5,3.5241586E4,2.9086953E4,1.2418295E4,1.0973072E4,8.462945E3,6.1164844E3,5.301629E3,2.315537E3,1.4631127E4,4.822088E3,2.7446484E3,3.347414E3,1.2193915E3,2.9763906E3,0E0,0E0,0E0,0E0,0E0,0E0,0E0,0E0,0E0,0E0,0E0,0E0,0E0,0E0,0E0,0E0],"parents":[2147483647,0,0,1,1,2,2,3,3,4,4,5,5,6,6,7,7,8,8,9,9,10,10,11,11,12,12,13,13,14,14],"right_children":[2,4,6,8,10,12,14,16,18,20,22,24,26,28,30,-1,-1,-1,-1,-1,-1,-1,-1,-1,-1,-1,-1,-1,-1,-1,-1],"split_conditions":[1.9E1,3E0,3E1,3E0,1.3E1,6E0,6.2257533E0,1E0,1.6E1,1.3E1,1.1E1,2.4E1,7.877457E-1,1.289647E2,3.9E1,5.5974826E-2,2.1281032E-2,1.1150335E-1,2.320646E-1,-3.264936E-2,6.446994E-2,-2.0115563E-1,-5.8791E-2,-3.186104E-1,-4.710301E-1,-4.581792E-1,-1.5494151E-1,-7.86948E-3,-4.7899622E-1,-5.9375477E-1,-8.0670124E-1],"split_indices":[119,119,119,164,119,165,164,119,19,167,107,119,127,136,119,0,0,0,0,0,0,0,0,0,0,0,0,0,0,0,0],"split_type":[0,0,0,0,0,0,0,0,0,0,0,0,0,0,0,0,0,0,0,0,0,0,0,0,0,0,0,0,0,0,0],"sum_hessian":[3.3638E4,3.2473E4,1.165E3,2.0223E4,1.225E4,8.16E2,3.49E2,1.8895E4,1.328E3,1.1392E4,8.58E2,4.62E2,3.54E2,2.3E1,3.26E2,5.66E3,1.3235E4,1.164E3,1.64E2,9.764E3,1.628E3,4.28E2,4.3E2,2.7E2,1.92E2,3.6E1,3.18E2,1.7E1,6E0,2.29E2,9.7E1],"tree_param":{"num_deleted":"0","num_feature":"172","num_nodes":"31","size_leaf_vector":"1"}},{"base_weights":[-3.4628852E-4,1.3570544E-1,-2.3315903E-2,1.7614418E-1,8.855102E-2,5.7280813E-3,-6.1233535E-2,1.3832009E-1,3.056515E-1,2.892408E-1,5.115327E-2,6.856289E-2,-4.5954194E-3,-5.470848E-2,-3.568328E-1,2.2829205E-3,5.3428407E-3,1.0957355E-2,4.860341E-3,3.6075495E-3,1.0607226E-2,9.631734E-4,3.0249613E-3,2.1240865E-3,-5.560117E-3,2.073063E-4,-9.2142995E-4,2.2030147E-4,-1.9634156E-3,-4.409473E-2,-9.764173E-3],"categories":[],"categories_nodes":[],"categories_segments":[],"categories_sizes":[],"default_left":[0,0,0,0,0,0,0,0,0,0,0,0,0,0,0,0,0,0,0,0,0,0,0,0,0,0,0,0,0,0,0],"id":8,"left_children":[1,3,5,7,9,11,13,15,17,19,21,23,25,27,29,-1,-1,-1,-1,-1,-1,-1,-1,-1,-1,-1,-1,-1,-1,-1,-1],"loss_changes":[1.0506255E2,9.217674E0,3.1686401E1,1.2708191E1,1.6800673E1,1.0572981E1,2.4008831E1,4.9701996E0,4.929966E0,3.7369194E0,1.7756777E0,1.309761E0,4.206791E0,8.143177E0,8.731209E0,0E0,0E0,0E0,0E0,0E0,0E0,0E0,0E0,0E0,0E0,0E0,0E0,0E0,0E0,0E0,0E0],"parents":[2147483647,0,0,1,1,2,2,3,3,4,4,5,5,6,6,7,7,8,8,9,9,10,10,11,11,12,12,13,13,14,14],"right_children":[2,4,6,8,10,12,14,16,18,20,22,24,26,28,30,-1,-1,-1,-1,-1,-1,-1,-1,-1,-1,-1,-1,-1,-1,-1,-1],"split_conditions":[6.000007E-1,5.166693E-1,1.0000266E0,1.4696939E0,3.1667626E-1,-8.333892E-2,1.6334375E0,9.95672E2,5.5097E-1,1.529635E2,6.5913296E-1,1.4201436E0,3.226173E-2,-6.665492E-2,1.2044358E0,2.2829205E-3,5.3428407E-3,1.0957355E-2,4.860341E-3,3.6075495E-3,1.0607226E-2,9.631734E-4,3.0249613E-3,2.1240865E-3,-5.560117E-3,2.073063E-4,-9.2142995E-4,2.2030147E-4,-1.9634156E-3,-4.409473E-2,-9.764173E-3],"split_indices":[116,0,116,164,116,129,116,140,127,139,127,0,129,129,112,0,0,0,0,0,0,0,0,0,0,0,0,0,0,0,0],"split_type":[0,0,0,0,0,0,0,0,0,0,0,0,0,0,0,0,0,0,0,0,0,0,0,0,0,0,0,0,0,0,0],"sum_hessian":[3.3621E4,4.855E3,2.8766E4,2.611E3,2.244E3,1.6288E4,1.2478E4,2.023E3,5.88E2,3.51E2,1.893E3,2.299E3,1.3989E4,1.221E4,2.68E2,7.91E2,1.232E3,4.14E2,1.74E2,9.8E1,2.53E2,1.371E3,5.22E2,2.28E3,1.9E1,9.709E3,4.28E3,1.8E3,1.041E4,6E0,2.62E2],"tree_param":{"num_deleted":"0","num_feature":"172","num_nodes":"31","size_leaf_vector":"1"}},{"base_weights":[-1.4667717E0,1.09297195E2,-3.9577847E2,1.7085034E2,2.8380884E1,-2.596426E2,-4.057168E2,1.8789948E2,1.1282275E2,-6.0006976E0,6.759548E1,-1.7721545E2,-3.502948E2,-2.650128E2,-4.140599E2,6.8117E0,4.9417667E0,5.304417E0,2.979208E0,-1.0190922E0,7.6233745E-1,6.45991E0,1.8973688E0,-5.870339E0,-2.2226222E0,-1.1367061E1,-3.902097E0,-9.570809E0,-5.489535E0,-1.15446E1,-1.3509582E1],"categories":[],"categories_nodes":[],"categories_segments":[],"categories_sizes":[],"default_left":[0,0,0,0,0,0,0,0,0,0,0,0,0,0,0,0,0,0,0,0,0,0,0,0,0,0,0,0,0,0,0],"id":9,"left_children":[1,3,5,7,9,11,13,15,17,19,21,23,25,27,29,-1,-1,-1,-1,-1,-1,-1,-1,-1,-1,-1,-1,-1,-1,-1,-1],"loss_changes":[1.4671917E9,1.3061776E8,9.861888E6,1.471472E7,1.5278894E7,3.70386E6,7.947776E6,1.0407904E7,2.910076E6,5.3065005E6,3.388412E6,4.91941E5,1.456372E6,1.656248E6,6.694784E6,0E0,0E0,0E0,0E0,0E0,0E0,0E0,0E0,0E0,0E0,0E0,0E0,0E0,0E0,0E0,0E0],"parents":[2147483647,0,0,1,1,2,2,3,3,4,4,5,5,6,6,7,7,8,8,9,9,10,10,11,11,12,12,13,13,14,14],"right_children":[2,4,6,8,10,12,14,16,18,20,22,24,26,28,30,-1,-1,-1,-1,-1,-1,-1,-1,-1,-1,-1,-1,-1,-1,-1,-1],"split_conditions":[7.03897E2,3.2805E2,3.4875232E-1,6E0,5.20641E2,9.91946E2,8.59953E2,2.4096825E2,6.833352E-1,4.17992E2,2.759297E-1,3.437231E-1,9.95899E2,4.900605E2,1.5E0,6.8117E0,4.9417667E0,5.304417E0,2.979208E0,-1.0190922E0,7.6233745E-1,6.45991E0,1.8973688E0,-5.870339E0,-2.2226222E0,-1.1367061E1,-3.902097E0,-9.570809E0,-5.489535E0,-1.15446E1,-1.3509582E1],"split_indices":[117,117,123,79,136,140,117,117,126,45,88,64,37,57,162,0,0,0,0,0,0,0,0,0,0,0,0,0,0,0,0],"split_type":[0,0,0,0,0,0,0,0,0,0,0,0,0,0,0,0,0,0,0,0,0,0,0,0,0,0,0,0,0,0,0],"sum_hessian":[3.3591E4,2.6225E4,7.366E3,1.4894E4,1.1331E4,5.03E2,6.863E3,1.151E4,3.384E3,6.038E3,5.293E3,2.65E2,2.38E2,3.86E2,6.477E3,4.276E3,7.234E3,5.88E2,2.796E3,3.194E3,2.844E3,1.5E2,5.143E3,2.24E2,4.1E1,2.1E2,2.8E1,2.31E2,1.55E2,3.592E3,2.885E3],"tree_param":{"num_deleted":"0","num_feature":"172","num_nodes":"31","size_leaf_vector":"1"}},{"base_weights":[-1.2347854E-1,8.674318E0,-4.320133E1,7.125875E0,1.5585542E1,-4.0314163E1,-8.943921E1,5.651801E0,9.369139E0,1.3635409E1,2.1764347E1,-4.621657E1,-3.7201267E1,-5.60674E1,-9.639474E1,1.2023935E-1,2.027314E-1,2.8317234E-1,-1.6407752E0,3.6572376E-1,6.240541E-1,5.5744135E-1,8.2038856E-1,-1.420712E0,-7.401571E-1,-1.132384E0,1.6992327E-2,-1.8424677E0,6.856769E-2,-3.1199727E0,-2.3962483E0],"categories":[],"categories_nodes":[],"categories_segments":[],"categories_sizes":[],"default_left":[0,0,0,0,0,0,0,0,0,0,0,0,0,0,0,0,0,0,0,0,0,0,0,0,0,0,0,0,0,0,0],"id":10,"left_children":[1,3,5,7,9,11,13,15,17,19,21,23,25,27,29,-1,-1,-1,-1,-1,-1,-1,-1,-1,-1,-1,-1,-1,-1,-1,-1],"loss_changes":[1.2731038E7,2.9840875E5,7.56909E5,7.53095E4,6.1212375E4,9.6829E4,7.2108E4,2.4979188E4,4.0997125E4,3.9942625E4,2.12165E4,4.423275E4,7.2399E4,1.887125E4,2.622075E4,0E0,0E0,0E0,0E0,0E0,0E0,0E0,0E0,0E0,0E0,0E0,0E0,0E0,0E0,0E0,0E0],"parents":[2147483647,0,0,1,1,2,2,3,3,4,4,5,5,6,6,7,7,8,8,9,9,10,10,11,11,12,12,13,13,14,14],"right_children":[2,4,6,8,10,12,14,16,18,20,22,24,26,28,30,-1,-1,-1,-1,-1,-1,-1,-1,-1,-1,-1,-1,-1,-1,-1,-1],"split_conditions":[6.000612E1,2.7590258E1,6.1230488E1,1.8068605E1,6.023129E1,2.4102617E1,3.4492867E1,6.8333733E-1,1.1957094E1,6.0241993E1,6.0010563E1,2.4102692E1,1.2048302E2,1.2050128E2,6.008472E1,1.2023935E-1,2.027314E-1,2.8317234E-1,-1.6407752E0,3.6572376E-1,6.240541E-1,5.5744135E-1,8.2038856E-1,-1.420712E0,-7.401571E-1,-1.132384E0,1.6992327E-2,-1.8424677E0,6.856769E-2,-3.1199727E0,-2.3962483E0],"split_indices":[118,151,118,151,74,151,150,126,157,38,34,148,26,30,82,0,0,0,0,0,0,0,0,0,0,0,0,0,0,0,0],"split_type":[0,0,0,0,0,0,0,0,0,0,0,0,0,0,0,0,0,0,0,0,0,0,0,0,0,0,0,0,0,0,0],"sum_hessian":[3.359E4,2.7894E4,5.696E3,2.279E4,5.104E3,5.363E3,3.33E2,1.3755E4,9.035E3,3.882E3,1.222E3,1.847E3,3.516E3,5.9E1,2.74E2,5.534E3,8.221E3,9.026E3,9E0,3.233E3,6.49E2,7.81E2,4.41E2,1.753E3,9.4E1,3.466E3,5E1,5.4E1,5E0,1.84E2,9E1],"tree_param":{"num_deleted":"0","num_feature":"172","num_nodes":"31","size_leaf_vector":"1"}},{"base_weights":[4.856292E-3,4.3538722E-1,-1.3476E1,9.167678E-1,-1.9217818E0,-9.612876E0,-2.077466E1,1.5833443E0,2.4313743E-1,-1.3728389E0,-5.015853E0,-5.845734E0,-1.2091265E1,-1.847069E1,-2.635252E1,3.992225E-2,1.0200065E-1,9.856333E-2,3.070572E-4,-4.6472553E-2,8.289467E-2,-6.432094E-2,-1.9188826E-1,-2.2647409E-1,-3.6229018E-2,-4.1703144E-1,-2.5106242E-1,-6.6480434E-1,-4.2900908E-1,-8.721365E-1,-5.185077E-1],"categories":[],"categories_nodes":[],"categories_segments":[],"categories_sizes":[],"default_left":[0,0,0,0,0,0,0,0,0,0,0,0,0,0,0,0,0,0,0,0,0,0,0,0,0,0,0,0,0,0,0],"id":11,"left_children":[1,3,5,7,9,11,13,15,17,19,21,23,25,27,29,-1,-1,-1,-1,-1,-1,-1,-1,-1,-1,-1,-1,-1,-1,-1,-1],"loss_changes":[1.9391372E5,3.673969E4,2.8951531E4,1.2072398E4,9.318764E3,6.257629E3,4.0966562E3,6.196547E3,9.475917E3,3.4047285E3,3.2639316E3,2.1310576E3,2.6301172E3,3.6183906E3,2.0077969E3,0E0,0E0,0E0,0E0,0E0,0E0,0E0,0E0,0E0,0E0,0E0,0E0,0E0,0E0,0E0,0E0],"parents":[2147483647,0,0,1,1,2,2,3,3,4,4,5,5,6,6,7,7,8,8,9,9,10,10,11,11,12,12,13,13,14,14],"right_children":[2,4,6,8,10,12,14,16,18,20,22,24,26,28,30,-1,-1,-1,-1,-1,-1,-1,-1,-1,-1,-1,-1,-1,-1,-1,-1],"split_conditions":[2E1,6E-1,3E1,2E0,1.1E1,2.96063E2,3.9E1,7E0,-6.727273E-1,1.3E1,2.2597375E2,2.1E1,1.2666893E0,1E1,1.300005E0,3.992225E-2,1.0200065E-1,9.856333E-2,3.070572E-4,-4.6472553E-2,8.289467E-2,-6.432094E-2,-1.9188826E-1,-2.2647409E-1,-3.6229018E-2,-4.1703144E-1,-2.5106242E-1,-6.6480434E-1,-4.2900908E-1,-8.721365E-1,-5.185077E-1],"split_indices":[119,170,119,119,119,140,119,167,171,3,29,35,72,11,16,0,0,0,0,0,0,0,0,0,0,0,0,0,0,0,0],"split_type":[0,0,0,0,0,0,0,0,0,0,0,0,0,0,0,0,0,0,0,0,0,0,0,0,0,0,0,0,0,0,0],"sum_hessian":[3.3409E4,3.2376E4,1.033E3,2.6886E4,5.49E3,6.77E2,3.56E2,1.3513E4,1.3373E4,4.664E3,8.26E2,2.7E2,4.07E2,2.55E2,1.01E2,1.1865E4,1.648E3,9.5E2,1.2423E4,4.474E3,1.9E2,2.69E2,5.57E2,1.97E2,7.3E1,2.72E2,1.35E2,1.33E2,1.22E2,7.6E1,2.5E1],"tree_param":{"num_deleted":"0","num_feature":"172","num_nodes":"31","size_leaf_vector":"1"}},{"base_weights":[4.843698E-4,1.1384631E-1,-2.636535E-2,1.6571034E-1,6.85369E-2,-1.5735291E-2,-1.2081481E-1,9.042387E-2,2.0646681E-1,1.1822108E-1,5.0906304E-2,3.1177847E-2,-2.9303579E-2,-1.0524633E-1,-4.3300074E-1,-5.480179E-4,4.8093484E-3,7.894139E-3,4.3927087E-3,1.9208747E-3,6.012547E-3,5.988925E-4,2.9869974E-3,1.6018511E-3,3.3264974E-4,2.2316444E-6,-1.3426368E-3,-2.797962E-3,-9.631997E-3,-1.1651819E-2,-3.4411047E-2],"categories":[],"categories_nodes":[],"categories_segments":[],"categories_sizes":[],"default_left":[0,0,0,0,0,0,0,0,0,0,0,0,0,0,0,0,0,0,0,0,0,0,0,0,0,0,0,0,0,0,0],"id":12,"left_children":[1,3,5,7,9,11,13,15,17,19,21,23,25,27,29,-1,-1,-1,-1,-1,-1,-1,-1,-1,-1,-1,-1,-1,-1,-1,-1],"loss_changes":[1.0239086E2,1.5103455E1,2.7288313E1,9.16301E0,2.9912548E0,1.5561361E1,1.3266319E1,8.046293E0,6.542206E0,3.965248E0,3.8150687E0,2.4402022E0,8.612579E0,6.7058163E0,3.5415554E0,0E0,0E0,0E0,0E0,0E0,0E0,0E0,0E0,0E0,0E0,0E0,0E0,0E0,0E0,0E0,0E0],"parents":[2147483647,0,0,1,1,2,2,3,3,4,4,5,5,6,6,7,7,8,8,9,9,10,10,11,11,12,12,13,13,14,14],"right_children":[2,4,6,8,10,12,14,16,18,20,22,24,26,28,30,-1,-1,-1,-1,-1,-1,-1,-1,-1,-1,-1,-1,-1,-1,-1,-1],"split_conditions":[6.6005206E-1,5.5097E-1,1.3333563E0,1.1E0,5.166693E-1,-4.9991846E-2,1.7000037E0,9.95536E2,4.480545E-1,6.024623E0,7.000203E-1,-1.0000253E-1,8.833351E-1,1.7166766E0,2.6310813E-1,-5.480179E-4,4.8093484E-3,7.894139E-3,4.3927087E-3,1.9208747E-3,6.012547E-3,5.988925E-4,2.9869974E-3,1.6018511E-3,3.3264974E-4,2.2316444E-6,-1.3426368E-3,-2.797962E-3,-9.631997E-3,-1.1651819E-2,-3.4411047E-2],"split_indices":[116,127,116,162,0,129,121,140,0,149,127,129,116,0,129,0,0,0,0,0,0,0,0,0,0,0,0,0,0,0,0],"split_type":[0,0,0,0,0,0,0,0,0,0,0,0,0,0,0,0,0,0,0,0,0,0,0,0,0,0,0,0,0,0,0],"sum_hessian":[3.3635E4,6.441E3,2.7194E4,3.001E3,3.44E3,2.4445E4,2.749E3,1.056E3,1.945E3,8.98E2,2.542E3,5.482E3,1.8963E4,2.62E3,1.29E2,4.13E2,6.43E2,9.98E2,9.47E2,5.43E2,3.55E2,1.556E3,9.86E2,2.6E3,2.882E3,6.534E3,1.2429E4,2.484E3,1.36E2,1.23E2,6E0],"tree_param":{"num_deleted":"0","num_feature":"172","num_nodes":"31","size_leaf_vector":"1"}},{"base_weights":[1.3129568E0,1.0898089E2,-3.8522986E2,1.6802489E2,3.0790407E1,-2.3565752E2,-3.9502133E2,1.900294E2,1.2006527E2,-9.070973E0,6.439298E1,-1.6101952E2,-3.2285825E2,-2.1039688E2,-4.0183777E2,7.142267E0,4.9786134E0,4.188236E0,1.7025498E0,-1.447945E0,3.1636983E-1,7.489702E0,1.8032494E0,-5.197031E0,3.436894E0,-1.0268842E1,-3.3755517E0,7.29574E-1,-6.8710256E0,-1.11991005E1,-1.3083205E1],"categories":[],"categories_nodes":[],"categories_segments":[],"categories_sizes":[],"default_left":[0,0,0,0,0,0,0,0,0,0,0,0,0,0,0,0,0,0,0,0,0,0,0,0,0,0,0,0,0,0,0],"id":13,"left_children":[1,3,5,7,9,11,13,15,17,19,21,23,25,27,29,-1,-1,-1,-1,-1,-1,-1,-1,-1,-1,-1,-1,-1,-1,-1,-1],"loss_changes":[1.3945453E9,1.209887E8,1.0597888E7,1.5735296E7,1.5105514E7,2.883292E6,8.535936E6,1.179856E7,5.806184E6,3.9670188E6,4.842186E6,8.445715E5,8.07714E5,1.081711E6,6.295872E6,0E0,0E0,0E0,0E0,0E0,0E0,0E0,0E0,0E0,0E0,0E0,0E0,0E0,0E0,0E0,0E0],"parents":[2147483647,0,0,1,1,2,2,3,3,4,4,5,5,6,6,7,7,8,8,9,9,10,10,11,11,12,12,13,13,14,14],"right_children":[2,4,6,8,10,12,14,16,18,20,22,24,26,28,30,-1,-1,-1,-1,-1,-1,-1,-1,-1,-1,-1,-1,-1,-1,-1,-1],"split_conditions":[7.03897E2,3.2805E2,3.833359E-1,4.4E0,4.9137158E2,9.88183E2,8.27884E2,2.42E2,2.5471066E2,3.10565E2,2.8283164E-1,9.95841E2,3.5001072E-1,2.31979E2,1.5E0,7.142267E0,4.9786134E0,4.188236E0,1.7025498E0,-1.447945E0,3.1636983E-1,7.489702E0,1.8032494E0,-5.197031E0,3.436894E0,-1.0268842E1,-3.3755517E0,7.29574E-1,-6.8710256E0,-1.11991005E1,-1.3083205E1],"split_indices":[117,117,127,162,136,117,117,117,117,49,122,89,100,113,162,0,0,0,0,0,0,0,0,0,0,0,0,0,0,0,0],"split_type":[0,0,0,0,0,0,0,0,0,0,0,0,0,0,0,0,0,0,0,0,0,0,0,0,0,0,0,0,0,0,0],"sum_hessian":[3.3506E4,2.6207E4,7.299E3,1.4931E4,1.1276E4,4.5E2,6.849E3,1.0233E4,4.698E3,5.158E3,6.118E3,2.44E2,2.06E2,2.45E2,6.604E3,3.413E3,6.82E3,3.589E3,1.109E3,1.72E3,3.438E3,1.37E2,5.981E3,2.34E2,1E1,1.88E2,1.8E1,1.8E1,2.27E2,3.61E3,2.994E3],"tree_param":{"num_deleted":"0","num_feature":"172","num_nodes":"31","size_leaf_vector":"1"}},{"base_weights":[8.516172E-3,8.462248E0,-4.197554E1,6.9169335E0,1.5380518E1,-3.9084343E1,-8.613272E1,5.55454E0,9.131872E0,1.3162999E1,2.1252779E1,-4.2221016E1,-2.9520132E1,-9.387439E1,-4.6881317E1,1.1842924E-1,1.9838427E-1,2.7578595E-1,-9.7327274E-1,3.41721E-1,5.6900704E-1,4.9683443E-1,7.108599E-1,-1.3697002E0,-1.1795598E0,-9.2029583E-1,1.3500127E-1,-2.7195523E0,-3.8117757E0,-1.883263E0,-6.825088E-1],"categories":[],"categories_nodes":[],"categories_segments":[],"categories_sizes":[],"default_left":[0,0,0,0,0,0,0,0,0,0,0,0,0,0,0,0,0,0,0,0,0,0,0,0,0,0,0,0,0,0,0],"id":14,"left_children":[1,3,5,7,9,11,13,15,17,19,21,23,25,27,29,-1,-1,-1,-1,-1,-1,-1,-1,-1,-1,-1,-1,-1,-1,-1,-1],"loss_changes":[1.1951639E7,2.9955738E5,7.17175E5,6.90935E4,6.6349625E4,1.577155E5,1.0072425E5,2.4103406E4,2.2420375E4,3.8014875E4,1.5658375E4,3.7963E4,5.175575E4,1.925975E4,2.1192219E4,0E0,0E0,0E0,0E0,0E0,0E0,0E0,0E0,0E0,0E0,0E0,0E0,0E0,0E0,0E0,0E0],"parents":[2147483647,0,0,1,1,2,2,3,3,4,4,5,5,6,6,7,7,8,8,9,9,10,10,11,11,12,12,13,13,14,14],"right_children":[2,4,6,8,10,12,14,16,18,20,22,24,26,28,30,-1,-1,-1,-1,-1,-1,-1,-1,-1,-1,-1,-1,-1,-1,-1,-1],"split_conditions":[6.000612E1,1.8052265E1,6.1230488E1,6.023836E0,6.000864E1,3.0122997E1,6.0248596E1,6.8333733E-1,5.8180203E0,6.0221615E1,9.1668236E-1,2.753647E1,1.2047527E2,1.2066402E2,1E1,1.1842924E-1,1.9838427E-1,2.7578595E-1,-9.7327274E-1,3.41721E-1,5.6900704E-1,4.9683443E-1,7.108599E-1,-1.3697002E0,-1.1795598E0,-9.2029583E-1,1.3500127E-1,-2.7195523E0,-3.8117757E0,-1.883263E0,-6.825088E-1],"split_indices":[118,149,118,149,70,149,149,126,158,38,28,151,26,154,95,0,0,0,0,0,0,0,0,0,0,0,0,0,0,0,0],"split_type":[0,0,0,0,0,0,0,0,0,0,0,0,0,0,0,0,0,0,0,0,0,0,0,0,0,0,0,0,0,0,0],"sum_hessian":[3.3672E4,2.8029E4,5.643E3,2.2913E4,5.116E3,5.298E3,3.45E2,1.4189E4,8.724E3,3.716E3,1.4E3,3.987E3,1.311E3,2.87E2,5.8E1,5.636E3,8.553E3,8.712E3,1.2E1,2.849E3,8.67E2,4.82E2,9.18E2,1.819E3,2.168E3,1.268E3,4.3E1,2.65E2,2.2E1,3.4E1,2.4E1],"tree_param":{"num_deleted":"0","num_feature":"172","num_nodes":"31","size_leaf_vector":"1"}},{"base_weights":[-2.8249314E-3,3.5988593E-1,-1.5122191E1,8.6813796E-1,-2.062923E0,-1.2431793E1,-2.2662384E1,1.5204809E0,2.1538734E-1,-1.3209453E0,-5.4227743E0,-8.855948E0,-1.5089467E1,-2.5096575E1,-1.4770301E1,3.8011886E-2,1.0361993E-1,-3.2641296E-3,7.0445456E-2,-7.282082E-3,-5.5051003E-2,-1.3242747E-1,-2.6446155E-1,-1.9518022E-1,-4.1119102E-1,-4.6198758E-1,1.308596E-1,-7.923808E-1,-4.446397E-1,-7.282557E-1,-2.1913116E-1],"categories":[],"categories_nodes":[],"categories_segments":[],"categories_sizes":[],"default_left":[0,0,0,0,0,0,0,0,0,0,0,0,0,0,0,0,0,0,0,0,0,0,0,0,0,0,0,0,0,0,0],"id":15,"left_children":[1,3,5,7,9,11,13,15,17,19,21,23,25,27,29,-1,-1,-1,-1,-1,-1,-1,-1,-1,-1,-1,-1,-1,-1,-1,-1],"loss_changes":[1.8445438E5,4.044939E4,1.5700219E4,1.1561287E4,1.4191918E4,5.4044766E3,3.5827578E3,6.6491875E3,9.385316E3,2.5862402E3,3.4839434E3,2.769752E3,2.0770312E3,1.7140703E3,3.4386309E3,0E0,0E0,0E0,0E0,0E0,0E0,0E0,0E0,0E0,0E0,0E0,0E0,0E0,0E0,0E0,0E0],"parents":[2147483647,0,0,1,1,2,2,3,3,4,4,5,5,6,6,7,7,8,8,9,9,10,10,11,11,12,12,13,13,14,14],"right_children":[2,4,6,8,10,12,14,16,18,20,22,24,26,28,30,-1,-1,-1,-1,-1,-1,-1,-1,-1,-1,-1,-1,-1,-1,-1,-1],"split_conditions":[2.3E1,6E-1,3.4E1,2E0,1.1E1,3.0533032E2,2.4E1,2.1817424E0,1.2666879E0,4E0,3.4E0,2.9E1,1.6723554E0,1.4699107E0,1.1000255E0,3.8011886E-2,1.0361993E-1,-3.2641296E-3,7.0445456E-2,-7.282082E-3,-5.5051003E-2,-1.3242747E-1,-2.6446155E-1,-1.9518022E-1,-4.1119102E-1,-4.6198758E-1,1.308596E-1,-7.923808E-1,-4.446397E-1,-7.282557E-1,-2.1913116E-1],"split_indices":[159,170,159,159,159,140,47,164,96,159,170,159,48,40,64,0,0,0,0,0,0,0,0,0,0,0,0,0,0,0,0],"split_type":[0,0,0,0,0,0,0,0,0,0,0,0,0,0,0,0,0,0,0,0,0,0,0,0,0,0,0,0,0,0,0],"sum_hessian":[3.3633E4,3.2846E4,7.87E2,2.7151E4,5.695E3,5.82E2,2.05E2,1.3579E4,1.3572E4,4.666E3,1.029E3,2.5E2,3.32E2,1.55E2,5E1,1.2007E4,1.572E3,1.1782E4,1.79E3,1.507E3,3.159E3,7.95E2,2.34E2,1.7E2,8E1,3.27E2,5E0,1.36E2,1.9E1,2.1E1,2.9E1],"tree_param":{"num_deleted":"0","num_feature":"172","num_nodes":"31","size_leaf_vector":"1"}},{"base_weights":[-5.235528E-4,1.3087764E-1,-2.2389954E-2,1.6765045E-1,8.817287E-2,4.157772E-3,-6.006798E-2,1.319611E-1,2.9436666E-1,2.958356E-1,4.7788974E-2,7.115377E-2,-4.2616655E-3,-5.3772908E-2,-3.3086273E-1,1.440237E-3,4.814445E-3,1.0022938E-2,4.540726E-3,6.732476E-3,1.36755975E-2,8.154242E-4,2.9913983E-3,4.630566E-3,1.9163681E-3,3.5214622E-4,-7.0785306E-4,-4.5208337E-5,-1.9782833E-3,-1.25607215E-2,-6.4517497E-3],"categories":[],"categories_nodes":[],"categories_segments":[],"categories_sizes":[],"default_left":[0,0,0,0,0,0,0,0,0,0,0,0,0,0,0,0,0,0,0,0,0,0,0,0,0,0,0,0,0,0,0],"id":16,"left_children":[1,3,5,7,9,11,13,15,17,19,21,23,25,27,29,-1,-1,-1,-1,-1,-1,-1,-1,-1,-1,-1,-1,-1,-1,-1,-1],"loss_changes":[9.653113E1,7.4864426E0,2.88205E1,1.155471E1,1.857732E1,9.539187E0,2.0244694E1,4.7841454E0,3.1054993E0,3.955328E0,1.9759903E0,1.1110363E0,4.6451626E0,7.397011E0,2.59272E0,0E0,0E0,0E0,0E0,0E0,0E0,0E0,0E0,0E0,0E0,0E0,0E0,0E0,0E0,0E0,0E0],"parents":[2147483647,0,0,1,1,2,2,3,3,4,4,5,5,6,6,7,7,8,8,9,9,10,10,11,11,12,12,13,13,14,14],"right_children":[2,4,6,8,10,12,14,16,18,20,22,24,26,28,30,-1,-1,-1,-1,-1,-1,-1,-1,-1,-1,-1,-1,-1,-1,-1,-1],"split_conditions":[6.000007E-1,5.166693E-1,1.016683E0,1.4696939E0,3.1589746E-1,-1.0000533E-1,1.6334375E0,2.6073548E-1,5.2778655E-1,2.6074767E-2,6.5913296E-1,-2.500016E-1,8.6579317E-1,-4.9991846E-2,6E0,1.440237E-3,4.814445E-3,1.0022938E-2,4.540726E-3,6.732476E-3,1.36755975E-2,8.154242E-4,2.9913983E-3,4.630566E-3,1.9163681E-3,3.5214622E-4,-7.0785306E-4,-4.5208337E-5,-1.9782833E-3,-1.25607215E-2,-6.4517497E-3],"split_indices":[120,0,120,164,122,129,120,126,121,124,127,129,120,129,11,0,0,0,0,0,0,0,0,0,0,0,0,0,0,0,0],"split_type":[0,0,0,0,0,0,0,0,0,0,0,0,0,0,0,0,0,0,0,0,0,0,0,0,0,0,0,0,0,0,0],"sum_hessian":[3.3598E4,4.792E3,2.8806E4,2.572E3,2.22E3,1.6898E4,1.1908E4,2.009E3,5.63E2,3.6E2,1.86E3,1.887E3,1.5011E4,1.1639E4,2.69E2,5.11E2,1.498E3,4.39E2,1.24E2,2.51E2,1.09E2,1.334E3,5.26E2,1.49E2,1.738E3,8.211E3,6.8E3,2.2E3,9.439E3,1.51E2,1.18E2],"tree_param":{"num_deleted":"0","num_feature":"172","num_nodes":"31","size_leaf_vector":"1"}},{"base_weights":[3.5829428E-1,1.0572147E2,-3.7322418E2,1.6063632E2,3.3184864E1,-2.4196985E2,-3.8379608E2,1.7750517E2,1.03063515E2,1.2325885E0,7.058854E1,-1.3168205E2,-2.9765768E2,-2.1749321E2,-3.8977823E2,6.364826E0,4.5964127E0,4.3932548E0,2.3511596E0,3.2076943E-1,-2.9626307E0,6.59279E0,1.9757457E0,-5.984223E0,-2.2697937E0,-4.083097E0,-9.511875E0,-8.031754E0,-3.9856265E0,-1.2895362E1,-1.108085E1],"categories":[],"categories_nodes":[],"categories_segments":[],"categories_sizes":[],"default_left":[0,0,0,0,0,0,0,0,0,0,0,0,0,0,0,0,0,0,0,0,0,0,0,0,0,0,0,0,0,0,0],"id":17,"left_children":[1,3,5,7,9,11,13,15,17,19,21,23,25,27,29,-1,-1,-1,-1,-1,-1,-1,-1,-1,-1,-1,-1,-1,-1,-1,-1],"loss_changes":[1.3185036E9,1.0407126E8,1.0132352E7,1.4423264E7,1.3455902E7,3.350972E6,6.697984E6,9.647712E6,3.600172E6,5.745189E6,3.645606E6,6.9508125E5,1.104188E6,9.80519E5,5.223872E6,0E0,0E0,0E0,0E0,0E0,0E0,0E0,0E0,0E0,0E0,0E0,0E0,0E0,0E0,0E0,0E0],"parents":[2147483647,0,0,1,1,2,2,3,3,4,4,5,5,6,6,7,7,8,8,9,9,10,10,11,11,12,12,13,13,14,14],"right_children":[2,4,6,8,10,12,14,16,18,20,22,24,26,28,30,-1,-1,-1,-1,-1,-1,-1,-1,-1,-1,-1,-1,-1,-1,-1,-1],"split_conditions":[7.03897E2,3.2805E2,3.591056E-1,6E0,5.2243774E2,9.88005E2,8.27884E2,2.51908E2,9.9283123E-1,8E0,2.759297E-1,9.910812E0,9.47801E2,4.879125E2,5.566862E2,6.364826E0,4.5964127E0,4.3932548E0,2.3511596E0,3.2076943E-1,-2.9626307E0,6.59279E0,1.9757457E0,-5.984223E0,-2.2697937E0,-4.083097E0,-9.511875E0,-8.031754E0,-3.9856265E0,-1.2895362E1,-1.108085E1],"split_indices":[117,117,123,79,136,140,117,117,123,79,88,143,117,25,136,0,0,0,0,0,0,0,0,0,0,0,0,0,0,0,0],"split_type":[0,0,0,0,0,0,0,0,0,0,0,0,0,0,0,0,0,0,0,0,0,0,0,0,0,0,0,0,0,0,0],"sum_hessian":[3.3495E4,2.6127E4,7.368E3,1.4869E4,1.1258E4,5.51E2,6.817E3,1.1498E4,3.371E3,6.072E3,5.186E3,1.86E2,3.65E2,2.38E2,6.579E3,4.735E3,6.763E3,1.221E3,2.15E3,5.548E3,5.24E2,1.58E2,5.028E3,8.3E1,1.03E2,4E1,3.25E2,1.48E2,9E1,2.214E3,4.365E3],"tree_param":{"num_deleted":"0","num_feature":"172","num_nodes":"31","size_leaf_vector":"1"}},{"base_weights":[5.1072314E-2,8.277188E0,-4.0625237E1,6.7661877E0,1.5155718E1,-3.785373E1,-8.449344E1,5.370677E0,8.885008E0,1.3288007E1,2.038676E1,-4.093152E1,-2.9668766E1,-9.141397E1,-4.8256584E1,1.1573055E-1,1.9174801E-1,2.6810107E-1,-1.5337499E0,3.4446773E-1,5.691134E-1,6.0189867E-1,2.6456997E0,-1.325979E0,-1.1485162E0,-9.4743603E-1,-3.2865876E-1,-2.4155593E0,-2.978006E0,-1.8234146E0,-4.7832206E-1],"categories":[],"categories_nodes":[],"categories_segments":[],"categories_sizes":[],"default_left":[0,0,0,0,0,0,0,0,0,0,0,0,0,0,0,0,0,0,0,0,0,0,0,0,0,0,0,0,0,0,0],"id":18,"left_children":[1,3,5,7,9,11,13,15,17,19,21,23,25,27,29,-1,-1,-1,-1,-1,-1,-1,-1,-1,-1,-1,-1,-1,-1,-1,-1],"loss_changes":[1.1274617E7,2.9119288E5,6.8591E5,6.7902E4,4.9035375E4,1.33125E5,7.983625E4,2.1380031E4,2.8756812E4,3.797075E4,2.7302188E4,3.1809E4,5.19365E4,1.60315E4,2.168525E4,0E0,0E0,0E0,0E0,0E0,0E0,0E0,0E0,0E0,0E0,0E0,0E0,0E0,0E0,0E0,0E0],"parents":[2147483647,0,0,1,1,2,2,3,3,4,4,5,5,6,6,7,7,8,8,9,9,10,10,11,11,12,12,13,13,14,14],"right_children":[2,4,6,8,10,12,14,16,18,20,22,24,26,28,30,-1,-1,-1,-1,-1,-1,-1,-1,-1,-1,-1,-1,-1,-1,-1,-1],"split_conditions":[6.000612E1,1.8052265E1,6.1230488E1,1.8068605E1,6.0226936E1,3.0122229E1,6.0248596E1,6.8333733E-1,1.2095507E1,6.0010563E1,1.7166958E0,1.20507765E1,6.019677E1,6.5728045E0,6.0256756E1,1.1573055E-1,1.9174801E-1,2.6810107E-1,-1.5337499E0,3.4446773E-1,5.691134E-1,6.0189867E-1,2.6456997E0,-1.325979E0,-1.1485162E0,-9.4743603E-1,-3.2865876E-1,-2.4155593E0,-2.978006E0,-1.8234146E0,-4.7832206E-1],"split_indices":[118,149,118,151,54,149,149,126,157,6,116,149,149,158,30,0,0,0,0,0,0,0,0,0,0,0,0,0,0,0,0],"split_type":[0,0,0,0,0,0,0,0,0,0,0,0,0,0,0,0,0,0,0,0,0,0,0,0,0,0,0,0,0,0,0],"sum_hessian":[3.3693E4,2.8026E4,5.667E3,2.298E4,5.046E3,5.332E3,3.35E2,1.3857E4,9.123E3,3.721E3,1.325E3,3.872E3,1.46E3,2.8E2,5.5E1,5.585E3,8.272E3,9.116E3,7E0,2.826E3,8.95E2,1.32E3,5E0,1.726E3,2.146E3,1.324E3,1.36E2,1.22E2,1.58E2,3.9E1,1.6E1],"tree_param":{"num_deleted":"0","num_feature":"172","num_nodes":"31","size_leaf_vector":"1"}},{"base_weights":[2.9054329E-2,4.2885965E-1,-1.2456545E1,9.4253427E-1,-1.5045931E0,-9.3782835E0,-2.007417E1,6.6240317E-1,2.5590816E0,-7.752407E-1,-3.4591477E0,-6.105324E0,-1.2582328E1,-1.568061E0,-2.0909525E1,3.7970934E-2,-1.9516742E-3,1.4103773E-1,5.9105072E-2,-2.6641292E-2,1.9235595E-1,-1.3292606E-1,-4.2824157E-2,-2.8581643E-1,-1.321144E-1,-4.2232224E-1,-2.5489527E-1,-2.3480913E-1,2.4194941E-1,-4.967914E-1,-7.036543E-1],"categories":[],"categories_nodes":[],"categories_segments":[],"categories_sizes":[],"default_left":[0,0,0,0,0,0,0,0,0,0,0,0,0,0,0,0,0,0,0,0,0,0,0,0,0,0,0,0,0,0,0],"id":19,"left_children":[1,3,5,7,9,11,13,15,17,19,21,23,25,27,29,-1,-1,-1,-1,-1,-1,-1,-1,-1,-1,-1,-1,-1,-1,-1,-1],"loss_changes":[1.6763906E5,3.231996E4,2.4242703E4,1.1641084E4,9.734887E3,7.723426E3,4.587258E3,9.618083E3,4.7801895E3,4.039299E3,3.657246E3,2.1109336E3,2.168871E3,9.071934E2,2.7744375E3,0E0,0E0,0E0,0E0,0E0,0E0,0E0,0E0,0E0,0E0,0E0,0E0,0E0,0E0,0E0,0E0],"parents":[2147483647,0,0,1,1,2,2,3,3,4,4,5,5,6,6,7,7,8,8,9,9,10,10,11,11,12,12,13,13,14,14],"right_children":[2,4,6,8,10,12,14,16,18,20,22,24,26,28,30,-1,-1,-1,-1,-1,-1,-1,-1,-1,-1,-1,-1,-1,-1,-1,-1],"split_conditions":[2E1,5E-1,3.1E1,1.2833523E0,7E0,1.8868332E2,6.0241184E0,2E0,-2.4E0,1.6E1,6E0,1.2E1,1.2666936E0,2.7E1,1.68025E2,3.7970934E-2,-1.9516742E-3,1.4103773E-1,5.9105072E-2,-2.6641292E-2,1.9235595E-1,-1.3292606E-1,-4.2824157E-2,-2.8581643E-1,-1.321144E-1,-4.2232224E-1,-2.5489527E-1,-2.3480913E-1,2.4194941E-1,-4.967914E-1,-7.036543E-1],"split_indices":[119,170,119,127,119,136,164,119,169,43,31,75,52,63,1,0,0,0,0,0,0,0,0,0,0,0,0,0,0,0,0],"split_type":[0,0,0,0,0,0,0,0,0,0,0,0,0,0,0,0,0,0,0,0,0,0,0,0,0,0,0,0,0,0,0],"sum_hessian":[3.3581E4,3.254E4,1.041E3,2.571E4,6.83E3,7.43E2,2.98E2,2.1914E4,3.796E3,4.975E3,1.855E3,3.69E2,3.74E2,1.3E1,2.85E2,1.1979E4,9.935E3,8.17E2,2.979E3,4.899E3,7.6E1,1.254E3,6.01E2,1.21E2,2.48E2,2.72E2,1.02E2,8E0,5E0,1.08E2,1.77E2],"tree_param":{"num_deleted":"0","num_feature":"172","num_nodes":"31","size_leaf_vector":"1"}},{"base_weights":[6.0847706E-5,1.2736942E-1,-2.161504E-2,1.6194057E-1,8.724157E-2,1.031808E-2,-5.1101804E-2,1.2678275E-1,2.8246337E-1,2.891605E-1,4.8818868E-2,6.6688605E-2,5.796807E-4,-4.634131E-2,-3.1966096E-1,1.8455032E-3,5.0782817E-3,9.628664E-3,3.8936313E-3,2.8978207E-3,1.0958274E-2,9.495908E-4,2.7628497E-3,2.8923897E-3,1.4159032E-3,-5.0158364E-5,4.5754234E-3,-1.3087611E-3,-7.6658553E-3,-1.2399709E-2,-5.764363E-3],"categories":[],"categories_nodes":[],"categories_segments":[],"categories_sizes":[],"default_left":[0,0,0,0,0,0,0,0,0,0,0,0,0,0,0,0,0,0,0,0,0,0,0,0,0,0,0,0,0,0,0],"id":20,"left_children":[1,3,5,7,9,11,13,15,17,19,21,23,25,27,29,-1,-1,-1,-1,-1,-1,-1,-1,-1,-1,-1,-1,-1,-1,-1,-1],"loss_changes":[9.25568E1,6.730812E0,2.698816E1,1.1020798E1,1.7501291E1,7.5452595E0,1.8999134E1,5.596443E0,3.3805847E0,5.2098045E0,1.3976507E0,1.1543379E0,4.0291934E0,8.278208E0,2.9533882E0,0E0,0E0,0E0,0E0,0E0,0E0,0E0,0E0,0E0,0E0,0E0,0E0,0E0,0E0,0E0,0E0],"parents":[2147483647,0,0,1,1,2,2,3,3,4,4,5,5,6,6,7,7,8,8,9,9,10,10,11,11,12,12,13,13,14,14],"right_children":[2,4,6,8,10,12,14,16,18,20,22,24,26,28,30,-1,-1,-1,-1,-1,-1,-1,-1,-1,-1,-1,-1,-1,-1,-1,-1],"split_conditions":[6.000007E-1,5.166693E-1,9.50026E-1,1.4696939E0,3.1667626E-1,-8.333892E-2,1.6334375E0,9.95672E2,5.360094E-1,1.54309E2,6.5913296E-1,7.666851E-1,9.055938E0,1.7514577E0,7E0,1.8455032E-3,5.0782817E-3,9.628664E-3,3.8936313E-3,2.8978207E-3,1.0958274E-2,9.495908E-4,2.7628497E-3,2.8923897E-3,1.4159032E-3,-5.0158364E-5,4.5754234E-3,-1.3087611E-3,-7.6658553E-3,-1.2399709E-2,-5.764363E-3],"split_indices":[116,0,116,164,116,129,116,140,116,139,127,116,164,8,39,0,0,0,0,0,0,0,0,0,0,0,0,0,0,0,0],"split_type":[0,0,0,0,0,0,0,0,0,0,0,0,0,0,0,0,0,0,0,0,0,0,0,0,0,0,0,0,0,0,0],"sum_hessian":[3.3535E4,4.879E3,2.8656E4,2.618E3,2.261E3,1.3756E4,1.49E4,2.029E3,5.89E2,3.6E2,1.901E3,2.024E3,1.1732E4,1.4642E4,2.58E2,8.02E2,1.227E3,4.69E2,1.2E2,1.03E2,2.57E2,1.364E3,5.37E2,7.98E2,1.226E3,1.1561E4,1.71E2,1.4456E4,1.86E2,1.47E2,1.11E2],"tree_param":{"num_deleted":"0","num_feature":"172","num_nodes":"31","size_leaf_vector":"1"}},{"base_weights":[-3.9611387E-1,1.0085451E2,-3.6058902E2,1.5587804E2,2.8326946E1,-2.5107004E2,-3.7155246E2,1.8307478E2,1.21309875E2,-4.21803E0,6.623984E1,-1.4189716E2,-2.9618396E2,-2.2761096E2,-3.8005054E2,7.046572E0,4.918346E0,4.3027406E0,2.10025E0,3.7274793E-1,-1.7130166E0,4.0858235E0,1.7223474E0,-7.5751014E0,-3.0622818E0,-6.0589404E0,-9.779467E0,-4.3305917E0,-8.412756E0,-1.0527381E1,-1.2463652E1],"categories":[],"categories_nodes":[],"categories_segments":[],"categories_sizes":[],"default_left":[0,0,0,0,0,0,0,0,0,0,0,0,0,0,0,0,0,0,0,0,0,0,0,0,0,0,0,0,0,0,0],"id":21,"left_children":[1,3,5,7,9,11,13,15,17,19,21,23,25,27,29,-1,-1,-1,-1,-1,-1,-1,-1,-1,-1,-1,-1,-1,-1,-1,-1],"loss_changes":[1.2254566E9,1.0466821E8,8.759488E6,1.399904E7,1.3962804E7,3.277524E6,8.109056E6,8.23248E6,7.44376E6,5.360656E6,3.220224E6,8.5067725E5,1.270516E6,1.612828E6,6.379072E6,0E0,0E0,0E0,0E0,0E0,0E0,0E0,0E0,0E0,0E0,0E0,0E0,0E0,0E0,0E0,0E0],"parents":[2147483647,0,0,1,1,2,2,3,3,4,4,5,5,6,6,7,7,8,8,9,9,10,10,11,11,12,12,13,13,14,14],"right_children":[2,4,6,8,10,12,14,16,18,20,22,24,26,28,30,-1,-1,-1,-1,-1,-1,-1,-1,-1,-1,-1,-1,-1,-1,-1,-1],"split_conditions":[7.03897E2,3.2805E2,4.3922698E-1,3.3E0,5.2243774E2,9.88005E2,8.59953E2,2.4096825E2,2.5471066E2,8E0,4.260295E2,7.745828E2,1E0,1.9E0,1.5E0,7.046572E0,4.918346E0,4.3027406E0,2.10025E0,3.7274793E-1,-1.7130166E0,4.0858235E0,1.7223474E0,-7.5751014E0,-3.0622818E0,-6.0589404E0,-9.779467E0,-4.3305917E0,-8.412756E0,-1.0527381E1,-1.2463652E1],"split_indices":[117,117,127,162,136,140,117,117,117,166,117,134,7,162,162,0,0,0,0,0,0,0,0,0,0,0,0,0,0,0,0],"split_type":[0,0,0,0,0,0,0,0,0,0,0,0,0,0,0,0,0,0,0,0,0,0,0,0,0,0,0,0,0,0,0],"sum_hessian":[3.36E4,2.6228E4,7.372E3,1.4913E4,1.1315E4,6.73E2,6.699E3,8.344E3,6.569E3,6.089E3,5.226E3,1.98E2,4.75E2,3.75E2,6.324E3,2.247E3,6.097E3,4.589E3,1.98E3,4.632E3,1.457E3,5.84E2,4.642E3,5.1E1,1.47E2,1.16E2,3.59E2,1.47E2,2.28E2,3.475E3,2.849E3],"tree_param":{"num_deleted":"0","num_feature":"172","num_nodes":"31","size_leaf_vector":"1"}},{"base_weights":[-7.808043E-2,7.9577928E0,-3.946669E1,6.4597793E0,1.3719785E1,-3.6668037E1,-8.254223E1,5.1609626E0,8.562297E0,1.1770449E1,1.96044E1,-3.91531E1,-2.9753975E1,-8.8993515E1,-5.710737E1,1.0536844E-1,1.8798815E-1,1.8218961E-1,3.000053E-1,3.0122212E-1,4.9993095E-1,5.227708E-1,7.866145E-1,-1.1832014E0,-1.8122832E-1,-1.0037143E0,-6.1363643E-1,-2.6996315E0,-5.1866686E-1,-1.1107367E0,-2.269321E0],"categories":[],"categories_nodes":[],"categories_segments":[],"categories_sizes":[],"default_left":[0,0,0,0,0,0,0,0,0,0,0,0,0,0,0,0,0,0,0,0,0,0,0,0,0,0,0,0,0,0,0],"id":22,"left_children":[1,3,5,7,9,11,13,15,17,19,21,23,25,27,29,-1,-1,-1,-1,-1,-1,-1,-1,-1,-1,-1,-1,-1,-1,-1,-1],"loss_changes":[1.064938E7,2.4110912E5,6.84236E5,6.052325E4,6.5896875E4,9.0837E4,5.184175E4,2.4966219E4,3.0247438E4,3.6509125E4,2.0194688E4,3.7155E4,4.8211375E4,1.8038E4,2.4363625E4,0E0,0E0,0E0,0E0,0E0,0E0,0E0,0E0,0E0,0E0,0E0,0E0,0E0,0E0,0E0,0E0],"parents":[2147483647,0,0,1,1,2,2,3,3,4,4,5,5,6,6,7,7,8,8,9,9,10,10,11,11,12,12,13,13,14,14],"right_children":[2,4,6,8,10,12,14,16,18,20,22,24,26,28,30,-1,-1,-1,-1,-1,-1,-1,-1,-1,-1,-1,-1,-1,-1,-1,-1],"split_conditions":[6.000612E1,2.4101748E1,6.1230488E1,1.8068605E1,6.0010742E1,6.000624E1,6.0246407E1,6.8333733E-1,8.3890605E-1,6.00063E1,6.024175E1,1.2047527E2,6.000624E1,2.3E1,8.886244E-1,1.0536844E-1,1.8798815E-1,1.8218961E-1,3.000053E-1,3.0122212E-1,4.9993095E-1,5.227708E-1,7.866145E-1,-1.1832014E0,-1.8122832E-1,-1.0037143E0,-6.1363643E-1,-2.6996315E0,-5.1866686E-1,-1.1107367E0,-2.269321E0],"split_indices":[146,151,146,151,74,2,82,126,121,66,6,26,110,115,56,0,0,0,0,0,0,0,0,0,0,0,0,0,0,0,0],"split_type":[0,0,0,0,0,0,0,0,0,0,0,0,0,0,0,0,0,0,0,0,0,0,0,0,0,0,0,0,0,0,0],"sum_hessian":[3.3643E4,2.7943E4,5.7E3,2.2179E4,5.764E3,5.354E3,3.46E2,1.3712E4,8.467E3,4.332E3,1.432E3,3.935E3,1.419E3,2.74E2,7.2E1,5.505E3,8.207E3,3.102E3,5.365E3,3.203E3,1.129E3,1.08E3,3.52E2,3.901E3,3.4E1,1.013E3,4.06E2,2.7E2,4E0,3.6E1,3.6E1],"tree_param":{"num_deleted":"0","num_feature":"172","num_nodes":"31","size_leaf_vector":"1"}},{"base_weights":[-1.4710563E-2,3.8274035E-1,-1.2125331E1,9.6591765E-1,-1.325326E0,-8.848164E0,-1.8636244E1,6.890061E-1,2.4606674E0,-7.073078E-1,-3.3896017E0,-4.805614E0,-1.1435641E1,-4.970365E0,-1.9518568E1,3.588075E-2,2.0624221E-4,1.4640313E-1,5.9626587E-2,-2.3757122E-2,1.5062523E-1,-1.182676E-1,-1.0510909E-2,-7.009632E-2,-2.2907394E-1,-3.956311E-1,-2.0692801E-1,1.806516E-2,-5.342371E-1,-5.260057E-1,-7.24176E-1],"categories":[],"categories_nodes":[],"categories_segments":[],"categories_sizes":[],"default_left":[0,0,0,0,0,0,0,0,0,0,0,0,0,0,0,0,0,0,0,0,0,0,0,0,0,0,0,0,0,0,0],"id":23,"left_children":[1,3,5,7,9,11,13,15,17,19,21,23,25,27,29,-1,-1,-1,-1,-1,-1,-1,-1,-1,-1,-1,-1,-1,-1,-1,-1],"loss_changes":[1.6193262E5,3.244739E4,2.2642E4,1.0049051E4,1.0574517E4,7.40141E3,4.2051484E3,7.0860615E3,4.3336387E3,3.0961433E3,3.2063047E3,1.9377798E3,3.3577344E3,1.65781E3,2.6452578E3,0E0,0E0,0E0,0E0,0E0,0E0,0E0,0E0,0E0,0E0,0E0,0E0,0E0,0E0,0E0,0E0],"parents":[2147483647,0,0,1,1,2,2,3,3,4,4,5,5,6,6,7,7,8,8,9,9,10,10,11,11,12,12,13,13,14,14],"right_children":[2,4,6,8,10,12,14,16,18,20,22,24,26,28,30,-1,-1,-1,-1,-1,-1,-1,-1,-1,-1,-1,-1,-1,-1,-1,-1],"split_conditions":[2E1,4E-1,3E1,1.2666916E0,7E0,2.96063E2,2E1,2E0,-3.6000001E0,1.6E1,1.2E1,1.8335831E-1,1.283396E0,1.22550186E2,3.9E1,3.588075E-2,2.0624221E-4,1.4640313E-1,5.9626587E-2,-2.3757122E-2,1.5062523E-1,-1.182676E-1,-1.0510909E-2,-7.009632E-2,-2.2907394E-1,-3.956311E-1,-2.0692801E-1,1.806516E-2,-5.342371E-1,-5.260057E-1,-7.24176E-1],"split_indices":[119,170,119,127,119,140,167,119,169,43,11,128,56,141,119,0,0,0,0,0,0,0,0,0,0,0,0,0,0,0,0],"split_type":[0,0,0,0,0,0,0,0,0,0,0,0,0,0,0,0,0,0,0,0,0,0,0,0,0,0,0,0,0,0,0],"sum_hessian":[3.364E4,3.2572E4,1.068E3,2.4282E4,8.29E3,7.12E2,3.56E2,2.0488E4,3.794E3,6.381E3,1.909E3,2.79E2,4.33E2,2.2E1,3.34E2,1.1752E4,8.736E3,6.19E2,3.175E3,6.289E3,9.2E1,1.615E3,2.94E2,1.5E2,1.29E2,3.11E2,1.22E2,1.6E1,6E0,2.37E2,9.7E1],"tree_param":{"num_deleted":"0","num_feature":"172","num_nodes":"31","size_leaf_vector":"1"}},{"base_weights":[4.3473463E-4,1.2569378E-1,-2.0705145E-2,1.0399913E-1,1.9820864E-1,-1.23744E-2,-1.3345845E-1,1.3851011E-1,7.505538E-2,3.60872E-1,1.3736789E-1,3.2517314E-2,-2.5711091E-2,-1.12895034E-1,-4.1515383E-1,7.6764165E-3,2.830184E-3,9.2319987E-4,3.089844E-3,1.2480445E-2,1.247209E-3,1.130664E-2,3.3519338E-3,1.8505856E-3,4.45738E-4,1.5214861E-4,-1.3087346E-3,-2.906136E-3,-1.01354355E-2,-6.628848E-2,-1.0692858E-2],"categories":[],"categories_nodes":[],"categories_segments":[],"categories_sizes":[],"default_left":[0,0,0,0,0,0,0,0,0,0,0,0,0,0,0,0,0,0,0,0,0,0,0,0,0,0,0,0,0,0,0],"id":24,"left_children":[1,3,5,7,9,11,13,15,17,19,21,23,25,27,29,-1,-1,-1,-1,-1,-1,-1,-1,-1,-1,-1,-1,-1,-1,-1,-1],"loss_changes":[8.911964E1,7.594841E0,2.7028645E1,3.708046E0,1.0955059E1,1.6053284E1,1.1369713E1,8.780121E0,2.507372E0,5.2718735E0,4.913553E0,3.1541696E0,1.1404195E1,6.5815086E0,1.3076765E1,0E0,0E0,0E0,0E0,0E0,0E0,0E0,0E0,0E0,0E0,0E0,0E0,0E0,0E0,0E0,0E0],"parents":[2147483647,0,0,1,1,2,2,3,3,4,4,5,5,6,6,7,7,8,8,9,9,10,10,11,11,12,12,13,13,14,14],"right_children":[2,4,6,8,10,12,14,16,18,20,22,24,26,28,30,-1,-1,-1,-1,-1,-1,-1,-1,-1,-1,-1,-1,-1,-1,-1,-1],"split_conditions":[6.000007E-1,1.6E0,1.3833613E0,3.959475E2,3.8333973E-1,-4.775089E-2,1.7000037E0,3.500493E-1,9.95801E2,5.2136785E-1,2.393284E-1,8.5505074E-1,8.833351E-1,1.7166766E0,1.2044358E0,7.6764165E-3,2.830184E-3,9.2319987E-4,3.089844E-3,1.2480445E-2,1.247209E-3,1.130664E-2,3.3519338E-3,1.8505856E-3,4.45738E-4,1.5214861E-4,-1.3087346E-3,-2.906136E-3,-1.01354355E-2,-6.628848E-2,-1.0692858E-2],"split_indices":[116,164,116,1,0,129,121,116,140,92,96,116,116,0,112,0,0,0,0,0,0,0,0,0,0,0,0,0,0,0,0],"split_type":[0,0,0,0,0,0,0,0,0,0,0,0,0,0,0,0,0,0,0,0,0,0,0,0,0,0,0,0,0,0,0],"sum_hessian":[3.365E4,4.859E3,2.8791E4,3.743E3,1.116E3,2.6812E4,1.979E3,1.704E3,2.039E3,3.02E2,8.14E2,6.139E3,2.0673E4,1.846E3,1.33E2,4.64E2,1.24E3,7.91E2,1.248E3,2.57E2,4.5E1,7.7E1,7.37E2,2.312E3,3.827E3,7.603E3,1.307E4,1.725E3,1.21E2,3E0,1.3E2],"tree_param":{"num_deleted":"0","num_feature":"172","num_nodes":"31","size_leaf_vector":"1"}},{"base_weights":[-5.53673E-1,9.7562325E1,-3.5082852E2,1.4964938E2,2.8988045E1,-2.3250015E2,-3.5923798E2,1.6793185E2,1.0408376E2,4.5039165E1,-3.7131542E1,-1.3993135E2,-2.8036206E2,-2.2913824E2,-3.6733115E2,5.889345E0,4.047711E0,4.0344005E0,2.1531963E0,2.9630153E0,9.964535E-1,1.8003316E0,-1.4174774E0,-3.7560852E0,-1.1635467E1,-3.1367311E0,-9.043108E0,-6.079097E0,-1.0646028E1,-1.0240492E1,-1.197174E1],"categories":[],"categories_nodes":[],"categories_segments":[],"categories_sizes":[],"default_left":[0,0,0,0,0,0,0,0,0,0,0,0,0,0,0,0,0,0,0,0,0,0,0,0,0,0,0,0,0,0,0],"id":25,"left_children":[1,3,5,7,9,11,13,15,17,19,21,23,25,27,29,-1,-1,-1,-1,-1,-1,-1,-1,-1,-1,-1,-1,-1,-1,-1,-1],"loss_changes":[1.1531348E9,9.361694E7,7.222272E6,1.2391616E7,1.2011273E7,2.131678E6,7.131456E6,9.930304E6,4.182016E6,5.781588E6,2.1759388E6,5.6848475E5,1.161472E6,1.274178E6,5.180544E6,0E0,0E0,0E0,0E0,0E0,0E0,0E0,0E0,0E0,0E0,0E0,0E0,0E0,0E0,0E0,0E0],"parents":[2147483647,0,0,1,1,2,2,3,3,4,4,5,5,6,6,7,7,8,8,9,9,10,10,11,11,12,12,13,13,14,14],"right_children":[2,4,6,8,10,12,14,16,18,20,22,24,26,28,30,-1,-1,-1,-1,-1,-1,-1,-1,-1,-1,-1,-1,-1,-1,-1,-1],"split_conditions":[7.03897E2,3.2805E2,3.4875232E-1,1.1E1,3E0,9.88005E2,8.59953E2,3.004315E2,1.887936E2,4.5191E2,7.058083E1,3.548832E-1,9.55809E2,9.293082E-3,1.5E0,5.889345E0,4.047711E0,4.0344005E0,2.1531963E0,2.9630153E0,9.964535E-1,1.8003316E0,-1.4174774E0,-3.7560852E0,-1.1635467E1,-3.1367311E0,-9.043108E0,-6.079097E0,-1.0646028E1,-1.0240492E1,-1.197174E1],"split_indices":[117,117,123,166,162,140,117,117,117,117,137,84,117,132,162,0,0,0,0,0,0,0,0,0,0,0,0,0,0,0,0],"split_type":[0,0,0,0,0,0,0,0,0,0,0,0,0,0,0,0,0,0,0,0,0,0,0,0,0,0,0,0,0,0,0],"sum_hessian":[3.3551E4,2.621E4,7.341E3,1.4895E4,1.1315E4,4.89E2,6.852E3,1.0628E4,4.267E3,9.105E3,2.21E3,1.68E2,3.21E2,4.03E2,6.449E3,5.712E3,4.916E3,2.197E3,2.07E3,1.641E3,7.464E3,2.08E2,2.002E3,1.6E2,8E0,3.5E1,2.86E2,3.35E2,6.8E1,3.552E3,2.897E3],"tree_param":{"num_deleted":"0","num_feature":"172","num_nodes":"31","size_leaf_vector":"1"}},{"base_weights":[2.9003108E-2,7.7377343E0,-3.811007E1,6.1768165E0,1.2986756E1,-3.5649277E1,-7.945658E1,4.3258047E0,7.467939E0,1.1300593E1,1.866832E1,-3.806657E1,-2.8916851E1,-3.770779E1,-8.402754E1,1.18687876E-1,2.6015025E-1,1.9050136E-1,2.8067496E-1,2.802578E-1,5.157363E-1,4.9363238E-1,7.117031E-1,-1.2606609E0,-1.0699024E0,-9.815038E-1,-6.415121E-1,-1.6316663E0,-2.355936E-1,-2.6585963E0,-1.8392175E0],"categories":[],"categories_nodes":[],"categories_segments":[],"categories_sizes":[],"default_left":[0,0,0,0,0,0,0,0,0,0,0,0,0,0,0,0,0,0,0,0,0,0,0,0,0,0,0,0,0,0,0],"id":26,"left_children":[1,3,5,7,9,11,13,15,17,19,21,23,25,27,29,-1,-1,-1,-1,-1,-1,-1,-1,-1,-1,-1,-1,-1,-1,-1,-1],"loss_changes":[9.862063E6,2.2854338E5,5.70998E5,5.1372812E4,6.10505E4,8.5553E4,5.7122375E4,1.4162922E4,2.6678625E4,5.6764062E4,1.5967656E4,3.5708E4,3.96855E4,1.60009375E4,2.418425E4,0E0,0E0,0E0,0E0,0E0,0E0,0E0,0E0,0E0,0E0,0E0,0E0,0E0,0E0,0E0,0E0],"parents":[2147483647,0,0,1,1,2,2,3,3,4,4,5,5,6,6,7,7,8,8,9,9,10,10,11,11,12,12,13,13,14,14],"right_children":[2,4,6,8,10,12,14,16,18,20,22,24,26,28,30,-1,-1,-1,-1,-1,-1,-1,-1,-1,-1,-1,-1,-1,-1,-1,-1],"split_conditions":[6.000612E1,2.4100147E1,6.1230488E1,8.0335015E-1,6.022911E1,6.0013084E1,7.281598E1,6E0,1.8072525E1,6.00063E1,6.023401E1,2.4100704E1,6.023129E1,1E1,6.0248405E1,1.18687876E-1,2.6015025E-1,1.9050136E-1,2.8067496E-1,2.802578E-1,5.157363E-1,4.9363238E-1,7.117031E-1,-1.2606609E0,-1.0699024E0,-9.815038E-1,-6.415121E-1,-1.6316663E0,-2.355936E-1,-2.6585963E0,-1.8392175E0],"split_indices":[118,151,118,123,74,2,154,23,151,66,50,151,74,95,78,0,0,0,0,0,0,0,0,0,0,0,0,0,0,0,0],"split_type":[0,0,0,0,0,0,0,0,0,0,0,0,0,0,0,0,0,0,0,0,0,0,0,0,0,0,0,0,0,0,0],"sum_hessian":[3.3542E4,2.7903E4,5.639E3,2.1509E4,6.394E3,5.324E3,3.15E2,8.84E3,1.2669E4,4.933E3,1.461E3,3.914E3,1.41E3,3.2E1,2.83E2,8.149E3,6.91E2,7.96E3,4.709E3,3.704E3,1.229E3,1.019E3,4.42E2,1.473E3,2.441E3,9.35E2,4.75E2,2E1,1.2E1,2.33E2,5E1],"tree_param":{"num_deleted":"0","num_feature":"172","num_nodes":"31","size_leaf_vector":"1"}},{"base_weights":[-9.952833E-3,3.722018E-1,-1.1907617E1,1.1087083E0,-8.343685E-1,-8.67731E0,-1.8117432E1,9.2099166E-1,3.647273E0,1.7302952E0,-1.1615608E0,-5.400018E0,-1.0902045E1,-2.4089708E0,-1.8993029E1,4.9946893E-2,1.7903965E-2,1.0226086E-1,3.2132176E-1,1.5912753E-1,2.379665E-2,-2.5845405E-2,-1.3434617E-1,-2.676542E-1,-1.0744386E-1,-2.6134393E-1,-4.0325776E-1,-2.0272446E-1,2.654141E-1,-6.0293216E-1,-2.5564727E-1],"categories":[],"categories_nodes":[],"categories_segments":[],"categories_sizes":[],"default_left":[0,0,0,0,0,0,0,0,0,0,0,0,0,0,0,0,0,0,0,0,0,0,0,0,0,0,0,0,0,0,0],"id":27,"left_children":[1,3,5,7,9,11,13,15,17,19,21,23,25,27,29,-1,-1,-1,-1,-1,-1,-1,-1,-1,-1,-1,-1,-1,-1,-1,-1],"loss_changes":[1.5282177E5,2.8939736E4,2.0822469E4,9.632588E3,1.0360273E4,4.9703594E3,4.862383E3,4.5402256E3,2.3078496E3,4.673819E3,1.0890516E4,1.7664814E3,2.1618516E3,1.0385217E3,3.7358203E3,0E0,0E0,0E0,0E0,0E0,0E0,0E0,0E0,0E0,0E0,0E0,0E0,0E0,0E0,0E0,0E0],"parents":[2147483647,0,0,1,1,2,2,3,3,4,4,5,5,6,6,7,7,8,8,9,9,10,10,11,11,12,12,13,13,14,14],"right_children":[2,4,6,8,10,12,14,16,18,20,22,24,26,28,30,-1,-1,-1,-1,-1,-1,-1,-1,-1,-1,-1,-1,-1,-1,-1,-1],"split_conditions":[2E1,3E0,3E1,3.9E0,-4.060606E-1,6.307887E1,6.0241184E0,1E0,2.7E1,5.713057E1,1.2E1,1.2E1,2.6669034E2,2.7E1,1.4666916E0,4.9946893E-2,1.7903965E-2,1.0226086E-1,3.2132176E-1,1.5912753E-1,2.379665E-2,-2.5845405E-2,-1.3434617E-1,-2.676542E-1,-1.0744386E-1,-2.6134393E-1,-4.0325776E-1,-2.0272446E-1,2.654141E-1,-6.0293216E-1,-2.5564727E-1],"split_indices":[119,119,119,162,171,138,164,119,23,138,119,75,21,91,60,0,0,0,0,0,0,0,0,0,0,0,0,0,0,0,0],"split_type":[0,0,0,0,0,0,0,0,0,0,0,0,0,0,0,0,0,0,0,0,0,0,0,0,0,0,0,0,0,0,0],"sum_hessian":[3.3609E4,3.2564E4,1.045E3,2.0221E4,1.2343E4,6.89E2,3.56E2,1.883E4,1.391E3,1.396E3,1.0947E4,2.8E2,4.09E2,1.9E1,3.37E2,5.714E3,1.3116E4,1.347E3,4.4E1,2.89E2,1.107E3,1.004E4,9.07E2,9.4E1,1.86E2,2.22E2,1.87E2,1.4E1,5E0,3.04E2,3.3E1],"tree_param":{"num_deleted":"0","num_feature":"172","num_nodes":"31","size_leaf_vector":"1"}},{"base_weights":[-4.998672E-4,9.8116085E-2,-2.4855813E-2,1.462891E-1,5.842013E-2,-1.7094791E-2,-1.3952987E-1,7.777631E-2,1.844612E-1,1.058292E-1,4.3195266E-2,3.978333E-2,-2.6482701E-2,-1.15727216E-1,-4.1219917E-1,-8.070857E-4,4.321458E-3,6.9716163E-3,3.8184084E-3,1.7054506E-3,5.257091E-3,4.7051834E-4,2.51223E-3,2.0084549E-3,7.047657E-4,-8.790306E-5,-1.2822779E-3,-2.9998377E-3,-1.0490276E-2,-6.4796984E-2,-1.0673569E-2],"categories":[],"categories_nodes":[],"categories_segments":[],"categories_sizes":[],"default_left":[0,0,0,0,0,0,0,0,0,0,0,0,0,0,0,0,0,0,0,0,0,0,0,0,0,0,0,0,0,0,0],"id":28,"left_children":[1,3,5,7,9,11,13,15,17,19,21,23,25,27,29,-1,-1,-1,-1,-1,-1,-1,-1,-1,-1,-1,-1,-1,-1,-1,-1],"loss_changes":[8.050148E1,1.2664654E1,2.3905714E1,7.797409E0,2.6093092E0,1.3444469E1,1.0952404E1,7.4732184E0,5.2043533E0,2.9686966E0,3.0674329E0,1.5675216E0,8.272667E0,5.691288E0,1.2388748E1,0E0,0E0,0E0,0E0,0E0,0E0,0E0,0E0,0E0,0E0,0E0,0E0,0E0,0E0,0E0,0E0],"parents":[2147483647,0,0,1,1,2,2,3,3,4,4,5,5,6,6,7,7,8,8,9,9,10,10,11,11,12,12,13,13,14,14],"right_children":[2,4,6,8,10,12,14,16,18,20,22,24,26,28,30,-1,-1,-1,-1,-1,-1,-1,-1,-1,-1,-1,-1,-1,-1,-1,-1],"split_conditions":[6.666802E-1,5.5097E-1,1.4000345E0,1.1E0,5.166884E-1,-8.3331466E-2,1.7000037E0,9.95536E2,4.5000273E-1,6.0229294E1,7.000203E-1,8.6671084E-1,9.284279E-1,1.7514577E0,1.2044358E0,-8.070857E-4,4.321458E-3,6.9716163E-3,3.8184084E-3,1.7054506E-3,5.257091E-3,4.7051834E-4,2.51223E-3,2.0084549E-3,7.047657E-4,-8.790306E-5,-1.2822779E-3,-2.9998377E-3,-1.0490276E-2,-6.4796984E-2,-1.0673569E-2],"split_indices":[116,127,116,162,8,129,121,140,8,153,127,116,116,8,112,0,0,0,0,0,0,0,0,0,0,0,0,0,0,0,0],"split_type":[0,0,0,0,0,0,0,0,0,0,0,0,0,0,0,0,0,0,0,0,0,0,0,0,0,0,0,0,0,0,0],"sum_hessian":[3.3517E4,6.637E3,2.688E4,2.996E3,3.641E3,2.5178E4,1.702E3,1.074E3,1.922E3,8.82E2,2.759E3,3.565E3,2.1613E4,1.567E3,1.35E2,4.16E2,6.58E2,1.043E3,8.79E2,5.19E2,3.63E2,1.646E3,1.113E3,1.333E3,2.232E3,8.83E3,1.2783E4,1.47E3,9.7E1,3E0,1.32E2],"tree_param":{"num_deleted":"0","num_feature":"172","num_nodes":"31","size_leaf_vector":"1"}},{"base_weights":[-3.942427E-1,-3.4015933E2,7.349338E1,2.1759442E2,-3.4327206E2,1.0618817E2,-3.8868748E1,1.3727515E2,1.9679136E1,8.176608E1,-3.4679562E2,2.92172E1,1.265718E2,-1.1338542E1,-2.3691928E2,6.0535316E0,-6.7682385E0,6.6438417E0,-1.3629663E0,-7.396449E0,-1.0740773E1,3.532085E0,5.833516E-1,4.7812147E0,3.184285E0,-2.0621548E0,4.684927E-1,-1.0605337E1,-4.0872817E0],"categories":[],"categories_nodes":[],"categories_segments":[],"categories_sizes":[],"default_left":[0,0,0,0,0,0,0,0,0,0,0,0,0,0,0,0,0,0,0,0,0,0,0,0,0,0,0,0,0],"id":29,"left_children":[1,3,5,7,9,11,13,15,-1,17,19,21,23,25,27,-1,-1,-1,-1,-1,-1,-1,-1,-1,-1,-1,-1,-1,-1],"loss_changes":[8.4551725E8,1.051936E7,1.0163216E8,1.1070159E6,8.988736E6,3.3617296E7,3.399828E7,7.4780125E5,0E0,8.9852925E5,6.592128E6,3.8799078E6,1.1336064E7,8.473622E6,8.884468E6,0E0,0E0,0E0,0E0,0E0,0E0,0E0,0E0,0E0,0E0,0E0,0E0,0E0,0E0],"parents":[2147483647,0,0,1,1,2,2,3,3,4,4,5,5,6,6,7,7,9,9,10,10,11,11,12,12,13,13,14,14],"right_children":[2,4,6,8,10,12,14,16,-1,18,20,22,24,26,28,-1,-1,-1,-1,-1,-1,-1,-1,-1,-1,-1,-1,-1,-1],"split_conditions":[1E0,-8.182697E1,3.0400366E1,6.000624E1,8.08044E2,2E0,1.1090041E2,9.95818E2,1.9679136E1,2.3897462E0,4.3922698E-1,3.6666736E-1,-1.6058186E1,0E0,4.940285E2,6.0535316E0,-6.7682385E0,6.6438417E0,-1.3629663E0,-7.396449E0,-1.0740773E1,3.532085E0,5.833516E-1,4.7812147E0,3.184285E0,-2.0621548E0,4.684927E-1,-1.0605337E1,-4.0872817E0],"split_indices":[119,144,144,10,140,119,144,77,0,144,127,126,145,168,113,0,0,0,0,0,0,0,0,0,0,0,0,0,0],"split_type":[0,0,0,0,0,0,0,0,0,0,0,0,0,0,0,0,0,0,0,0,0,0,0,0,0,0,0,0,0],"sum_hessian":[3.3678E4,6.015E3,2.7663E4,3.3E1,5.982E3,2.1428E4,6.235E3,2.9E1,4E0,4.9E1,5.933E3,4.487E3,1.6941E4,5.475E3,7.6E2,2.5E1,4E0,2.3E1,2.6E1,6E2,5.333E3,4.45E2,4.042E3,6.499E3,1.0442E4,1.749E3,3.726E3,3.51E2,4.09E2],"tree_param":{"num_deleted":"0","num_feature":"172","num_nodes":"29","size_leaf_vector":"1"}},{"base_weights":[-1.6872564E-2,7.5250525E0,-3.698229E1,6.1744385E0,1.3914198E1,-3.448791E1,-7.6893326E1,4.8404217E0,8.126345E0,1.1856764E1,1.945217E1,-3.7505196E1,-2.6414625E1,-8.187886E1,-3.0638836E1,1.3271053E-1,2.8260556E-1,2.2358793E-1,3.5622552E-1,3.0755293E-1,5.070706E-1,5.7707024E-1,2.5639758E0,-1.2132688E0,-1.0379953E0,-8.24061E-1,1.953891E-1,-2.4852304E0,3.0019084E-1,-1.4423552E0,-1.6010064E-1],"categories":[],"categories_nodes":[],"categories_segments":[],"categories_sizes":[],"default_left":[0,0,0,0,0,0,0,0,0,0,0,0,0,0,0,0,0,0,0,0,0,0,0,0,0,0,0,0,0,0,0],"id":30,"left_children":[1,3,5,7,9,11,13,15,17,19,21,23,25,27,29,-1,-1,-1,-1,-1,-1,-1,-1,-1,-1,-1,-1,-1,-1,-1,-1],"loss_changes":[9.336692E6,2.39935E5,5.623015E5,5.9752188E4,5.5061375E4,1.291555E5,7.4270875E4,2.5995344E4,2.3434375E4,2.8499594E4,1.7110344E4,3.17615E4,5.0750688E4,2.735875E4,1.4740955E4,0E0,0E0,0E0,0E0,0E0,0E0,0E0,0E0,0E0,0E0,0E0,0E0,0E0,0E0,0E0,0E0],"parents":[2147483647,0,0,1,1,2,2,3,3,4,4,5,5,6,6,7,7,8,8,9,9,10,10,11,11,12,12,13,13,14,14],"right_children":[2,4,6,8,10,12,14,16,18,20,22,24,26,28,30,-1,-1,-1,-1,-1,-1,-1,-1,-1,-1,-1,-1,-1,-1,-1,-1],"split_conditions":[6.000612E1,1.8072119E1,6.1230488E1,1.8068605E1,6.0223248E1,3.0122229E1,7.8292465E1,6.023661E1,6.00063E1,6.008472E1,1.7166958E0,1.8071068E1,1.2047527E2,2.3E1,1E1,1.3271053E-1,2.8260556E-1,2.2358793E-1,3.5622552E-1,3.0755293E-1,5.070706E-1,5.7707024E-1,2.5639758E0,-1.2132688E0,-1.0379953E0,-8.24061E-1,1.953891E-1,-2.4852304E0,3.0019084E-1,-1.4423552E0,-1.6010064E-1],"split_indices":[118,149,118,151,54,149,149,50,66,42,116,149,26,115,95,0,0,0,0,0,0,0,0,0,0,0,0,0,0,0,0],"split_type":[0,0,0,0,0,0,0,0,0,0,0,0,0,0,0,0,0,0,0,0,0,0,0,0,0,0,0,0,0,0,0],"sum_hessian":[3.3488E4,2.7814E4,5.674E3,2.2962E4,4.852E3,5.342E3,3.32E2,1.3642E4,9.32E3,3.54E3,1.312E3,3.886E3,1.456E3,2.99E2,3.3E1,1.2506E4,1.136E3,7.903E3,1.417E3,2.688E3,8.52E2,1.309E3,3E0,1.926E3,1.96E3,1.411E3,4.5E1,2.96E2,3E0,1.9E1,1.4E1],"tree_param":{"num_deleted":"0","num_feature":"172","num_nodes":"31","size_leaf_vector":"1"}},{"base_weights":[1.5553715E-2,3.7294695E-1,-1.1902583E1,8.5877705E-1,-1.4561423E0,-8.558271E0,-1.7520025E1,6.4835143E-1,2.5655792E0,-1.0242394E0,-4.307851E0,-5.493366E0,-1.0699248E1,-1.5045239E1,-2.3728346E1,3.621554E-2,-3.120963E-4,1.583822E-1,6.2301084E-2,-2.5615434E-3,-4.9708877E-2,-1.7353678E-1,-5.29113E-2,-6.988937E-2,-2.7437726E-1,-2.4991284E-1,-4.002171E-1,-2.5794703E-1,-5.084714E-1,-1.8971105E-1,-7.4829525E-1],"categories":[],"categories_nodes":[],"categories_segments":[],"categories_sizes":[],"default_left":[0,0,0,0,0,0,0,0,0,0,0,0,0,0,0,0,0,0,0,0,0,0,0,0,0,0,0,0,0,0,0],"id":31,"left_children":[1,3,5,7,9,11,13,15,17,19,21,23,25,27,29,-1,-1,-1,-1,-1,-1,-1,-1,-1,-1,-1,-1,-1,-1,-1,-1],"loss_changes":[1.4308286E5,2.8982863E4,1.8220625E4,9.253436E3,8.425772E3,3.975168E3,5.2317188E3,8.446232E3,3.7402812E3,3.5318174E3,3.3703008E3,2.9242295E3,2.1454102E3,3.0797422E3,1.995793E3,0E0,0E0,0E0,0E0,0E0,0E0,0E0,0E0,0E0,0E0,0E0,0E0,0E0,0E0,0E0,0E0],"parents":[2147483647,0,0,1,1,2,2,3,3,4,4,5,5,6,6,7,7,8,8,9,9,10,10,11,11,12,12,13,13,14,14],"right_children":[2,4,6,8,10,12,14,16,18,20,22,24,26,28,30,-1,-1,-1,-1,-1,-1,-1,-1,-1,-1,-1,-1,-1,-1,-1,-1],"split_conditions":[2.1E1,5E-1,3E1,1.2666694E0,1.1E1,6.307887E1,3.9E1,2E0,-3.6000001E0,4E0,7E0,1.8335831E-1,2.6669034E2,1.200046E2,8.2631E1,3.621554E-2,-3.120963E-4,1.583822E-1,6.2301084E-2,-2.5615434E-3,-4.9708877E-2,-1.7353678E-1,-5.29113E-2,-6.988937E-2,-2.7437726E-1,-2.4991284E-1,-4.002171E-1,-2.5794703E-1,-5.084714E-1,-1.8971105E-1,-7.4829525E-1],"split_indices":[159,170,159,68,159,138,159,159,169,159,35,128,21,41,41,0,0,0,0,0,0,0,0,0,0,0,0,0,0,0,0],"split_type":[0,0,0,0,0,0,0,0,0,0,0,0,0,0,0,0,0,0,0,0,0,0,0,0,0,0,0,0,0,0,0],"sum_hessian":[3.359E4,3.2613E4,9.77E2,2.5769E4,6.844E3,6.14E2,3.63E2,2.2942E4,2.827E3,5.945E3,8.99E2,2.54E2,3.6E2,2.62E2,1.01E2,1.2412E4,1.053E4,4.3E2,2.397E3,2.394E3,3.551E3,5.68E2,3.31E2,1.37E2,1.17E2,1.92E2,1.68E2,6.1E1,2.01E2,7E0,9.4E1],"tree_param":{"num_deleted":"0","num_feature":"172","num_nodes":"31","size_leaf_vector":"1"}},{"base_weights":[-3.5120564E-4,1.0480395E-1,-2.1670321E-2,1.4213121E-1,6.2228166E-2,-1.2977654E-2,-1.0987013E-1,1.1961382E-1,2.2956939E-1,1.1110138E-1,4.299494E-2,2.9379737E-2,-2.5336504E-2,-9.512333E-2,-3.771012E-1,4.0544495E-3,-3.96581E-4,1.1346349E-2,3.9276527E-3,6.074839E-3,2.8017203E-3,7.0331636E-4,3.085549E-3,9.979617E-4,-2.3818652E-3,3.977504E-5,-1.2150432E-3,-2.5262435E-3,-8.363707E-3,-5.3204544E-2,-9.880918E-3],"categories":[],"categories_nodes":[],"categories_segments":[],"categories_sizes":[],"default_left":[0,0,0,0,0,0,0,0,0,0,0,0,0,0,0,0,0,0,0,0,0,0,0,0,0,0,0,0,0,0,0],"id":32,"left_children":[1,3,5,7,9,11,13,15,17,19,21,23,25,27,29,-1,-1,-1,-1,-1,-1,-1,-1,-1,-1,-1,-1,-1,-1,-1,-1],"loss_changes":[7.513062E1,8.948326E0,2.1352451E1,5.860016E0,2.4632664E0,1.3281246E1,9.764973E0,4.9560547E0,8.902775E0,1.1557674E0,2.2072861E0,2.419467E0,7.945874E0,4.691511E0,7.871336E0,0E0,0E0,0E0,0E0,0E0,0E0,0E0,0E0,0E0,0E0,0E0,0E0,0E0,0E0,0E0,0E0],"parents":[2147483647,0,0,1,1,2,2,3,3,4,4,5,5,6,6,7,7,8,8,9,9,10,10,11,11,12,12,13,13,14,14],"right_children":[2,4,6,8,10,12,14,16,18,20,22,24,26,28,30,-1,-1,-1,-1,-1,-1,-1,-1,-1,-1,-1,-1,-1,-1,-1,-1],"split_conditions":[6.333335E-1,5.5097E-1,1.3500223E0,1.6E0,-5.00108E-2,-4.9991846E-2,1.7000037E0,6.048265E1,3.9295214E-1,4.8333472E-1,1.204575E1,1.3964765E0,8.833351E-1,1.7166766E0,1.16667E0,4.0544495E-3,-3.96581E-4,1.1346349E-2,3.9276527E-3,6.074839E-3,2.8017203E-3,7.0331636E-4,3.085549E-3,9.979617E-4,-2.3818652E-3,3.977504E-5,-1.2150432E-3,-2.5262435E-3,-8.363707E-3,-5.3204544E-2,-9.880918E-3],"split_indices":[116,127,116,164,129,129,121,153,0,0,148,0,116,0,108,0,0,0,0,0,0,0,0,0,0,0,0,0,0,0,0],"split_type":[0,0,0,0,0,0,0,0,0,0,0,0,0,0,0,0,0,0,0,0,0,0,0,0,0,0,0,0,0,0,0],"sum_hessian":[3.3515E4,5.648E3,2.7867E4,3.007E3,2.641E3,2.5369E4,2.498E3,2.394E3,6.13E2,7.43E2,1.898E3,5.728E3,1.9641E4,2.369E3,1.29E2,2.144E3,2.5E2,2.43E2,3.7E2,1.18E2,6.25E2,1.433E3,4.65E2,5.532E3,1.96E2,7.119E3,1.2522E4,2.238E3,1.31E2,3E0,1.26E2],"tree_param":{"num_deleted":"0","num_feature":"172","num_nodes":"31","size_leaf_vector":"1"}},{"base_weights":[-3.8914055E-1,9.2672585E1,-3.3421707E2,1.4374088E2,2.4387072E1,-2.1872588E2,-3.4262775E2,1.1898801E2,1.7973111E2,-3.2056265E0,5.6150715E1,-1.2139385E2,-2.6849844E2,-2.022101E2,-3.4806833E2,4.223533E0,2.5741944E0,8.040548E0,5.104918E0,-8.596544E-1,8.108338E-1,1.8113444E0,-2.4496288E0,-2.2592552E0,-6.161848E0,-8.416052E0,8.897949E-2,-8.088973E0,-2.646516E0,-1.161533E1,-9.880873E0],"categories":[],"categories_nodes":[],"categories_segments":[],"categories_sizes":[],"default_left":[0,0,0,0,0,0,0,0,0,0,0,0,0,0,0,0,0,0,0,0,0,0,0,0,0,0,0,0,0,0,0],"id":33,"left_children":[1,3,5,7,9,11,13,15,17,19,21,23,25,27,29,-1,-1,-1,-1,-1,-1,-1,-1,-1,-1,-1,-1,-1,-1,-1,-1],"loss_changes":[1.04386886E9,9.16268E7,7.040192E6,1.337088E7,9.854928E6,2.3896E6,5.144384E6,6.431944E6,5.127024E6,4.631181E6,3.049975E6,6.4648225E5,1.07914E6,1.951396E6,4.678784E6,0E0,0E0,0E0,0E0,0E0,0E0,0E0,0E0,0E0,0E0,0E0,0E0,0E0,0E0,0E0,0E0],"parents":[2147483647,0,0,1,1,2,2,3,3,4,4,5,5,6,6,7,7,8,8,9,9,10,10,11,11,12,12,13,13,14,14],"right_children":[2,4,6,8,10,12,14,16,18,20,22,24,26,28,30,-1,-1,-1,-1,-1,-1,-1,-1,-1,-1,-1,-1,-1,-1,-1,-1],"split_conditions":[7.03897E2,3.2805E2,3.4875232E-1,4.0819464E2,5.2243774E2,9.88005E2,8.27884E2,2.51908E2,1.9999867E2,4.339255E2,1E1,2.4583057E2,6.0262142E1,4.918995E2,5.5058777E2,4.223533E0,2.5741944E0,8.040548E0,5.104918E0,-8.596544E-1,8.108338E-1,1.8113444E0,-2.4496288E0,-2.2592552E0,-6.161848E0,-8.416052E0,8.897949E-2,-8.088973E0,-2.646516E0,-1.161533E1,-9.880873E0],"split_indices":[117,117,123,136,136,140,117,117,117,45,3,137,14,57,136,0,0,0,0,0,0,0,0,0,0,0,0,0,0,0,0],"split_type":[0,0,0,0,0,0,0,0,0,0,0,0,0,0,0,0,0,0,0,0,0,0,0,0,0,0,0,0,0,0,0],"sum_hessian":[3.3599E4,2.6275E4,7.324E3,1.5032E4,1.1243E4,4.99E2,6.825E3,8.909E3,6.123E3,6.017E3,5.226E3,1.7E2,3.29E2,2.56E2,6.569E3,5.375E3,3.534E3,5.96E2,5.527E3,3.267E3,2.75E3,5.071E3,1.55E2,1.11E2,5.9E1,3.15E2,1.4E1,1.6E2,9.6E1,2.119E3,4.45E3],"tree_param":{"num_deleted":"0","num_feature":"172","num_nodes":"31","size_leaf_vector":"1"}},{"base_weights":[-5.9184372E-2,7.4021845E0,-3.6111885E1,5.861196E0,1.3070494E1,-3.362144E1,-7.517319E1,4.773365E0,7.681725E0,1.1144815E1,1.8872478E1,-3.7041965E1,-2.6560236E1,-8.1452705E1,-4.142222E1,1.0305311E-1,1.7014119E-1,1.6763239E-1,2.6672792E-1,2.838072E-1,5.0040436E-1,6.3880813E-1,3.9486423E-1,-1.1848937E0,-1.042372E0,-9.154806E-1,-6.1724573E-1,-2.3562975E0,-3.4451382E0,-1.7613494E0,-5.763267E-1],"categories":[],"categories_nodes":[],"categories_segments":[],"categories_sizes":[],"default_left":[0,0,0,0,0,0,0,0,0,0,0,0,0,0,0,0,0,0,0,0,0,0,0,0,0,0,0,0,0,0,0],"id":34,"left_children":[1,3,5,7,9,11,13,15,17,19,21,23,25,27,29,-1,-1,-1,-1,-1,-1,-1,-1,-1,-1,-1,-1,-1,-1,-1,-1],"loss_changes":[9.025303E6,2.427315E5,5.571135E5,4.325025E4,6.6164E4,1.296775E5,6.952125E4,1.6425812E4,2.0645844E4,4.1455688E4,2.0164188E4,1.9147E4,4.1251375E4,1.9032125E4,2.0369484E4,0E0,0E0,0E0,0E0,0E0,0E0,0E0,0E0,0E0,0E0,0E0,0E0,0E0,0E0,0E0,0E0],"parents":[2147483647,0,0,1,1,2,2,3,3,4,4,5,5,6,6,7,7,8,8,9,9,10,10,11,11,12,12,13,13,14,14],"right_children":[2,4,6,8,10,12,14,16,18,20,22,24,26,28,30,-1,-1,-1,-1,-1,-1,-1,-1,-1,-1,-1,-1,-1,-1,-1,-1],"split_conditions":[6.000612E1,1.2050491E1,6.1230488E1,1.8068605E1,6.0085503E1,2.4101074E1,6.0248596E1,6.8333733E-1,8.3890605E-1,6.000624E1,4.880075E2,1.20507765E1,6.00105E1,1.20822685E2,1E1,1.0305311E-1,1.7014119E-1,1.6763239E-1,2.6672792E-1,2.838072E-1,5.0040436E-1,6.3880813E-1,3.9486423E-1,-1.1848937E0,-1.042372E0,-9.154806E-1,-6.1724573E-1,-2.3562975E0,-3.4451382E0,-1.7613494E0,-5.763267E-1],"split_indices":[118,149,118,151,74,149,149,126,121,58,33,149,18,153,95,0,0,0,0,0,0,0,0,0,0,0,0,0,0,0,0],"split_type":[0,0,0,0,0,0,0,0,0,0,0,0,0,0,0,0,0,0,0,0,0,0,0,0,0,0,0,0,0,0,0],"sum_hessian":[3.3549E4,2.7797E4,5.752E3,2.1857E4,5.94E3,5.409E3,3.43E2,1.3684E4,8.173E3,4.462E3,1.478E3,3.641E3,1.768E3,2.88E2,5.5E1,5.497E3,8.187E3,2.994E3,5.179E3,3.423E3,1.039E3,1.036E3,4.42E2,1.752E3,1.889E3,1.062E3,7.06E2,2.68E2,2E1,3E1,2.5E1],"tree_param":{"num_deleted":"0","num_feature":"172","num_nodes":"31","size_leaf_vector":"1"}},{"base_weights":[2.4500221E-2,3.953152E-1,-1.0534398E1,9.2981225E-1,-1.1780454E0,-7.813348E0,-1.7169256E1,6.537024E-1,2.516658E0,-5.2461153E-1,-2.7591558E0,-4.5314813E0,-9.866747E0,8.184289E-4,-1.7927874E1,3.3789847E-2,5.371686E-4,5.644147E-2,1.3723956E-1,1.0483271E-2,-2.7478926E-2,-9.499264E-2,3.753482E-3,-1.9731149E-1,-2.0315442E-2,-3.4129378E-1,-2.0080665E-1,-1.4816709E-1,3.2664123E-1,-4.7074053E-1,-6.807969E-1],"categories":[],"categories_nodes":[],"categories_segments":[],"categories_sizes":[],"default_left":[0,0,0,0,0,0,0,0,0,0,0,0,0,0,0,0,0,0,0,0,0,0,0,0,0,0,0,0,0,0,0],"id":35,"left_children":[1,3,5,7,9,11,13,15,17,19,21,23,25,27,29,-1,-1,-1,-1,-1,-1,-1,-1,-1,-1,-1,-1,-1,-1,-1,-1],"loss_changes":[1.3167798E5,2.7323752E4,2.046271E4,1.0623898E4,8.510356E3,5.419164E3,4.313258E3,6.2077695E3,4.6895215E3,1.9949482E3,2.8304668E3,2.4704712E3,2.3077695E3,8.610675E2,3.0186094E3,0E0,0E0,0E0,0E0,0E0,0E0,0E0,0E0,0E0,0E0,0E0,0E0,0E0,0E0,0E0,0E0],"parents":[2147483647,0,0,1,1,2,2,3,3,4,4,5,5,6,6,7,7,8,8,9,9,10,10,11,11,12,12,13,13,14,14],"right_children":[2,4,6,8,10,12,14,16,18,20,22,24,26,28,30,-1,-1,-1,-1,-1,-1,-1,-1,-1,-1,-1,-1,-1,-1,-1,-1],"split_conditions":[1.9E1,4E-1,3E1,1.2833523E0,6E0,2.96063E2,1.9E1,2E0,8E0,3E0,1.2E1,1.8E1,1.2666893E0,2.7E1,1.154816E1,3.3789847E-2,5.371686E-4,5.644147E-2,1.3723956E-1,1.0483271E-2,-2.7478926E-2,-9.499264E-2,3.753482E-3,-1.9731149E-1,-2.0315442E-2,-3.4129378E-1,-2.0080665E-1,-1.4816709E-1,3.2664123E-1,-4.7074053E-1,-6.807969E-1],"split_indices":[119,170,119,127,119,140,167,119,67,119,11,27,72,95,163,0,0,0,0,0,0,0,0,0,0,0,0,0,0,0,0],"split_type":[0,0,0,0,0,0,0,0,0,0,0,0,0,0,0,0,0,0,0,0,0,0,0,0,0,0,0,0,0,0,0],"sum_hessian":[3.3629E4,3.2489E4,1.14E3,2.4251E4,8.238E3,8.1E2,3.3E2,2.0658E4,3.593E3,5.83E3,2.408E3,3.13E2,4.97E2,1.4E1,3.16E2,1.1849E4,8.809E3,2.747E3,8.46E2,1.803E3,4.027E3,2.11E3,2.98E2,2.04E2,1.09E2,3.35E2,1.62E2,1E1,4E0,2.18E2,9.8E1],"tree_param":{"num_deleted":"0","num_feature":"172","num_nodes":"31","size_leaf_vector":"1"}},{"base_weights":[-4.0831033E-4,9.574651E-2,-2.2961529E-2,1.3889524E-1,5.7608258E-2,-1.295035E-2,-1.0165057E-1,6.95664E-2,1.768937E-1,9.820885E-2,3.6658753E-2,2.2064324E-2,-2.6981937E-2,-8.753562E-2,-3.8984367E-1,-9.2283415E-4,3.979884E-3,6.959984E-3,3.6034456E-3,1.6215099E-3,5.259091E-3,9.185445E-5,2.4870336E-3,1.7588758E-3,2.7062793E-4,-1.0503667E-3,5.388665E-4,-2.3782537E-3,-9.123214E-3,-5.2007437E-2,-1.0438568E-2],"categories":[],"categories_nodes":[],"categories_segments":[],"categories_sizes":[],"default_left":[0,0,0,0,0,0,0,0,0,0,0,0,0,0,0,0,0,0,0,0,0,0,0,0,0,0,0,0,0,0,0],"id":36,"left_children":[1,3,5,7,9,11,13,15,17,19,21,23,25,27,29,-1,-1,-1,-1,-1,-1,-1,-1,-1,-1,-1,-1,-1,-1,-1,-1],"loss_changes":[7.298569E1,1.0494419E1,2.1465775E1,7.8609505E0,2.8722744E0,1.1885911E1,1.243079E1,6.749718E0,5.99123E0,3.896227E0,3.4774327E0,3.292585E0,6.2360477E0,5.186445E0,7.2382603E0,0E0,0E0,0E0,0E0,0E0,0E0,0E0,0E0,0E0,0E0,0E0,0E0,0E0,0E0,0E0,0E0],"parents":[2147483647,0,0,1,1,2,2,3,3,4,4,5,5,6,6,7,7,8,8,9,9,10,10,11,11,12,12,13,13,14,14],"right_children":[2,4,6,8,10,12,14,16,18,20,22,24,26,28,30,-1,-1,-1,-1,-1,-1,-1,-1,-1,-1,-1,-1,-1,-1,-1,-1],"split_conditions":[6.6005206E-1,5.5097E-1,1.3166982E0,1.1E0,5.552755E-1,-3.3278286E-2,1.7000037E0,9.95536E2,4.480545E-1,6.0241688E1,7.000203E-1,-1.3333148E-1,4.4E0,1.7514577E0,1.16667E0,-9.2283415E-4,3.979884E-3,6.959984E-3,3.6034456E-3,1.6215099E-3,5.259091E-3,9.185445E-5,2.4870336E-3,1.7588758E-3,2.7062793E-4,-1.0503667E-3,5.388665E-4,-2.3782537E-3,-9.123214E-3,-5.2007437E-2,-1.0438568E-2],"split_indices":[120,127,120,162,4,129,121,140,0,153,127,129,162,24,108,0,0,0,0,0,0,0,0,0,0,0,0,0,0,0,0],"split_type":[0,0,0,0,0,0,0,0,0,0,0,0,0,0,0,0,0,0,0,0,0,0,0,0,0,0,0,0,0,0,0],"sum_hessian":[3.3657E4,6.393E3,2.7264E4,2.997E3,3.396E3,2.4189E4,3.075E3,1.063E3,1.934E3,1.153E3,2.243E3,6.918E3,1.7271E4,2.933E3,1.42E2,4.1E2,6.53E2,9.79E2,9.55E2,7.35E2,4.18E2,1.301E3,9.42E2,1.816E3,5.102E3,1.4655E4,2.616E3,2.827E3,1.06E2,3E0,1.39E2],"tree_param":{"num_deleted":"0","num_feature":"172","num_nodes":"31","size_leaf_vector":"1"}},{"base_weights":[1.1427824E0,9.271146E1,-3.1887143E2,1.3852983E2,2.8317497E1,-1.7015808E2,-3.265889E2,1.5785197E2,9.005995E1,-2.663141E0,6.2110764E1,-2.0440501E2,-8.278286E0,-2.2589392E2,-3.3726105E2,6.1424856E0,4.034528E0,3.751426E0,1.8839875E0,1.7702048E-1,-2.5032363E0,1.4493141E0,3.1128535E0,-7.65135E0,-3.7335923E0,1.7025503E0,-5.971854E0,-4.5075507E0,-8.477388E0,-1.1301538E1,-9.590414E0],"categories":[],"categories_nodes":[],"categories_segments":[],"categories_sizes":[],"default_left":[0,0,0,0,0,0,0,0,0,0,0,0,0,0,0,0,0,0,0,0,0,0,0,0,0,0,0,0,0,0,0],"id":37,"left_children":[1,3,5,7,9,11,13,15,17,19,21,23,25,27,29,-1,-1,-1,-1,-1,-1,-1,-1,-1,-1,-1,-1,-1,-1,-1,-1],"loss_changes":[9.875792E8,7.730904E7,8.549824E6,1.4324224E7,1.1406549E7,2.060612E6,7.582656E6,1.1966944E7,4.156304E6,3.9332078E6,2.990236E6,1.211191E6,8.3015E5,2.898952E6,4.348096E6,0E0,0E0,0E0,0E0,0E0,0E0,0E0,0E0,0E0,0E0,0E0,0E0,0E0,0E0,0E0,0E0],"parents":[2147483647,0,0,1,1,2,2,3,3,4,4,5,5,6,6,7,7,8,8,9,9,10,10,11,11,12,12,13,13,14,14],"right_children":[2,4,6,8,10,12,14,16,18,20,22,24,26,28,30,-1,-1,-1,-1,-1,-1,-1,-1,-1,-1,-1,-1,-1,-1,-1,-1],"split_conditions":[4.959565E2,3.643345E2,8.27884E2,1.1E1,5.20641E2,9.83864E2,4.0212145E-1,2.42E2,-1.0760031E1,7E0,7.040193E2,4.599665E2,2.6243423E2,9.91946E2,5.4434143E2,6.1424856E0,4.034528E0,3.751426E0,1.8839875E0,1.7702048E-1,-2.5032363E0,1.4493141E0,3.1128535E0,-7.65135E0,-3.7335923E0,1.7025503E0,-5.971854E0,-4.5075507E0,-8.477388E0,-1.1301538E1,-9.590414E0],"split_indices":[117,117,117,166,136,29,123,117,144,71,136,49,138,140,136,0,0,0,0,0,0,0,0,0,0,0,0,0,0,0,0],"split_type":[0,0,0,0,0,0,0,0,0,0,0,0,0,0,0,0,0,0,0,0,0,0,0,0,0,0,0,0,0,0,0],"sum_hessian":[3.37E4,2.6203E4,7.497E3,1.5309E4,1.0894E4,3.71E2,7.126E3,1.0944E4,4.365E3,5.684E3,5.21E3,3.06E2,6.5E1,6.85E2,6.441E3,3.637E3,7.307E3,1.91E3,2.455E3,5.14E3,5.44E2,3.915E3,1.295E3,1.86E2,1.2E2,4.9E1,1.6E1,2.95E2,3.9E2,1.979E3,4.462E3],"tree_param":{"num_deleted":"0","num_feature":"172","num_nodes":"31","size_leaf_vector":"1"}},{"base_weights":[-6.5245144E-3,5.034414E0,-3.607973E1,6.232063E0,-2.6829897E1,-3.4246006E1,-7.633225E1,9.155374E0,4.826494E0,-5.7054076E0,-3.5596146E1,-3.3779778E1,-6.441113E1,-8.282897E1,-3.668671E1,2.4231493E-1,4.6620294E-1,1.5616137E-1,-2.9100388E-1,3.7160903E-1,-7.1286917E-1,-1.0139346E0,-2.2567184E0,-1.1176672E0,-8.654352E-1,-5.5063206E-1,-2.0783072E0,-2.5332441E0,-4.882788E-2,-1.5882735E0,-3.5840505E-1],"categories":[],"categories_nodes":[],"categories_segments":[],"categories_sizes":[],"default_left":[0,0,0,0,0,0,0,0,0,0,0,0,0,0,0,0,0,0,0,0,0,0,0,0,0,0,0,0,0,0,0],"id":38,"left_children":[1,3,5,7,9,11,13,15,17,19,21,23,25,27,29,-1,-1,-1,-1,-1,-1,-1,-1,-1,-1,-1,-1,-1,-1,-1,-1],"loss_changes":[6.120832E6,1.127211E6,3.01997E5,1.16910625E5,1.9793819E5,5.3352E4,4.3053625E4,6.3487812E4,1.0585741E5,1.03203516E5,5.1321938E4,6.562E4,1.1941703E4,1.98875E4,1.0219469E4,0E0,0E0,0E0,0E0,0E0,0E0,0E0,0E0,0E0,0E0,0E0,0E0,0E0,0E0,0E0,0E0],"parents":[2147483647,0,0,1,1,2,2,3,3,4,4,5,5,6,6,7,7,8,8,9,9,10,10,11,11,12,12,13,13,14,14],"right_children":[2,4,6,8,10,12,14,16,18,20,22,24,26,28,30,-1,-1,-1,-1,-1,-1,-1,-1,-1,-1,-1,-1,-1,-1,-1,-1],"split_conditions":[1.5106201E-3,4.746493E0,4.5090374E1,0E0,-6.022754E1,8.763192E0,6.0262623E1,6.000624E1,6.000624E1,1.20037094E2,1.20487495E2,2.4072256E1,2.4001993E1,1.8666666E1,2.051569E2,2.4231493E-1,4.6620294E-1,1.5616137E-1,-2.9100388E-1,3.7160903E-1,-7.1286917E-1,-1.0139346E0,-2.2567184E0,-1.1176672E0,-8.654352E-1,-5.5063206E-1,-2.0783072E0,-2.5332441E0,-4.882788E-2,-1.5882735E0,-3.5840505E-1],"split_indices":[155,158,150,158,155,158,102,110,82,114,114,149,150,160,138,0,0,0,0,0,0,0,0,0,0,0,0,0,0,0,0],"split_type":[0,0,0,0,0,0,0,0,0,0,0,0,0,0,0,0,0,0,0,0,0,0,0,0,0,0,0,0,0,0,0],"sum_hessian":[3.3658E4,2.9532E4,4.126E3,2.8463E4,1.069E3,3.948E3,1.78E2,9.24E3,1.9223E4,3.14E2,7.55E2,3.89E3,5.8E1,1.52E2,2.6E1,7.907E3,1.333E3,1.8735E4,4.88E2,1.57E2,1.57E2,7.24E2,3.1E1,2.278E3,1.612E3,6E0,5.2E1,1.49E2,3E0,1.5E1,1.1E1],"tree_param":{"num_deleted":"0","num_feature":"172","num_nodes":"31","size_leaf_vector":"1"}},{"base_weights":[-5.96837E-4,4.3310726E-1,-8.906199E0,1.0748457E0,-6.339047E-1,-6.316634E0,-1.507906E1,7.9023385E-1,2.6626832E0,1.2717856E-1,-1.6699015E0,-9.374081E0,-4.406975E0,-1.3278898E1,-2.1592115E1,9.75272E-2,2.0464573E-2,6.589432E-2,1.7871642E-1,1.5483034E-3,1.6868305E-1,-5.6862157E-2,3.0484231E-2,-2.4364655E-1,-4.0457812E-1,-1.8115008E-1,-6.2025604E-3,-4.804656E-1,-3.0231693E-1,-7.226703E-1,-2.7452934E-1],"categories":[],"categories_nodes":[],"categories_segments":[],"categories_sizes":[],"default_left":[0,0,0,0,0,0,0,0,0,0,0,0,0,0,0,0,0,0,0,0,0,0,0,0,0,0,0,0,0,0,0],"id":39,"left_children":[1,3,5,7,9,11,13,15,17,19,21,23,25,27,29,-1,-1,-1,-1,-1,-1,-1,-1,-1,-1,-1,-1,-1,-1,-1,-1],"loss_changes":[1.2966535E5,2.1920707E4,2.4823273E4,9.031381E3,9.48026E3,6.3798594E3,5.103086E3,4.50609E3,4.652254E3,2.8779546E3,3.0863037E3,2.061707E3,4.6506895E3,3.0165117E3,2.8205312E3,0E0,0E0,0E0,0E0,0E0,0E0,0E0,0E0,0E0,0E0,0E0,0E0,0E0,0E0,0E0,0E0],"parents":[2147483647,0,0,1,1,2,2,3,3,4,4,5,5,6,6,7,7,8,8,9,9,10,10,11,11,12,12,13,13,14,14],"right_children":[2,4,6,8,10,12,14,16,18,20,22,24,26,28,30,-1,-1,-1,-1,-1,-1,-1,-1,-1,-1,-1,-1,-1,-1,-1,-1],"split_conditions":[1.6E1,2E-1,2.8E1,1.2833523E0,4E0,3E0,3.9E1,-1.8E0,1.5E1,5.2E0,1.1E1,2.4E1,1.7E1,1E1,2.4E1,9.75272E-2,2.0464573E-2,6.589432E-2,1.7871642E-1,1.5483034E-3,1.6868305E-1,-5.6862157E-2,3.0484231E-2,-2.4364655E-1,-4.0457812E-1,-1.8115008E-1,-6.2025604E-3,-4.804656E-1,-3.0231693E-1,-7.226703E-1,-2.7452934E-1],"split_indices":[119,170,119,127,119,165,119,170,71,162,11,119,11,11,47,0,0,0,0,0,0,0,0,0,0,0,0,0,0,0,0],"split_type":[0,0,0,0,0,0,0,0,0,0,0,0,0,0,0,0,0,0,0,0,0,0,0,0,0,0,0,0,0,0,0],"sum_hessian":[3.3569E4,3.2011E4,1.558E3,1.9989E4,1.2022E4,1.099E3,4.59E2,1.6952E4,3.037E3,6.931E3,5.091E3,4.21E2,6.78E2,3.62E2,9.7E1,7.12E2,1.624E4,2.662E3,3.75E2,6.838E3,9.3E1,4.697E3,3.94E2,3.25E2,9.6E1,4.88E2,1.9E2,1.93E2,1.69E2,8E1,1.7E1],"tree_param":{"num_deleted":"0","num_feature":"172","num_nodes":"31","size_leaf_vector":"1"}},{"base_weights":[1.285544E-4,1.108377E-1,-1.853502E-2,9.737347E-2,2.1035978E-1,1.6126361E-3,-5.530024E-2,1.2995297E-1,6.468672E-2,4.3906945E-1,1.7037864E-1,6.172863E-2,-6.1581624E-3,-4.8970334E-2,-2.888118E-1,3.3241312E-3,7.5080483E-3,7.670051E-3,1.0207219E-3,8.969491E-3,1.9123929E-2,1.1694295E-2,4.253146E-3,4.3824827E-3,1.6431083E-3,1.5933691E-4,-9.731894E-4,-1.0733557E-3,-2.8651054E-3,-3.8715888E-2,-7.820152E-3],"categories":[],"categories_nodes":[],"categories_segments":[],"categories_sizes":[],"default_left":[0,0,0,0,0,0,0,0,0,0,0,0,0,0,0,0,0,0,0,0,0,0,0,0,0,0,0,0,0,0,0],"id":40,"left_children":[1,3,5,7,9,11,13,15,17,19,21,23,25,27,29,-1,-1,-1,-1,-1,-1,-1,-1,-1,-1,-1,-1,-1,-1,-1,-1],"loss_changes":[6.967831E1,6.4677887E0,2.1377829E1,4.538494E0,5.149523E0,8.712666E0,1.5052412E1,4.87796E0,1.2517607E1,2.0781193E0,2.9925604E0,1.2250853E0,4.9777303E0,6.090105E0,7.091154E0,0E0,0E0,0E0,0E0,0E0,0E0,0E0,0E0,0E0,0E0,0E0,0E0,0E0,0E0,0E0,0E0],"parents":[2147483647,0,0,1,1,2,2,3,3,4,4,5,5,6,6,7,7,8,8,9,9,10,10,11,11,12,12,13,13,14,14],"right_children":[2,4,6,8,10,12,14,16,18,20,22,24,26,28,30,-1,-1,-1,-1,-1,-1,-1,-1,-1,-1,-1,-1,-1,-1,-1,-1],"split_conditions":[6.000007E-1,8E0,1.0500606E0,4.8333472E-1,3.000007E-1,-1.0000253E-1,1.6334375E0,1.4696939E0,3.1667626E-1,1.1146021E-1,2.393284E-1,-2.500016E-1,3.3282816E-2,6.667423E-2,1.2044358E0,3.3241312E-3,7.5080483E-3,7.670051E-3,1.0207219E-3,8.969491E-3,1.9123929E-2,1.1694295E-2,4.253146E-3,4.3824827E-3,1.6431083E-3,1.5933691E-4,-9.731894E-4,-1.0733557E-3,-2.8651054E-3,-3.8715888E-2,-7.820152E-3],"split_indices":[116,166,116,0,8,129,116,164,116,128,96,129,129,129,112,0,0,0,0,0,0,0,0,0,0,0,0,0,0,0,0],"split_type":[0,0,0,0,0,0,0,0,0,0,0,0,0,0,0,0,0,0,0,0,0,0,0,0,0,0,0,0,0,0,0],"sum_hessian":[3.3716E4,4.864E3,2.8852E4,4.287E3,5.77E2,1.8637E4,1.0215E4,2.144E3,2.143E3,8.4E1,4.93E2,2.134E3,1.6503E4,9.947E3,2.68E2,1.852E3,2.92E2,2.95E2,1.848E3,5.1E1,3.3E1,5.5E1,4.38E2,1.6E2,1.974E3,1.1487E4,5.016E3,7.753E3,2.194E3,6E0,2.62E2],"tree_param":{"num_deleted":"0","num_feature":"172","num_nodes":"31","size_leaf_vector":"1"}},{"base_weights":[7.7099353E-1,8.927515E1,-3.0946042E2,1.3620471E2,2.6686102E1,-1.7634042E2,-3.1704614E2,1.5755789E2,9.632402E1,1.6223924E-2,5.7133305E1,-3.9624847E1,-2.1029192E2,-2.9311954E2,-3.6002457E2,5.3314223E0,3.815394E0,3.5592504E0,1.5339152E0,9.4696003E-1,-5.417371E-1,3.8758254E0,1.4354489E0,2.6010509E0,-7.1916785E0,-3.7895477E0,-7.5800157E0,-4.696708E0,-9.050575E0,-1.0231241E1,-1.2203683E1],"categories":[],"categories_nodes":[],"categories_segments":[],"categories_sizes":[],"default_left":[0,0,0,0,0,0,0,0,0,0,0,0,0,0,0,0,0,0,0,0,0,0,0,0,0,0,0,0,0,0,0],"id":41,"left_children":[1,3,5,7,9,11,13,15,17,19,21,23,25,27,29,-1,-1,-1,-1,-1,-1,-1,-1,-1,-1,-1,-1,-1,-1,-1,-1],"loss_changes":[9.263915E8,7.710283E7,7.50656E6,1.276016E7,9.135254E6,1.876172E6,7.179072E6,5.958992E6,5.273E6,3.4207665E6,3.508508E6,2.093568E6,1.124528E6,5.282528E6,2.106304E6,0E0,0E0,0E0,0E0,0E0,0E0,0E0,0E0,0E0,0E0,0E0,0E0,0E0,0E0,0E0,0E0],"parents":[2147483647,0,0,1,1,2,2,3,3,4,4,5,5,6,6,7,7,8,8,9,9,10,10,11,11,12,12,13,13,14,14],"right_children":[2,4,6,8,10,12,14,16,18,20,22,24,26,28,30,-1,-1,-1,-1,-1,-1,-1,-1,-1,-1,-1,-1,-1,-1,-1,-1],"split_conditions":[4.959565E2,3.2805E2,8.27884E2,4E0,5.2243774E2,1E0,1.7E0,3.0537366E2,1.2119634E0,4.679765E2,4.260295E2,5E0,2E0,9.90858E2,4E0,5.3314223E0,3.815394E0,3.5592504E0,1.5339152E0,9.4696003E-1,-5.417371E-1,3.8758254E0,1.4354489E0,2.6010509E0,-7.1916785E0,-3.7895477E0,-7.5800157E0,-4.696708E0,-9.050575E0,-1.0231241E1,-1.2203683E1],"split_indices":[117,117,117,31,136,59,162,117,64,117,117,166,159,140,31,0,0,0,0,0,0,0,0,0,0,0,0,0,0,0,0],"split_type":[0,0,0,0,0,0,0,0,0,0,0,0,0,0,0,0,0,0,0,0,0,0,0,0,0,0,0,0,0,0,0],"sum_hessian":[3.3738E4,2.625E4,7.488E3,1.5001E4,1.1249E4,4.05E2,7.083E3,9.768E3,5.233E3,5.997E3,5.252E3,8.1E1,3.24E2,4.555E3,2.528E3,5.869E3,3.899E3,3.502E3,1.731E3,2.184E3,3.813E3,5.98E2,4.654E3,5E1,3.1E1,1.1E2,2.14E2,2.7E2,4.285E3,1.804E3,7.24E2],"tree_param":{"num_deleted":"0","num_feature":"172","num_nodes":"31","size_leaf_vector":"1"}},{"base_weights":[-1.639664E-1,6.7821436E0,-3.409481E1,5.5318046E0,1.2625853E1,-3.1764732E1,-7.21456E1,3.6766777E0,6.6481934E0,1.0865888E1,1.7412329E1,-3.4754898E1,-2.5671923E1,-7.832406E1,-3.784407E1,9.895435E-2,2.3788235E-1,1.824803E-1,3.1100717E-1,2.763088E-1,4.7297004E-1,4.3107325E-1,6.9322544E-1,-1.0462116E0,4.9557546E-1,-7.941665E-1,1.6882844E-1,-1.0821546E0,-2.3980603E0,-7.254904E-1,-1.8689768E0],"categories":[],"categories_nodes":[],"categories_segments":[],"categories_sizes":[],"default_left":[0,0,0,0,0,0,0,0,0,0,0,0,0,0,0,0,0,0,0,0,0,0,0,0,0,0,0,0,0,0,0],"id":42,"left_children":[1,3,5,7,9,11,13,15,17,19,21,23,25,27,29,-1,-1,-1,-1,-1,-1,-1,-1,-1,-1,-1,-1,-1,-1,-1,-1],"loss_changes":[7.9030675E6,2.0330062E5,5.028905E5,4.7463562E4,4.1127875E4,9.6953E4,6.65375E4,1.3832148E4,3.0037562E4,2.8966406E4,2.2490094E4,2.2511E4,4.4537625E4,1.5963375E4,1.5857102E4,0E0,0E0,0E0,0E0,0E0,0E0,0E0,0E0,0E0,0E0,0E0,0E0,0E0,0E0,0E0,0E0],"parents":[2147483647,0,0,1,1,2,2,3,3,4,4,5,5,6,6,7,7,8,8,9,9,10,10,11,11,12,12,13,13,14,14],"right_children":[2,4,6,8,10,12,14,16,18,20,22,24,26,28,30,-1,-1,-1,-1,-1,-1,-1,-1,-1,-1,-1,-1,-1,-1,-1,-1],"split_conditions":[6.000612E1,1.8071558E1,6.1230488E1,7.000008E-1,6.0228024E1,2.4101074E1,6.0248596E1,6E0,6.00063E1,6.023129E1,6.000828E1,6.027086E1,7.8292465E1,7.281598E1,4.5331833E1,9.895435E-2,2.3788235E-1,1.824803E-1,3.1100717E-1,2.763088E-1,4.7297004E-1,4.3107325E-1,6.9322544E-1,-1.0462116E0,4.9557546E-1,-7.941665E-1,1.6882844E-1,-1.0821546E0,-2.3980603E0,-7.254904E-1,-1.8689768E0],"split_indices":[118,149,118,126,58,149,149,19,66,50,38,90,149,154,142,0,0,0,0,0,0,0,0,0,0,0,0,0,0,0,0],"split_type":[0,0,0,0,0,0,0,0,0,0,0,0,0,0,0,0,0,0,0,0,0,0,0,0,0,0,0,0,0,0,0],"sum_hessian":[3.353E4,2.7833E4,5.697E3,2.2929E4,4.904E3,5.37E3,3.27E2,8.616E3,1.4313E4,3.588E3,1.316E3,3.599E3,1.771E3,2.76E2,5.1E1,7.914E3,7.02E2,1.2426E4,1.887E3,2.684E3,9.04E2,8.6E2,4.56E2,3.591E3,8E0,1.727E3,4.4E1,1.1E1,2.65E2,3.4E1,1.7E1],"tree_param":{"num_deleted":"0","num_feature":"172","num_nodes":"31","size_leaf_vector":"1"}},{"base_weights":[-1.1305274E-2,2.9069403E-1,-8.213045E0,5.0005555E-1,-3.5393057E0,-6.8154087E0,-1.697428E1,-1.0028767E-1,1.2686411E0,-2.2502575E0,-7.0933285E0,-5.200722E0,-1.287024E1,-1.7537668E1,2.3036638E-2,9.5496126E-2,-8.602073E-3,3.2794274E-2,1.0508687E-1,-8.9403614E-2,3.4070325E-3,-1.9557983E-1,-5.534844E-1,-3.4595084E-1,-1.20282695E-1,-6.821981E-2,-4.4684806E-1,-5.728044E-1,-3.2289737E-1],"categories":[],"categories_nodes":[],"categories_segments":[],"categories_sizes":[],"default_left":[0,0,0,0,0,0,0,0,0,0,0,0,0,0,0,0,0,0,0,0,0,0,0,0,0,0,0,0,0],"id":43,"left_children":[1,3,5,7,9,11,13,15,17,19,21,23,25,27,-1,-1,-1,-1,-1,-1,-1,-1,-1,-1,-1,-1,-1,-1,-1],"loss_changes":[8.348529E4,2.6068152E4,1.4539211E4,1.4222903E4,7.7026074E3,1.0040324E4,1.6544453E3,1.0595982E4,5.2962363E3,2.1365078E3,2.7974902E3,6.121631E3,4.619965E3,1.4673203E3,0E0,0E0,0E0,0E0,0E0,0E0,0E0,0E0,0E0,0E0,0E0,0E0,0E0,0E0,0E0],"parents":[2147483647,0,0,1,1,2,2,3,3,4,4,5,5,6,6,7,7,8,8,9,9,10,10,11,11,12,12,13,13],"right_children":[2,4,6,8,10,12,14,16,18,20,22,24,26,28,-1,-1,-1,-1,-1,-1,-1,-1,-1,-1,-1,-1,-1,-1,-1],"split_conditions":[1.7666666E1,4E0,1E1,4.839915E2,9.333333E0,2.9333334E1,5.260436E-1,-6.727273E-1,3.6E0,6E0,2E1,1.6E1,-1.1E1,2.3E1,2.3036638E-2,9.5496126E-2,-8.602073E-3,3.2794274E-2,1.0508687E-1,-8.9403614E-2,3.4070325E-3,-1.9557983E-1,-5.534844E-1,-3.4595084E-1,-1.20282695E-1,-6.821981E-2,-4.4684806E-1,-5.728044E-1,-3.2289737E-1],"split_indices":[160,168,168,133,160,160,128,171,162,3,168,111,168,51,0,0,0,0,0,0,0,0,0,0,0,0,0,0,0],"split_type":[0,0,0,0,0,0,0,0,0,0,0,0,0,0,0,0,0,0,0,0,0,0,0,0,0,0,0,0,0],"sum_hessian":[3.3703E4,3.2507E4,1.196E3,3.0823E4,1.684E3,1.033E3,1.63E2,1.7306E4,1.3517E4,1.237E3,4.47E2,8.17E2,2.16E2,1.58E2,5E0,9.29E2,1.6377E4,1.2534E4,9.83E2,9.45E2,2.92E2,4.27E2,2E1,1.28E2,6.89E2,3.5E1,1.81E2,1.27E2,3.1E1],"tree_param":{"num_deleted":"0","num_feature":"172","num_nodes":"29","size_leaf_vector":"1"}},{"base_weights":[-2.4460797E-4,8.581466E-2,-2.2798184E-2,1.3140497E-1,5.392619E-2,-1.9603983E-2,-2.3304875E-1,9.771533E-2,2.1879166E-1,2.4855182E-1,3.4521516E-2,2.076867E-2,-3.0819139E-2,-3.59075E-2,-2.1744606E-1,1.6687769E-3,4.6525556E-3,8.619641E-3,3.8206528E-3,5.740366E-3,1.1449142E-2,3.8075892E-3,7.88504E-4,1.4821872E-3,2.1009431E-4,-3.408417E-4,-1.6181715E-3,-1.00436155E-2,-5.032913E-3],"categories":[],"categories_nodes":[],"categories_segments":[],"categories_sizes":[],"default_left":[0,0,0,0,0,0,0,0,0,0,0,0,0,0,0,0,0,0,0,0,0,0,0,0,0,0,0,0,0],"id":44,"left_children":[1,3,5,7,9,11,13,15,17,19,21,23,25,-1,27,-1,-1,-1,-1,-1,-1,-1,-1,-1,-1,-1,-1,-1,-1],"loss_changes":[6.506776E1,1.0094311E1,1.7811434E1,8.375717E0,1.544359E1,1.1851046E1,5.568756E0,4.9662437E0,4.903507E0,2.6942368E0,2.8197842E0,2.2362864E0,9.207367E0,0E0,2.1788502E0,0E0,0E0,0E0,0E0,0E0,0E0,0E0,0E0,0E0,0E0,0E0,0E0,0E0,0E0],"parents":[2147483647,0,0,1,1,2,2,3,3,4,4,5,5,6,6,7,7,8,8,9,9,10,10,11,11,12,12,14,14],"right_children":[2,4,6,8,10,12,14,16,18,20,22,24,26,-1,28,-1,-1,-1,-1,-1,-1,-1,-1,-1,-1,-1,-1,-1,-1],"split_conditions":[6.7947006E-1,5.000032E-1,1.5834378E0,1.3747727E0,3.1667626E-1,-4.9991846E-2,1.2044358E0,3.6669606E-1,5.103671E-1,2.6074767E-2,-3.1663388E-2,-1.3333148E-1,1.0166707E0,-3.59075E-2,3.8E0,1.6687769E-3,4.6525556E-3,8.619641E-3,3.8206528E-3,5.740366E-3,1.1449142E-2,3.8075892E-3,7.88504E-4,1.4821872E-3,2.1009431E-4,-3.408417E-4,-1.6181715E-3,-1.00436155E-2,-5.032913E-3],"split_indices":[116,0,116,164,116,129,112,16,116,124,131,129,116,0,161,0,0,0,0,0,0,0,0,0,0,0,0,0,0],"split_type":[0,0,0,0,0,0,0,0,0,0,0,0,0,0,0,0,0,0,0,0,0,0,0,0,0,0,0,0,0],"sum_hessian":[3.3525E4,6.96E3,2.6565E4,2.862E3,4.098E3,2.6169E4,3.96E2,2.068E3,7.94E2,3.7E2,3.728E3,5.687E3,2.0482E4,5E0,3.91E2,1.195E3,8.73E2,4.52E2,3.42E2,2.61E2,1.09E2,3.03E2,3.425E3,1.843E3,3.844E3,1.1125E4,9.357E3,1.14E2,2.77E2],"tree_param":{"num_deleted":"0","num_feature":"172","num_nodes":"29","size_leaf_vector":"1"}},{"base_weights":[7.3480546E-1,8.6432495E1,-3.011158E2,1.2923386E2,2.1976328E1,-1.8240239E2,-3.098741E2,1.598386E2,1.0065204E2,5.799359E1,-3.0832183E0,-2.525428E2,-1.1683242E2,-2.1536932E2,-3.2020706E2,5.812173E0,4.02759E0,3.7823157E0,1.7186544E0,6.3103323E0,1.5736675E0,3.5579735E-1,-1.4894247E0,-8.5030365E0,-5.4977965E0,-6.6472583E0,-1.6136832E0,-3.4192066E0,-7.6217537E0,-9.423364E0,-1.2635385E1],"categories":[],"categories_nodes":[],"categories_segments":[],"categories_sizes":[],"default_left":[0,0,0,0,0,0,0,0,0,0,0,0,0,0,0,0,0,0,0,0,0,0,0,0,0,0,0,0,0,0,0],"id":45,"left_children":[1,3,5,7,9,11,13,15,17,19,21,23,25,27,29,-1,-1,-1,-1,-1,-1,-1,-1,-1,-1,-1,-1,-1,-1,-1,-1],"loss_changes":[8.692909E8,7.220629E7,7.669632E6,1.3742656E7,9.428496E6,2.3298E6,6.687488E6,6.560736E6,8.962904E6,3.605123E6,4.287515E6,4.76658E5,1.7511358E6,2.658204E6,3.704832E6,0E0,0E0,0E0,0E0,0E0,0E0,0E0,0E0,0E0,0E0,0E0,0E0,0E0,0E0,0E0,0E0],"parents":[2147483647,0,0,1,1,2,2,3,3,4,4,5,5,6,6,7,7,8,8,9,9,10,10,11,11,12,12,13,13,14,14],"right_children":[2,4,6,8,10,12,14,16,18,20,22,24,26,28,30,-1,-1,-1,-1,-1,-1,-1,-1,-1,-1,-1,-1,-1,-1,-1,-1],"split_conditions":[4.959565E2,3.98036E2,8.59953E2,2.9E0,1.6E0,4.15989E2,4.0212145E-1,3.004315E2,2.5471066E2,2.9844218E-1,3.2E0,4.819495E2,4.020155E2,9.88005E2,7E0,5.812173E0,4.02759E0,3.7823157E0,1.7186544E0,6.3103323E0,1.5736675E0,3.5579735E-1,-1.4894247E0,-8.5030365E0,-5.4977965E0,-6.6472583E0,-1.6136832E0,-3.4192066E0,-7.6217537E0,-9.423364E0,-1.2635385E1],"split_indices":[117,117,117,162,162,85,123,117,117,123,162,25,49,140,43,0,0,0,0,0,0,0,0,0,0,0,0,0,0,0,0],"split_type":[0,0,0,0,0,0,0,0,0,0,0,0,0,0,0,0,0,0,0,0,0,0,0,0,0,0,0,0,0,0,0],"sum_hessian":[3.3603E4,2.6173E4,7.43E3,1.5728E4,1.0445E4,5.12E2,6.918E3,7.593E3,8.135E3,4.285E3,6.16E3,2.46E2,2.66E2,6.84E2,6.234E3,3.263E3,4.33E3,5.127E3,3.008E3,1.49E2,4.136E3,4.664E3,1.496E3,1.68E2,7.8E1,9.9E1,1.67E2,1.9E2,4.94E2,5.883E3,3.51E2],"tree_param":{"num_deleted":"0","num_feature":"172","num_nodes":"31","size_leaf_vector":"1"}},{"base_weights":[-9.913963E-2,6.6216116E0,-3.3082375E1,5.4461255E0,1.20818E1,-3.076966E1,-6.86505E1,4.965336E0,9.644536E0,1.0406065E1,1.7193727E1,-3.3118477E1,-2.4110804E1,-7.5394356E1,-4.4816963E1,9.776617E-2,1.7831865E-1,2.689033E-1,4.8516798E-1,2.726172E-1,4.5456785E-1,5.061944E-1,2.1109943E0,-1.1311364E0,-9.3459976E-1,-8.11671E-1,-3.5258618E-1,-2.3792794E0,-1.6406708E0,-1.6707836E0,-4.7732735E-1],"categories":[],"categories_nodes":[],"categories_segments":[],"categories_sizes":[],"default_left":[0,0,0,0,0,0,0,0,0,0,0,0,0,0,0,0,0,0,0,0,0,0,0,0,0,0,0,0,0,0,0],"id":46,"left_children":[1,3,5,7,9,