{"learner":{"attributes":{"best_iteration":"688","best_score":"0.15173874146501054","scikit_learn":"{\"_estimator_type\": \"regressor\"}"},"feature_names":[],"feature_types":[],"gradient_booster":{"model":{"cats":{"enc":[],"feature_segments":[],"sorted_idx":[]},"gbtree_model_param":{"num_parallel_tree":"1","num_trees":"739"},"iteration_indptr":[0,1,2,3,4,5,6,7,8,9,10,11,12,13,14,15,16,17,18,19,20,21,22,23,24,25,26,27,28,29,30,31,32,33,34,35,36,37,38,39,40,41,42,43,44,45,46,47,48,49,50,51,52,53,54,55,56,57,58,59,60,61,62,63,64,65,66,67,68,69,70,71,72,73,74,75,76,77,78,79,80,81,82,83,84,85,86,87,88,89,90,91,92,93,94,95,96,97,98,99,100,101,102,103,104,105,106,107,108,109,110,111,112,113,114,115,116,117,118,119,120,121,122,123,124,125,126,127,128,129,130,131,132,133,134,135,136,137,138,139,140,141,142,143,144,145,146,147,148,149,150,151,152,153,154,155,156,157,158,159,160,161,162,163,164,165,166,167,168,169,170,171,172,173,174,175,176,177,178,179,180,181,182,183,184,185,186,187,188,189,190,191,192,193,194,195,196,197,198,199,200,201,202,203,204,205,206,207,208,209,210,211,212,213,214,215,216,217,218,219,220,221,222,223,224,225,226,227,228,229,230,231,232,233,234,235,236,237,238,239,240,241,242,243,244,245,246,247,248,249,250,251,252,253,254,255,256,257,258,259,260,261,262,263,264,265,266,267,268,269,270,271,272,273,274,275,276,277,278,279,280,281,282,283,284,285,286,287,288,289,290,291,292,293,294,295,296,297,298,299,300,301,302,303,304,305,306,307,308,309,310,311,312,313,314,315,316,317,318,319,320,321,322,323,324,325,326,327,328,329,330,331,332,333,334,335,336,337,338,339,340,341,342,343,344,345,346,347,348,349,350,351,352,353,354,355,356,357,358,359,360,361,362,363,364,365,366,367,368,369,370,371,372,373,374,375,376,377,378,379,380,381,382,383,384,385,386,387,388,389,390,391,392,393,394,395,396,397,398,399,400,401,402,403,404,405,406,407,408,409,410,411,412,413,414,415,416,417,418,419,420,421,422,423,424,425,426,427,428,429,430,431,432,433,434,435,436,437,438,439,440,441,442,443,444,445,446,447,448,449,450,451,452,453,454,455,456,457,458,459,460,461,462,463,464,465,466,467,468,469,470,471,472,473,474,475,476,477,478,479,480,481,482,483,484,485,486,487,488,489,490,491,492,493,494,495,496,497,498,499,500,501,502,503,504,505,506,507,508,509,510,511,512,513,514,515,516,517,518,519,520,521,522,523,524,525,526,527,528,529,530,531,532,533,534,535,536,537,538,539,540,541,542,543,544,545,546,547,548,549,550,551,552,553,554,555,556,557,558,559,560,561,562,563,564,565,566,567,568,569,570,571,572,573,574,575,576,577,578,579,580,581,582,583,584,585,586,587,588,589,590,591,592,593,594,595,596,597,598,599,600,601,602,603,604,605,606,607,608,609,610,611,612,613,614,615,616,617,618,619,620,621,622,623,624,625,626,627,628,629,630,631,632,633,634,635,636,637,638,639,640,641,642,643,644,645,646,647,648,649,650,651,652,653,654,655,656,657,658,659,660,661,662,663,664,665,666,667,668,669,670,671,672,673,674,675,676,677,678,679,680,681,682,683,684,685,686,687,688,689,690,691,692,693,694,695,696,697,698,699,700,701,702,703,704,705,706,707,708,709,710,711,712,713,714,715,716,717,718,719,720,721,722,723,724,725,726,727,728,729,730,731,732,733,734,735,736,737,738,739],"tree_info":[0,0,0,0,0,0,0,0,0,0,0,0,0,0,0,0,0,0,0,0,0,0,0,0,0,0,0,0,0,0,0,0,0,0,0,0,0,0,0,0,0,0,0,0,0,0,0,0,0,0,0,0,0,0,0,0,0,0,0,0,0,0,0,0,0,0,0,0,0,0,0,0,0,0,0,0,0,0,0,0,0,0,0,0,0,0,0,0,0,0,0,0,0,0,0,0,0,0,0,0,0,0,0,0,0,0,0,0,0,0,0,0,0,0,0,0,0,0,0,0,0,0,0,0,0,0,0,0,0,0,0,0,0,0,0,0,0,0,0,0,0,0,0,0,0,0,0,0,0,0,0,0,0,0,0,0,0,0,0,0,0,0,0,0,0,0,0,0,0,0,0,0,0,0,0,0,0,0,0,0,0,0,0,0,0,0,0,0,0,0,0,0,0,0,0,0,0,0,0,0,0,0,0,0,0,0,0,0,0,0,0,0,0,0,0,0,0,0,0,0,0,0,0,0,0,0,0,0,0,0,0,0,0,0,0,0,0,0,0,0,0,0,0,0,0,0,0,0,0,0,0,0,0,0,0,0,0,0,0,0,0,0,0,0,0,0,0,0,0,0,0,0,0,0,0,0,0,0,0,0,0,0,0,0,0,0,0,0,0,0,0,0,0,0,0,0,0,0,0,0,0,0,0,0,0,0,0,0,0,0,0,0,0,0,0,0,0,0,0,0,0,0,0,0,0,0,0,0,0,0,0,0,0,0,0,0,0,0,0,0,0,0,0,0,0,0,0,0,0,0,0,0,0,0,0,0,0,0,0,0,0,0,0,0,0,0,0,0,0,0,0,0,0,0,0,0,0,0,0,0,0,0,0,0,0,0,0,0,0,0,0,0,0,0,0,0,0,0,0,0,0,0,0,0,0,0,0,0,0,0,0,0,0,0,0,0,0,0,0,0,0,0,0,0,0,0,0,0,0,0,0,0,0,0,0,0,0,0,0,0,0,0,0,0,0,0,0,0,0,0,0,0,0,0,0,0,0,0,0,0,0,0,0,0,0,0,0,0,0,0,0,0,0,0,0,0,0,0,0,0,0,0,0,0,0,0,0,0,0,0,0,0,0,0,0,0,0,0,0,0,0,0,0,0,0,0,0,0,0,0,0,0,0,0,0,0,0,0,0,0,0,0,0,0,0,0,0,0,0,0,0,0,0,0,0,0,0,0,0,0,0,0,0,0,0,0,0,0,0,0,0,0,0,0,0,0,0,0,0,0,0,0,0,0,0,0,0,0,0,0,0,0,0,0,0,0,0,0,0,0,0,0,0,0,0,0,0,0,0,0,0,0,0,0,0,0,0,0,0,0,0,0,0,0,0,0,0,0,0,0,0,0,0,0,0,0,0,0,0,0,0,0,0,0,0,0,0,0,0,0,0,0,0,0,0,0,0,0,0,0,0,0,0,0,0,0,0,0,0,0,0,0,0,0,0,0,0,0,0,0,0,0,0,0,0,0,0,0,0,0,0,0,0,0,0,0,0,0,0,0,0,0,0,0,0,0,0,0,0,0,0,0,0,0,0,0,0,0,0,0,0,0,0,0,0,0,0,0,0,0,0,0,0,0,0,0,0,0,0,0,0,0,0,0,0,0,0,0,0,0,0,0,0,0,0,0,0,0,0],"trees":[{"base_weights":[4.369318E-4,-1.6646752E-1,1.9763133E-1,-2.9136315E-1,-7.62178E-2,8.8016994E-2,3.436233E-1,-4.0006268E-1,-2.4208602E-1,-1.2927629E-1,-2.5079133E-2,4.745094E-2,1.4117566E-1,2.864341E-1,4.44731E-1,-1.01613905E-2,-1.3981608E-2,-5.4582483E-3,-7.800378E-3,-4.9241893E-3,-3.1481406E-3,-1.5670874E-3,1.6153793E-4,8.577573E-4,2.3958012E-3,3.4849066E-3,5.6077037E-3,7.3505808E-3,9.781307E-3,1.1416E-2,1.4374936E-2],"categories":[],"categories_nodes":[],"categories_segments":[],"categories_sizes":[],"default_left":[0,0,0,0,0,0,0,0,0,0,0,0,0,0,0,0,0,0,0,0,0,0,0,0,0,0,0,0,0,0,0],"id":0,"left_children":[1,3,5,7,9,11,13,15,17,19,21,23,25,27,29,-1,-1,-1,-1,-1,-1,-1,-1,-1,-1,-1,-1,-1,-1,-1,-1],"loss_changes":[1.1111332E3,2.0603455E2,2.4758612E2,4.0917175E1,2.8786148E1,1.9039497E1,3.8170654E1,9.437653E0,5.6013184E0,4.3757706E0,4.4790425E0,3.0532827E0,4.32473E0,6.8216248E0,5.0259705E0,0E0,0E0,0E0,0E0,0E0,0E0,0E0,0E0,0E0,0E0,0E0,0E0,0E0,0E0,0E0,0E0],"parents":[2147483647,0,0,1,1,2,2,3,3,4,4,5,5,6,6,7,7,8,8,9,9,10,10,11,11,12,12,13,13,14,14],"right_children":[2,4,6,8,10,12,14,16,18,20,22,24,26,28,30,-1,-1,-1,-1,-1,-1,-1,-1,-1,-1,-1,-1,-1,-1,-1,-1],"split_conditions":[9.500011E-1,7.000019E-1,1.1666704E0,4.3333682E-1,8.3334005E-1,1.0500019E0,1.360079E0,3.99875E2,4.6630037E-1,7.6668024E-1,9.1666794E-1,1.0167336E0,1.1333511E0,1.2478104E0,1.4000037E0,-1.01613905E-2,-1.3981608E-2,-5.4582483E-3,-7.800378E-3,-4.9241893E-3,-3.1481406E-3,-1.5670874E-3,1.6153793E-4,8.577573E-4,2.3958012E-3,3.4849066E-3,5.6077037E-3,7.3505808E-3,9.781307E-3,1.1416E-2,1.4374936E-2],"split_indices":[112,112,112,112,108,108,112,1,0,112,108,112,108,108,108,0,0,0,0,0,0,0,0,0,0,0,0,0,0,0,0],"split_type":[0,0,0,0,0,0,0,0,0,0,0,0,0,0,0,0,0,0,0,0,0,0,0,0,0,0,0,0,0,0,0],"sum_hessian":[3.3758E4,1.8283E4,1.5475E4,7.668E3,1.0615E4,8.84E3,6.635E3,2.389E3,5.279E3,5.208E3,5.407E3,5.016E3,3.824E3,4.241E3,2.394E3,1.242E3,1.147E3,1.216E3,4.063E3,2.137E3,3.071E3,2.86E3,2.547E3,3.174E3,1.842E3,2.476E3,1.348E3,2.078E3,2.163E3,8.41E2,1.553E3],"tree_param":{"num_deleted":"0","num_feature":"120","num_nodes":"31","size_leaf_vector":"1"}},{"base_weights":[8.399597E-4,-1.5504663E-1,2.0452565E-1,-2.8613776E-1,-6.761148E-2,1.00918494E-1,3.4626538E-1,-3.967635E-1,-2.3696983E-1,-1.22581325E-1,-2.0586198E-2,6.7365594E-2,1.649585E-1,3.0000594E-1,4.531026E-1,-1.0104901E-2,-1.3826739E-2,-7.819642E-3,-5.7703555E-3,-4.8522367E-3,-2.910162E-3,-1.5132263E-3,2.0678496E-4,1.4807197E-3,2.9964338E-3,4.31173E-3,6.0034054E-3,7.406837E-3,9.908536E-3,1.3903134E-2,8.875749E-3],"categories":[],"categories_nodes":[],"categories_segments":[],"categories_sizes":[],"default_left":[0,0,0,0,0,0,0,0,0,0,0,0,0,0,0,0,0,0,0,0,0,0,0,0,0,0,0,0,0,0,0],"id":1,"left_children":[1,3,5,7,9,11,13,15,17,19,21,23,25,27,29,-1,-1,-1,-1,-1,-1,-1,-1,-1,-1,-1,-1,-1,-1,-1,-1],"loss_changes":[1.0778538E3,2.2034763E2,2.1604309E2,4.1686646E1,2.9805988E1,1.823845E1,3.0499817E1,8.854614E0,5.5369263E0,5.284683E0,5.1074514E0,3.2492657E0,2.1180954E0,6.8400574E0,2.8341064E0,0E0,0E0,0E0,0E0,0E0,0E0,0E0,0E0,0E0,0E0,0E0,0E0,0E0,0E0,0E0,0E0],"parents":[2147483647,0,0,1,1,2,2,3,3,4,4,5,5,6,6,7,7,8,8,9,9,10,10,11,11,12,12,13,13,14,14],"right_children":[2,4,6,8,10,12,14,16,18,20,22,24,26,28,30,-1,-1,-1,-1,-1,-1,-1,-1,-1,-1,-1,-1,-1,-1,-1,-1],"split_conditions":[9.6666855E-1,7.000039E-1,1.1833377E0,4.3335366E-1,8.33347E-1,1.0833367E0,1.4000038E0,4.160825E2,6.500018E-1,7.666704E-1,9.1666883E-1,1.0500028E0,1.1561228E0,1.2464597E0,1.7166959E0,-1.0104901E-2,-1.3826739E-2,-7.819642E-3,-5.7703555E-3,-4.8522367E-3,-2.910162E-3,-1.5132263E-3,2.0678496E-4,1.4807197E-3,2.9964338E-3,4.31173E-3,6.0034054E-3,7.406837E-3,9.908536E-3,1.3903134E-2,8.875749E-3],"split_indices":[116,116,116,116,112,112,116,1,112,116,112,116,112,116,12,0,0,0,0,0,0,0,0,0,0,0,0,0,0,0,0],"split_type":[0,0,0,0,0,0,0,0,0,0,0,0,0,0,0,0,0,0,0,0,0,0,0,0,0,0,0,0,0,0,0],"sum_hessian":[3.3944E4,1.9228E4,1.4716E4,7.692E3,1.1536E4,8.503E3,6.213E3,2.364E3,5.328E3,5.317E3,6.219E3,5.582E3,2.921E3,4.339E3,1.874E3,1.226E3,1.138E3,3.476E3,1.852E3,2.097E3,3.22E3,2.982E3,3.237E3,3.596E3,1.986E3,1.826E3,1.095E3,1.58E3,2.759E3,1.756E3,1.18E2],"tree_param":{"num_deleted":"0","num_feature":"120","num_nodes":"31","size_leaf_vector":"1"}},{"base_weights":[-5.7197135E-4,-1.5155298E-1,1.9865355E-1,-2.8175867E-1,-6.510293E-2,9.836858E-2,3.3384869E-1,-3.7928063E-1,-2.2658476E-1,-1.20227836E-1,-2.1305922E-2,6.545459E-2,1.5978593E-1,2.7492148E-1,4.1777188E-1,-1.4696474E-2,-1.0371105E-2,-7.143439E-3,-4.176358E-3,-4.523715E-3,-2.8439574E-3,-1.4466617E-3,3.5613426E-4,1.4415045E-3,2.8810718E-3,4.144338E-3,5.9000007E-3,6.849808E-3,9.127595E-3,1.1302504E-2,1.4260459E-2],"categories":[],"categories_nodes":[],"categories_segments":[],"categories_sizes":[],"default_left":[0,0,0,0,0,0,0,0,0,0,0,0,0,0,0,0,0,0,0,0,0,0,0,0,0,0,0,0,0,0,0],"id":2,"left_children":[1,3,5,7,9,11,13,15,17,19,21,23,25,27,29,-1,-1,-1,-1,-1,-1,-1,-1,-1,-1,-1,-1,-1,-1,-1,-1],"loss_changes":[1.01670465E3,2.1639407E2,1.9749176E2,4.1133972E1,2.7887836E1,1.688285E1,3.0501831E1,1.0034027E1,4.8683777E0,3.9372253E0,5.7577963E0,2.8822594E0,2.2683487E0,4.8643494E0,5.7750854E0,0E0,0E0,0E0,0E0,0E0,0E0,0E0,0E0,0E0,0E0,0E0,0E0,0E0,0E0,0E0,0E0],"parents":[2147483647,0,0,1,1,2,2,3,3,4,4,5,5,6,6,7,7,8,8,9,9,10,10,11,11,12,12,13,13,14,14],"right_children":[2,4,6,8,10,12,14,16,18,20,22,24,26,28,30,-1,-1,-1,-1,-1,-1,-1,-1,-1,-1,-1,-1,-1,-1,-1,-1],"split_conditions":[9.666716E-1,7.000039E-1,1.1833377E0,4.6601975E-1,8.3333445E-1,1.0833367E0,1.3500234E0,2.6860836E-1,7.163822E-1,7.6668024E-1,9.1666883E-1,1.0500028E0,1.1561228E0,1.2265364E0,1.450024E0,-1.4696474E-2,-1.0371105E-2,-7.143439E-3,-4.176358E-3,-4.523715E-3,-2.8439574E-3,-1.4466617E-3,3.5613426E-4,1.4415045E-3,2.8810718E-3,4.144338E-3,5.9000007E-3,6.849808E-3,9.127595E-3,1.1302504E-2,1.4260459E-2],"split_indices":[116,116,116,116,116,112,116,108,108,112,112,116,112,112,92,0,0,0,0,0,0,0,0,0,0,0,0,0,0,0,0],"split_type":[0,0,0,0,0,0,0,0,0,0,0,0,0,0,0,0,0,0,0,0,0,0,0,0,0,0,0,0,0,0,0],"sum_hessian":[3.3799E4,1.9228E4,1.4571E4,7.671E3,1.1557E4,8.367E3,6.204E3,2.769E3,4.902E3,5.115E3,6.442E3,5.45E3,2.917E3,3.648E3,2.556E3,6.41E2,2.128E3,4.328E3,5.74E2,2.319E3,2.796E3,3.558E3,2.884E3,3.477E3,1.973E3,1.843E3,1.074E3,1.414E3,2.234E3,1.498E3,1.058E3],"tree_param":{"num_deleted":"0","num_feature":"120","num_nodes":"31","size_leaf_vector":"1"}},{"base_weights":[-1.5217469E-4,-1.4151807E-1,1.9632116E-1,-2.6224256E-1,-5.682279E-2,1.03128046E-1,3.2905176E-1,-3.683209E-1,-2.1818836E-1,-1.0921304E-1,-1.4956333E-2,6.699154E-2,1.5971562E-1,2.8478882E-1,4.2401755E-1,-1.3904592E-2,-9.917821E-3,-7.311301E-3,-5.3180186E-3,-4.0075686E-3,-2.3545914E-3,-1.2988574E-3,4.5558607E-4,1.7027238E-3,3.6683204E-3,3.9572003E-3,5.9386096E-3,7.1355235E-3,9.354268E-3,1.153433E-2,1.4027033E-2],"categories":[],"categories_nodes":[],"categories_segments":[],"categories_sizes":[],"default_left":[0,0,0,0,0,0,0,0,0,0,0,0,0,0,0,0,0,0,0,0,0,0,0,0,0,0,0,0,0,0,0],"id":3,"left_children":[1,3,5,7,9,11,13,15,17,19,21,23,25,27,29,-1,-1,-1,-1,-1,-1,-1,-1,-1,-1,-1,-1,-1,-1,-1,-1],"loss_changes":[9.384438E2,2.0087039E2,1.7480402E2,3.7718567E1,2.5319653E1,1.6955475E1,2.4318726E1,8.294342E0,5.895813E0,3.8093605E0,5.4891834E0,2.845457E0,3.3819351E0,4.9198303E0,2.9223938E0,0E0,0E0,0E0,0E0,0E0,0E0,0E0,0E0,0E0,0E0,0E0,0E0,0E0,0E0,0E0,0E0],"parents":[2147483647,0,0,1,1,2,2,3,3,4,4,5,5,6,6,7,7,8,8,9,9,10,10,11,11,12,12,13,13,14,14],"right_children":[2,4,6,8,10,12,14,16,18,20,22,24,26,28,30,-1,-1,-1,-1,-1,-1,-1,-1,-1,-1,-1,-1,-1,-1,-1,-1],"split_conditions":[9.667291E-1,7.163822E-1,1.2000006E0,4.3333682E-1,8.33347E-1,1.0833364E0,1.400004E0,2.7086407E-1,6.500018E-1,8.0000675E-1,9.1666794E-1,1.0860147E0,1.1333348E0,1.2478104E0,6E0,-1.3904592E-2,-9.917821E-3,-7.311301E-3,-5.3180186E-3,-4.0075686E-3,-2.3545914E-3,-1.2988574E-3,4.5558607E-4,1.7027238E-3,3.6683204E-3,3.9572003E-3,5.9386096E-3,7.1355235E-3,9.354268E-3,1.153433E-2,1.4027033E-2],"split_indices":[112,108,112,112,112,108,112,84,112,108,108,112,112,108,119,0,0,0,0,0,0,0,0,0,0,0,0,0,0,0,0],"split_type":[0,0,0,0,0,0,0,0,0,0,0,0,0,0,0,0,0,0,0,0,0,0,0,0,0,0,0,0,0,0,0],"sum_hessian":[3.3786E4,1.9649E4,1.4137E4,8.1E3,1.1549E4,8.307E3,5.83E3,2.374E3,5.726E3,5.128E3,6.421E3,5.072E3,3.235E3,3.98E3,1.85E3,6.7E2,1.704E3,3.522E3,2.204E3,2.856E3,2.272E3,3.311E3,3.11E3,4.283E3,7.89E2,1.877E3,1.358E3,1.459E3,2.521E3,9.76E2,8.74E2],"tree_param":{"num_deleted":"0","num_feature":"120","num_nodes":"31","size_leaf_vector":"1"}},{"base_weights":[-8.821368E-5,-1.4863008E-1,1.7662787E-1,-2.611774E-1,-6.776834E-2,8.152794E-2,3.048061E-1,-3.5829794E-1,-2.1390796E-1,-1.1282305E-1,-2.3895029E-2,5.481919E-2,1.4020252E-1,2.45412E-1,3.79675E-1,-8.9875795E-3,-1.258516E-2,-5.0584814E-3,-6.9912025E-3,-4.4465247E-3,-2.6778015E-3,-1.3943826E-3,4.7800062E-5,1.0144486E-3,2.461398E-3,3.4490316E-3,5.010812E-3,6.1320122E-3,8.232756E-3,1.0402917E-2,1.3528312E-2],"categories":[],"categories_nodes":[],"categories_segments":[],"categories_sizes":[],"default_left":[0,0,0,0,0,0,0,0,0,0,0,0,0,0,0,0,0,0,0,0,0,0,0,0,0,0,0,0,0,0,0],"id":4,"left_children":[1,3,5,7,9,11,13,15,17,19,21,23,25,27,29,-1,-1,-1,-1,-1,-1,-1,-1,-1,-1,-1,-1,-1,-1,-1,-1],"loss_changes":[8.886296E2,1.673399E2,1.883899E2,3.516504E1,2.1144203E1,1.3884178E1,2.9121826E1,8.840332E0,4.404846E0,4.366539E0,3.127981E0,3.4758892E0,1.8310318E0,4.2688293E0,6.589386E0,0E0,0E0,0E0,0E0,0E0,0E0,0E0,0E0,0E0,0E0,0E0,0E0,0E0,0E0,0E0,0E0],"parents":[2147483647,0,0,1,1,2,2,3,3,4,4,5,5,6,6,7,7,8,8,9,9,10,10,11,11,12,12,13,13,14,14],"right_children":[2,4,6,8,10,12,14,16,18,20,22,24,26,28,30,-1,-1,-1,-1,-1,-1,-1,-1,-1,-1,-1,-1,-1,-1,-1,-1],"split_conditions":[9.500021E-1,7.000039E-1,1.1666707E0,4.459085E-1,8.33347E-1,1.0802816E0,1.3333344E0,3.977905E2,5.166791E-1,7.666704E-1,9.1666883E-1,1.0167345E0,1.1333511E0,1.2166783E0,1.4833425E0,-8.9875795E-3,-1.258516E-2,-5.0584814E-3,-6.9912025E-3,-4.4465247E-3,-2.6778015E-3,-1.3943826E-3,4.7800062E-5,1.0144486E-3,2.461398E-3,3.4490316E-3,5.010812E-3,6.1320122E-3,8.232756E-3,1.0402917E-2,1.3528312E-2],"split_indices":[116,116,116,116,112,112,116,5,4,116,112,116,112,112,116,0,0,0,0,0,0,0,0,0,0,0,0,0,0,0,0],"split_type":[0,0,0,0,0,0,0,0,0,0,0,0,0,0,0,0,0,0,0,0,0,0,0,0,0,0,0,0,0,0,0],"sum_hessian":[3.3851E4,1.8392E4,1.5459E4,7.688E3,1.0704E4,8.876E3,6.583E3,2.514E3,5.174E3,5.279E3,5.425E3,6.102E3,2.774E3,3.674E3,2.909E3,1.287E3,1.227E3,1.541E3,3.633E3,2.106E3,3.173E3,2.878E3,2.547E3,3.448E3,2.654E3,1.434E3,1.34E3,1.527E3,2.147E3,1.995E3,9.14E2],"tree_param":{"num_deleted":"0","num_feature":"120","num_nodes":"31","size_leaf_vector":"1"}},{"base_weights":[5.1598164E-4,-1.3792697E-1,1.8076937E-1,-2.5615662E-1,-5.9657097E-2,9.42548E-2,3.1324488E-1,-3.527761E-1,-2.1244481E-1,-1.106029E-1,-1.8740186E-2,6.6127725E-2,1.5653133E-1,2.583642E-1,3.8418412E-1,-8.859955E-3,-1.2515074E-2,-4.9298313E-3,-6.987604E-3,-3.6895347E-3,-1.6305919E-3,-1.242724E-3,2.7366763E-4,1.3015999E-3,2.8305005E-3,4.1182395E-3,5.7952E-3,6.9456473E-3,8.597958E-3,1.0242897E-2,1.2838672E-2],"categories":[],"categories_nodes":[],"categories_segments":[],"categories_sizes":[],"default_left":[0,0,0,0,0,0,0,0,0,0,0,0,0,0,0,0,0,0,0,0,0,0,0,0,0,0,0,0,0,0,0],"id":5,"left_children":[1,3,5,7,9,11,13,15,17,19,21,23,25,27,29,-1,-1,-1,-1,-1,-1,-1,-1,-1,-1,-1,-1,-1,-1,-1,-1],"loss_changes":[8.4582263E2,1.7734888E2,1.6868234E2,3.2114258E1,2.4032299E1,1.5572891E1,2.247931E1,8.594391E0,5.1042175E0,3.5533142E0,4.0486007E0,3.9228153E0,1.8949585E0,2.3699799E0,4.5191345E0,0E0,0E0,0E0,0E0,0E0,0E0,0E0,0E0,0E0,0E0,0E0,0E0,0E0,0E0,0E0,0E0],"parents":[2147483647,0,0,1,1,2,2,3,3,4,4,5,5,6,6,7,7,8,8,9,9,10,10,11,11,12,12,13,13,14,14],"right_children":[2,4,6,8,10,12,14,16,18,20,22,24,26,28,30,-1,-1,-1,-1,-1,-1,-1,-1,-1,-1,-1,-1,-1,-1,-1,-1],"split_conditions":[9.6666855E-1,7.000039E-1,1.200001E0,4.3335366E-1,8.3333445E-1,1.1000005E0,1.3500234E0,4.160825E2,5.1667017E-1,8.5011524E-1,9.166315E-1,1.0300134E0,1.1666707E0,1.2666879E0,1.4191788E0,-8.859955E-3,-1.2515074E-2,-4.9298313E-3,-6.987604E-3,-3.6895347E-3,-1.6305919E-3,-1.242724E-3,2.7366763E-4,1.3015999E-3,2.8305005E-3,4.1182395E-3,5.7952E-3,6.9456473E-3,8.597958E-3,1.0242897E-2,1.2838672E-2],"split_indices":[116,116,116,116,116,116,116,1,0,96,104,104,104,116,104,0,0,0,0,0,0,0,0,0,0,0,0,0,0,0,0],"split_type":[0,0,0,0,0,0,0,0,0,0,0,0,0,0,0,0,0,0,0,0,0,0,0,0,0,0,0,0,0,0,0],"sum_hessian":[3.3892E4,1.9169E4,1.4723E4,7.634E3,1.1535E4,8.908E3,5.815E3,2.375E3,5.259E3,5.136E3,6.399E3,6.139E3,2.769E3,3.282E3,2.533E3,1.259E3,1.116E3,1.574E3,3.685E3,4.207E3,9.29E2,3.529E3,2.87E3,3.403E3,2.736E3,1.82E3,9.49E2,1.689E3,1.593E3,1.287E3,1.246E3],"tree_param":{"num_deleted":"0","num_feature":"120","num_nodes":"31","size_leaf_vector":"1"}},{"base_weights":[-3.2024857E-4,-1.4146891E-1,1.6474211E-1,-2.4615908E-1,-6.489397E-2,7.4361E-2,2.8740513E-1,-3.342819E-1,-2.0393264E-1,-1.065607E-1,-2.505234E-2,5.16148E-2,1.2758282E-1,2.3796554E-1,3.6687604E-1,-1.3144392E-2,-9.01386E-3,-6.489458E-3,-3.6276206E-3,-3.535785E-3,-1.3525492E-3,-1.5705928E-3,-2.3133995E-4,9.108273E-4,2.4338278E-3,3.998605E-3,1.0183684E-3,6.064626E-3,8.149854E-3,9.961236E-3,1.2765437E-2],"categories":[],"categories_nodes":[],"categories_segments":[],"categories_sizes":[],"default_left":[0,0,0,0,0,0,0,0,0,0,0,0,0,0,0,0,0,0,0,0,0,0,0,0,0,0,0,0,0,0,0],"id":6,"left_children":[1,3,5,7,9,11,13,15,17,19,21,23,25,27,29,-1,-1,-1,-1,-1,-1,-1,-1,-1,-1,-1,-1,-1,-1,-1,-1],"loss_changes":[7.8501166E2,1.455592E2,1.7212564E2,2.8426361E1,1.7401627E1,1.0803047E1,2.5736511E1,8.51651E0,5.2749634E0,3.5396233E0,2.5339754E0,3.9186916E0,1.4080276E0,4.8029633E0,4.9386597E0,0E0,0E0,0E0,0E0,0E0,0E0,0E0,0E0,0E0,0E0,0E0,0E0,0E0,0E0,0E0,0E0],"parents":[2147483647,0,0,1,1,2,2,3,3,4,4,5,5,6,6,7,7,8,8,9,9,10,10,11,11,12,12,13,13,14,14],"right_children":[2,4,6,8,10,12,14,16,18,20,22,24,26,28,30,-1,-1,-1,-1,-1,-1,-1,-1,-1,-1,-1,-1,-1,-1,-1,-1],"split_conditions":[9.442473E-1,7.000039E-1,1.1666707E0,4.459085E-1,8.3333445E-1,1.0833361E0,1.3500234E0,2.6674184E-1,7.1685535E-1,8.6666995E-1,8.6668456E-1,1.0240186E0,1.3333609E0,1.2464597E0,1.4833425E0,-1.3144392E-2,-9.01386E-3,-6.489458E-3,-3.6276206E-3,-3.535785E-3,-1.3525492E-3,-1.5705928E-3,-2.3133995E-4,9.108273E-4,2.4338278E-3,3.998605E-3,1.0183684E-3,6.064626E-3,8.149854E-3,9.961236E-3,1.2765437E-2],"split_indices":[116,116,116,116,116,104,116,104,104,96,104,116,28,116,116,0,0,0,0,0,0,0,0,0,0,0,0,0,0,0,0],"split_type":[0,0,0,0,0,0,0,0,0,0,0,0,0,0,0,0,0,0,0,0,0,0,0,0,0,0,0,0,0,0,0],"sum_hessian":[3.3692E4,1.8162E4,1.553E4,7.671E3,1.0491E4,8.943E3,6.587E3,2.482E3,5.189E3,5.126E3,5.365E3,6.268E3,2.675E3,4.064E3,2.523E3,6.06E2,1.876E3,4.513E3,6.76E2,4.328E3,7.98E2,2.081E3,3.284E3,3.647E3,2.621E3,2.52E3,1.55E2,1.975E3,2.089E3,1.588E3,9.35E2],"tree_param":{"num_deleted":"0","num_feature":"120","num_nodes":"31","size_leaf_vector":"1"}},{"base_weights":[-7.341455E-5,-1.2968788E-1,1.6636822E-1,-2.3144929E-1,-5.2602872E-2,7.6707624E-2,2.7807045E-1,-3.2714388E-1,-1.9185072E-1,-9.278867E-2,-1.2751176E-2,4.9223732E-2,1.1878102E-1,2.395458E-1,3.7528253E-1,-8.059184E-3,-1.1561682E-2,-6.408404E-3,-4.586532E-3,-2.980795E-3,-1.2479586E-4,-6.9036055E-4,1.1543818E-3,9.605064E-4,2.164096E-3,3.0583208E-3,4.5931167E-3,6.209757E-3,8.258815E-3,1.1605162E-2,6.388136E-3],"categories":[],"categories_nodes":[],"categories_segments":[],"categories_sizes":[],"default_left":[0,0,0,0,0,0,0,0,0,0,0,0,0,0,0,0,0,0,0,0,0,0,0,0,0,0,0,0,0,0,0],"id":7,"left_children":[1,3,5,7,9,11,13,15,17,19,21,23,25,27,29,-1,-1,-1,-1,-1,-1,-1,-1,-1,-1,-1,-1,-1,-1,-1,-1],"loss_changes":[7.2984076E2,1.4915762E2,1.482796E2,3.0946777E1,1.7322598E1,9.48016E0,2.454358E1,7.9991455E0,4.8500214E0,3.1271782E0,2.8574007E0,1.9483099E0,1.8341522E0,5.394623E0,3.3640747E0,0E0,0E0,0E0,0E0,0E0,0E0,0E0,0E0,0E0,0E0,0E0,0E0,0E0,0E0,0E0,0E0],"parents":[2147483647,0,0,1,1,2,2,3,3,4,4,5,5,6,6,7,7,8,8,9,9,10,10,11,11,12,12,13,13,14,14],"right_children":[2,4,6,8,10,12,14,16,18,20,22,24,26,28,30,-1,-1,-1,-1,-1,-1,-1,-1,-1,-1,-1,-1,-1,-1,-1,-1],"split_conditions":[9.582739E-1,7.166685E-1,1.1666704E0,4.3333682E-1,8.5000426E-1,1.0646425E0,1.400004E0,3.99875E2,6.5082747E-1,7E0,1.0000122E0,1.0230026E0,1.1333337E0,1.2666885E0,1.7585168E0,-8.059184E-3,-1.1561682E-2,-6.408404E-3,-4.586532E-3,-2.980795E-3,-1.2479586E-4,-6.9036055E-4,1.1543818E-3,9.605064E-4,2.164096E-3,3.0583208E-3,4.5931167E-3,6.209757E-3,8.258815E-3,1.1605162E-2,6.388136E-3],"split_indices":[112,112,112,112,100,100,112,1,100,111,100,112,104,112,8,0,0,0,0,0,0,0,0,0,0,0,0,0,0,0,0],"split_type":[0,0,0,0,0,0,0,0,0,0,0,0,0,0,0,0,0,0,0,0,0,0,0,0,0,0,0,0,0,0,0],"sum_hessian":[3.3829E4,1.9019E4,1.481E4,8.196E3,1.0823E4,8.217E3,6.593E3,2.396E3,5.8E3,5.387E3,5.436E3,4.973E3,3.244E3,4.725E3,1.868E3,1.199E3,1.197E3,3.717E3,2.083E3,5.014E3,3.73E2,4.531E3,9.05E2,2.844E3,2.129E3,2.181E3,1.063E3,2.478E3,2.247E3,1.742E3,1.26E2],"tree_param":{"num_deleted":"0","num_feature":"120","num_nodes":"31","size_leaf_vector":"1"}},{"base_weights":[-1.2400349E-4,-1.3029826E-1,1.5492122E-1,-2.2811253E-1,-5.9572417E-2,6.8930864E-2,2.6919475E-1,-3.2882223E-1,-1.9704302E-1,-1.0195799E-1,-2.312655E-2,4.5990653E-2,1.2594648E-1,2.1820362E-1,3.3486387E-1,-1.2015182E-2,-7.831243E-3,-4.5780954E-3,-6.600829E-3,-3.8818684E-3,-2.3365514E-3,-1.3531673E-3,8.0134174E-5,6.471691E-4,1.950362E-3,3.95764E-3,4.4959754E-4,4.7347094E-3,7.0430543E-3,8.911404E-3,1.156151E-2],"categories":[],"categories_nodes":[],"categories_segments":[],"categories_sizes":[],"default_left":[0,0,0,0,0,0,0,0,0,0,0,0,0,0,0,0,0,0,0,0,0,0,0,0,0,0,0,0,0,0,0],"id":8,"left_children":[1,3,5,7,9,11,13,15,17,19,21,23,25,27,29,-1,-1,-1,-1,-1,-1,-1,-1,-1,-1,-1,-1,-1,-1,-1,-1],"loss_changes":[6.824014E2,1.2711038E2,1.5157916E2,2.401352E1,1.6466381E1,1.1496128E1,2.2055725E1,8.652847E0,5.95253E0,3.226143E0,3.258424E0,2.9082136E0,1.6573296E0,3.6573944E0,5.344391E0,0E0,0E0,0E0,0E0,0E0,0E0,0E0,0E0,0E0,0E0,0E0,0E0,0E0,0E0,0E0,0E0],"parents":[2147483647,0,0,1,1,2,2,3,3,4,4,5,5,6,6,7,7,8,8,9,9,10,10,11,11,12,12,13,13,14,14],"right_children":[2,4,6,8,10,12,14,16,18,20,22,24,26,28,30,-1,-1,-1,-1,-1,-1,-1,-1,-1,-1,-1,-1,-1,-1,-1,-1],"split_conditions":[9.500011E-1,7.0000416E-1,1.1666704E0,3.946762E-1,8.3333546E-1,1.0833503E0,1.3333348E0,2E0,5.1667017E-1,7.6668024E-1,9.1666794E-1,9.833407E-1,1.3500072E0,1.1666708E0,1.4205699E0,-1.2015182E-2,-7.831243E-3,-4.5780954E-3,-6.600829E-3,-3.8818684E-3,-2.3365514E-3,-1.3531673E-3,8.0134174E-5,6.471691E-4,1.950362E-3,3.95764E-3,4.4959754E-4,4.7347094E-3,7.0430543E-3,8.911404E-3,1.156151E-2],"split_indices":[112,108,112,112,108,108,112,15,0,112,108,108,4,108,92,0,0,0,0,0,0,0,0,0,0,0,0,0,0,0,0],"split_type":[0,0,0,0,0,0,0,0,0,0,0,0,0,0,0,0,0,0,0,0,0,0,0,0,0,0,0,0,0,0,0],"sum_hessian":[3.3809E4,1.8379E4,1.543E4,7.711E3,1.0668E4,8.806E3,6.624E3,1.815E3,5.896E3,4.93E3,5.738E3,6.282E3,2.524E3,3.732E3,2.892E3,8.79E2,9.36E2,2.014E3,3.882E3,2.3E3,2.63E3,3.1E3,2.638E3,2.754E3,3.528E3,2.394E3,1.3E2,8.07E2,2.925E3,1.659E3,1.233E3],"tree_param":{"num_deleted":"0","num_feature":"120","num_nodes":"31","size_leaf_vector":"1"}},{"base_weights":[1.0405428E-3,-1.2097107E-1,1.6340119E-1,-2.193069E-1,-4.83691E-2,7.732473E-2,2.6565763E-1,-2.9831716E-1,-1.731495E-1,-8.675562E-2,-1.0851879E-2,4.7731414E-2,1.1091852E-1,2.1320157E-1,3.327275E-1,-1.2245614E-2,-8.090955E-3,-5.670611E-3,-3.7737025E-3,-3.2751283E-3,-1.8729371E-3,-8.282468E-4,5.4398313E-4,1.4921034E-3,-5.098598E-3,2.796945E-3,4.2768028E-3,5.5223596E-3,7.369422E-3,9.014987E-3,1.2011428E-2],"categories":[],"categories_nodes":[],"categories_segments":[],"categories_sizes":[],"default_left":[0,0,0,0,0,0,0,0,0,0,0,0,0,0,0,0,0,0,0,0,0,0,0,0,0,0,0,0,0,0,0],"id":9,"left_children":[1,3,5,7,9,11,13,15,17,19,21,23,25,27,29,-1,-1,-1,-1,-1,-1,-1,-1,-1,-1,-1,-1,-1,-1,-1,-1],"loss_changes":[6.691425E2,1.3764548E2,1.2751065E2,2.976941E1,1.5969263E1,7.8038063E0,2.317566E1,9.311737E0,3.8329468E0,2.9655647E0,2.728038E0,1.8246527E0,2.0248604E0,3.4269104E0,6.141266E0,0E0,0E0,0E0,0E0,0E0,0E0,0E0,0E0,0E0,0E0,0E0,0E0,0E0,0E0,0E0,0E0],"parents":[2147483647,0,0,1,1,2,2,3,3,4,4,5,5,6,6,7,7,8,8,9,9,10,10,11,11,12,12,13,13,14,14],"right_children":[2,4,6,8,10,12,14,16,18,20,22,24,26,28,30,-1,-1,-1,-1,-1,-1,-1,-1,-1,-1,-1,-1,-1,-1,-1,-1],"split_conditions":[9.666716E-1,7.1667E-1,1.1666707E0,4.833356E-1,8.5001564E-1,1.0500025E0,1.3333344E0,2.6674184E-1,7.0000213E-1,8.0000436E-1,9.3333685E-1,1.4173524E0,1.1333511E0,1.248511E0,1.4833425E0,-1.2245614E-2,-8.090955E-3,-5.670611E-3,-3.7737025E-3,-3.2751283E-3,-1.8729371E-3,-8.282468E-4,5.4398313E-4,1.4921034E-3,-5.098598E-3,2.796945E-3,4.2768028E-3,5.5223596E-3,7.369422E-3,9.014987E-3,1.2011428E-2],"split_indices":[116,116,116,116,112,112,116,104,104,116,108,4,112,112,116,0,0,0,0,0,0,0,0,0,0,0,0,0,0,0,0],"split_type":[0,0,0,0,0,0,0,0,0,0,0,0,0,0,0,0,0,0,0,0,0,0,0,0,0,0,0,0,0,0,0],"sum_hessian":[3.3776E4,1.9284E4,1.4492E4,8.189E3,1.1095E4,7.87E3,6.622E3,3.017E3,5.172E3,5.482E3,5.613E3,4.187E3,3.683E3,3.719E3,2.903E3,6.2E2,2.397E3,3.87E3,1.302E3,2.849E3,2.633E3,3.559E3,2.054E3,4.15E3,3.7E1,2.367E3,1.316E3,1.965E3,1.754E3,1.971E3,9.32E2],"tree_param":{"num_deleted":"0","num_feature":"120","num_nodes":"31","size_leaf_vector":"1"}},{"base_weights":[5.8312825E-4,-1.2495478E-1,1.491111E-1,-2.375375E-1,-6.770809E-2,6.8012014E-2,2.5601912E-1,-3.2185677E-1,-2.0177566E-1,-1.0714097E-1,-2.1846449E-2,4.257592E-2,1.1092927E-1,2.1287692E-1,3.3246863E-1,-7.68363E-3,-1.1522003E-2,-4.1168937E-3,-7.0086583E-3,-4.0531624E-3,-2.264294E-3,-1.2632565E-3,6.287358E-5,1.0805483E-3,2.9750168E-3,3.1239188E-3,5.555666E-3,5.2611944E-3,7.1765184E-3,9.04388E-3,1.1366464E-2],"categories":[],"categories_nodes":[],"categories_segments":[],"categories_sizes":[],"default_left":[0,0,0,0,0,0,0,0,0,0,0,0,0,0,0,0,0,0,0,0,0,0,0,0,0,0,0,0,0,0,0],"id":10,"left_children":[1,3,5,7,9,11,13,15,17,19,21,23,25,27,29,-1,-1,-1,-1,-1,-1,-1,-1,-1,-1,-1,-1,-1,-1,-1,-1],"loss_changes":[6.298793E2,1.179418E2,1.3411197E2,1.8487793E1,2.1935802E1,9.587517E0,2.1886871E1,7.3417206E0,8.843674E0,5.7465057E0,2.7275534E0,2.0347528E0,1.6042099E0,4.1347656E0,3.278778E0,0E0,0E0,0E0,0E0,0E0,0E0,0E0,0E0,0E0,0E0,0E0,0E0,0E0,0E0,0E0,0E0],"parents":[2147483647,0,0,1,1,2,2,3,3,4,4,5,5,6,6,7,7,8,8,9,9,10,10,11,11,12,12,13,13,14,14],"right_children":[2,4,6,8,10,12,14,16,18,20,22,24,26,28,30,-1,-1,-1,-1,-1,-1,-1,-1,-1,-1,-1,-1,-1,-1,-1,-1],"split_conditions":[9.500021E-1,6.500068E-1,1.1666707E0,4.0000197E-1,8.3333635E-1,1.0666678E0,1.3605157E0,3.977905E2,4.8333478E-1,7.666704E-1,9.1666883E-1,7E0,9E0,1.2265364E0,1.4833425E0,-7.68363E-3,-1.1522003E-2,-4.1168937E-3,-7.0086583E-3,-4.0531624E-3,-2.264294E-3,-1.2632565E-3,6.287358E-5,1.0805483E-3,2.9750168E-3,3.1239188E-3,5.555666E-3,5.2611944E-3,7.1765184E-3,9.04388E-3,1.1366464E-2],"split_indices":[116,116,116,116,112,112,116,5,0,116,112,119,99,112,116,0,0,0,0,0,0,0,0,0,0,0,0,0,0,0,0],"split_type":[0,0,0,0,0,0,0,0,0,0,0,0,0,0,0,0,0,0,0,0,0,0,0,0,0,0,0,0,0,0,0],"sum_hessian":[3.3779E4,1.8306E4,1.5473E4,6.169E3,1.2137E4,8.8E3,6.673E3,1.834E3,4.335E3,6.524E3,5.613E3,5.528E3,3.272E3,4.269E3,2.404E3,8.95E2,9.39E2,1.435E3,2.9E3,3.461E3,3.063E3,3.042E3,2.571E3,4.957E3,5.71E2,3.001E3,2.71E2,1.766E3,2.503E3,1.447E3,9.57E2],"tree_param":{"num_deleted":"0","num_feature":"120","num_nodes":"31","size_leaf_vector":"1"}},{"base_weights":[6.235195E-4,-1.1035939E-1,1.5683413E-1,-2.0590588E-1,-4.3669336E-2,8.3296955E-2,2.5989133E-1,-2.928203E-1,-1.7045026E-1,-8.347552E-2,-8.223553E-3,5.707757E-2,1.3056959E-1,2.2361511E-1,3.3832E-1,-7.820351E-3,-1.1753132E-2,-5.974271E-3,-4.2463006E-3,-3.5584725E-3,-2.0387028E-3,-8.1945804E-4,4.5530844E-4,1.4461146E-3,3.0465438E-3,3.277575E-3,4.729874E-3,5.9833843E-3,7.721536E-3,1.044123E-2,5.5016684E-3],"categories":[],"categories_nodes":[],"categories_segments":[],"categories_sizes":[],"default_left":[0,0,0,0,0,0,0,0,0,0,0,0,0,0,0,0,0,0,0,0,0,0,0,0,0,0,0,0,0,0,0],"id":11,"left_children":[1,3,5,7,9,11,13,15,17,19,21,23,25,27,29,-1,-1,-1,-1,-1,-1,-1,-1,-1,-1,-1,-1,-1,-1,-1,-1],"loss_changes":[5.822406E2,1.2507391E2,1.0566461E2,2.4772308E1,1.630791E1,1.00667E1,1.6392487E1,7.262207E0,4.694351E0,2.9431648E0,2.7357733E0,2.0484905E0,1.6326904E0,3.1472626E0,2.6451874E0,0E0,0E0,0E0,0E0,0E0,0E0,0E0,0E0,0E0,0E0,0E0,0E0,0E0,0E0,0E0,0E0],"parents":[2147483647,0,0,1,1,2,2,3,3,4,4,5,5,6,6,7,7,8,8,9,9,10,10,11,11,12,12,13,13,14,14],"right_children":[2,4,6,8,10,12,14,16,18,20,22,24,26,28,30,-1,-1,-1,-1,-1,-1,-1,-1,-1,-1,-1,-1,-1,-1,-1,-1],"split_conditions":[9.7482973E-1,7.1667E-1,1.200001E0,4.3335366E-1,8.500046E-1,1.0860147E0,1.4000038E0,7.80053E2,6.166675E-1,7.666704E-1,9.1666704E-1,1.1000005E0,1.1333351E0,1.3000219E0,1.7585168E0,-7.820351E-3,-1.1753132E-2,-5.974271E-3,-4.2463006E-3,-3.5584725E-3,-2.0387028E-3,-8.1945804E-4,4.5530844E-4,1.4461146E-3,3.0465438E-3,3.277575E-3,4.729874E-3,5.9833843E-3,7.721536E-3,1.044123E-2,5.5016684E-3],"split_indices":[116,116,116,116,112,112,116,1,116,116,116,116,116,112,8,0,0,0,0,0,0,0,0,0,0,0,0,0,0,0,0],"split_type":[0,0,0,0,0,0,0,0,0,0,0,0,0,0,0,0,0,0,0,0,0,0,0,0,0,0,0,0,0,0,0],"sum_hessian":[3.3582E4,1.9633E4,1.3949E4,8.069E3,1.1564E4,8.142E3,5.807E3,2.335E3,5.734E3,5.445E3,6.119E3,5.24E3,2.902E3,3.974E3,1.833E3,1.766E3,5.69E2,2.873E3,2.861E3,1.664E3,3.781E3,3.372E3,2.747E3,4.372E3,8.68E2,1.629E3,1.273E3,2.322E3,1.652E3,1.723E3,1.1E2],"tree_param":{"num_deleted":"0","num_feature":"120","num_nodes":"31","size_leaf_vector":"1"}},{"base_weights":[-8.487714E-4,-1.16898835E-1,1.3779654E-1,-2.2154848E-1,-6.386283E-2,6.1602566E-2,2.3990387E-1,-3.727454E-1,-2.0391583E-1,-1.0297731E-1,-2.046249E-2,3.306011E-2,9.858255E-2,2.065375E-1,3.26518E-1,-1.3153649E-2,-6.8417178E-3,-5.7584154E-3,-9.378239E-3,-3.8078763E-3,-2.2603045E-3,-1.1248188E-3,2.3926776E-4,1.054925E-3,-4.337829E-3,2.4567433E-3,3.880602E-3,5.0986595E-3,7.084809E-3,1.0137941E-2,4.5780437E-3],"categories":[],"categories_nodes":[],"categories_segments":[],"categories_sizes":[],"default_left":[0,0,0,0,0,0,0,0,0,0,0,0,0,0,0,0,0,0,0,0,0,0,0,0,0,0,0,0,0,0,0],"id":12,"left_children":[1,3,5,7,9,11,13,15,17,19,21,23,25,27,29,-1,-1,-1,-1,-1,-1,-1,-1,-1,-1,-1,-1,-1,-1,-1,-1],"loss_changes":[5.443158E2,1.021698E2,1.1987546E2,1.6376892E1,2.073679E1,9.302582E0,1.891275E1,5.9656296E0,7.1082153E0,4.2247925E0,2.8109837E0,1.8578835E0,1.9425621E0,5.0753326E0,3.529892E0,0E0,0E0,0E0,0E0,0E0,0E0,0E0,0E0,0E0,0E0,0E0,0E0,0E0,0E0,0E0,0E0],"parents":[2147483647,0,0,1,1,2,2,3,3,4,4,5,5,6,6,7,7,8,8,9,9,10,10,11,11,12,12,13,13,14,14],"right_children":[2,4,6,8,10,12,14,16,18,20,22,24,26,28,30,-1,-1,-1,-1,-1,-1,-1,-1,-1,-1,-1,-1,-1,-1,-1,-1],"split_conditions":[9.500011E-1,6.500018E-1,1.1666704E0,2.6674184E-1,8.298844E-1,1.0500019E0,1.400004E0,7.915977E-1,1.0505605E0,7.666691E-1,9.2327493E-1,1.4004958E0,1.1333511E0,1.2478104E0,1.7514577E0,-1.3153649E-2,-6.8417178E-3,-5.7584154E-3,-9.378239E-3,-3.8078763E-3,-2.2603045E-3,-1.1248188E-3,2.3926776E-4,1.054925E-3,-4.337829E-3,2.4567433E-3,3.880602E-3,5.0986595E-3,7.084809E-3,1.0137941E-2,4.5780437E-3],"split_indices":[112,112,112,104,108,108,112,0,4,112,108,0,108,108,24,0,0,0,0,0,0,0,0,0,0,0,0,0,0,0,0],"split_type":[0,0,0,0,0,0,0,0,0,0,0,0,0,0,0,0,0,0,0,0,0,0,0,0,0,0,0,0,0,0,0],"sum_hessian":[3.3828E4,1.8415E4,1.5413E4,6.192E3,1.2223E4,8.828E3,6.585E3,6.44E2,5.548E3,6.427E3,5.796E3,4.985E3,3.843E3,4.757E3,1.828E3,4.41E2,2.03E2,5.001E3,5.47E2,3.439E3,2.988E3,3.627E3,2.169E3,4.928E3,5.7E1,2.496E3,1.347E3,2.133E3,2.624E3,1.714E3,1.14E2],"tree_param":{"num_deleted":"0","num_feature":"120","num_nodes":"31","size_leaf_vector":"1"}},{"base_weights":[-6.4086285E-4,-1.24407604E-1,1.2334059E-1,-2.1228646E-1,-6.77342E-2,5.3395927E-2,2.3146178E-1,-3.6707518E-1,-1.9598429E-1,-9.947664E-2,-2.7388308E-2,2.7576143E-2,9.508995E-2,2.0049725E-1,3.1260645E-1,-1.2963188E-2,-7.0809647E-3,-5.503601E-3,-8.847322E-3,-3.6268628E-3,-2.2673737E-3,-1.001048E-3,8.658003E-4,2.9471848E-4,1.4786008E-3,2.4429369E-3,3.943873E-3,5.255972E-3,7.0797014E-3,9.739615E-3,4.837339E-3],"categories":[],"categories_nodes":[],"categories_segments":[],"categories_sizes":[],"default_left":[0,0,0,0,0,0,0,0,0,0,0,0,0,0,0,0,0,0,0,0,0,0,0,0,0,0,0,0,0,0,0],"id":13,"left_children":[1,3,5,7,9,11,13,15,17,19,21,23,25,27,29,-1,-1,-1,-1,-1,-1,-1,-1,-1,-1,-1,-1,-1,-1,-1,-1],"loss_changes":[5.1696576E2,8.392706E1,1.2723605E2,1.6548828E1,1.3114094E1,1.0988329E1,1.6494324E1,5.18293E0,7.3135834E0,2.907219E0,1.5207641E0,2.4274688E0,1.9090118E0,4.2167053E0,3.223343E0,0E0,0E0,0E0,0E0,0E0,0E0,0E0,0E0,0E0,0E0,0E0,0E0,0E0,0E0,0E0,0E0],"parents":[2147483647,0,0,1,1,2,2,3,3,4,4,5,5,6,6,7,7,8,8,9,9,10,10,11,11,12,12,13,13,14,14],"right_children":[2,4,6,8,10,12,14,16,18,20,22,24,26,28,30,-1,-1,-1,-1,-1,-1,-1,-1,-1,-1,-1,-1,-1,-1,-1,-1],"split_conditions":[9.166759E-1,6.6666895E-1,1.1666707E0,2.6674184E-1,8.225584E-1,1.0500025E0,1.4000038E0,7.500147E-1,9.896257E-1,7.666704E-1,6E0,1.0000033E0,1.1500064E0,1.283338E0,1.6914034E0,-1.2963188E-2,-7.0809647E-3,-5.503601E-3,-8.847322E-3,-3.6268628E-3,-2.2673737E-3,-1.001048E-3,8.658003E-4,2.9471848E-4,1.4786008E-3,2.4429369E-3,3.943873E-3,5.255972E-3,7.0797014E-3,9.739615E-3,4.837339E-3],"split_indices":[116,116,116,104,112,112,116,0,0,116,119,116,112,116,16,0,0,0,0,0,0,0,0,0,0,0,0,0,0,0,0],"split_type":[0,0,0,0,0,0,0,0,0,0,0,0,0,0,0,0,0,0,0,0,0,0,0,0,0,0,0,0,0,0,0],"sum_hessian":[3.3688E4,1.6859E4,1.6829E4,6.608E3,1.0251E4,1.022E4,6.609E3,6.27E2,5.981E3,5.735E3,4.516E3,6.314E3,3.906E3,4.787E3,1.822E3,4.17E2,2.1E2,5.312E3,6.69E2,3.02E3,2.715E3,4.084E3,4.32E2,3.477E3,2.837E3,2.844E3,1.062E3,2.8E3,1.987E3,1.686E3,1.36E2],"tree_param":{"num_deleted":"0","num_feature":"120","num_nodes":"31","size_leaf_vector":"1"}},{"base_weights":[-2.8506597E-4,-1.16386615E-1,1.2697642E-1,-2.0648836E-1,-6.212836E-2,5.6967277E-2,2.266673E-1,-2.688852E-1,-1.7155851E-1,-9.453612E-2,-2.3258364E-2,3.1916987E-2,9.253814E-2,1.9510376E-1,3.078659E-1,-6.450848E-3,-9.77177E-3,-3.738244E-3,-5.938542E-3,-3.5691876E-3,-2.0168482E-3,-1.1305907E-3,7.390255E-5,6.956744E-4,2.0821255E-3,2.3620594E-3,3.7242346E-3,4.771353E-3,6.6149635E-3,9.551402E-3,4.631814E-3],"categories":[],"categories_nodes":[],"categories_segments":[],"categories_sizes":[],"default_left":[0,0,0,0,0,0,0,0,0,0,0,0,0,0,0,0,0,0,0,0,0,0,0,0,0,0,0,0,0,0,0],"id":14,"left_children":[1,3,5,7,9,11,13,15,17,19,21,23,25,27,29,-1,-1,-1,-1,-1,-1,-1,-1,-1,-1,-1,-1,-1,-1,-1,-1],"loss_changes":[5.0043686E2,8.655008E1,1.1272983E2,1.44166565E1,1.391441E1,8.444328E0,1.6971436E1,7.1800385E0,5.235512E0,3.995964E0,1.870317E0,1.8128457E0,1.6803207E0,4.3251343E0,2.9097748E0,0E0,0E0,0E0,0E0,0E0,0E0,0E0,0E0,0E0,0E0,0E0,0E0,0E0,0E0,0E0,0E0],"parents":[2147483647,0,0,1,1,2,2,3,3,4,4,5,5,6,6,7,7,8,8,9,9,10,10,11,11,12,12,13,13,14,14],"right_children":[2,4,6,8,10,12,14,16,18,20,22,24,26,28,30,-1,-1,-1,-1,-1,-1,-1,-1,-1,-1,-1,-1,-1,-1,-1,-1],"split_conditions":[9.333386E-1,6.6666895E-1,1.1666707E0,4.3335366E-1,8.298844E-1,1.0500028E0,1.4000038E0,4.160825E2,5.290204E-1,7.666704E-1,9.1666794E-1,1.0500004E0,1.1333337E0,1.2464597E0,1.7585168E0,-6.450848E-3,-9.77177E-3,-3.738244E-3,-5.938542E-3,-3.5691876E-3,-2.0168482E-3,-1.1305907E-3,7.390255E-5,6.956744E-4,2.0821255E-3,2.3620594E-3,3.7242346E-3,4.771353E-3,6.6149635E-3,9.551402E-3,4.631814E-3],"split_indices":[116,116,116,116,108,116,116,1,8,116,108,100,104,116,8,0,0,0,0,0,0,0,0,0,0,0,0,0,0,0,0],"split_type":[0,0,0,0,0,0,0,0,0,0,0,0,0,0,0,0,0,0,0,0,0,0,0,0,0,0,0,0,0,0,0],"sum_hessian":[3.3868E4,1.7711E4,1.6157E4,6.655E3,1.1056E4,9.493E3,6.664E3,2.385E3,4.27E3,6.027E3,5.029E3,5.573E3,3.92E3,4.802E3,1.862E3,1.228E3,1.157E3,1.54E3,2.73E3,3.177E3,2.85E3,3.224E3,1.805E3,4.524E3,1.049E3,2.733E3,1.187E3,1.989E3,2.813E3,1.741E3,1.21E2],"tree_param":{"num_deleted":"0","num_feature":"120","num_nodes":"31","size_leaf_vector":"1"}},{"base_weights":[-4.4507018E-5,-9.793935E-2,1.4024287E-1,-1.8494749E-1,-3.8653992E-2,8.357604E-2,2.4651383E-1,-2.5283504E-1,-1.4773431E-1,-7.406288E-2,-6.906034E-3,5.2816417E-2,1.2798198E-1,2.1274975E-1,3.0402514E-1,-1.0216396E-2,-6.841639E-3,-3.1557444E-3,-4.839955E-3,-2.7284103E-3,-1.3936257E-3,-7.1126624E-4,4.2223747E-4,1.6540004E-3,-3.5008169E-3,3.1800517E-3,4.6902085E-3,5.9950147E-3,8.115132E-3,9.439277E-3,4.518225E-3],"categories":[],"categories_nodes":[],"categories_segments":[],"categories_sizes":[],"default_left":[0,0,0,0,0,0,0,0,0,0,0,0,0,0,0,0,0,0,0,0,0,0,0,0,0,0,0,0,0,0,0],"id":15,"left_children":[1,3,5,7,9,11,13,15,17,19,21,23,25,27,29,-1,-1,-1,-1,-1,-1,-1,-1,-1,-1,-1,-1,-1,-1,-1,-1],"loss_changes":[4.643636E2,1.02703354E2,8.3634674E1,2.0309906E1,1.3309311E1,1.2358505E1,9.26651E0,6.0708923E0,2.973709E0,2.592001E0,2.2042818E0,2.10499E0,2.2684708E0,2.1733246E0,2.8120422E0,0E0,0E0,0E0,0E0,0E0,0E0,0E0,0E0,0E0,0E0,0E0,0E0,0E0,0E0,0E0,0E0],"parents":[2147483647,0,0,1,1,2,2,3,3,4,4,5,5,6,6,7,7,8,8,9,9,10,10,11,11,12,12,13,13,14,14],"right_children":[2,4,6,8,10,12,14,16,18,20,22,24,26,28,30,-1,-1,-1,-1,-1,-1,-1,-1,-1,-1,-1,-1,-1,-1,-1,-1],"split_conditions":[9.7482973E-1,7.1605885E-1,1.2333412E0,4.6667498E-1,8.500046E-1,1.1000005E0,1.400004E0,2.8333408E-1,5.0000376E-1,8.1666905E-1,9.1666704E-1,1.466668E0,1.1666704E0,1E1,1.7585168E0,-1.0216396E-2,-6.841639E-3,-3.1557444E-3,-4.839955E-3,-2.7284103E-3,-1.3936257E-3,-7.1126624E-4,4.2223747E-4,1.6540004E-3,-3.5008169E-3,3.1800517E-3,4.6902085E-3,5.9950147E-3,8.115132E-3,9.439277E-3,4.518225E-3],"split_indices":[116,116,116,112,112,116,112,116,0,116,116,4,112,119,8,0,0,0,0,0,0,0,0,0,0,0,0,0,0,0,0],"split_type":[0,0,0,0,0,0,0,0,0,0,0,0,0,0,0,0,0,0,0,0,0,0,0,0,0,0,0,0,0,0,0],"sum_hessian":[3.3811E4,1.9915E4,1.3896E4,8.069E3,1.1846E4,9.065E3,4.831E3,2.854E3,5.215E3,5.598E3,6.248E3,5.358E3,3.707E3,3.048E3,1.783E3,6.25E2,2.229E3,1.267E3,3.948E3,3.47E3,2.128E3,3.472E3,2.776E3,5.287E3,7.1E1,2.093E3,1.614E3,2.496E3,5.52E2,1.666E3,1.17E2],"tree_param":{"num_deleted":"0","num_feature":"120","num_nodes":"31","size_leaf_vector":"1"}},{"base_weights":[-1.7055101E-4,-1.1609599E-1,1.11175835E-1,-2.1086478E-1,-7.149903E-2,4.7389615E-2,2.1255423E-1,-3.360835E-1,-1.9325595E-1,-1.0555759E-1,-3.5185494E-2,2.0523483E-2,8.368794E-2,1.7048237E-1,2.6541275E-1,-1.2200727E-2,-5.4329406E-3,-4.670133E-3,-7.045092E-3,-3.809212E-3,-2.4618248E-3,-1.2102609E-3,1.2950009E-3,2.3358571E-4,1.352418E-3,2.6075053E-3,-2.0245397E-3,4.8096767E-3,7.1203285E-3,7.1543385E-3,9.679526E-3],"categories":[],"categories_nodes":[],"categories_segments":[],"categories_sizes":[],"default_left":[0,0,0,0,0,0,0,0,0,0,0,0,0,0,0,0,0,0,0,0,0,0,0,0,0,0,0,0,0,0,0],"id":16,"left_children":[1,3,5,7,9,11,13,15,17,19,21,23,25,27,29,-1,-1,-1,-1,-1,-1,-1,-1,-1,-1,-1,-1,-1,-1,-1,-1],"loss_changes":[4.3620935E2,6.993318E1,1.11427765E2,1.1561783E1,1.3909664E1,1.0307381E1,1.4713165E1,6.9915466E0,7.1866913E0,2.8918228E0,2.2046127E0,1.8973839E0,2.203867E0,2.4424057E0,4.410309E0,0E0,0E0,0E0,0E0,0E0,0E0,0E0,0E0,0E0,0E0,0E0,0E0,0E0,0E0,0E0,0E0],"parents":[2147483647,0,0,1,1,2,2,3,3,4,4,5,5,6,6,7,7,8,8,9,9,10,10,11,11,12,12,13,13,14,14],"right_children":[2,4,6,8,10,12,14,16,18,20,22,24,26,28,30,-1,-1,-1,-1,-1,-1,-1,-1,-1,-1,-1,-1,-1,-1,-1,-1],"split_conditions":[9.1666704E-1,6.166675E-1,1.1666707E0,2.6674184E-1,7.98998E-1,1.0333369E0,1.3333344E0,8E-1,5.3333765E-1,7.333363E-1,7E0,1.0009952E0,1.4523511E0,1.2E1,1.4833425E0,-1.2200727E-2,-5.4329406E-3,-4.670133E-3,-7.045092E-3,-3.809212E-3,-2.4618248E-3,-1.2102609E-3,1.2950009E-3,2.3358571E-4,1.352418E-3,2.6075053E-3,-2.0245397E-3,4.8096767E-3,7.1203285E-3,7.1543385E-3,9.679526E-3],"split_indices":[116,116,116,104,112,112,116,0,0,116,23,116,8,115,116,0,0,0,0,0,0,0,0,0,0,0,0,0,0,0,0],"split_type":[0,0,0,0,0,0,0,0,0,0,0,0,0,0,0,0,0,0,0,0,0,0,0,0,0,0,0,0,0,0,0],"sum_hessian":[3.3792E4,1.6556E4,1.7236E4,5.296E3,1.126E4,1.0581E4,6.655E3,6.5E2,4.646E3,5.808E3,5.452E3,6.083E3,4.498E3,3.709E3,2.946E3,4.45E2,2.05E2,2.444E3,2.202E3,3.034E3,2.774E3,5.117E3,3.35E2,4.009E3,2.074E3,4.405E3,9.3E1,3.224E3,4.85E2,2.008E3,9.38E2],"tree_param":{"num_deleted":"0","num_feature":"120","num_nodes":"31","size_leaf_vector":"1"}},{"base_weights":[-2.8147834E-4,-9.108045E-2,1.311343E-1,-1.7630525E-1,-3.785408E-2,7.302711E-2,2.2159308E-1,-2.447167E-1,-1.4614403E-1,-7.513548E-2,-8.013107E-3,5.29032E-2,1.2657714E-1,1.9220121E-1,2.79597E-1,-9.051967E-3,-5.856857E-3,-2.9418378E-3,-5.0240285E-3,-2.9207407E-3,-1.7950017E-3,-8.7853934E-4,2.6163438E-4,1.329517E-3,3.2141497E-3,3.4222335E-3,5.246135E-3,5.4430836E-3,7.2691343E-3,7.8005344E-3,1.07027115E-2],"categories":[],"categories_nodes":[],"categories_segments":[],"categories_sizes":[],"default_left":[0,0,0,0,0,0,0,0,0,0,0,0,0,0,0,0,0,0,0,0,0,0,0,0,0,0,0,0,0,0,0],"id":17,"left_children":[1,3,5,7,9,11,13,15,17,19,21,23,25,27,29,-1,-1,-1,-1,-1,-1,-1,-1,-1,-1,-1,-1,-1,-1,-1,-1],"loss_changes":[4.0201108E2,9.0355835E1,7.231267E1,1.5728516E1,1.3638283E1,9.010258E0,9.076233E0,6.49675E0,5.4105835E0,1.8324146E0,2.4285576E0,2.8192425E0,1.3326645E0,1.8429871E0,2.5754547E0,0E0,0E0,0E0,0E0,0E0,0E0,0E0,0E0,0E0,0E0,0E0,0E0,0E0,0E0,0E0,0E0],"parents":[2147483647,0,0,1,1,2,2,3,3,4,4,5,5,6,6,7,7,8,8,9,9,10,10,11,11,12,12,13,13,14,14],"right_children":[2,4,6,8,10,12,14,16,18,20,22,24,26,28,30,-1,-1,-1,-1,-1,-1,-1,-1,-1,-1,-1,-1,-1,-1,-1,-1],"split_conditions":[9.833336E-1,7.000019E-1,1.2094287E0,4.3333682E-1,8.3335465E-1,1.1333346E0,1.4000037E0,2E0,5.1667017E-1,7.6668024E-1,9.1666794E-1,6E0,6E0,1E1,1.7E1,-9.051967E-3,-5.856857E-3,-2.9418378E-3,-5.0240285E-3,-2.9207407E-3,-1.7950017E-3,-8.7853934E-4,2.6163438E-4,1.329517E-3,3.2141497E-3,3.4222335E-3,5.246135E-3,5.4430836E-3,7.2691343E-3,7.8005344E-3,1.07027115E-2],"split_indices":[112,112,112,112,108,108,108,11,0,112,108,103,75,111,83,0,0,0,0,0,0,0,0,0,0,0,0,0,0,0,0],"split_type":[0,0,0,0,0,0,0,0,0,0,0,0,0,0,0,0,0,0,0,0,0,0,0,0,0,0,0,0,0,0,0],"sum_hessian":[3.3689E4,1.9924E4,1.3765E4,7.658E3,1.2266E4,8.383E3,5.382E3,2.34E3,5.318E3,5.451E3,6.815E3,6.096E3,2.287E3,3.576E3,1.806E3,1.084E3,1.256E3,1.637E3,3.681E3,2.218E3,3.233E3,3.003E3,3.812E3,5.266E3,8.3E2,1.821E3,4.66E2,2.949E3,6.27E2,1.445E3,3.61E2],"tree_param":{"num_deleted":"0","num_feature":"120","num_nodes":"31","size_leaf_vector":"1"}},{"base_weights":[5.8129604E-4,-8.7492056E-2,1.3194105E-1,-1.5890159E-1,-2.5364943E-2,7.737708E-2,2.2486304E-1,-2.2956969E-1,-1.2474259E-1,-5.1023547E-2,3.769147E-3,4.8531774E-2,1.1761576E-1,1.9389413E-1,2.7981162E-1,-9.701797E-3,-6.1762393E-3,-4.49396E-3,-3.0592438E-3,-1.6675234E-3,1.6866839E-3,-4.0872063E-4,5.278099E-4,1.28432E-3,2.9975635E-3,3.0978953E-3,4.721258E-3,5.393725E-3,6.938572E-3,7.3791035E-3,9.556951E-3],"categories":[],"categories_nodes":[],"categories_segments":[],"categories_sizes":[],"default_left":[0,0,0,0,0,0,0,0,0,0,0,0,0,0,0,0,0,0,0,0,0,0,0,0,0,0,0,0,0,0,0],"id":18,"left_children":[1,3,5,7,9,11,13,15,17,19,21,23,25,27,29,-1,-1,-1,-1,-1,-1,-1,-1,-1,-1,-1,-1,-1,-1,-1,-1],"loss_changes":[3.9206467E2,8.997575E1,6.891713E1,2.271637E1,8.115728E0,9.927166E0,8.45961E0,6.7122345E0,3.5905914E0,2.8256817E0,1.2221336E0,1.4502249E0,1.998909E0,1.6164246E0,2.2389526E0,0E0,0E0,0E0,0E0,0E0,0E0,0E0,0E0,0E0,0E0,0E0,0E0,0E0,0E0,0E0,0E0],"parents":[2147483647,0,0,1,1,2,2,3,3,4,4,5,5,6,6,7,7,8,8,9,9,10,10,11,11,12,12,13,13,14,14],"right_children":[2,4,6,8,10,12,14,16,18,20,22,24,26,28,30,-1,-1,-1,-1,-1,-1,-1,-1,-1,-1,-1,-1,-1,-1,-1,-1],"split_conditions":[9.833493E-1,7.5000435E-1,1.2255952E0,4.833356E-1,8.833383E-1,1.0860147E0,1.4000037E0,2.6674184E-1,6.50002E-1,9E0,9.1666704E-1,7E0,5E0,6E0,1.4833425E0,-9.701797E-3,-6.1762393E-3,-4.49396E-3,-3.0592438E-3,-1.6675234E-3,1.6866839E-3,-4.0872063E-4,5.278099E-4,1.28432E-3,2.9975635E-3,3.0978953E-3,4.721258E-3,5.393725E-3,6.938572E-3,7.3791035E-3,9.556951E-3],"split_indices":[116,116,116,116,104,112,108,104,104,39,116,103,23,71,116,0,0,0,0,0,0,0,0,0,0,0,0,0,0,0,0],"split_type":[0,0,0,0,0,0,0,0,0,0,0,0,0,0,0,0,0,0,0,0,0,0,0,0,0,0,0,0,0,0,0],"sum_hessian":[3.3886E4,2.0285E4,1.3601E4,9.436E3,1.0849E4,8.571E3,5.03E3,3.072E3,6.364E3,5.77E3,5.079E3,4.995E3,3.576E3,3.221E3,1.809E3,6.16E2,2.456E3,3.025E3,3.339E3,5.536E3,2.34E2,2.246E3,2.833E3,4.498E3,4.97E2,2.632E3,9.44E2,2.345E3,8.76E2,9.71E2,8.38E2],"tree_param":{"num_deleted":"0","num_feature":"120","num_nodes":"31","size_leaf_vector":"1"}},{"base_weights":[-3.7551738E-4,-9.0447694E-2,1.194154E-1,-1.5922624E-1,-3.362363E-2,6.2496714E-2,2.0512968E-1,-2.2648175E-1,-1.2812094E-1,-5.7101026E-2,-3.7172888E-3,4.2231515E-2,1.05295576E-1,1.7668547E-1,2.6941478E-1,-8.255533E-3,-5.5401423E-3,-4.4849864E-3,-3.050891E-3,-1.9844854E-3,-1.9550886E-5,-4.451168E-5,-3.3225536E-3,1.3361494E-3,-2.999379E-3,2.8886215E-3,5.0185034E-3,5.383299E-3,-1.4378297E-3,6.9743586E-3,9.498725E-3],"categories":[],"categories_nodes":[],"categories_segments":[],"categories_sizes":[],"default_left":[0,0,0,0,0,0,0,0,0,0,0,0,0,0,0,0,0,0,0,0,0,0,0,0,0,0,0,0,0,0,0],"id":19,"left_children":[1,3,5,7,9,11,13,15,17,19,21,23,25,27,29,-1,-1,-1,-1,-1,-1,-1,-1,-1,-1,-1,-1,-1,-1,-1,-1],"loss_changes":[3.6420776E2,7.5280045E1,7.063881E1,1.8169418E1,7.4032106E0,7.5334854E0,1.0476746E1,5.511093E0,3.3283005E0,3.0119934E0,1.0988469E0,1.9386816E0,1.518816E0,2.506363E0,2.9578857E0,0E0,0E0,0E0,0E0,0E0,0E0,0E0,0E0,0E0,0E0,0E0,0E0,0E0,0E0,0E0,0E0],"parents":[2147483647,0,0,1,1,2,2,3,3,4,4,5,5,6,6,7,7,8,8,9,9,10,10,11,11,12,12,13,13,14,14],"right_children":[2,4,6,8,10,12,14,16,18,20,22,24,26,28,30,-1,-1,-1,-1,-1,-1,-1,-1,-1,-1,-1,-1,-1,-1,-1,-1],"split_conditions":[9.666716E-1,7.333363E-1,1.200001E0,4.6601975E-1,8.678539E-1,1.1000005E0,1.4000034E0,2E0,6.500318E-1,5E0,1.3000077E0,1.4004958E0,8E0,1.7923074E0,1.4833425E0,-8.255533E-3,-5.5401423E-3,-4.4849864E-3,-3.050891E-3,-1.9844854E-3,-1.9550886E-5,-4.451168E-5,-3.3225536E-3,1.3361494E-3,-2.999379E-3,2.8886215E-3,5.0185034E-3,5.383299E-3,-1.4378297E-3,6.9743586E-3,9.498725E-3],"split_indices":[116,116,116,116,84,116,96,3,96,119,4,0,95,4,116,0,0,0,0,0,0,0,0,0,0,0,0,0,0,0,0],"split_type":[0,0,0,0,0,0,0,0,0,0,0,0,0,0,0,0,0,0,0,0,0,0,0,0,0,0,0,0,0,0,0],"sum_hessian":[3.3753E4,1.9267E4,1.4486E4,8.715E3,1.0552E4,8.707E3,5.779E3,2.753E3,5.962E3,5.909E3,4.643E3,5.912E3,2.795E3,4.01E3,1.769E3,1.268E3,1.485E3,3.291E3,2.671E3,5.091E3,8.18E2,4.55E3,9.3E1,5.819E3,9.3E1,2.444E3,3.51E2,3.962E3,4.8E1,9.97E2,7.72E2],"tree_param":{"num_deleted":"0","num_feature":"120","num_nodes":"31","size_leaf_vector":"1"}},{"base_weights":[-1.9961389E-4,-1.0275518E-1,9.947837E-2,-1.8170625E-1,-5.898439E-2,4.308324E-2,1.8998425E-1,-2.9628003E-1,-1.6626775E-1,-8.9815676E-2,-2.967469E-2,1.8464584E-2,7.5235605E-2,1.5034238E-1,2.3457891E-1,-1.1224296E-2,-5.673883E-3,-3.8523807E-3,-5.970357E-3,-2.932469E-3,-1.2344021E-3,-1.4063978E-3,-2.460392E-4,3.816885E-4,2.440848E-3,1.8197207E-3,2.9614277E-3,4.1477596E-3,6.083551E-3,6.1716493E-3,8.280358E-3],"categories":[],"categories_nodes":[],"categories_segments":[],"categories_sizes":[],"default_left":[0,0,0,0,0,0,0,0,0,0,0,0,0,0,0,0,0,0,0,0,0,0,0,0,0,0,0,0,0,0,0],"id":20,"left_children":[1,3,5,7,9,11,13,15,17,19,21,23,25,27,29,-1,-1,-1,-1,-1,-1,-1,-1,-1,-1,-1,-1,-1,-1,-1,-1],"loss_changes":[3.4483698E2,5.742398E1,8.72791E1,1.0391983E1,9.653599E0,8.332949E0,1.1533722E1,5.729759E0,6.421982E0,1.9944649E0,2.021675E0,2.146595E0,1.5419426E0,2.143135E0,3.5859985E0,0E0,0E0,0E0,0E0,0E0,0E0,0E0,0E0,0E0,0E0,0E0,0E0,0E0,0E0,0E0,0E0],"parents":[2147483647,0,0,1,1,2,2,3,3,4,4,5,5,6,6,7,7,8,8,9,9,10,10,11,11,12,12,13,13,14,14],"right_children":[2,4,6,8,10,12,14,16,18,20,22,24,26,28,30,-1,-1,-1,-1,-1,-1,-1,-1,-1,-1,-1,-1,-1,-1,-1,-1],"split_conditions":[9.1666704E-1,6.333754E-1,1.1666707E0,2.6696792E-1,7.98998E-1,1.0333338E0,1.3166709E0,2E0,5.2275616E-1,5E0,8.678539E-1,8E0,1.1166708E0,8E0,6E0,-1.1224296E-2,-5.673883E-3,-3.8523807E-3,-5.970357E-3,-2.932469E-3,-1.2344021E-3,-1.4063978E-3,-2.460392E-4,3.816885E-4,2.440848E-3,1.8197207E-3,2.9614277E-3,4.1477596E-3,6.083551E-3,6.1716493E-3,8.280358E-3],"split_indices":[116,116,116,80,112,112,112,71,0,119,84,119,112,83,119,0,0,0,0,0,0,0,0,0,0,0,0,0,0,0,0],"split_type":[0,0,0,0,0,0,0,0,0,0,0,0,0,0,0,0,0,0,0,0,0,0,0,0,0,0,0,0,0,0,0],"sum_hessian":[3.3731E4,1.6626E4,1.7105E4,5.928E3,1.0698E4,1.054E4,6.565E3,7.01E2,5.227E3,5.211E3,5.487E3,5.972E3,4.568E3,3.479E3,3.086E3,4.04E2,2.97E2,2.428E3,2.799E3,4.478E3,7.33E2,3.043E3,2.444E3,5.475E3,4.97E2,2.823E3,1.745E3,2.832E3,6.47E2,1.824E3,1.262E3],"tree_param":{"num_deleted":"0","num_feature":"120","num_nodes":"31","size_leaf_vector":"1"}},{"base_weights":[8.351469E-5,-8.510202E-2,1.1304184E-1,-1.7075928E-1,-4.4387378E-2,6.713771E-2,2.033346E-1,-2.890881E-1,-1.5520732E-1,-7.5340934E-2,-1.1374502E-2,4.0562112E-2,1.086247E-1,1.760557E-1,2.5084886E-1,-1.01573765E-2,-4.347262E-3,-3.6168408E-3,-5.496581E-3,-2.931448E-3,-1.6925852E-3,-4.5419385E-4,1.8564969E-3,8.377371E-4,1.92257E-3,2.9404105E-3,4.530506E-3,4.9444204E-3,6.7544747E-3,7.851163E-3,3.0049023E-3],"categories":[],"categories_nodes":[],"categories_segments":[],"categories_sizes":[],"default_left":[0,0,0,0,0,0,0,0,0,0,0,0,0,0,0,0,0,0,0,0,0,0,0,0,0,0,0,0,0,0,0],"id":21,"left_children":[1,3,5,7,9,11,13,15,17,19,21,23,25,27,29,-1,-1,-1,-1,-1,-1,-1,-1,-1,-1,-1,-1,-1,-1,-1,-1],"loss_changes":[3.2520197E2,6.716118E1,6.0183395E1,1.1331253E1,1.3337063E1,1.0603664E1,6.259018E0,5.033081E0,5.2736664E0,2.8320122E0,1.7403792E0,1.7358274E0,1.6516266E0,1.6430511E0,2.852829E0,0E0,0E0,0E0,0E0,0E0,0E0,0E0,0E0,0E0,0E0,0E0,0E0,0E0,0E0,0E0,0E0],"parents":[2147483647,0,0,1,1,2,2,3,3,4,4,5,5,6,6,7,7,8,8,9,9,10,10,11,11,12,12,13,13,14,14],"right_children":[2,4,6,8,10,12,14,16,18,20,22,24,26,28,30,-1,-1,-1,-1,-1,-1,-1,-1,-1,-1,-1,-1,-1,-1,-1,-1],"split_conditions":[9.666716E-1,6.500068E-1,1.2333412E0,2.7652606E-1,8.333376E-1,1.1000005E0,1.4000037E0,3E0,5.1667017E-1,7.5000507E-1,9E0,1.0500019E0,6E0,1E1,1.7585168E0,-1.01573765E-2,-4.347262E-3,-3.6168408E-3,-5.496581E-3,-2.931448E-3,-1.6925852E-3,-4.5419385E-4,1.8564969E-3,8.377371E-4,1.92257E-3,2.9404105E-3,4.530506E-3,4.9444204E-3,6.7544747E-3,7.851163E-3,3.0049023E-3],"split_indices":[116,116,116,88,116,116,108,71,0,108,87,108,27,119,8,0,0,0,0,0,0,0,0,0,0,0,0,0,0,0,0],"split_type":[0,0,0,0,0,0,0,0,0,0,0,0,0,0,0,0,0,0,0,0,0,0,0,0,0,0,0,0,0,0,0],"sum_hessian":[3.3794E4,1.9265E4,1.4529E4,6.205E3,1.306E4,9.634E3,4.895E3,7.18E2,5.487E3,6.738E3,6.322E3,5.875E3,3.759E3,3.114E3,1.781E3,5.33E2,1.85E2,2.457E3,3.03E3,3.083E3,3.655E3,6.015E3,3.07E2,3.826E3,2.049E3,3.011E3,7.48E2,2.539E3,5.75E2,1.66E3,1.21E2],"tree_param":{"num_deleted":"0","num_feature":"120","num_nodes":"31","size_leaf_vector":"1"}},{"base_weights":[1.2788897E-3,-7.728297E-2,1.1732603E-1,-1.449311E-1,-2.5841014E-2,7.271656E-2,2.0362273E-1,-2.0943902E-1,-1.1498124E-1,-5.53473E-2,-2.2542023E-3,5.0690584E-2,1.1950672E-1,1.7430201E-1,2.5163552E-1,-7.7046677E-3,-5.079279E-3,-1.9238259E-3,-3.7944668E-3,-1.8640875E-3,3.9242784E-4,-3.967458E-4,7.019464E-4,1.3400667E-3,3.330479E-3,3.3040473E-3,5.380793E-3,4.785147E-3,6.37333E-3,7.884295E-3,3.2236471E-3],"categories":[],"categories_nodes":[],"categories_segments":[],"categories_sizes":[],"default_left":[0,0,0,0,0,0,0,0,0,0,0,0,0,0,0,0,0,0,0,0,0,0,0,0,0,0,0,0,0,0,0],"id":22,"left_children":[1,3,5,7,9,11,13,15,17,19,21,23,25,27,29,-1,-1,-1,-1,-1,-1,-1,-1,-1,-1,-1,-1,-1,-1,-1,-1],"loss_changes":[3.0851004E2,7.0197655E1,5.2547623E1,1.6780884E1,7.9725914E0,9.260555E0,6.4653015E0,5.1638794E0,3.4557114E0,2.3707714E0,1.7930878E0,2.205536E0,1.5673409E0,1.5622864E0,2.7719269E0,0E0,0E0,0E0,0E0,0E0,0E0,0E0,0E0,0E0,0E0,0E0,0E0,0E0,0E0,0E0,0E0],"parents":[2147483647,0,0,1,1,2,2,3,3,4,4,5,5,6,6,7,7,8,8,9,9,10,10,11,11,12,12,13,13,14,14],"right_children":[2,4,6,8,10,12,14,16,18,20,22,24,26,28,30,-1,-1,-1,-1,-1,-1,-1,-1,-1,-1,-1,-1,-1,-1,-1,-1],"split_conditions":[9.833493E-1,7.333363E-1,1.2464597E0,4.6601975E-1,8.5001564E-1,1.1333511E0,1.400004E0,2E0,4.6630037E-1,6E0,9.667291E-1,8E0,9E0,6E0,1.7166959E0,-7.7046677E-3,-5.079279E-3,-1.9238259E-3,-3.7944668E-3,-1.8640875E-3,3.9242784E-4,-3.967458E-4,7.019464E-4,1.3400667E-3,3.330479E-3,3.3040473E-3,5.380793E-3,4.785147E-3,6.37333E-3,7.884295E-3,3.2236471E-3],"split_indices":[116,116,116,116,112,112,112,3,0,27,112,119,111,71,12,0,0,0,0,0,0,0,0,0,0,0,0,0,0,0,0],"split_type":[0,0,0,0,0,0,0,0,0,0,0,0,0,0,0,0,0,0,0,0,0,0,0,0,0,0,0,0,0,0,0],"sum_hessian":[3.3837E4,2.0177E4,1.366E4,8.714E3,1.1463E4,9.007E3,4.653E3,2.76E3,5.954E3,5.09E3,6.373E3,6.127E3,2.88E3,2.893E3,1.76E3,1.262E3,1.498E3,1.101E3,4.853E3,4.632E3,4.58E2,4.467E3,1.906E3,5.574E3,5.53E2,2.494E3,3.86E2,2.09E3,8.03E2,1.632E3,1.28E2],"tree_param":{"num_deleted":"0","num_feature":"120","num_nodes":"31","size_leaf_vector":"1"}},{"base_weights":[-4.3073914E-4,-8.763569E-2,9.730232E-2,-1.6962713E-1,-5.3188544E-2,4.359621E-2,1.7405252E-1,-2.7946055E-1,-1.5471734E-1,-8.52252E-2,-2.4406817E-2,2.2245301E-2,7.408245E-2,1.3334374E-1,2.1177563E-1,-1.094896E-2,-5.064522E-3,-3.355397E-3,-5.9477286E-3,-3.149346E-3,-2.0518263E-3,-1.3371437E-3,-1.0516522E-4,7.125166E-4,-4.2307465E-3,2.0513614E-3,4.2096684E-3,3.670295E-3,5.4829586E-3,5.6209723E-3,7.4906847E-3],"categories":[],"categories_nodes":[],"categories_segments":[],"categories_sizes":[],"default_left":[0,0,0,0,0,0,0,0,0,0,0,0,0,0,0,0,0,0,0,0,0,0,0,0,0,0,0,0,0,0,0],"id":23,"left_children":[1,3,5,7,9,11,13,15,17,19,21,23,25,27,29,-1,-1,-1,-1,-1,-1,-1,-1,-1,-1,-1,-1,-1,-1,-1,-1],"loss_changes":[2.8833408E2,5.0465622E1,6.5724075E1,8.572937E0,1.1597668E1,6.0988007E0,1.0020401E1,5.8451385E0,8.643333E0,1.9559631E0,2.7918942E0,1.3492172E0,1.429409E0,1.6661987E0,3.0607452E0,0E0,0E0,0E0,0E0,0E0,0E0,0E0,0E0,0E0,0E0,0E0,0E0,0E0,0E0,0E0,0E0],"parents":[2147483647,0,0,1,1,2,2,3,3,4,4,5,5,6,6,7,7,8,8,9,9,10,10,11,11,12,12,13,13,14,14],"right_children":[2,4,6,8,10,12,14,16,18,20,22,24,26,28,30,-1,-1,-1,-1,-1,-1,-1,-1,-1,-1,-1,-1,-1,-1,-1,-1],"split_conditions":[9.3334955E-1,6.166675E-1,1.1666707E0,2.6674184E-1,7.98998E-1,1.0500025E0,1.3000218E0,4.1342247E-1,5.1667017E-1,7.108058E-1,8.678539E-1,1.4173524E0,9E0,8E0,6E0,-1.094896E-2,-5.064522E-3,-3.355397E-3,-5.9477286E-3,-3.149346E-3,-2.0518263E-3,-1.3371437E-3,-1.0516522E-4,7.125166E-4,-4.2307465E-3,2.0513614E-3,4.2096684E-3,3.670295E-3,5.4829586E-3,5.6209723E-3,7.4906847E-3],"split_indices":[116,116,116,104,112,112,116,0,0,104,84,4,99,83,119,0,0,0,0,0,0,0,0,0,0,0,0,0,0,0,0],"split_type":[0,0,0,0,0,0,0,0,0,0,0,0,0,0,0,0,0,0,0,0,0,0,0,0,0,0,0,0,0,0,0],"sum_hessian":[3.3829E4,1.7878E4,1.5951E4,5.287E3,1.2591E4,9.386E3,6.565E3,6.29E2,4.658E3,5.956E3,6.635E3,5.523E3,3.863E3,3.161E3,3.404E3,3.53E2,2.76E2,2.35E3,2.308E3,2.735E3,3.221E3,3.374E3,3.261E3,5.474E3,4.9E1,3.56E3,3.03E2,2.59E3,5.71E2,2.076E3,1.328E3],"tree_param":{"num_deleted":"0","num_feature":"120","num_nodes":"31","size_leaf_vector":"1"}},{"base_weights":[6.4982136E-4,-9.125316E-2,8.9477524E-2,-1.6312455E-1,-5.3047054E-2,3.8037162E-2,1.7099029E-1,-2.745216E-1,-1.4903724E-1,-7.9211414E-2,-2.5111614E-2,1.8674543E-2,7.0405655E-2,1.3334323E-1,2.1147764E-1,-1.0684029E-2,-4.9246834E-3,-3.3665127E-3,-5.5702296E-3,-2.5650107E-3,-5.316862E-4,-7.1757333E-4,-7.80803E-3,4.1186757E-4,2.244626E-3,2.2066266E-3,-8.943956E-4,3.654034E-3,5.483786E-3,5.7899915E-3,7.7696806E-3],"categories":[],"categories_nodes":[],"categories_segments":[],"categories_sizes":[],"default_left":[0,0,0,0,0,0,0,0,0,0,0,0,0,0,0,0,0,0,0,0,0,0,0,0,0,0,0,0,0,0,0],"id":24,"left_children":[1,3,5,7,9,11,13,15,17,19,21,23,25,27,29,-1,-1,-1,-1,-1,-1,-1,-1,-1,-1,-1,-1,-1,-1,-1,-1],"loss_changes":[2.7629453E2,4.5645477E1,7.2139114E1,8.97464E0,7.92749E0,6.6043777E0,1.0085632E1,5.7081795E0,6.865608E0,2.1563797E0,1.4395447E0,1.8247402E0,1.2523403E0,1.9186592E0,2.7185364E0,0E0,0E0,0E0,0E0,0E0,0E0,0E0,0E0,0E0,0E0,0E0,0E0,0E0,0E0,0E0,0E0],"parents":[2147483647,0,0,1,1,2,2,3,3,4,4,5,5,6,6,7,7,8,8,9,9,10,10,11,11,12,12,13,13,14,14],"right_children":[2,4,6,8,10,12,14,16,18,20,22,24,26,28,30,-1,-1,-1,-1,-1,-1,-1,-1,-1,-1,-1,-1,-1,-1,-1,-1],"split_conditions":[9.1666704E-1,6.3333666E-1,1.1666707E0,2.6860836E-1,8.0000675E-1,1.0500025E0,1.3166708E0,2E0,5.3333765E-1,6E0,1.4523511E0,8E0,1.3865958E0,8E0,1.4833465E0,-1.0684029E-2,-4.9246834E-3,-3.3665127E-3,-5.5702296E-3,-2.5650107E-3,-5.316862E-4,-7.1757333E-4,-7.80803E-3,4.1186757E-4,2.244626E-3,2.2066266E-3,-8.943956E-4,3.654034E-3,5.483786E-3,5.7899915E-3,7.7696806E-3],"split_indices":[116,112,116,108,108,112,116,11,0,27,8,119,8,83,112,0,0,0,0,0,0,0,0,0,0,0,0,0,0,0,0],"split_type":[0,0,0,0,0,0,0,0,0,0,0,0,0,0,0,0,0,0,0,0,0,0,0,0,0,0,0,0,0,0,0],"sum_hessian":[3.3843E4,1.6633E4,1.721E4,5.771E3,1.0862E4,1.0553E4,6.657E3,6.45E2,5.126E3,5.606E3,5.256E3,6.606E3,3.947E3,3.453E3,3.204E3,3.69E2,2.76E2,2.56E3,2.566E3,5.084E3,5.22E2,5.231E3,2.5E1,6.074E3,5.32E2,3.828E3,1.19E2,2.804E3,6.49E2,2.312E3,8.92E2],"tree_param":{"num_deleted":"0","num_feature":"120","num_nodes":"31","size_leaf_vector":"1"}},{"base_weights":[2.7920524E-4,-7.0817016E-2,1.0628018E-1,-1.3323428E-1,-2.3739917E-2,5.7703763E-2,1.7430054E-1,-1.9181764E-1,-1.0436555E-1,-4.3592673E-2,5.6888987E-3,3.6778163E-2,9.0290956E-2,1.4971498E-1,2.2756018E-1,-6.866074E-3,-4.384854E-3,-3.3151144E-3,-1.0066428E-3,-1.7158954E-3,-5.4221414E-4,-4.5605077E-5,1.131138E-3,1.1972041E-3,-1.8668146E-3,2.4438961E-3,4.4405125E-3,4.2006685E-3,5.8599045E-3,7.1087335E-3,2.735578E-3],"categories":[],"categories_nodes":[],"categories_segments":[],"categories_sizes":[],"default_left":[0,0,0,0,0,0,0,0,0,0,0,0,0,0,0,0,0,0,0,0,0,0,0,0,0,0,0,0,0,0,0],"id":25,"left_children":[1,3,5,7,9,11,13,15,17,19,21,23,25,27,29,-1,-1,-1,-1,-1,-1,-1,-1,-1,-1,-1,-1,-1,-1,-1,-1],"loss_changes":[2.5432248E2,5.933142E1,4.4731842E1,1.46353E1,6.7321825E0,5.375124E0,7.3172455E0,4.773834E0,2.5115776E0,2.3795156E0,1.0741417E0,1.4926362E0,1.5391235E0,1.6479645E0,2.225525E0,0E0,0E0,0E0,0E0,0E0,0E0,0E0,0E0,0E0,0E0,0E0,0E0,0E0,0E0,0E0,0E0],"parents":[2147483647,0,0,1,1,2,2,3,3,4,4,5,5,6,6,7,7,8,8,9,9,10,10,11,11,12,12,13,13,14,14],"right_children":[2,4,6,8,10,12,14,16,18,20,22,24,26,28,30,-1,-1,-1,-1,-1,-1,-1,-1,-1,-1,-1,-1,-1,-1,-1,-1],"split_conditions":[9.833493E-1,7.333363E-1,1.2000186E0,4.6667498E-1,9.000015E-1,1.1000005E0,1.4000034E0,2E0,7.6667136E-1,8.5005534E-1,1.0000025E0,1.3166887E0,8E0,1E1,1.77041E0,-6.866074E-3,-4.384854E-3,-3.3151144E-3,-1.0066428E-3,-1.7158954E-3,-5.4221414E-4,-4.5605077E-5,1.131138E-3,1.1972041E-3,-1.8668146E-3,2.4438961E-3,4.4405125E-3,4.2006685E-3,5.8599045E-3,7.1087335E-3,2.735578E-3],"split_indices":[116,116,112,112,112,116,96,115,108,76,108,8,83,119,20,0,0,0,0,0,0,0,0,0,0,0,0,0,0,0,0],"split_type":[0,0,0,0,0,0,0,0,0,0,0,0,0,0,0,0,0,0,0,0,0,0,0,0,0,0,0,0,0,0,0],"sum_hessian":[3.3744E4,2.0197E4,1.3547E4,8.682E3,1.1515E4,7.905E3,5.642E3,2.863E3,5.819E3,6.878E3,4.637E3,4.817E3,3.088E3,3.864E3,1.778E3,1.577E3,1.286E3,5.353E3,4.66E2,4.483E3,2.395E3,3.783E3,8.54E2,4.671E3,1.46E2,2.682E3,4.06E2,3.192E3,6.72E2,1.662E3,1.16E2],"tree_param":{"num_deleted":"0","num_feature":"120","num_nodes":"31","size_leaf_vector":"1"}},{"base_weights":[1.8437889E-4,-8.888004E-2,7.9660386E-2,-1.5489274E-1,-5.5374086E-2,3.5731383E-2,1.6195758E-1,-2.5265872E-1,-1.4175361E-1,-8.3055735E-2,-3.344952E-2,1.24051375E-2,6.350026E-2,1.2781905E-1,1.962433E-1,-9.007887E-3,-3.1451748E-3,-3.1383412E-3,-5.4036127E-3,-2.7292606E-3,-9.679797E-4,-1.4216264E-3,-2.9102285E-4,6.4159176E-5,1.0182406E-3,1.6657709E-3,3.2094175E-3,3.4890904E-3,5.218293E-3,5.375194E-3,7.4943616E-3],"categories":[],"categories_nodes":[],"categories_segments":[],"categories_sizes":[],"default_left":[0,0,0,0,0,0,0,0,0,0,0,0,0,0,0,0,0,0,0,0,0,0,0,0,0,0,0,0,0,0,0],"id":26,"left_children":[1,3,5,7,9,11,13,15,17,19,21,23,25,27,29,-1,-1,-1,-1,-1,-1,-1,-1,-1,-1,-1,-1,-1,-1,-1,-1],"loss_changes":[2.3874222E2,3.514715E1,6.441236E1,6.800995E0,6.3896637E0,7.5203466E0,7.201721E0,4.37529E0,6.681671E0,1.8595619E0,1.9441481E0,1.3936809E0,1.8168983E0,1.6037331E0,2.7388382E0,0E0,0E0,0E0,0E0,0E0,0E0,0E0,0E0,0E0,0E0,0E0,0E0,0E0,0E0,0E0,0E0],"parents":[2147483647,0,0,1,1,2,2,3,3,4,4,5,5,6,6,7,7,8,8,9,9,10,10,11,11,12,12,13,13,14,14],"right_children":[2,4,6,8,10,12,14,16,18,20,22,24,26,28,30,-1,-1,-1,-1,-1,-1,-1,-1,-1,-1,-1,-1,-1,-1,-1,-1],"split_conditions":[9.000025E-1,6.166701E-1,1.1833377E0,2.6674184E-1,7.666738E-1,1.0240186E0,1.3166709E0,3E0,5.166791E-1,5E0,8.678539E-1,1.0000029E0,6E0,8E0,1.5000092E0,-9.007887E-3,-3.1451748E-3,-3.1383412E-3,-5.4036127E-3,-2.7292606E-3,-9.679797E-4,-1.4216264E-3,-2.9102285E-4,6.4159176E-5,1.0182406E-3,1.6657709E-3,3.2094175E-3,3.4890904E-3,5.218293E-3,5.375194E-3,7.4943616E-3],"split_indices":[116,112,116,104,100,116,112,75,4,11,84,112,99,71,116,0,0,0,0,0,0,0,0,0,0,0,0,0,0,0,0],"split_type":[0,0,0,0,0,0,0,0,0,0,0,0,0,0,0,0,0,0,0,0,0,0,0,0,0,0,0,0,0,0,0],"sum_hessian":[3.3726E4,1.5903E4,1.7823E4,5.352E3,1.0551E4,1.1622E4,6.201E3,6.31E2,4.721E3,4.66E3,5.891E3,6.319E3,5.303E3,3.111E3,3.09E3,4.76E2,1.55E2,2.402E3,2.319E3,4.029E3,6.31E2,3.709E3,2.182E3,4.283E3,2.036E3,4.485E3,8.18E2,2.494E3,6.17E2,2.348E3,7.42E2],"tree_param":{"num_deleted":"0","num_feature":"120","num_nodes":"31","size_leaf_vector":"1"}},{"base_weights":[-4.0554383E-4,-6.868089E-2,9.785411E-2,-1.3065702E-1,-2.589619E-2,5.8091104E-2,1.7220709E-1,-1.9765443E-1,-1.1108219E-1,-5.7669893E-2,-5.0658905E-3,3.5429846E-2,9.1492996E-2,1.4676747E-1,2.1675618E-1,-7.701254E-3,-4.289236E-3,-2.071207E-3,-3.784599E-3,-1.9827601E-3,-7.0838036E-4,-2.9417418E-4,2.1845126E-3,9.1177854E-4,2.8723148E-3,1.9603642E-3,3.1890199E-3,4.082893E-3,5.7292925E-3,6.784348E-3,2.5928903E-3],"categories":[],"categories_nodes":[],"categories_segments":[],"categories_sizes":[],"default_left":[0,0,0,0,0,0,0,0,0,0,0,0,0,0,0,0,0,0,0,0,0,0,0,0,0,0,0,0,0,0,0],"id":27,"left_children":[1,3,5,7,9,11,13,15,17,19,21,23,25,27,29,-1,-1,-1,-1,-1,-1,-1,-1,-1,-1,-1,-1,-1,-1,-1,-1],"loss_changes":[2.2675827E2,5.2865067E1,4.0935165E1,1.0627716E1,7.803993E0,6.819889E0,5.4023285E0,5.8615875E0,3.9673767E0,1.3292694E0,2.6268835E0,1.6202188E0,1.3883343E0,1.3928909E0,2.091713E0,0E0,0E0,0E0,0E0,0E0,0E0,0E0,0E0,0E0,0E0,0E0,0E0,0E0,0E0,0E0,0E0],"parents":[2147483647,0,0,1,1,2,2,3,3,4,4,5,5,6,6,7,7,8,8,9,9,10,10,11,11,12,12,13,13,14,14],"right_children":[2,4,6,8,10,12,14,16,18,20,22,24,26,28,30,-1,-1,-1,-1,-1,-1,-1,-1,-1,-1,-1,-1,-1,-1,-1,-1],"split_conditions":[9.806527E-1,7.1667E-1,1.2333412E0,4.0000197E-1,8.333376E-1,1.097413E0,1.4000037E0,2E0,4.8333478E-1,4E0,1E1,8E0,1.1131488E0,1E1,1.7514577E0,-7.701254E-3,-4.289236E-3,-2.071207E-3,-3.784599E-3,-1.9827601E-3,-7.0838036E-4,-2.9417418E-4,2.1845126E-3,9.1177854E-4,2.8723148E-3,1.9603642E-3,3.1890199E-3,4.082893E-3,5.7292925E-3,6.784348E-3,2.5928903E-3],"split_indices":[108,116,116,116,116,104,104,11,0,115,119,103,116,115,24,0,0,0,0,0,0,0,0,0,0,0,0,0,0,0,0],"split_type":[0,0,0,0,0,0,0,0,0,0,0,0,0,0,0,0,0,0,0,0,0,0,0,0,0,0,0,0,0,0,0],"sum_hessian":[3.3799E4,1.9943E4,1.3856E4,8.143E3,1.18E4,9.03E3,4.826E3,1.838E3,6.305E3,4.67E3,7.13E3,5.383E3,3.647E3,3.076E3,1.75E3,8.81E2,9.57E2,1.667E3,4.638E3,3.741E3,9.29E2,6.723E3,4.07E2,4.971E3,4.12E2,1.323E3,2.324E3,2.483E3,5.93E2,1.631E3,1.19E2],"tree_param":{"num_deleted":"0","num_feature":"120","num_nodes":"31","size_leaf_vector":"1"}},{"base_weights":[-5.831982E-4,-7.495324E-2,8.583506E-2,-1.5082192E-1,-4.3877754E-2,3.936477E-2,1.4958757E-1,-2.0044158E-1,-1.2415744E-1,-7.251659E-2,-1.8364275E-2,2.52173E-2,7.030872E-2,1.2806629E-1,2.0423752E-1,-5.00493E-3,-8.736237E-3,-2.1583897E-3,-4.941931E-3,-2.346575E-3,-6.7071925E-4,-7.046089E-4,1.368114E-3,1.8861405E-4,1.0799388E-3,1.8929647E-3,4.1222367E-3,3.305389E-3,4.5546885E-3,6.4439275E-3,9.209814E-4],"categories":[],"categories_nodes":[],"categories_segments":[],"categories_sizes":[],"default_left":[0,0,0,0,0,0,0,0,0,0,0,0,0,0,0,0,0,0,0,0,0,0,0,0,0,0,0,0,0,0,0],"id":28,"left_children":[1,3,5,7,9,11,13,15,17,19,21,23,25,27,29,-1,-1,-1,-1,-1,-1,-1,-1,-1,-1,-1,-1,-1,-1,-1,-1],"loss_changes":[2.165479E2,4.267106E1,4.614434E1,6.9033966E0,9.378773E0,3.935687E0,7.6666718E0,5.506714E0,7.2220955E0,1.7192898E0,2.2268143E0,1.2590024E0,1.3384361E0,1.9614487E0,3.3646088E0,0E0,0E0,0E0,0E0,0E0,0E0,0E0,0E0,0E0,0E0,0E0,0E0,0E0,0E0,0E0,0E0],"parents":[2147483647,0,0,1,1,2,2,3,3,4,4,5,5,6,6,7,7,8,8,9,9,10,10,11,11,12,12,13,13,14,14],"right_children":[2,4,6,8,10,12,14,16,18,20,22,24,26,28,30,-1,-1,-1,-1,-1,-1,-1,-1,-1,-1,-1,-1,-1,-1,-1,-1],"split_conditions":[9.442473E-1,6.166675E-1,1.1666704E0,4.0000197E-1,8.000009E-1,1.0833371E0,1.400004E0,8.00093E2,5.1667017E-1,8.666695E-1,7E0,9.667291E-1,9E0,1.283338E0,1.7514577E0,-5.00493E-3,-8.736237E-3,-2.1583897E-3,-4.941931E-3,-2.346575E-3,-6.7071925E-4,-7.046089E-4,1.368114E-3,1.8861405E-4,1.0799388E-3,1.8929647E-3,4.1222367E-3,3.305389E-3,4.5546885E-3,6.4439275E-3,9.209814E-4],"split_indices":[116,116,112,116,116,116,112,9,0,76,115,112,111,116,24,0,0,0,0,0,0,0,0,0,0,0,0,0,0,0,0],"split_type":[0,0,0,0,0,0,0,0,0,0,0,0,0,0,0,0,0,0,0,0,0,0,0,0,0,0,0,0,0,0,0],"sum_hessian":[3.3692E4,1.8109E4,1.5583E4,5.26E3,1.2849E4,9.015E3,6.568E3,1.835E3,3.425E3,6.051E3,6.798E3,6.19E3,2.825E3,4.716E3,1.852E3,1.342E3,4.93E2,1.5E3,1.925E3,5.431E3,6.2E2,6.296E3,5.02E2,2.25E3,3.94E3,2.554E3,2.71E2,2.696E3,2.02E3,1.745E3,1.07E2],"tree_param":{"num_deleted":"0","num_feature":"120","num_nodes":"31","size_leaf_vector":"1"}},{"base_weights":[-3.254694E-4,-6.435012E-2,9.466004E-2,-1.23572126E-1,-2.426822E-2,5.5898525E-2,1.611898E-1,-1.9269988E-1,-1.0304622E-1,-5.0836656E-2,-4.618605E-3,3.848913E-2,9.3347475E-2,1.3726455E-1,2.0401923E-1,-4.0677227E-3,-7.4150255E-3,-1.7414227E-3,-3.5417047E-3,-1.6649623E-3,-7.047983E-5,-4.5224978E-4,4.7045035E-4,1.2479423E-3,-1.503812E-3,2.538457E-3,4.5574345E-3,4.1846433E-3,-1.9977E-3,6.416209E-3,1.4586747E-3],"categories":[],"categories_nodes":[],"categories_segments":[],"categories_sizes":[],"default_left":[0,0,0,0,0,0,0,0,0,0,0,0,0,0,0,0,0,0,0,0,0,0,0,0,0,0,0,0,0,0,0],"id":29,"left_children":[1,3,5,7,9,11,13,15,17,19,21,23,25,27,29,-1,-1,-1,-1,-1,-1,-1,-1,-1,-1,-1,-1,-1,-1,-1,-1],"loss_changes":[2.060657E2,4.8031273E1,3.515177E1,1.1541634E1,6.2975664E0,5.6051044E0,5.0829163E0,5.7388077E0,4.232277E0,1.1539593E0,1.4741622E0,1.6239452E0,1.3617191E0,1.4788742E0,2.7136383E0,0E0,0E0,0E0,0E0,0E0,0E0,0E0,0E0,0E0,0E0,0E0,0E0,0E0,0E0,0E0,0E0],"parents":[2147483647,0,0,1,1,2,2,3,3,4,4,5,5,6,6,7,7,8,8,9,9,10,10,11,11,12,12,13,13,14,14],"right_children":[2,4,6,8,10,12,14,16,18,20,22,24,26,28,30,-1,-1,-1,-1,-1,-1,-1,-1,-1,-1,-1,-1,-1,-1,-1,-1],"split_conditions":[9.833493E-1,7.166685E-1,1.2265364E0,3.946762E-1,8.3334976E-1,1.1333351E0,1.4000037E0,3.99875E2,4.66668E-1,6E0,9.5001537E-1,1.3023844E0,9E0,1.945665E0,1.77041E0,-4.0677227E-3,-7.4150255E-3,-1.7414227E-3,-3.5417047E-3,-1.6649623E-3,-7.047983E-5,-4.5224978E-4,4.7045035E-4,1.2479423E-3,-1.503812E-3,2.538457E-3,4.5574345E-3,4.1846433E-3,-1.9977E-3,6.416209E-3,1.4586747E-3],"split_indices":[116,112,112,112,116,116,104,1,4,23,112,12,31,4,20,0,0,0,0,0,0,0,0,0,0,0,0,0,0,0,0],"split_type":[0,0,0,0,0,0,0,0,0,0,0,0,0,0,0,0,0,0,0,0,0,0,0,0,0,0,0,0,0,0,0],"sum_hessian":[3.3883E4,2.0241E4,1.3642E4,8.168E3,1.2073E4,8.622E3,5.02E3,1.867E3,6.301E3,5.13E3,6.943E3,5.889E3,2.733E3,3.225E3,1.795E3,9.14E2,9.53E2,1.579E3,4.722E3,4.678E3,4.52E2,4.586E3,2.357E3,5.691E3,1.98E2,2.382E3,3.51E2,3.191E3,3.4E1,1.687E3,1.08E2],"tree_param":{"num_deleted":"0","num_feature":"120","num_nodes":"31","size_leaf_vector":"1"}},{"base_weights":[5.522104E-5,-7.5892046E-2,7.379956E-2,-1.3143873E-1,-4.272991E-2,3.138152E-2,1.423014E-1,-2.1692984E-1,-1.2027399E-1,-6.583766E-2,-2.1882733E-2,1.5495537E-2,6.2660456E-2,1.2079764E-1,1.98303E-1,-8.641338E-3,-3.625261E-3,-2.7955268E-3,-4.450157E-3,-2.1803388E-3,6.919414E-5,-8.542133E-4,6.297637E-4,1.464339E-4,9.516228E-4,1.6488598E-3,4.1364525E-3,3.366239E-3,5.0231754E-3,4.7721663E-3,6.8967505E-3],"categories":[],"categories_nodes":[],"categories_segments":[],"categories_sizes":[],"default_left":[0,0,0,0,0,0,0,0,0,0,0,0,0,0,0,0,0,0,0,0,0,0,0,0,0,0,0,0,0,0,0],"id":30,"left_children":[1,3,5,7,9,11,13,15,17,19,21,23,25,27,29,-1,-1,-1,-1,-1,-1,-1,-1,-1,-1,-1,-1,-1,-1,-1,-1],"loss_changes":[1.886363E2,3.05402E1,4.9633904E1,5.858963E0,4.9959393E0,5.236455E0,7.812668E0,4.803253E0,4.1343384E0,2.3033428E0,1.5462656E0,1.2024219E0,2.0306387E0,1.8462524E0,2.1675797E0,0E0,0E0,0E0,0E0,0E0,0E0,0E0,0E0,0E0,0E0,0E0,0E0,0E0,0E0,0E0,0E0],"parents":[2147483647,0,0,1,1,2,2,3,3,4,4,5,5,6,6,7,7,8,8,9,9,10,10,11,11,12,12,13,13,14,14],"right_children":[2,4,6,8,10,12,14,16,18,20,22,24,26,28,30,-1,-1,-1,-1,-1,-1,-1,-1,-1,-1,-1,-1,-1,-1,-1,-1],"split_conditions":[9.1666704E-1,6.50002E-1,1.1666707E0,2.6696792E-1,7.972386E-1,1.0666682E0,1.4000038E0,2E0,5.3336877E-1,6E0,5E0,3E0,9E0,1E1,5E0,-8.641338E-3,-3.625261E-3,-2.7955268E-3,-4.450157E-3,-2.1803388E-3,6.919414E-5,-8.542133E-4,6.297637E-4,1.464339E-4,9.516228E-4,1.6488598E-3,4.1364525E-3,3.366239E-3,5.0231754E-3,4.7721663E-3,6.8967505E-3],"split_indices":[116,104,104,80,100,116,116,71,12,19,115,119,111,119,99,0,0,0,0,0,0,0,0,0,0,0,0,0,0,0,0],"split_type":[0,0,0,0,0,0,0,0,0,0,0,0,0,0,0,0,0,0,0,0,0,0,0,0,0,0,0,0,0,0,0],"sum_hessian":[3.3679E4,1.6591E4,1.7088E4,6.2E3,1.0391E4,1.0555E4,6.533E3,7.13E2,5.487E3,4.925E3,5.466E3,7.003E3,3.552E3,4.724E3,1.809E3,4.08E2,3.05E2,2.796E3,2.691E3,4.477E3,4.48E2,4.74E3,7.26E2,4.238E3,2.765E3,3.225E3,3.27E2,3.994E3,7.3E2,8.11E2,9.98E2],"tree_param":{"num_deleted":"0","num_feature":"120","num_nodes":"31","size_leaf_vector":"1"}},{"base_weights":[-2.407439E-4,-6.7263715E-2,7.958738E-2,-1.3723408E-1,-3.8821265E-2,4.299245E-2,1.4925487E-1,-2.2916481E-1,-1.2537709E-1,-6.342763E-2,-1.3177875E-2,2.4911726E-2,7.626714E-2,1.3433354E-1,2.1870123E-1,-8.993001E-3,-3.7861494E-3,-2.815305E-3,-4.7412952E-3,-2.1609934E-3,-9.3755126E-4,-5.593991E-4,1.5734594E-3,8.1409956E-4,-3.917193E-3,2.4062633E-3,-1.3776837E-3,4.118804E-3,-1.6936158E-3,6.9586355E-3,3.1375254E-3],"categories":[],"categories_nodes":[],"categories_segments":[],"categories_sizes":[],"default_left":[0,0,0,0,0,0,0,0,0,0,0,0,0,0,0,0,0,0,0,0,0,0,0,0,0,0,0,0,0,0,0],"id":31,"left_children":[1,3,5,7,9,11,13,15,17,19,21,23,25,27,29,-1,-1,-1,-1,-1,-1,-1,-1,-1,-1,-1,-1,-1,-1,-1,-1],"loss_changes":[1.8073785E2,3.652379E1,3.9279648E1,5.719475E0,8.231607E0,6.070465E0,5.435631E0,4.3101444E0,4.8044357E0,1.832056E0,2.2938135E0,2.2605047E0,1.7202663E0,2.485344E0,1.3577194E0,0E0,0E0,0E0,0E0,0E0,0E0,0E0,0E0,0E0,0E0,0E0,0E0,0E0,0E0,0E0,0E0],"parents":[2147483647,0,0,1,1,2,2,3,3,4,4,5,5,6,6,7,7,8,8,9,9,10,10,11,11,12,12,13,13,14,14],"right_children":[2,4,6,8,10,12,14,16,18,20,22,24,26,28,30,-1,-1,-1,-1,-1,-1,-1,-1,-1,-1,-1,-1,-1,-1,-1,-1],"split_conditions":[9.500011E-1,6.166675E-1,1.2166783E0,2.6167038E-1,8.1666905E-1,1.0860147E0,1.4833425E0,2E0,5.1667017E-1,4E0,7E0,1.4004958E0,1.469514E0,1.7923074E0,1.7514577E0,-8.993001E-3,-3.7861494E-3,-2.815305E-3,-4.7412952E-3,-2.1609934E-3,-9.3755126E-4,-5.593991E-4,1.5734594E-3,8.1409956E-4,-3.917193E-3,2.4062633E-3,-1.3776837E-3,4.118804E-3,-1.6936158E-3,6.9586355E-3,3.1375254E-3],"split_indices":[112,116,116,88,116,112,116,71,0,115,111,0,8,4,24,0,0,0,0,0,0,0,0,0,0,0,0,0,0,0,0],"split_type":[0,0,0,0,0,0,0,0,0,0,0,0,0,0,0,0,0,0,0,0,0,0,0,0,0,0,0,0,0,0,0],"sum_hessian":[3.3779E4,1.8363E4,1.5416E4,5.305E3,1.3058E4,1.0109E4,5.307E3,6.03E2,4.702E3,6.661E3,6.397E3,6.553E3,3.556E3,4.372E3,9.35E2,3.56E2,2.47E2,2.396E3,2.306E3,5.252E3,1.409E3,5.907E3,4.9E2,6.462E3,9.1E1,3.446E3,1.1E2,4.306E3,6.6E1,8.36E2,9.9E1],"tree_param":{"num_deleted":"0","num_feature":"120","num_nodes":"31","size_leaf_vector":"1"}},{"base_weights":[-4.9551993E-5,-7.1774356E-2,7.054154E-2,-1.4031911E-1,-4.5903426E-2,3.0569885E-2,1.3384004E-1,-2.2420688E-1,-1.2642962E-1,-6.867227E-2,-1.9873938E-2,1.2664979E-2,5.3524245E-2,1.00436136E-1,1.6601525E-1,-8.839736E-3,-3.7043937E-3,-2.7765974E-3,-5.255941E-3,-2.3150775E-3,-1.0661463E-3,-7.4645947E-4,1.3760758E-3,4.504299E-4,-2.828791E-3,1.4430322E-3,3.5800878E-3,2.7414528E-3,4.4101956E-3,4.27292E-3,6.0227215E-3],"categories":[],"categories_nodes":[],"categories_segments":[],"categories_sizes":[],"default_left":[0,0,0,0,0,0,0,0,0,0,0,0,0,0,0,0,0,0,0,0,0,0,0,0,0,0,0,0,0,0,0],"id":32,"left_children":[1,3,5,7,9,11,13,15,17,19,21,23,25,27,29,-1,-1,-1,-1,-1,-1,-1,-1,-1,-1,-1,-1,-1,-1,-1,-1],"loss_changes":[1.7059225E2,2.9612389E1,4.2941345E1,5.2706757E0,7.1823196E0,4.2711687E0,7.0190353E0,4.520218E0,6.4514008E0,1.8078289E0,1.8645425E0,1.46399E0,1.6046686E0,1.3238678E0,2.6770935E0,0E0,0E0,0E0,0E0,0E0,0E0,0E0,0E0,0E0,0E0,0E0,0E0,0E0,0E0,0E0,0E0],"parents":[2147483647,0,0,1,1,2,2,3,3,4,4,5,5,6,6,7,7,8,8,9,9,10,10,11,11,12,12,13,13,14,14],"right_children":[2,4,6,8,10,12,14,16,18,20,22,24,26,28,30,-1,-1,-1,-1,-1,-1,-1,-1,-1,-1,-1,-1,-1,-1,-1,-1],"split_conditions":[9.1666883E-1,5.8334315E-1,1.1666704E0,2.8333408E-1,8.000009E-1,1.0333341E0,1.3000218E0,2E0,5.5378735E-1,4E0,7E0,1.3000846E0,9E0,9E0,6E0,-8.839736E-3,-3.7043937E-3,-2.7765974E-3,-5.255941E-3,-2.3150775E-3,-1.0661463E-3,-7.4645947E-4,1.3760758E-3,4.504299E-4,-2.828791E-3,1.4430322E-3,3.5800878E-3,2.7414528E-3,4.4101956E-3,4.27292E-3,6.0227215E-3],"split_indices":[112,116,112,116,116,116,116,19,0,31,107,4,111,99,99,0,0,0,0,0,0,0,0,0,0,0,0,0,0,0,0],"split_type":[0,0,0,0,0,0,0,0,0,0,0,0,0,0,0,0,0,0,0,0,0,0,0,0,0,0,0,0,0,0,0],"sum_hessian":[3.3691E4,1.6712E4,1.6979E4,4.577E3,1.2135E4,1.0409E4,6.57E3,6.47E2,3.93E3,6.47E3,5.665E3,5.851E3,4.558E3,3.227E3,3.343E3,3.79E2,2.68E2,2.322E3,1.608E3,5.146E3,1.324E3,5.266E3,3.99E2,5.727E3,1.24E2,4.214E3,3.44E2,2.706E3,5.21E2,1.996E3,1.347E3],"tree_param":{"num_deleted":"0","num_feature":"120","num_nodes":"31","size_leaf_vector":"1"}},{"base_weights":[-8.784968E-5,-5.3940702E-2,8.541317E-2,-1.02606475E-1,-1.3755172E-2,4.9668636E-2,1.4217216E-1,-1.5501976E-1,-7.7471696E-2,-3.105484E-2,4.5030233E-3,3.269991E-2,7.557798E-2,1.2853904E-1,2.0229927E-1,-5.6304587E-3,-3.4993845E-3,-2.4971713E-3,-6.9016655E-4,-1.1549757E-3,1.1477948E-3,4.910416E-5,1.5518257E-3,1.0732576E-3,-2.061721E-3,2.084454E-3,4.113767E-3,3.4802805E-3,5.2148635E-3,3.44955E-3,6.7471033E-3],"categories":[],"categories_nodes":[],"categories_segments":[],"categories_sizes":[],"default_left":[0,0,0,0,0,0,0,0,0,0,0,0,0,0,0,0,0,0,0,0,0,0,0,0,0,0,0,0,0,0,0],"id":33,"left_children":[1,3,5,7,9,11,13,15,17,19,21,23,25,27,29,-1,-1,-1,-1,-1,-1,-1,-1,-1,-1,-1,-1,-1,-1,-1,-1],"loss_changes":[1.555544E2,4.052583E1,2.6460045E1,1.2314011E1,3.5897088E0,3.5096054E0,4.074768E0,3.7528992E0,1.9786987E0,3.0118566E0,7.421484E-1,1.5106974E0,1.1584587E0,2.2859726E0,1.7736855E0,0E0,0E0,0E0,0E0,0E0,0E0,0E0,0E0,0E0,0E0,0E0,0E0,0E0,0E0,0E0,0E0],"parents":[2147483647,0,0,1,1,2,2,3,3,4,4,5,5,6,6,7,7,8,8,9,9,10,10,11,11,12,12,13,13,14,14],"right_children":[2,4,6,8,10,12,14,16,18,20,22,24,26,28,30,-1,-1,-1,-1,-1,-1,-1,-1,-1,-1,-1,-1,-1,-1,-1,-1],"split_conditions":[9.994883E-1,7.5000435E-1,1.2265364E0,4.833356E-1,8.833383E-1,1.1131488E0,1.4833425E0,2E0,6E0,6E0,1.0843549E0,1.3167448E0,1.2E1,9E0,1.1525477E0,-5.6304587E-3,-3.4993845E-3,-2.4971713E-3,-6.9016655E-4,-1.1549757E-3,1.1477948E-3,4.910416E-5,1.5518257E-3,1.0732576E-3,-2.061721E-3,2.084454E-3,4.113767E-3,3.4802805E-3,5.2148635E-3,3.44955E-3,6.7471033E-3],"split_indices":[116,116,112,116,104,116,116,99,47,115,104,12,107,119,12,0,0,0,0,0,0,0,0,0,0,0,0,0,0,0,0],"split_type":[0,0,0,0,0,0,0,0,0,0,0,0,0,0,0,0,0,0,0,0,0,0,0,0,0,0,0,0,0,0,0],"sum_hessian":[3.3782E4,2.0728E4,1.3054E4,9.373E3,1.1355E4,8.012E3,5.042E3,3.035E3,6.338E3,5.833E3,5.522E3,4.845E3,3.167E3,4.114E3,9.28E2,1.636E3,1.399E3,5.729E3,6.09E2,5.269E3,5.64E2,5.209E3,3.13E2,4.704E3,1.41E2,2.885E3,2.82E2,3.227E3,8.87E2,1.93E2,7.35E2],"tree_param":{"num_deleted":"0","num_feature":"120","num_nodes":"31","size_leaf_vector":"1"}},{"base_weights":[-1.6610052E-4,-6.803328E-2,6.5857984E-2,-1.23609096E-1,-4.1239973E-2,2.802885E-2,1.2635136E-1,-2.0127003E-1,-1.1181575E-1,-6.465162E-2,-2.4700603E-2,1.1179634E-2,5.0730363E-2,1.0653798E-1,1.770776E-1,-7.411261E-3,-2.1062708E-3,-2.3142805E-3,-4.373567E-3,-2.1402696E-3,-6.612633E-4,-8.9577376E-4,1.3344064E-3,3.9570258E-4,-2.9873927E-3,1.6136256E-3,-2.743685E-3,2.9785943E-3,4.5025493E-3,4.2844075E-3,6.248263E-3],"categories":[],"categories_nodes":[],"categories_segments":[],"categories_sizes":[],"default_left":[0,0,0,0,0,0,0,0,0,0,0,0,0,0,0,0,0,0,0,0,0,0,0,0,0,0,0,0,0,0,0],"id":34,"left_children":[1,3,5,7,9,11,13,15,17,19,21,23,25,27,29,-1,-1,-1,-1,-1,-1,-1,-1,-1,-1,-1,-1,-1,-1,-1,-1],"loss_changes":[1.5119817E2,2.475637E1,3.9119728E1,4.9020233E0,4.337881E0,4.019082E0,6.565056E0,4.2161655E0,5.503483E0,1.3136044E0,2.3498607E0,1.3387535E0,1.9489822E0,1.4553833E0,1.907383E0,0E0,0E0,0E0,0E0,0E0,0E0,0E0,0E0,0E0,0E0,0E0,0E0,0E0,0E0,0E0,0E0],"parents":[2147483647,0,0,1,1,2,2,3,3,4,4,5,5,6,6,7,7,8,8,9,9,10,10,11,11,12,12,13,13,14,14],"right_children":[2,4,6,8,10,12,14,16,18,20,22,24,26,28,30,-1,-1,-1,-1,-1,-1,-1,-1,-1,-1,-1,-1,-1,-1,-1,-1],"split_conditions":[9.146935E-1,6.166701E-1,1.1666704E0,2.7086407E-1,7.6667136E-1,1.0333364E0,1.4000037E0,3E0,5.1667017E-1,5E0,7E0,1.3166711E0,1.466668E0,1.2E1,5E0,-7.411261E-3,-2.1062708E-3,-2.3142805E-3,-4.373567E-3,-2.1402696E-3,-6.612633E-4,-8.9577376E-4,1.3344064E-3,3.9570258E-4,-2.9873927E-3,1.6136256E-3,-2.743685E-3,2.9785943E-3,4.5025493E-3,4.2844075E-3,6.248263E-3],"split_indices":[112,112,112,84,108,108,104,59,0,67,119,0,4,119,99,0,0,0,0,0,0,0,0,0,0,0,0,0,0,0,0],"split_type":[0,0,0,0,0,0,0,0,0,0,0,0,0,0,0,0,0,0,0,0,0,0,0,0,0,0,0,0,0,0,0],"sum_hessian":[3.3741E4,1.6639E4,1.7102E4,5.41E3,1.1229E4,1.0524E4,6.578E3,7.1E2,4.7E3,4.645E3,6.584E3,6.044E3,4.48E3,4.734E3,1.844E3,5.25E2,1.85E2,2.329E3,2.371E3,4.012E3,6.33E2,6.129E3,4.55E2,5.938E3,1.06E2,4.387E3,9.3E1,4.063E3,6.71E2,8.83E2,9.61E2],"tree_param":{"num_deleted":"0","num_feature":"120","num_nodes":"31","size_leaf_vector":"1"}},{"base_weights":[3.8698196E-4,-5.3282686E-2,7.980855E-2,-1.1383597E-1,-2.658783E-2,4.834398E-2,1.4152288E-1,-1.9903544E-1,-1.0364926E-1,-4.6847552E-2,-2.1592933E-3,3.0333815E-2,7.606475E-2,1.253169E-1,1.9601162E-1,-2.1694887E-3,-8.219161E-3,-2.1443532E-3,-3.9095315E-3,-1.6169092E-3,-3.1650245E-5,-1.8617764E-5,-6.4684493E-3,1.0026898E-3,-1.955579E-3,2.08692E-3,4.06456E-3,3.3904996E-3,5.20206E-3,3.4296946E-3,6.4839204E-3],"categories":[],"categories_nodes":[],"categories_segments":[],"categories_sizes":[],"default_left":[0,0,0,0,0,0,0,0,0,0,0,0,0,0,0,0,0,0,0,0,0,0,0,0,0,0,0,0,0,0,0],"id":35,"left_children":[1,3,5,7,9,11,13,15,17,19,21,23,25,27,29,-1,-1,-1,-1,-1,-1,-1,-1,-1,-1,-1,-1,-1,-1,-1,-1],"loss_changes":[1.4413155E2,3.2598263E1,2.6452759E1,5.305794E0,6.9267817E0,4.497328E0,4.0079575E0,6.184366E0,4.702938E0,2.4652443E0,2.0648506E0,1.6160293E0,1.3432903E0,2.05262E0,1.6711998E0,0E0,0E0,0E0,0E0,0E0,0E0,0E0,0E0,0E0,0E0,0E0,0E0,0E0,0E0,0E0,0E0],"parents":[2147483647,0,0,1,1,2,2,3,3,4,4,5,5,6,6,7,7,8,8,9,9,10,10,11,11,12,12,13,13,14,14],"right_children":[2,4,6,8,10,12,14,16,18,20,22,24,26,28,30,-1,-1,-1,-1,-1,-1,-1,-1,-1,-1,-1,-1,-1,-1,-1,-1],"split_conditions":[9.833493E-1,6.500018E-1,1.248511E0,2.8333408E-1,8.5005444E-1,1.1131488E0,1.4666749E0,3.2392465E2,5.1667017E-1,5E0,1.4833592E0,1.319666E0,1.2E1,1E1,1.1525477E0,-2.1694887E-3,-8.219161E-3,-2.1443532E-3,-3.9095315E-3,-1.6169092E-3,-3.1650245E-5,-1.8617764E-5,-6.4684493E-3,1.0026898E-3,-1.955579E-3,2.08692E-3,4.06456E-3,3.3904996E-3,5.20206E-3,3.4296946E-3,6.4839204E-3],"split_indices":[116,112,112,116,92,116,116,1,0,119,0,8,107,111,12,0,0,0,0,0,0,0,0,0,0,0,0,0,0,0,0],"split_type":[0,0,0,0,0,0,0,0,0,0,0,0,0,0,0,0,0,0,0,0,0,0,0,0,0,0,0,0,0,0,0],"sum_hessian":[3.3811E4,2.0176E4,1.3635E4,6.171E3,1.4005E4,9.033E3,4.602E3,6.56E2,5.515E3,7.653E3,6.352E3,5.479E3,3.554E3,3.551E3,1.051E3,2.45E2,4.11E2,2.503E3,3.012E3,6.63E3,1.023E3,6.308E3,4.4E1,5.309E3,1.7E2,3.207E3,3.47E2,2.832E3,7.19E2,2.1E2,8.41E2],"tree_param":{"num_deleted":"0","num_feature":"120","num_nodes":"31","size_leaf_vector":"1"}},{"base_weights":[5.2284857E-4,-6.6881336E-2,6.0918886E-2,-1.2533525E-1,-4.34647E-2,2.5093606E-2,1.2131312E-1,-1.9143395E-1,-1.1126789E-1,-6.554615E-2,-2.3929583E-2,1.1073835E-2,4.7992162E-2,1.02662556E-1,1.6967264E-1,-7.8544775E-3,-3.3570656E-3,-2.1236765E-3,-4.455186E-3,-2.2186865E-3,-9.86782E-4,-8.618039E-4,8.161515E-4,1.8482243E-4,1.3832112E-3,1.2337989E-3,3.0096546E-3,2.5043227E-3,3.5337105E-3,4.553833E-3,6.543868E-3],"categories":[],"categories_nodes":[],"categories_segments":[],"categories_sizes":[],"default_left":[0,0,0,0,0,0,0,0,0,0,0,0,0,0,0,0,0,0,0,0,0,0,0,0,0,0,0,0,0,0,0],"id":36,"left_children":[1,3,5,7,9,11,13,15,17,19,21,23,25,27,29,-1,-1,-1,-1,-1,-1,-1,-1,-1,-1,-1,-1,-1,-1,-1,-1],"loss_changes":[1.378172E2,2.187564E1,3.861628E1,4.2014923E0,4.9178143E0,3.5923371E0,5.950493E0,4.411413E0,5.6578293E0,1.4588318E0,1.4889467E0,1.1919364E0,1.510067E0,1.3634262E0,1.5299721E0,0E0,0E0,0E0,0E0,0E0,0E0,0E0,0E0,0E0,0E0,0E0,0E0,0E0,0E0,0E0,0E0],"parents":[2147483647,0,0,1,1,2,2,3,3,4,4,5,5,6,6,7,7,8,8,9,9,10,10,11,11,12,12,13,13,14,14],"right_children":[2,4,6,8,10,12,14,16,18,20,22,24,26,28,30,-1,-1,-1,-1,-1,-1,-1,-1,-1,-1,-1,-1,-1,-1,-1,-1],"split_conditions":[9.000025E-1,5.8334315E-1,1.1666708E0,2.6745883E-1,7.6667136E-1,1.0447444E0,1.4000037E0,2E0,5.0000376E-1,4E0,6E0,6E0,7E0,1.2464597E0,1.3E1,-7.8544775E-3,-3.3570656E-3,-2.1236765E-3,-4.455186E-3,-2.2186865E-3,-9.86782E-4,-8.618039E-4,8.161515E-4,1.8482243E-4,1.3832112E-3,1.2337989E-3,3.0096546E-3,2.5043227E-3,3.5337105E-3,4.553833E-3,6.543868E-3],"split_indices":[116,116,108,32,108,116,108,51,0,31,23,119,87,116,79,0,0,0,0,0,0,0,0,0,0,0,0,0,0,0,0],"split_type":[0,0,0,0,0,0,0,0,0,0,0,0,0,0,0,0,0,0,0,0,0,0,0,0,0,0,0,0,0,0,0],"sum_hessian":[3.3852E4,1.5997E4,1.7855E4,4.573E3,1.1424E4,1.1209E4,6.646E3,7.99E2,3.774E3,5.359E3,6.065E3,6.956E3,4.253E3,4.8E3,1.846E3,4.22E2,3.77E2,1.811E3,1.963E3,4.258E3,1.101E3,5.547E3,5.18E2,6.104E3,8.52E2,3.763E3,4.9E2,2.122E3,2.678E3,1.353E3,4.93E2],"tree_param":{"num_deleted":"0","num_feature":"120","num_nodes":"31","size_leaf_vector":"1"}},{"base_weights":[-5.462769E-4,-6.378061E-2,5.7160683E-2,-1.19988605E-1,-4.07481E-2,1.9731106E-2,1.08507566E-1,-1.9891481E-1,-1.0773687E-1,-6.288269E-2,-2.128981E-2,1.0074759E-2,4.5406368E-2,8.167163E-2,1.4169234E-1,-7.977688E-3,-2.596164E-3,-2.365953E-3,-4.4686273E-3,-2.1517414E-3,-8.7900524E-4,-7.6574297E-4,1.1885647E-3,3.621487E-4,-2.5963942E-3,1.1284503E-3,4.0690755E-3,2.6544908E-3,1.1681279E-3,3.811681E-3,5.6713624E-3],"categories":[],"categories_nodes":[],"categories_segments":[],"categories_sizes":[],"default_left":[0,0,0,0,0,0,0,0,0,0,0,0,0,0,0,0,0,0,0,0,0,0,0,0,0,0,0,0,0,0,0],"id":37,"left_children":[1,3,5,7,9,11,13,15,17,19,21,23,25,27,29,-1,-1,-1,-1,-1,-1,-1,-1,-1,-1,-1,-1,-1,-1,-1,-1],"loss_changes":[1.236491E2,2.0911606E1,3.4033268E1,4.4907913E0,4.9312477E0,2.5350213E0,6.6166763E0,4.678179E0,4.8088455E0,1.5805683E0,1.5753896E0,1.4313834E0,1.9445958E0,1.18684E0,2.2564697E0,0E0,0E0,0E0,0E0,0E0,0E0,0E0,0E0,0E0,0E0,0E0,0E0,0E0,0E0,0E0,0E0],"parents":[2147483647,0,0,1,1,2,2,3,3,4,4,5,5,6,6,7,7,8,8,9,9,10,10,11,11,12,12,13,13,14,14],"right_children":[2,4,6,8,10,12,14,16,18,20,22,24,26,28,30,-1,-1,-1,-1,-1,-1,-1,-1,-1,-1,-1,-1,-1,-1,-1,-1],"split_conditions":[9.000056E-1,5.8334315E-1,1.1333337E0,2.6860836E-1,7.6667136E-1,1.0666682E0,1.3000218E0,2E0,5.5378735E-1,4E0,7E0,1.3166711E0,1E1,1.3338921E0,1.5000092E0,-7.977688E-3,-2.596164E-3,-2.365953E-3,-4.4686273E-3,-2.1517414E-3,-8.7900524E-4,-7.6574297E-4,1.1885647E-3,3.621487E-4,-2.5963942E-3,1.1284503E-3,4.0690755E-3,2.6544908E-3,1.1681279E-3,3.811681E-3,5.6713624E-3],"split_indices":[116,116,104,108,108,116,116,67,0,115,19,0,115,44,116,0,0,0,0,0,0,0,0,0,0,0,0,0,0,0,0],"split_type":[0,0,0,0,0,0,0,0,0,0,0,0,0,0,0,0,0,0,0,0,0,0,0,0,0,0,0,0,0,0,0],"sum_hessian":[3.3883E4,1.6168E4,1.7715E4,4.697E3,1.1471E4,1.0248E4,7.467E3,6.28E2,4.069E3,5.363E3,6.108E3,7.451E3,2.797E3,4.132E3,3.335E3,3.92E2,2.36E2,2.396E3,1.673E3,4.242E3,1.121E3,5.713E3,3.95E2,7.302E3,1.49E2,2.577E3,2.2E2,3.561E3,5.71E2,2.552E3,7.83E2],"tree_param":{"num_deleted":"0","num_feature":"120","num_nodes":"31","size_leaf_vector":"1"}},{"base_weights":[-1.4580114E-4,-6.0587324E-2,5.793657E-2,-1.1485048E-1,-3.7273765E-2,2.4954606E-2,1.1160363E-1,-1.7692366E-1,-1.0269982E-1,-5.9127722E-2,-2.0300562E-2,1.2381719E-2,4.8353042E-2,8.223396E-2,1.3510577E-1,-6.7156684E-3,-1.9256847E-3,-1.9732753E-3,-3.99754E-3,-1.9500274E-3,-1.9560925E-4,-1.0394567E-3,-1.0530745E-4,4.3804076E-4,-3.079762E-3,1.1571122E-3,2.9467738E-3,2.5339604E-3,-2.6047619E-3,4.2094793E-3,5.1111175E-4],"categories":[],"categories_nodes":[],"categories_segments":[],"categories_sizes":[],"default_left":[0,0,0,0,0,0,0,0,0,0,0,0,0,0,0,0,0,0,0,0,0,0,0,0,0,0,0,0,0,0,0],"id":38,"left_children":[1,3,5,7,9,11,13,15,17,19,21,23,25,27,29,-1,-1,-1,-1,-1,-1,-1,-1,-1,-1,-1,-1,-1,-1,-1,-1],"loss_changes":[1.18819595E2,2.0964172E1,3.0532772E1,3.712204E0,4.295519E0,3.138763E0,4.500725E0,4.258274E0,4.676567E0,1.558918E0,1.5706329E0,1.7696623E0,1.8043013E0,1.1101379E0,2.2241364E0,0E0,0E0,0E0,0E0,0E0,0E0,0E0,0E0,0E0,0E0,0E0,0E0,0E0,0E0,0E0,0E0],"parents":[2147483647,0,0,1,1,2,2,3,3,4,4,5,5,6,6,7,7,8,8,9,9,10,10,11,11,12,12,13,13,14,14],"right_children":[2,4,6,8,10,12,14,16,18,20,22,24,26,28,30,-1,-1,-1,-1,-1,-1,-1,-1,-1,-1,-1,-1,-1,-1,-1,-1],"split_conditions":[9.1666704E-1,6.0001284E-1,1.1666707E0,2.6745883E-1,7.666738E-1,1.058792E0,1.283338E0,3E0,5.0000376E-1,6E0,8.5856146E-1,1.3167329E0,6E0,1.6668181E0,1.7585168E0,-6.7156684E-3,-1.9256847E-3,-1.9732753E-3,-3.99754E-3,-1.9500274E-3,-1.9560925E-4,-1.0394567E-3,-1.0530745E-4,4.3804076E-4,-3.079762E-3,1.1571122E-3,2.9467738E-3,2.5339604E-3,-2.6047619E-3,4.2094793E-3,5.1111175E-4],"split_indices":[116,116,104,32,100,116,116,55,0,63,80,0,103,8,8,0,0,0,0,0,0,0,0,0,0,0,0,0,0,0,0],"split_type":[0,0,0,0,0,0,0,0,0,0,0,0,0,0,0,0,0,0,0,0,0,0,0,0,0,0,0,0,0,0,0],"sum_hessian":[3.3844E4,1.6586E4,1.7258E4,4.982E3,1.1604E4,1.0691E4,6.567E3,8.12E2,4.17E3,5.069E3,6.535E3,6.958E3,3.733E3,2.923E3,3.644E3,5.72E2,2.4E2,1.891E3,2.279E3,4.558E3,5.11E2,3.52E3,3.015E3,6.828E3,1.3E2,3.124E3,6.09E2,2.886E3,3.7E1,3.489E3,1.55E2],"tree_param":{"num_deleted":"0","num_feature":"120","num_nodes":"31","size_leaf_vector":"1"}},{"base_weights":[-1.3757664E-4,-4.7282025E-2,6.9758676E-2,-9.24497E-2,-1.9385532E-2,4.1304786E-2,1.1927782E-1,-1.3965592E-1,-7.49578E-2,-3.6193825E-2,-3.0289427E-3,2.8479593E-2,7.029953E-2,1.03535585E-1,1.6067274E-1,-3.301311E-3,-6.7145284E-3,-6.736618E-4,-2.7518054E-3,-1.3015582E-3,1.1503779E-3,-4.9239465E-5,-5.829864E-3,9.3853433E-4,-2.0509232E-3,2.3271716E-3,3.978772E-4,2.8106214E-3,4.243147E-3,2.310068E-3,5.2856565E-3],"categories":[],"categories_nodes":[],"categories_segments":[],"categories_sizes":[],"default_left":[0,0,0,0,0,0,0,0,0,0,0,0,0,0,0,0,0,0,0,0,0,0,0,0,0,0,0,0,0,0,0],"id":39,"left_children":[1,3,5,7,9,11,13,15,17,19,21,23,25,27,29,-1,-1,-1,-1,-1,-1,-1,-1,-1,-1,-1,-1,-1,-1,-1,-1],"loss_changes":[1.1123781E2,2.5390285E1,1.9137352E1,6.3228607E0,3.4232006E0,3.2002745E0,3.189125E0,5.120804E0,4.9335766E0,3.2961884E0,1.6582774E0,1.6263418E0,1.0875082E0,1.3062744E0,1.7305794E0,0E0,0E0,0E0,0E0,0E0,0E0,0E0,0E0,0E0,0E0,0E0,0E0,0E0,0E0,0E0,0E0],"parents":[2147483647,0,0,1,1,2,2,3,3,4,4,5,5,6,6,7,7,8,8,9,9,10,10,11,11,12,12,13,13,14,14],"right_children":[2,4,6,8,10,12,14,16,18,20,22,24,26,28,30,-1,-1,-1,-1,-1,-1,-1,-1,-1,-1,-1,-1,-1,-1,-1,-1],"split_conditions":[9.833407E-1,7.0000213E-1,1.2268147E0,4.000014E-1,8.50025E-1,1.1333337E0,1.4192357E0,7.92024E2,4.6630037E-1,6E0,1.4500276E0,1.319666E0,1.316753E0,9E0,1.0616459E0,-3.301311E-3,-6.7145284E-3,-6.736618E-4,-2.7518054E-3,-1.3015582E-3,1.1503779E-3,-4.9239465E-5,-5.829864E-3,9.3853433E-4,-2.0509232E-3,2.3271716E-3,3.978772E-4,2.8106214E-3,4.243147E-3,2.310068E-3,5.2856565E-3],"split_indices":[108,104,108,84,96,104,96,5,0,19,0,8,28,111,0,0,0,0,0,0,0,0,0,0,0,0,0,0,0,0,0],"split_type":[0,0,0,0,0,0,0,0,0,0,0,0,0,0,0,0,0,0,0,0,0,0,0,0,0,0,0,0,0,0,0],"sum_hessian":[3.3756E4,2.016E4,1.3596E4,7.695E3,1.2465E4,8.637E3,4.959E3,2.077E3,5.618E3,6.144E3,6.321E3,5.992E3,2.645E3,3.597E3,1.362E3,1.539E3,5.38E2,1.362E3,4.256E3,5.605E3,5.39E2,6.277E3,4.4E1,5.825E3,1.67E2,2.344E3,3.01E2,2.86E3,7.37E2,2.15E2,1.147E3],"tree_param":{"num_deleted":"0","num_feature":"120","num_nodes":"31","size_leaf_vector":"1"}},{"base_weights":[1.7415616E-4,-4.6699908E-2,6.731952E-2,-8.350612E-2,-1.43126985E-2,4.173477E-2,1.192871E-1,-1.2960815E-1,-6.323017E-2,-2.0993358E-2,2.4324873E-2,2.3973923E-2,6.3194826E-2,1.0149919E-1,1.5030608E-1,-4.021758E-3,4.281197E-3,-2.0595097E-3,-2.7274265E-4,-1.0793423E-3,-1.19190496E-4,6.4062383E-3,5.28435E-4,7.7869504E-4,-3.6016433E-3,1.7307643E-3,3.570444E-3,2.933546E-3,7.509723E-3,4.817639E-3,-1.2004713E-3],"categories":[],"categories_nodes":[],"categories_segments":[],"categories_sizes":[],"default_left":[0,0,0,0,0,0,0,0,0,0,0,0,0,0,0,0,0,0,0,0,0,0,0,0,0,0,0,0,0,0,0],"id":40,"left_children":[1,3,5,7,9,11,13,15,17,19,21,23,25,27,29,-1,-1,-1,-1,-1,-1,-1,-1,-1,-1,-1,-1,-1,-1,-1,-1],"loss_changes":[1.067642E2,2.380024E1,1.8521206E1,8.710678E0,2.7435238E0,3.5527477E0,2.497116E0,3.4758873E0,1.8977909E0,2.307591E0,1.9602234E0,1.4554286E0,1.2747478E0,1.5592613E0,3.2903633E0,0E0,0E0,0E0,0E0,0E0,0E0,0E0,0E0,0E0,0E0,0E0,0E0,0E0,0E0,0E0,0E0],"parents":[2147483647,0,0,1,1,2,2,3,3,4,4,5,5,6,6,7,7,8,8,9,9,10,10,11,11,12,12,13,13,14,14],"right_children":[2,4,6,8,10,12,14,16,18,20,22,24,26,28,30,-1,-1,-1,-1,-1,-1,-1,-1,-1,-1,-1,-1,-1,-1,-1,-1],"split_conditions":[9.833336E-1,7.5000435E-1,1.2464597E0,4.6667498E-1,5E0,1.0860147E0,6E0,1.2E1,6E0,8.696895E-1,4.000011E-1,1.4004958E0,1.2E1,1.7166958E0,1.7585168E0,-4.021758E-3,4.281197E-3,-2.0595097E-3,-2.7274265E-4,-1.0793423E-3,-1.19190496E-4,6.4062383E-3,5.28435E-4,7.7869504E-4,-3.6016433E-3,1.7307643E-3,3.570444E-3,2.933546E-3,7.509723E-3,4.817639E-3,-1.2004713E-3],"split_indices":[112,116,116,112,119,112,87,107,51,104,12,0,111,116,8,0,0,0,0,0,0,0,0,0,0,0,0,0,0,0,0],"split_type":[0,0,0,0,0,0,0,0,0,0,0,0,0,0,0,0,0,0,0,0,0,0,0,0,0,0,0,0,0,0,0],"sum_hessian":[3.3919E4,1.9974E4,1.3945E4,9.347E3,1.0627E4,9.347E3,4.598E3,2.852E3,6.495E3,9.063E3,1.564E3,5.118E3,4.229E3,2.927E3,1.671E3,2.807E3,4.5E1,5.902E3,5.93E2,4.816E3,4.247E3,5.2E1,1.512E3,5.05E3,6.8E1,3.853E3,3.76E2,2.858E3,6.9E1,1.586E3,8.5E1],"tree_param":{"num_deleted":"0","num_feature":"120","num_nodes":"31","size_leaf_vector":"1"}},{"base_weights":[7.104313E-4,-4.240733E-2,6.995414E-2,-9.4845615E-2,-2.0241572E-2,4.5133762E-2,1.214005E-1,-1.689617E-1,-8.51088E-2,-3.9568953E-2,-2.7057594E-3,2.8163671E-2,6.698286E-2,1.2694041E-1,1.7751276E-2,-7.1011437E-3,-2.5600335E-3,-1.6178335E-3,-3.477197E-3,-1.3639458E-3,6.14796E-4,-2.6380672E-4,5.1274255E-4,9.0619404E-4,-2.767726E-3,1.8396022E-3,3.520571E-3,3.1927186E-3,4.885512E-3,-6.875921E-4,7.447434E-3],"categories":[],"categories_nodes":[],"categories_segments":[],"categories_sizes":[],"default_left":[0,0,0,0,0,0,0,0,0,0,0,0,0,0,0,0,0,0,0,0,0,0,0,0,0,0,0,0,0,0,0],"id":41,"left_children":[1,3,5,7,9,11,13,15,17,19,21,23,25,27,29,-1,-1,-1,-1,-1,-1,-1,-1,-1,-1,-1,-1,-1,-1,-1,-1],"loss_changes":[1.0131126E2,2.4290985E1,1.6605892E1,4.4424095E0,4.97781E0,3.2466526E0,2.4156227E0,4.020853E0,5.2517242E0,2.478732E0,9.2865974E-1,1.2142625E0,1.0696545E0,2.9174576E0,2.0624952E0,0E0,0E0,0E0,0E0,0E0,0E0,0E0,0E0,0E0,0E0,0E0,0E0,0E0,0E0,0E0,0E0],"parents":[2147483647,0,0,1,1,2,2,3,3,4,4,5,5,6,6,7,7,8,8,9,9,10,10,11,11,12,12,13,13,14,14],"right_children":[2,4,6,8,10,12,14,16,18,20,22,24,26,28,30,-1,-1,-1,-1,-1,-1,-1,-1,-1,-1,-1,-1,-1,-1,-1,-1],"split_conditions":[1.0000029E0,6.500018E-1,1.2666674E0,2.7086407E-1,8.3335876E-1,1.1123623E0,1.6914034E0,3.724122E-1,5.4285085E-1,6E0,9.8335147E-1,1.4004958E0,1.2E1,6E0,1.7176483E0,-7.1011437E-3,-2.5600335E-3,-1.6178335E-3,-3.477197E-3,-1.3639458E-3,6.14796E-4,-2.6380672E-4,5.1274255E-4,9.0619404E-4,-2.767726E-3,1.8396022E-3,3.520571E-3,3.1927186E-3,4.885512E-3,-6.875921E-4,7.447434E-3],"split_indices":[112,112,112,84,100,112,4,0,4,23,108,0,115,91,92,0,0,0,0,0,0,0,0,0,0,0,0,0,0,0,0],"split_type":[0,0,0,0,0,0,0,0,0,0,0,0,0,0,0,0,0,0,0,0,0,0,0,0,0,0,0,0,0,0,0],"sum_hessian":[3.393E4,2.0909E4,1.3021E4,6.21E3,1.4699E4,8.786E3,4.235E3,7.18E2,5.492E3,6.989E3,7.71E3,4.949E3,3.837E3,4.019E3,2.16E2,3.95E2,3.23E2,2.732E3,2.76E3,6.366E3,6.23E2,5.901E3,1.809E3,4.868E3,8.1E1,3.453E3,3.84E2,2.562E3,1.457E3,1.84E2,3.2E1],"tree_param":{"num_deleted":"0","num_feature":"120","num_nodes":"31","size_leaf_vector":"1"}},{"base_weights":[5.3109275E-6,-4.4426873E-2,6.37286E-2,-9.789083E-2,-2.4504596E-2,4.029302E-2,1.1890764E-1,-1.9226405E-1,-9.1499075E-2,-4.243408E-2,-4.632984E-3,2.5843903E-2,6.720435E-2,1.0214937E-1,1.5342017E-1,-2.6769785E-3,-7.3852832E-3,-2.933321E-3,-3.460655E-4,-1.5055243E-3,-3.6700018E-4,-1.0935792E-4,-4.880796E-3,8.5035973E-4,-2.3237714E-3,2.0771406E-3,-2.6080017E-3,4.2438875E-3,2.5991215E-3,2.7376313E-3,5.336439E-3],"categories":[],"categories_nodes":[],"categories_segments":[],"categories_sizes":[],"default_left":[0,0,0,0,0,0,0,0,0,0,0,0,0,0,0,0,0,0,0,0,0,0,0,0,0,0,0,0,0,0,0],"id":42,"left_children":[1,3,5,7,9,11,13,15,17,19,21,23,25,27,29,-1,-1,-1,-1,-1,-1,-1,-1,-1,-1,-1,-1,-1,-1,-1,-1],"loss_changes":[9.545007E1,2.1139782E1,1.7889462E1,3.2053413E0,5.151293E0,3.7700853E0,2.345707E0,1.8330679E0,2.5237236E0,1.7731524E0,1.0549997E0,1.6332421E0,1.0681572E0,1.662096E0,2.002121E0,0E0,0E0,0E0,0E0,0E0,0E0,0E0,0E0,0E0,0E0,0E0,0E0,0E0,0E0,0E0,0E0],"parents":[2147483647,0,0,1,1,2,2,3,3,4,4,5,5,6,6,7,7,8,8,9,9,10,10,11,11,12,12,13,13,14,14],"right_children":[2,4,6,8,10,12,14,16,18,20,22,24,26,28,30,-1,-1,-1,-1,-1,-1,-1,-1,-1,-1,-1,-1,-1,-1,-1,-1],"split_conditions":[9.833336E-1,6.166701E-1,1.2666885E0,2.1667023E-1,8.3335465E-1,1.1333346E0,1.4205699E0,3.2132068E2,6E0,4E0,1.4500098E0,1.3500232E0,1.6668181E0,1.200002E0,1.2721957E0,-2.6769785E-3,-7.3852832E-3,-2.933321E-3,-3.460655E-4,-1.5055243E-3,-3.6700018E-4,-1.0935792E-4,-4.880796E-3,8.5035973E-4,-2.3237714E-3,2.0771406E-3,-2.6080017E-3,4.2438875E-3,2.5991215E-3,2.7376313E-3,5.336439E-3],"split_indices":[112,112,112,84,108,108,92,93,99,107,4,0,8,0,0,0,0,0,0,0,0,0,0,0,0,0,0,0,0,0,0],"split_type":[0,0,0,0,0,0,0,0,0,0,0,0,0,0,0,0,0,0,0,0,0,0,0,0,0,0,0,0,0,0,0],"sum_hessian":[3.3709E4,1.986E4,1.3849E4,5.389E3,1.4471E4,9.723E3,4.126E3,3.39E2,5.05E3,7.604E3,6.867E3,6.33E3,3.393E3,2.782E3,1.344E3,1.18E2,2.21E2,4.681E3,3.69E2,6.048E3,1.556E3,6.826E3,4.1E1,6.182E3,1.48E2,3.35E3,4.3E1,7.83E2,1.999E3,3.82E2,9.62E2],"tree_param":{"num_deleted":"0","num_feature":"120","num_nodes":"31","size_leaf_vector":"1"}},{"base_weights":[-5.6959598E-5,-5.1716324E-2,5.0710984E-2,-1.1637887E-1,-3.7470996E-2,2.1825917E-2,9.658837E-2,-8.195552E-2,-1.538363E-1,-5.7003908E-2,-1.7724141E-2,2.4446374E-2,-6.016984E-2,8.0954984E-2,1.3688913E-1,-1.4085794E-3,-3.8147878E-3,-7.064501E-3,-3.7810483E-3,-1.9351582E-3,-8.218346E-4,-6.2563014E-4,2.5318838E-3,3.427992E-4,1.3962096E-3,-2.085643E-3,2.4135145E-3,2.1776555E-3,3.4779888E-3,4.4055893E-3,5.5725675E-4],"categories":[],"categories_nodes":[],"categories_segments":[],"categories_sizes":[],"default_left":[0,0,0,0,0,0,0,0,0,0,0,0,0,0,0,0,0,0,0,0,0,0,0,0,0,0,0,0,0,0,0],"id":43,"left_children":[1,3,5,7,9,11,13,15,17,19,21,23,25,27,29,-1,-1,-1,-1,-1,-1,-1,-1,-1,-1,-1,-1,-1,-1,-1,-1],"loss_changes":[8.888399E1,1.5454475E1,2.263588E1,3.872017E0,5.3024063E0,2.252061E0,4.1266403E0,2.4813557E0,3.2232513E0,1.5258293E0,2.1853735E0,2.918571E0,4.305681E-1,1.3660011E0,2.1521912E0,0E0,0E0,0E0,0E0,0E0,0E0,0E0,0E0,0E0,0E0,0E0,0E0,0E0,0E0,0E0,0E0],"parents":[2147483647,0,0,1,1,2,2,3,3,4,4,5,5,6,6,7,7,8,8,9,9,10,10,11,11,12,12,13,13,14,14],"right_children":[2,4,6,8,10,12,14,16,18,20,22,24,26,28,30,-1,-1,-1,-1,-1,-1,-1,-1,-1,-1,-1,-1,-1,-1,-1,-1],"split_conditions":[9.1666883E-1,4.833356E-1,1.1666707E0,4.160825E2,7.666704E-1,1.3333555E0,1.4000038E0,5.4285085E-1,2.765486E-1,4E0,1.2E1,1.0500004E0,1.5641202E0,8E0,1.6914034E0,-1.4085794E-3,-3.8147878E-3,-7.064501E-3,-3.7810483E-3,-1.9351582E-3,-8.218346E-4,-6.2563014E-4,2.5318838E-3,3.427992E-4,1.3962096E-3,-2.085643E-3,2.4135145E-3,2.1776555E-3,3.4779888E-3,4.4055893E-3,5.5725675E-4],"split_indices":[112,116,116,1,116,4,116,4,112,119,119,100,64,83,16,0,0,0,0,0,0,0,0,0,0,0,0,0,0,0,0],"split_type":[0,0,0,0,0,0,0,0,0,0,0,0,0,0,0,0,0,0,0,0,0,0,0,0,0,0,0,0,0,0,0],"sum_hessian":[3.3889E4,1.6798E4,1.7091E4,3.03E3,1.3768E4,1.049E4,6.601E3,1.582E3,1.448E3,6.918E3,6.85E3,1.0167E4,3.23E2,4.76E3,1.841E3,8.94E2,6.88E2,3.65E2,1.083E3,5.516E3,1.402E3,6.648E3,2.02E2,6.401E3,3.766E3,3.04E2,1.9E1,3.846E3,9.14E2,1.697E3,1.44E2],"tree_param":{"num_deleted":"0","num_feature":"120","num_nodes":"31","size_leaf_vector":"1"}},{"base_weights":[1.2790388E-4,-3.991302E-2,6.163049E-2,-7.770579E-2,-1.21941455E-2,3.8867887E-2,1.1055957E-1,-1.186807E-1,-5.856884E-2,-3.0030586E-2,-6.604036E-4,2.3390867E-2,6.2096342E-2,9.07392E-2,1.358129E-1,-4.637618E-3,-2.6505466E-3,-6.1434985E-4,-2.018675E-3,-1.0374226E-3,1.1023725E-3,-1.7838206E-4,8.2550163E-4,5.8019964E-4,2.8919887E-3,1.6608731E-3,2.986653E-3,2.8554401E-3,-2.3176484E-3,3.5316744E-3,5.226121E-3],"categories":[],"categories_nodes":[],"categories_segments":[],"categories_sizes":[],"default_left":[0,0,0,0,0,0,0,0,0,0,0,0,0,0,0,0,0,0,0,0,0,0,0,0,0,0,0,0,0,0,0],"id":44,"left_children":[1,3,5,7,9,11,13,15,17,19,21,23,25,27,29,-1,-1,-1,-1,-1,-1,-1,-1,-1,-1,-1,-1,-1,-1,-1,-1],"loss_changes":[8.301957E1,2.137836E1,1.4786995E1,6.747898E0,2.4205093E0,3.2528868E0,2.0767593E0,2.9535751E0,1.9466095E0,1.4057221E0,1.064231E0,1.5986929E0,8.936329E-1,1.7770195E0,1.2358398E0,0E0,0E0,0E0,0E0,0E0,0E0,0E0,0E0,0E0,0E0,0E0,0E0,0E0,0E0,0E0,0E0],"parents":[2147483647,0,0,1,1,2,2,3,3,4,4,5,5,6,6,7,7,8,8,9,9,10,10,11,11,12,12,13,13,14,14],"right_children":[2,4,6,8,10,12,14,16,18,20,22,24,26,28,30,-1,-1,-1,-1,-1,-1,-1,-1,-1,-1,-1,-1,-1,-1,-1,-1],"split_conditions":[9.833979E-1,7.3333514E-1,1.2646227E0,4.6601975E-1,8.3334976E-1,1.1166699E0,5E0,2E0,4.6630037E-1,7E0,5E0,1.2E1,8E0,1.7514577E0,1.466677E0,-4.637618E-3,-2.6505466E-3,-6.1434985E-4,-2.018675E-3,-1.0374226E-3,1.1023725E-3,-1.7838206E-4,8.2550163E-4,5.8019964E-4,2.8919887E-3,1.6608731E-3,2.986653E-3,2.8554401E-3,-2.3176484E-3,3.5316744E-3,5.226121E-3],"split_indices":[116,112,116,116,116,100,3,3,0,19,119,111,23,24,100,0,0,0,0,0,0,0,0,0,0,0,0,0,0,0,0],"split_type":[0,0,0,0,0,0,0,0,0,0,0,0,0,0,0,0,0,0,0,0,0,0,0,0,0,0,0,0,0,0,0],"sum_hessian":[3.3709E4,2.0416E4,1.3293E4,8.636E3,1.178E4,9.075E3,4.218E3,2.746E3,5.89E3,4.622E3,7.158E3,5.45E3,3.625E3,2.368E3,1.85E3,1.254E3,1.492E3,1.1E3,4.79E3,4.329E3,2.93E2,6.031E3,1.127E3,5.166E3,2.84E2,3.077E3,5.48E2,2.308E3,6E1,1.262E3,5.88E2],"tree_param":{"num_deleted":"0","num_feature":"120","num_nodes":"31","size_leaf_vector":"1"}},{"base_weights":[1.10877525E-4,-5.038304E-2,4.5464616E-2,-9.134818E-2,-3.144791E-2,1.8217873E-2,9.116123E-2,-1.14982285E-1,-6.4830676E-2,-4.1470874E-2,-4.0432094E-3,1.3600616E-2,6.590478E-2,7.640263E-2,1.2945248E-1,-6.028185E-3,-2.908392E-3,-6.810473E-4,-3.2057075E-3,-1.4130145E-3,4.8451233E-4,-8.352895E-5,-6.8163937E-3,1.0901174E-4,9.50701E-4,4.2842487E-3,1.6044268E-3,2.0980514E-3,3.4944424E-3,4.1755703E-3,6.724165E-4],"categories":[],"categories_nodes":[],"categories_segments":[],"categories_sizes":[],"default_left":[0,0,0,0,0,0,0,0,0,0,0,0,0,0,0,0,0,0,0,0,0,0,0,0,0,0,0,0,0,0,0],"id":45,"left_children":[1,3,5,7,9,11,13,15,17,19,21,23,25,27,29,-1,-1,-1,-1,-1,-1,-1,-1,-1,-1,-1,-1,-1,-1,-1,-1],"loss_changes":[7.741593E1,1.2391857E1,2.2162346E1,3.1419945E0,3.0007906E0,2.4483924E0,3.7281723E0,4.088516E0,4.209098E0,2.6018572E0,8.0067825E-1,1.8313978E0,9.119315E-1,1.218729E0,1.9049759E0,0E0,0E0,0E0,0E0,0E0,0E0,0E0,0E0,0E0,0E0,0E0,0E0,0E0,0E0,0E0,0E0],"parents":[2147483647,0,0,1,1,2,2,3,3,4,4,5,5,6,6,7,7,8,8,9,9,10,10,11,11,12,12,13,13,14,14],"right_children":[2,4,6,8,10,12,14,16,18,20,22,24,26,28,30,-1,-1,-1,-1,-1,-1,-1,-1,-1,-1,-1,-1,-1,-1,-1,-1],"split_conditions":[9.000025E-1,6.0001284E-1,1.1666704E0,2E0,8.5005534E-1,8E0,1.400004E0,2.6696792E-1,5.393564E-1,6E0,1.7184714E0,1.0500004E0,8.5004324E-1,1.2E1,1.6957451E0,-6.028185E-3,-2.908392E-3,-6.810473E-4,-3.2057075E-3,-1.4130145E-3,4.8451233E-4,-8.352895E-5,-6.8163937E-3,1.0901174E-4,9.50701E-4,4.2842487E-3,1.6044268E-3,2.0980514E-3,3.4944424E-3,