{"learner":{"attributes":{"best_iteration":"145","best_score":"0.9089445977142545","scikit_learn":"{\"_estimator_type\": \"regressor\"}"},"feature_names":[],"feature_types":[],"gradient_booster":{"model":{"cats":{"enc":[],"feature_segments":[],"sorted_idx":[]},"gbtree_model_param":{"num_parallel_tree":"1","num_trees":"176"},"iteration_indptr":[0,1,2,3,4,5,6,7,8,9,10,11,12,13,14,15,16,17,18,19,20,21,22,23,24,25,26,27,28,29,30,31,32,33,34,35,36,37,38,39,40,41,42,43,44,45,46,47,48,49,50,51,52,53,54,55,56,57,58,59,60,61,62,63,64,65,66,67,68,69,70,71,72,73,74,75,76,77,78,79,80,81,82,83,84,85,86,87,88,89,90,91,92,93,94,95,96,97,98,99,100,101,102,103,104,105,106,107,108,109,110,111,112,113,114,115,116,117,118,119,120,121,122,123,124,125,126,127,128,129,130,131,132,133,134,135,136,137,138,139,140,141,142,143,144,145,146,147,148,149,150,151,152,153,154,155,156,157,158,159,160,161,162,163,164,165,166,167,168,169,170,171,172,173,174,175,176],"tree_info":[0,0,0,0,0,0,0,0,0,0,0,0,0,0,0,0,0,0,0,0,0,0,0,0,0,0,0,0,0,0,0,0,0,0,0,0,0,0,0,0,0,0,0,0,0,0,0,0,0,0,0,0,0,0,0,0,0,0,0,0,0,0,0,0,0,0,0,0,0,0,0,0,0,0,0,0,0,0,0,0,0,0,0,0,0,0,0,0,0,0,0,0,0,0,0,0,0,0,0,0,0,0,0,0,0,0,0,0,0,0,0,0,0,0,0,0,0,0,0,0,0,0,0,0,0,0,0,0,0,0,0,0,0,0,0,0,0,0,0,0,0,0,0,0,0,0,0,0,0,0,0,0,0,0,0,0,0,0,0,0,0,0,0,0,0,0,0,0,0,0,0,0,0,0,0,0],"trees":[{"base_weights":[-6.6675793E-4,-1.7274927E-1,1.6309308E-1,-5.2717954E-1,-9.430984E-2,2.1583532E-1,-1.8424492E-1,-4.4338197E-1,-7.906016E-1,1.0677072E-2,-3.251438E-1,8.744354E-2,3.0632597E-1,-3.5973728E-1,4.8861024E-3,-1.6995122E-1,-5.5065E-1,-8.496166E-1,2.1794021E-1,-4.5414943E-1,6.095819E-2,-4.0466392E-1,-5.305799E-2,-6.1142884E-2,2.152514E-1,2.175412E-1,4.0080845E-1,-2.554652E-1,-7.9019487E-1,1.4789674E-1,-2.7973443E-1,-4.378651E-1,1.6159268E-2,2.4630675E-1,-5.8194983E-1,-1.08636476E-1,-9.1601676E-1,1.0680106E0,-4.8829377E-1,-5.358052E-1,4.032668E-2,-4.4266127E-2,1.9371134E-1,-3.177028E-1,-5.974303E-1,3.3870723E-2,-5.5930406E-1,-3.8401923E-1,1.5109891E-2,-4.051066E-1,2.4593814E-1,-5.6542516E-2,2.592505E-1,-1.1486635E-1,4.2360434E-1,-3.9539385E-1,8.2635716E-2,-8.840186E-1,1.0092501E-2,-5.094248E-1,2.3290552E-1,-1.0401532E-1,-8.457211E-1,-9.3392506E-2,-7.3696584E-1,-1.4793572E-1,4.852959E-1,9.167892E-1,-4.3392944E-1,-2.6028523E-1,-6.6538084E-1,8.456133E-1,-5.6019497E-1,-1.1103355E0,-7.0906925E-1,1.01614585E-2,4.078617E-2,2.312313E-3,-2.5099786E-2,-6.726346E-1,-2.7664742E-1,-2.666187E-1,6.2782615E-1,-3.5036206E-1,9.975795E-3,-2.8842863E-1,2.2136605E-1,-6.589237E-1,-2.464441E-1,7.340443E-2,-6.60678E-1,-1.3595302E-2,8.8919234E-1,-8.246421E-1,-6.749146E-2,-6.535944E-1,-8.617073E-2,-4.2422494E-1,7.138216E-2,-6.333879E-1,4.4148225E-1,-1.17804974E-1,2.9296777E-1,-4.6819273E-1,9.458645E-2,-1.1115111E-1,2.8945568E-1,-6.096465E-1,2.3177707E-1,2.8107682E-1,4.8975465E-1,-4.3545774E-1,9.9514914E-1,2.563199E-1,-6.909829E-1,6.6079214E-2,-9.4993615E-1,-6.797273E-1,2.4896005E-2,-6.7893296E-1,2.2770513E-2,3.208816E-1,-4.6446207E-1,2.1323256E-1,-4.732052E-1,5.8231247E-3,-9.694268E-1,5.3942376E-1,-4.1808307E-1,-8.38853E-1,8.1337124E-2,-3.0759522E-1,8.041411E-1,1.823466E-1,1.1575838E0,3.1831086E-1,4.1645065E-2,-9.430869E-1,2.2590084E-2,1.4295378E-1,-5.0738716E-1,-9.2055786E-1,-5.4997456E-1,3.4543496E-2,4.5136516E-3,-3.3990454E-2,-2.0096913E-1,2.8264234E-3,-1.1369638E0,-2.5164068E-1,-8.7885636E-1,2.4436282E-2,-7.0247483E-1,5.216012E-1,-4.6093208E-1,-5.222878E-1,3.6513323E-1,-8.59701E-3,8.657167E-1,-7.074146E-1,-1.7140776E-1,-5.3363806E-1,3.742599E-2,-6.4152354E-1,-3.0989904E-2,-1.98361E-1,2.5128606E-1,-8.7484497E-1,-3.4651497E-1,-3.360791E-1,-6.455897E-3,6.0708827E-1,-4.5901296E-1,-7.0201075E-1,9.151422E-2,-2.0702423E-1,1.6291198E-1,4.1842572E-2,2.3415688E-1,-9.825879E-1,-1.804918E-2,-2.6781327E-1,2.1818822E-2,-1.0423954E-1,-7.9814386E-1,4.759797E-2,-8.6725646E-1,5.096082E-1,-5.509219E-1,5.304745E-1,3.4876116E-2,2.426628E-1,-8.4571177E-1,3.48919E-2,-9.7772844E-2,-6.4494467E-1,1.8992761E-2,1.6022061E-1,4.1819388E-1,5.954566E-1,-5.8791333E-1,4.207939E-1,-1.3643204E-1,-3.5951987E-1,3.176254E-1,3.993639E-1,1.9859226E-1,-9.4454217E-1,1.0261538E-1,-7.4731156E-2,8.940277E-1,-3.9744633E-1,3.2519057E-1,4.9947533E-1,-7.915215E-1,-8.7866265E-1,-3.2292324E-1,4.0856827E-2,5.137326E-3,-2.9642272E-1,5.3052014E-1,-9.5932627E-1,8.346922E-2,1.5139367E-2,-1.0920209E-2,-4.847559E-1,-1.0939542E0,-5.2236165E-3,-2.9712068E-2,1.0494696E-2,-7.894358E-1,2.1937756E-1,9.459642E-1,-7.161126E-1,5.942061E-1,3.9176725E-2,7.1756E-2,-7.6086875E-3,-7.9354703E-1,-3.031493E-3,-1.1030022E0,-1.3539421E-2,2.7192717E-2,-2.3199005E-2,5.854527E-3,7.071735E-3,-2.7740054E-2,1.3010951E-2,-1.0633461E-2,1.0732704E-2,-1.4481474E-2,-4.420221E-3,3.7869383E-2,2.9205782E-2,-7.747169E-4,1.8331835E-3,4.3259315E-2,2.2848134E-3,1.5492634E-2,-3.4203924E-2,-8.646817E-3,2.8572332E-2,-1.1261781E-2,-1.9814743E-2,2.5042145E-2,-2.3194032E-2,-3.7205596E-2,-2.829783E-2,-1.2799016E-2,-1.2039282E-2,9.753718E-3,-1.4727744E-2,-3.5589714E-2,9.045346E-3,-2.652455E-2,-2.8084027E-2,5.5947215E-3,-2.1843005E-2,2.7071519E-2,2.3124725E-2,-2.6766596E-2,7.4644913E-3,-1.7576272E-2,-5.4365015E-3,-3.164517E-2,2.3208238E-2,3.9572227E-3,8.302025E-3,3.720993E-2,-2.4763772E-2,-3.1728346E-3,-2.4847379E-2,-1.0915038E-3,1.3503172E-2,-2.0886127E-2,2.3441042E-3,-6.1490303E-3,-2.5575481E-2,-5.35783E-4,2.4547298E-2,-7.2034136E-3,5.634383E-3,-1.1390446E-2,2.4385714E-4,9.180666E-3,2.6028793E-2,-2.806742E-2,-1.918877E-2,2.6076126E-3,-1.2489316E-2,9.713004E-4,-8.025541E-3,7.419004E-3,2.7943103E-2,1.8005839E-3,1.2853528E-2,-2.3081208E-2,-1.531369E-2,-2.6468627E-2,2.3591602E-2,-2.6413763E-2,4.011719E-2,-7.5704223E-3,1.5074195E-3,3.0185658E-2,-0E0,1.7324504E-2,-2.1700056E-3,-3.1876165E-2,1.0305606E-2,-1.4714958E-2,1.8063386E-3,-1.8355768E-2,1.7297568E-2,-1.494535E-2,-2.517428E-2,1.2655873E-2,-1.0340801E-2,1.0829682E-2,-5.7424563E-3,-3.3143368E-2,-1.5512325E-2,3.2539766E-2,-2.0171922E-2,2.6476686E-3,-2.5617757E-3,2.56748E-2,-2.3885516E-3,4.7431057E-3,2.2217335E-2,-1.7476017E-2,-3.2895304E-2,-1.12552475E-2,-1.6651247E-2,4.896162E-3,2.5012225E-4,-2.4364032E-2,-3.2905152E-3,2.3081023E-2,6.044533E-3,-1.0395479E-2,1.1560892E-2,3.2378256E-2,-1.3632029E-3,3.8181398E-2,-3.3480857E-2,-1.0749511E-2,2.9680131E-2,6.14891E-3,-1.0088849E-2,1.0094357E-2,-2.18457E-2,-3.361721E-3,-9.160414E-3,1.8419825E-2,1.8582793E-2,9.811591E-3,1.465992E-5,8.929252E-3,-3.4906107E-3,-3.1576566E-2,-1.6152298E-2,1.5087877E-2,-1.0241486E-2,8.906901E-3,-2.5469991E-3,3.7072357E-2,-2.0373732E-2,3.2002954E-3,1.7455325E-2,6.9487537E-3,1.8959457E-2,1.2636951E-2,-2.968029E-2,-6.673606E-3,-2.9652376E-2,8.263406E-3,-6.592127E-3,-2.3232628E-2,-1.6777314E-2,2.04257E-2,-1.0171942E-2,2.1352645E-2,-3.261576E-2,-6.4499592E-3,1.3184097E-2,-8.051963E-3,-2.3191439E-2,8.110414E-3,-1.8330408E-2,-3.5283625E-2,-2.714998E-2,-0E0,-2.3689468E-3,1.3283929E-2,4.197297E-2,1.7066034E-2,-6.0073445E-3,-3.0967437E-2,4.6963678E-4,2.9976182E-2,2.1207165E-2,-4.051901E-3,2.5393523E-2,-9.334472E-3,3.0998383E-3,-2.9390987E-2,-7.0608533E-3,-3.5519592E-2],"categories":[],"categories_nodes":[],"categories_segments":[],"categories_sizes":[],"default_left":[0,0,0,0,0,0,0,0,0,0,0,0,0,0,0,0,0,0,0,0,0,0,0,0,0,0,0,0,0,0,0,0,0,0,0,0,0,0,0,0,0,0,0,0,0,0,0,0,0,0,0,0,0,0,0,0,0,0,0,0,0,0,0,0,0,0,0,0,0,0,0,0,0,0,0,0,0,0,0,0,0,0,0,0,0,0,0,0,0,0,0,0,0,0,0,0,0,0,0,0,0,0,0,0,0,0,0,0,0,0,0,0,0,0,0,0,0,0,0,0,0,0,0,0,0,0,0,0,0,0,0,0,0,0,0,0,0,0,0,0,0,0,0,0,0,0,0,0,0,0,0,0,0,0,0,0,0,0,0,0,0,0,0,0,0,0,0,0,0,0,0,0,0,0,0,0,0,0,0,0,0,0,0,0,0,0,0,0,0,0,0,0,0,0,0,0,0,0,0,0,0,0,0,0,0,0,0,0,0,0,0,0,0,0,0,0,0,0,0,0,0,0,0,0,0,0,0,0,0,0,0,0,0,0,0,0,0,0,0,0,0,0,0,0,0,0,0,0,0,0,0,0,0,0,0,0,0,0,0,0,0,0,0,0,0,0,0,0,0,0,0,0,0,0,0,0,0,0,0,0,0,0,0,0,0,0,0,0,0,0,0,0,0,0,0,0,0,0,0,0,0,0,0,0,0,0,0,0,0,0,0,0,0,0,0,0,0,0,0,0,0,0,0,0,0,0,0,0,0,0,0,0,0,0,0,0,0,0,0,0,0,0,0,0,0,0,0,0,0,0,0,0,0,0,0,0,0,0,0,0,0,0,0,0,0,0,0,0,0,0,0,0,0,0,0,0,0,0,0,0,0,0,0,0,0,0,0,0,0,0,0,0,0,0,0,0,0,0,0,0,0,0,0,0,0,0,0,0,0,0,0,0,0,0,0,0,0,0,0,0,0,0,0,0,0,0,0,0,0],"id":0,"left_children":[1,3,5,7,9,11,13,15,17,19,21,23,25,27,29,31,33,35,37,39,41,43,45,47,49,51,53,55,57,59,61,63,65,67,69,71,73,75,77,79,81,83,85,87,89,91,93,95,97,99,101,103,105,107,109,111,113,115,117,119,121,123,125,127,129,131,133,135,137,139,141,143,145,147,149,-1,-1,-1,-1,151,153,155,157,159,161,163,165,167,169,171,173,175,177,179,181,183,185,187,189,191,193,195,197,199,201,203,205,207,209,211,213,215,217,219,221,223,225,227,-1,229,-1,231,233,235,237,-1,239,241,243,245,247,249,251,253,255,257,-1,259,-1,261,263,265,267,-1,-1,-1,269,-1,271,273,275,-1,277,279,281,283,285,-1,287,289,291,293,295,297,299,301,303,305,307,309,311,313,315,317,319,321,323,-1,325,327,329,331,-1,333,335,337,339,341,343,345,347,349,351,-1,353,355,357,359,361,363,365,367,369,371,373,375,377,379,381,383,385,387,389,391,393,395,397,-1,-1,399,401,403,405,-1,-1,407,409,-1,-1,-1,411,413,415,417,419,-1,421,423,425,-1,427,-1,-1,-1,-1,-1,-1,-1,-1,-1,-1,-1,-1,-1,-1,-1,-1,-1,-1,-1,-1,-1,-1,-1,-1,-1,-1,-1,-1,-1,-1,-1,-1,-1,-1,-1,-1,-1,-1,-1,-1,-1,-1,-1,-1,-1,-1,-1,-1,-1,-1,-1,-1,-1,-1,-1,-1,-1,-1,-1,-1,-1,-1,-1,-1,-1,-1,-1,-1,-1,-1,-1,-1,-1,-1,-1,-1,-1,-1,-1,-1,-1,-1,-1,-1,-1,-1,-1,-1,-1,-1,-1,-1,-1,-1,-1,-1,-1,-1,-1,-1,-1,-1,-1,-1,-1,-1,-1,-1,-1,-1,-1,-1,-1,-1,-1,-1,-1,-1,-1,-1,-1,-1,-1,-1,-1,-1,-1,-1,-1,-1,-1,-1,-1,-1,-1,-1,-1,-1,-1,-1,-1,-1,-1,-1,-1,-1,-1,-1,-1,-1,-1,-1,-1,-1,-1,-1,-1,-1,-1,-1,-1,-1,-1,-1,-1,-1,-1,-1,-1,-1,-1,-1,-1,-1,-1,-1,-1,-1,-1,-1,-1,-1,-1,-1,-1,-1,-1,-1],"loss_changes":[4.3961215E2,2.113727E2,1.4646979E2,2.9944214E1,1.5101614E2,8.056448E1,3.502061E1,3.0572586E1,1.9949142E1,1.0009064E2,4.2080246E1,5.455033E1,3.3992584E1,2.4245491E1,2.0705698E1,1.4858137E1,1.8935272E1,1.5198013E1,1.1986097E1,1.6948662E1,5.4027134E1,2.4980804E1,1.9522722E1,3.2738342E1,2.9476479E1,2.4053207E1,2.3237427E1,2.0974968E1,8.05542E0,1.9033676E1,1.6724352E1,1.2418043E1,1.36545315E1,1.3672614E1,1.9164093E1,1.2079456E1,1.0572098E1,1.2831717E0,2.30696E0,1.2449272E1,1.1023326E1,3.5850704E1,2.2857323E1,2.5058937E1,1.9921478E1,1.5445964E1,8.33741E0,2.0264011E1,2.657154E1,1.4406829E1,2.5233109E1,1.7376656E1,2.0457016E1,1.4586121E1,1.7576324E1,1.7814789E1,1.760114E1,6.10083E0,7.365057E0,8.892753E0,1.8601532E1,1.5470237E1,5.4109955E0,1.213062E1,5.563328E0,2.011076E1,9.023706E0,3.6191397E0,9.794187E0,1.5154786E1,1.6250397E1,1.6100125E0,3.548565E0,4.894394E0,1.0694298E1,0E0,0E0,0E0,0E0,1.0945366E1,1.876958E1,6.667198E0,4.874037E0,2.055709E1,2.732294E1,8.366596E0,2.0374382E1,1.1649284E1,1.8527866E1,1.1943314E1,1.3400787E1,1.2294977E1,6.1337156E0,5.232916E0,3.9699404E0,1.0387951E1,1.2870394E1,1.4719175E1,1.5913662E1,1.1053904E1,6.4461064E0,1.226169E1,2.155207E1,9.899878E0,1.5459274E1,1.4814649E1,1.6708344E1,8.529787E0,1.0298005E1,1.8111279E1,1.6395569E1,1.4808235E1,2.3329382E0,1.6397818E1,5.1553183E0,1.5181077E0,5.27433E0,8.106537E-1,0E0,4.2989426E0,0E0,1.6680117E1,9.4958E0,1.0744104E1,9.011998E0,0E0,3.9439087E0,7.7266116E0,8.704142E0,5.635353E0,1.3900812E0,1.3351595E1,8.580385E0,5.5550184E0,4.1272125E0,2.8519088E-1,0E0,9.4794464E-1,0E0,2.4750834E1,1.9849518E1,7.1802063E0,1.8766861E1,0E0,0E0,0E0,1.5082632E0,0E0,3.8099213E0,1.43198395E1,6.534683E0,0E0,1.0098381E1,9.132166E0,9.313375E0,4.952737E0,9.506062E-1,0E0,3.2559538E0,7.4899406E0,1.9217632E1,1.4411243E1,1.7232939E1,5.029684E0,9.90638E0,7.652789E0,2.0076744E1,1.1930702E1,9.639207E0,1.8616638E1,1.5702257E1,3.57121E0,6.147843E0,1.3396164E1,1.6217113E1,1.2267405E1,1.7705208E1,0E0,7.856542E-1,2.3568E0,1.5497799E0,2.3491142E0,0E0,8.0573015E0,5.647705E0,1.303484E1,2.5484037E0,9.473555E0,8.503353E0,1.4176283E1,1.2506778E1,5.3777504E0,4.9879074E0,0E0,1.3231413E0,3.9099236E0,1.318537E1,1.3333097E1,1.3979202E1,3.6529722E0,7.697897E0,1.0108052E1,1.1455215E1,7.862796E0,9.634457E0,1.1828407E1,1.814006E1,1.907507E0,3.34657E0,3.5741365E0,5.5722666E0,5.3837037E0,1.3351742E1,1.28785095E1,7.844758E-1,8.070019E0,1.1144493E1,0E0,0E0,9.61519E0,1.1625723E1,1.3491669E0,1.011917E0,0E0,0E0,5.266136E0,1.761322E0,0E0,0E0,0E0,2.9899826E0,1.5535467E1,5.329693E0,4.2364016E0,1.5230656E0,0E0,8.559779E0,6.9501224E0,6.1992702E0,0E0,1.7576256E0,0E0,0E0,0E0,0E0,0E0,0E0,0E0,0E0,0E0,0E0,0E0,0E0,0E0,0E0,0E0,0E0,0E0,0E0,0E0,0E0,0E0,0E0,0E0,0E0,0E0,0E0,0E0,0E0,0E0,0E0,0E0,0E0,0E0,0E0,0E0,0E0,0E0,0E0,0E0,0E0,0E0,0E0,0E0,0E0,0E0,0E0,0E0,0E0,0E0,0E0,0E0,0E0,0E0,0E0,0E0,0E0,0E0,0E0,0E0,0E0,0E0,0E0,0E0,0E0,0E0,0E0,0E0,0E0,0E0,0E0,0E0,0E0,0E0,0E0,0E0,0E0,0E0,0E0,0E0,0E0,0E0,0E0,0E0,0E0,0E0,0E0,0E0,0E0,0E0,0E0,0E0,0E0,0E0,0E0,0E0,0E0,0E0,0E0,0E0,0E0,0E0,0E0,0E0,0E0,0E0,0E0,0E0,0E0,0E0,0E0,0E0,0E0,0E0,0E0,0E0,0E0,0E0,0E0,0E0,0E0,0E0,0E0,0E0,0E0,0E0,0E0,0E0,0E0,0E0,0E0,0E0,0E0,0E0,0E0,0E0,0E0,0E0,0E0,0E0,0E0,0E0,0E0,0E0,0E0,0E0,0E0,0E0,0E0,0E0,0E0,0E0,0E0,0E0,0E0,0E0,0E0,0E0,0E0,0E0,0E0,0E0,0E0,0E0,0E0,0E0,0E0,0E0,0E0,0E0,0E0,0E0,0E0,0E0,0E0,0E0,0E0,0E0,0E0,0E0,0E0,0E0,0E0,0E0,0E0,0E0,0E0,0E0,0E0],"parents":[2147483647,0,0,1,1,2,2,3,3,4,4,5,5,6,6,7,7,8,8,9,9,10,10,11,11,12,12,13,13,14,14,15,15,16,16,17,17,18,18,19,19,20,20,21,21,22,22,23,23,24,24,25,25,26,26,27,27,28,28,29,29,30,30,31,31,32,32,33,33,34,34,35,35,36,36,37,37,38,38,39,39,40,40,41,41,42,42,43,43,44,44,45,45,46,46,47,47,48,48,49,49,50,50,51,51,52,52,53,53,54,54,55,55,56,56,57,57,58,58,59,59,60,60,61,61,62,62,63,63,64,64,65,65,66,66,67,67,68,68,69,69,70,70,71,71,72,72,73,73,74,74,79,79,80,80,81,81,82,82,83,83,84,84,85,85,86,86,87,87,88,88,89,89,90,90,91,91,92,92,93,93,94,94,95,95,96,96,97,97,98,98,99,99,100,100,101,101,102,102,103,103,104,104,105,105,106,106,107,107,108,108,109,109,110,110,111,111,112,112,113,113,114,114,115,115,116,116,117,117,119,119,121,121,122,122,123,123,124,124,126,126,127,127,128,128,129,129,130,130,131,131,132,132,133,133,134,134,135,135,137,137,139,139,140,140,141,141,142,142,146,146,148,148,149,149,150,150,152,152,153,153,154,154,155,155,156,156,158,158,159,159,160,160,161,161,162,162,163,163,164,164,165,165,166,166,167,167,168,168,169,169,170,170,171,171,172,172,173,173,174,174,175,175,176,176,178,178,179,179,180,180,181,181,183,183,184,184,185,185,186,186,187,187,188,188,189,189,190,190,191,191,192,192,194,194,195,195,196,196,197,197,198,198,199,199,200,200,201,201,202,202,203,203,204,204,205,205,206,206,207,207,208,208,209,209,210,210,211,211,212,212,213,213,214,214,215,215,216,216,219,219,220,220,221,221,222,222,225,225,226,226,230,230,231,231,232,232,233,233,234,234,236,236,237,237,238,238,240,240],"right_children":[2,4,6,8,10,12,14,16,18,20,22,24,26,28,30,32,34,36,38,40,42,44,46,48,50,52,54,56,58,60,62,64,66,68,70,72,74,76,78,80,82,84,86,88,90,92,94,96,98,100,102,104,106,108,110,112,114,116,118,120,122,124,126,128,130,132,134,136,138,140,142,144,146,148,150,-1,-1,-1,-1,152,154,156,158,160,162,164,166,168,170,172,174,176,178,180,182,184,186,188,190,192,194,196,198,200,202,204,206,208,210,212,214,216,218,220,222,224,226,228,-1,230,-1,232,234,236,238,-1,240,242,244,246,248,250,252,254,256,258,-1,260,-1,262,264,266,268,-1,-1,-1,270,-1,272,274,276,-1,278,280,282,284,286,-1,288,290,292,294,296,298,300,302,304,306,308,310,312,314,316,318,320,322,324,-1,326,328,330,332,-1,334,336,338,340,342,344,346,348,350,352,-1,354,356,358,360,362,364,366,368,370,372,374,376,378,380,382,384,386,388,390,392,394,396,398,-1,-1,400,402,404,406,-1,-1,408,410,-1,-1,-1,412,414,416,418,420,-1,422,424,426,-1,428,-1,-1,-1,-1,-1,-1,-1,-1,-1,-1,-1,-1,-1,-1,-1,-1,-1,-1,-1,-1,-1,-1,-1,-1,-1,-1,-1,-1,-1,-1,-1,-1,-1,-1,-1,-1,-1,-1,-1,-1,-1,-1,-1,-1,-1,-1,-1,-1,-1,-1,-1,-1,-1,-1,-1,-1,-1,-1,-1,-1,-1,-1,-1,-1,-1,-1,-1,-1,-1,-1,-1,-1,-1,-1,-1,-1,-1,-1,-1,-1,-1,-1,-1,-1,-1,-1,-1,-1,-1,-1,-1,-1,-1,-1,-1,-1,-1,-1,-1,-1,-1,-1,-1,-1,-1,-1,-1,-1,-1,-1,-1,-1,-1,-1,-1,-1,-1,-1,-1,-1,-1,-1,-1,-1,-1,-1,-1,-1,-1,-1,-1,-1,-1,-1,-1,-1,-1,-1,-1,-1,-1,-1,-1,-1,-1,-1,-1,-1,-1,-1,-1,-1,-1,-1,-1,-1,-1,-1,-1,-1,-1,-1,-1,-1,-1,-1,-1,-1,-1,-1,-1,-1,-1,-1,-1,-1,-1,-1,-1,-1,-1,-1,-1,-1,-1,-1,-1,-1],"split_conditions":[5.0078E-1,8.954953E-2,3.8774148E-1,5.174762E-1,3.250161E-1,5.2003855E-1,5.0076854E-1,3.2884046E-1,9.8289573E-1,7.4234284E-2,9.368814E-1,7.2552574E-1,9.4273E-1,4.500002E-1,4.2503712E-1,8.095238E-1,5.3489678E-2,1.556549E-1,4.3196902E-1,9.3711144E-1,8.113243E-1,4.620215E-1,4.4798836E-1,2.1934E-1,2.8610475E-2,2.5984284E-1,2.5017967E-2,8.172214E-1,5.7787204E-1,1.6263571E-1,5.017561E-1,8.717949E-1,9.145229E-1,3.9912626E-1,1.2501888E-1,2.055557E-1,9.62963E-1,9.259259E-1,3.4470952E-1,4.7432572E-1,2.5834304E-1,1.8859428E-1,9.7148575E-2,9.967543E-2,6.666667E-2,1E0,5.826843E-1,4.8181525E-1,2.2862214E-1,6.0503423E-1,2.0047429E-1,3.676324E-1,2.2275428E-1,8.3423144E-1,3.1558156E-1,5.688532E-1,6.825434E-1,6.5615E-2,3.9000857E-1,7.419811E-1,4.8334754E-1,5E-1,3.9722294E-1,8.893865E-1,5.312771E-1,5.0055194E-1,9.598843E-1,4.5895523E-1,4.9580702E-1,4.4186863E-1,8.333333E-1,2.0678659E-1,1.00012854E-1,5.0061874E-2,3.2883376E-1,1.01614585E-2,4.078617E-2,2.312313E-3,-2.5099786E-2,5.1364798E-2,1.919144E-1,8.341886E-1,4.8754577E-2,7.878788E-1,1.6771428E-2,1.5000424E-1,4.82174E-2,3.6666912E-1,7.8294426E-1,6.666667E-2,5.965126E-1,5.0460476E-1,4.8500076E-1,5.6442523E-1,4.6167603E-1,2.4850355E-1,5.214587E-1,1.1124129E-1,1.6666667E-1,2.1864973E-1,8.5823613E-1,1.2006357E-1,8.970843E-1,8.137721E-1,9.69697E-1,2.416992E-1,1.666874E-1,3.5406551E-3,9.830686E-1,1.4663714E-1,4.916812E-1,4.2424244E-1,2.7128553E-1,4.7415525E-1,9.713257E-1,5.012012E-1,4.1667047E-1,5E-1,2.4896005E-2,2.2204591E-1,2.2770513E-2,4.7627345E-1,9.828486E-1,2.05635E-1,3.7503177E-1,5.8231247E-3,9.52381E-2,5.8113754E-1,3.7500018E-1,1.5245037E-1,2.3993357E-1,2.1668825E-1,2.2979301E-1,5.064879E-1,7.1428573E-1,2.6608258E-1,4.1645065E-2,5E-1,2.2590084E-2,8.095238E-1,9.3723285E-1,5.254794E-1,1.5852726E-1,3.4543496E-2,4.5136516E-3,-3.3990454E-2,7.829657E-1,2.8264234E-3,2.068672E-1,3.7943983E-1,9.6558285E-1,2.4436282E-2,4.6666825E-1,5.002807E-1,2.0203678E-1,4.040857E-1,3.7494E-1,-8.59701E-3,2.188238E-1,9.3698287E-1,1.1071086E-1,1.9863711E-1,5.002807E-1,9.8271143E-1,1.0555195E-1,1.7676969E-1,2.6867047E-1,2.8966342E-3,5.006657E-1,9.826471E-1,5.045829E-1,2E-1,1.6288571E-1,9.4250274E-1,4.833369E-1,1.3606241E-1,4.346126E-1,4.1842572E-2,4.894762E-1,1.7095439E-1,6.675073E-1,3.91668E-1,2.1818822E-2,1.7999643E-1,5.000129E-1,4.8546368E-1,1.17812E-1,2.3804513E-1,9.8307145E-1,1.7500082E-1,5.0101906E-1,4.931581E-1,5.0067717E-1,3.48919E-2,3.5029858E-1,1.4811283E-1,3.4905368E-1,3.7501302E-1,3.4168035E-1,2.5835928E-1,2.0010571E-1,8.009935E-1,9.657343E-1,5.0116193E-1,2.3395462E-1,8.75E-1,4.855905E-1,5.0767934E-1,7.4289715E-1,9.827457E-1,4.0566668E-1,9.831857E-1,2.160233E-1,9.060961E-1,2.0833693E-1,7.372165E-1,5.6038916E-1,4.0856827E-2,5.137326E-3,9.8262715E-1,2.6266286E-1,4.5746E-1,2.1416071E-1,1.5139367E-2,-1.0920209E-2,3.9166713E-1,1.9709046E-1,-5.2236165E-3,-2.9712068E-2,1.0494696E-2,4.3334612E-1,3.764505E-1,5.0455046E-1,6.2283283E-1,2.6022914E-1,3.9176725E-2,3.0206972E-1,9.0835714E-1,3.9085263E-1,-3.031493E-3,4.0833557E-1,-1.3539421E-2,2.7192717E-2,-2.3199005E-2,5.854527E-3,7.071735E-3,-2.7740054E-2,1.3010951E-2,-1.0633461E-2,1.0732704E-2,-1.4481474E-2,-4.420221E-3,3.7869383E-2,2.9205782E-2,-7.747169E-4,1.8331835E-3,4.3259315E-2,2.2848134E-3,1.5492634E-2,-3.4203924E-2,-8.646817E-3,2.8572332E-2,-1.1261781E-2,-1.9814743E-2,2.5042145E-2,-2.3194032E-2,-3.7205596E-2,-2.829783E-2,-1.2799016E-2,-1.2039282E-2,9.753718E-3,-1.4727744E-2,-3.5589714E-2,9.045346E-3,-2.652455E-2,-2.8084027E-2,5.5947215E-3,-2.1843005E-2,2.7071519E-2,2.3124725E-2,-2.6766596E-2,7.4644913E-3,-1.7576272E-2,-5.4365015E-3,-3.164517E-2,2.3208238E-2,3.9572227E-3,8.302025E-3,3.720993E-2,-2.4763772E-2,-3.1728346E-3,-2.4847379E-2,-1.0915038E-3,1.3503172E-2,-2.0886127E-2,2.3441042E-3,-6.1490303E-3,-2.5575481E-2,-5.35783E-4,2.4547298E-2,-7.2034136E-3,5.634383E-3,-1.1390446E-2,2.4385714E-4,9.180666E-3,2.6028793E-2,-2.806742E-2,-1.918877E-2,2.6076126E-3,-1.2489316E-2,9.713004E-4,-8.025541E-3,7.419004E-3,2.7943103E-2,1.8005839E-3,1.2853528E-2,-2.3081208E-2,-1.531369E-2,-2.6468627E-2,2.3591602E-2,-2.6413763E-2,4.011719E-2,-7.5704223E-3,1.5074195E-3,3.0185658E-2,-0E0,1.7324504E-2,-2.1700056E-3,-3.1876165E-2,1.0305606E-2,-1.4714958E-2,1.8063386E-3,-1.8355768E-2,1.7297568E-2,-1.494535E-2,-2.517428E-2,1.2655873E-2,-1.0340801E-2,1.0829682E-2,-5.7424563E-3,-3.3143368E-2,-1.5512325E-2,3.2539766E-2,-2.0171922E-2,2.6476686E-3,-2.5617757E-3,2.56748E-2,-2.3885516E-3,4.7431057E-3,2.2217335E-2,-1.7476017E-2,-3.2895304E-2,-1.12552475E-2,-1.6651247E-2,4.896162E-3,2.5012225E-4,-2.4364032E-2,-3.2905152E-3,2.3081023E-2,6.044533E-3,-1.0395479E-2,1.1560892E-2,3.2378256E-2,-1.3632029E-3,3.8181398E-2,-3.3480857E-2,-1.0749511E-2,2.9680131E-2,6.14891E-3,-1.0088849E-2,1.0094357E-2,-2.18457E-2,-3.361721E-3,-9.160414E-3,1.8419825E-2,1.8582793E-2,9.811591E-3,1.465992E-5,8.929252E-3,-3.4906107E-3,-3.1576566E-2,-1.6152298E-2,1.5087877E-2,-1.0241486E-2,8.906901E-3,-2.5469991E-3,3.7072357E-2,-2.0373732E-2,3.2002954E-3,1.7455325E-2,6.9487537E-3,1.8959457E-2,1.2636951E-2,-2.968029E-2,-6.673606E-3,-2.9652376E-2,8.263406E-3,-6.592127E-3,-2.3232628E-2,-1.6777314E-2,2.04257E-2,-1.0171942E-2,2.1352645E-2,-3.261576E-2,-6.4499592E-3,1.3184097E-2,-8.051963E-3,-2.3191439E-2,8.110414E-3,-1.8330408E-2,-3.5283625E-2,-2.714998E-2,-0E0,-2.3689468E-3,1.3283929E-2,4.197297E-2,1.7066034E-2,-6.0073445E-3,-3.0967437E-2,4.6963678E-4,2.9976182E-2,2.1207165E-2,-4.051901E-3,2.5393523E-2,-9.334472E-3,3.0998383E-3,-2.9390987E-2,-7.0608533E-3,-3.5519592E-2],"split_indices":[556,591,335,108,585,256,306,573,356,496,361,531,131,565,35,89,518,308,548,441,431,395,90,366,196,366,405,261,335,406,133,514,231,193,570,411,444,154,141,571,410,586,511,141,289,488,231,541,566,388,276,461,571,481,168,165,153,541,541,573,440,398,75,127,586,528,201,371,318,463,504,13,536,358,528,0,0,0,0,267,283,36,163,364,301,405,545,305,461,19,170,411,28,33,400,358,283,308,314,573,527,401,31,367,489,295,155,440,231,411,180,404,98,366,491,3,300,121,0,153,0,150,381,171,560,0,274,452,55,168,21,478,230,27,139,153,0,333,0,309,181,223,205,0,0,0,401,0,328,468,341,0,500,88,253,553,26,0,526,451,256,83,398,341,260,553,66,543,591,26,201,159,276,282,490,540,175,0,166,348,13,465,0,396,150,548,533,473,306,125,231,46,451,0,125,538,265,455,525,215,491,477,276,281,218,274,101,92,531,411,46,541,98,157,30,383,433,0,0,331,566,46,36,0,0,225,88,0,0,0,125,188,61,456,68,0,313,391,15,0,280,0,0,0,0,0,0,0,0,0,0,0,0,0,0,0,0,0,0,0,0,0,0,0,0,0,0,0,0,0,0,0,0,0,0,0,0,0,0,0,0,0,0,0,0,0,0,0,0,0,0,0,0,0,0,0,0,0,0,0,0,0,0,0,0,0,0,0,0,0,0,0,0,0,0,0,0,0,0,0,0,0,0,0,0,0,0,0,0,0,0,0,0,0,0,0,0,0,0,0,0,0,0,0,0,0,0,0,0,0,0,0,0,0,0,0,0,0,0,0,0,0,0,0,0,0,0,0,0,0,0,0,0,0,0,0,0,0,0,0,0,0,0,0,0,0,0,0,0,0,0,0,0,0,0,0,0,0,0,0,0,0,0,0,0,0,0,0,0,0,0,0,0,0,0,0,0,0,0,0,0,0,0,0,0,0,0,0,0],"split_type":[0,0,0,0,0,0,0,0,0,0,0,0,0,0,0,0,0,0,0,0,0,0,0,0,0,0,0,0,0,0,0,0,0,0,0,0,0,0,0,0,0,0,0,0,0,0,0,0,0,0,0,0,0,0,0,0,0,0,0,0,0,0,0,0,0,0,0,0,0,0,0,0,0,0,0,0,0,0,0,0,0,0,0,0,0,0,0,0,0,0,0,0,0,0,0,0,0,0,0,0,0,0,0,0,0,0,0,0,0,0,0,0,0,0,0,0,0,0,0,0,0,0,0,0,0,0,0,0,0,0,0,0,0,0,0,0,0,0,0,0,0,0,0,0,0,0,0,0,0,0,0,0,0,0,0,0,0,0,0,0,0,0,0,0,0,0,0,0,0,0,0,0,0,0,0,0,0,0,0,0,0,0,0,0,0,0,0,0,0,0,0,0,0,0,0,0,0,0,0,0,0,0,0,0,0,0,0,0,0,0,0,0,0,0,0,0,0,0,0,0,0,0,0,0,0,0,0,0,0,0,0,0,0,0,0,0,0,0,0,0,0,0,0,0,0,0,0,0,0,0,0,0,0,0,0,0,0,0,0,0,0,0,0,0,0,0,0,0,0,0,0,0,0,0,0,0,0,0,0,0,0,0,0,0,0,0,0,0,0,0,0,0,0,0,0,0,0,0,0,0,0,0,0,0,0,0,0,0,0,0,0,0,0,0,0,0,0,0,0,0,0,0,0,0,0,0,0,0,0,0,0,0,0,0,0,0,0,0,0,0,0,0,0,0,0,0,0,0,0,0,0,0,0,0,0,0,0,0,0,0,0,0,0,0,0,0,0,0,0,0,0,0,0,0,0,0,0,0,0,0,0,0,0,0,0,0,0,0,0,0,0,0,0,0,0,0,0,0,0,0,0,0,0,0,0,0,0,0,0,0,0,0,0,0,0,0,0,0,0,0,0,0,0,0,0,0,0,0,0],"sum_hessian":[1.5598E4,7.606E3,7.992E3,1.377E3,6.229E3,6.939E3,1.053E3,1.047E3,3.3E2,4.282E3,1.947E3,2.87E3,4.069E3,5.46E2,5.07E2,2.96E2,7.51E2,3.12E2,1.8E1,4.17E2,3.865E3,1.506E3,4.41E2,1.327E3,1.543E3,2.1E3,1.969E3,4.41E2,1.05E2,3.38E2,1.69E2,1.21E2,1.75E2,2.8E1,7.23E2,2.6E1,2.86E2,8E0,1E1,3.58E2,5.9E1,2.156E3,1.709E3,1.04E3,4.66E2,3.77E2,6.4E1,2.53E2,1.074E3,7.2E1,1.471E3,2.77E2,1.823E3,8.3E1,1.886E3,3.12E2,1.29E2,9.4E1,1.1E1,3.8E1,3E2,1.3E2,3.9E1,5.7E1,6.4E1,1.3E2,4.5E1,1.4E1,1.4E1,1.5E2,5.73E2,8E0,1.8E1,1.45E2,1.41E2,3E0,5E0,4E0,6E0,2.33E2,1.25E2,3.9E1,2E1,3.24E2,1.832E3,9.2E1,1.617E3,1.78E2,8.62E2,4E1,4.26E2,3.58E2,1.9E1,4.1E1,2.3E1,1.32E2,1.21E2,1.21E2,9.53E2,5.7E1,1.5E1,1.68E2,1.303E3,7.4E1,2.03E2,1.37E2,1.686E3,3.4E1,4.9E1,6E2,1.286E3,3.04E2,8E0,1.06E2,2.3E1,6E0,8.8E1,6E0,5E0,3.4E1,4E0,2.67E2,3.3E1,7E1,6E1,4E0,3.5E1,1.9E1,3.8E1,5.7E1,7E0,1.12E2,1.8E1,3.2E1,1.3E1,7E0,7E0,1E1,4E0,5.7E1,9.3E1,1.76E2,3.97E2,5E0,3E0,6E0,1.2E1,3E0,1.42E2,3.9E1,1.02E2,4E0,2.29E2,2.3E1,1.02E2,2.8E1,1.1E1,4E0,1.6E1,1.07E2,2.17E2,8.7E1,1.745E3,3.8E1,5.4E1,1.07E2,1.51E3,1.04E2,7.4E1,6.27E2,2.35E2,2E1,2E1,4.04E2,2.2E1,1.71E2,1.87E2,1E1,9E0,3.4E1,7E0,1.9E1,4E0,2.8E1,1.04E2,1.04E2,1.7E1,1.4E1,1.07E2,6.9E1,8.84E2,1.1E1,4.6E1,6E0,9E0,3.4E1,1.34E2,6.34E2,6.69E2,7E0,6.7E1,8.4E1,1.19E2,8.7E1,5E1,7.61E2,9.25E2,2.3E1,1.1E1,3.4E1,1.5E1,3.6E1,5.64E2,1.277E3,9E0,6E1,2.44E2,5E0,3E0,3.5E1,7.1E1,1.7E1,6E0,3E0,3E0,2.2E1,6.6E1,3E0,3E0,3E0,3.1E1,2.31E2,3.6E1,2.7E1,6E0,7E0,6.3E1,2.5E1,3.5E1,5E0,3E1,5E0,1.4E1,2.4E1,1.4E1,4E0,5.3E1,4E0,3E0,2.3E1,8.9E1,6E0,1.2E1,6E0,2.6E1,3E0,1E1,4E0,3E0,7E0,3E0,2.2E1,3.5E1,8.4E1,9E0,1.23E2,5.3E1,9.3E1,3.04E2,9E0,3E0,1.1E1,1.31E2,2.1E1,1.8E1,9.7E1,5E0,2.26E2,3E0,2E1,3E0,1.5E1,8.7E1,1.8E1,1E1,3E0,8E0,7E0,9E0,8.9E1,1.8E1,3.6E1,1.81E2,1.2E1,7.5E1,1.495E3,2.5E2,2.8E1,1E1,1E1,4.4E1,3.4E1,7.3E1,2.78E2,1.232E3,3E0,1.01E2,4.4E1,3E1,5.15E2,1.12E2,1.16E2,1.19E2,1.2E1,8E0,5E0,1.5E1,1.98E2,2.06E2,1.3E1,9E0,4E0,1.67E2,1.66E2,2.1E1,6E0,3E0,3E0,3.1E1,4E0,3E0,1E1,9E0,1E1,1.8E1,1.01E2,3E0,4.6E1,5.8E1,5E0,1.2E1,5E0,9E0,9E1,1.7E1,2.4E1,4.5E1,4.58E2,4.26E2,7E0,4E0,2.9E1,1.7E1,3E0,6E0,7E0,2.7E1,1.15E2,1.9E1,5.87E2,4.7E1,6.39E2,3E1,4E0,3E0,1.9E1,4.8E1,2.2E1,6.2E1,8.4E1,3.5E1,3.4E1,5.3E1,1.6E1,3.4E1,1.86E2,5.75E2,3.09E2,6.16E2,3E0,2E1,4E0,7E0,2E1,1.4E1,4E0,1.1E1,2.3E1,1.3E1,1.49E2,4.15E2,4.71E2,8.06E2,6E0,3E0,5.5E1,5E0,2E2,4.4E1,2.8E1,7E0,1.2E1,5.9E1,1.4E1,3E0,3E0,3E0,1.6E1,6E0,1.1E1,5.5E1,2.7E1,4E0,9.9E1,1.32E2,1.5E1,2.1E1,1.1E1,1.6E1,3E0,3E0,1.5E1,4.8E1,6E0,1.9E1,6E0,2.9E1,3E0,2.7E1],"tree_param":{"num_deleted":"0","num_feature":"600","num_nodes":"429","size_leaf_vector":"1"}},{"base_weights":[4.4859983E-3,-4.552911E-1,5.628761E-2,-3.6708486E-1,-7.11767E-1,1.229463E-1,-2.3894976E-1,-4.2031375E-1,8.92318E-2,-1.096781E0,-6.1151034E-1,-1.5807535E-1,1.7465307E-1,-3.1976935E-1,-1.7981596E-2,-6.047345E-1,-3.1026554E-1,-1.7067738E-1,6.8457043E-1,7.48509E-3,-1.1523298E0,-7.252319E-1,-1.9625597E-1,-2.774124E-1,9.488721E-2,6.762578E-2,2.7030888E-1,-2.3198746E-1,-4.7697634E-1,-6.360499E-1,4.3402743E-2,-6.535415E-1,5.3012133E-2,-3.912278E-1,2.5165582E-2,5.960259E-1,-3.5325876E-1,2.1237865E-1,4.705807E-2,-6.2568295E-3,-1.19855E0,-9.5768243E-1,-5.269797E-1,-9.209314E-1,2.1543568E-1,-1.8966787E-1,-6.4290166E-1,1.4028732E-1,-8.2301444E-1,-5.0293837E-2,1.9988352E-1,1.7593743E-1,3.3835024E-1,-3.0121258E-1,1.1342778E-1,-1.8113354E-1,-6.603208E-1,-9.6992326E-1,-2.5689283E-1,2.9465532E-1,-1.5390113E-1,-7.3208296E-1,-1.8288282E-1,6.653796E-1,-8.105928E-1,-3.218178E-1,-7.596982E-1,-1.7847063E-1,8.1231374E-1,-3.8225844E-3,9.1641307E-1,-5.695739E-1,5.609938E-1,1.1428857E0,-3.4158897E-1,-8.6128044E-1,-3.842493E-2,4.853229E-3,-1.0003816E0,-9.4845194E-1,-3.7505683E-1,-4.9442E-3,-1.0463719E0,-3.425215E-1,7.453348E-1,-5.174799E-1,-1.04182385E-1,-1.3745166E-1,-7.720638E-1,6.868691E-2,6.965117E-1,-1.0210048E0,6.970329E-3,-1.2351153E-3,-5.123205E-1,1.0439154E-1,3.2636762E-1,1.9615804E-1,-3.5434297E-1,1.813306E-1,3.8350928E-1,-3.1937087E-1,7.177504E-1,-2.0078008E-1,4.5635444E-1,3.063796E-1,-2.9858395E-1,-5.083831E-1,-9.392158E-1,-1.0792161E0,2.0176338E-3,3.180827E-2,-4.3945643E-1,-2.1858868E-1,4.1085723E-1,-8.62038E-2,-7.306998E-1,5.538276E-1,-7.635331E-1,7.4648464E-1,-4.13341E-1,1.1294056E0,-1.9624919E-2,1.8257573E-3,-3.3568494E-2,-4.0835118E-1,-2.2836741E-2,2.376383E-2,-8.2818717E-1,-7.142729E-1,6.819529E-2,1.0612715E0,-2.5785353E-2,3.447561E-3,3.479094E-2,-9.0845317E-1,1.1471943E-1,-2.9212427E-1,3.7495434E-2,4.2774048E-2,1.0111845E-2,-3.2705784E-2,5.284532E-2,-3.8120954E-3,-2.9789537E-2,4.310796E-3,-1.0454282E0,-1.0781239E0,-3.112143E-3,5.14041E-1,-4.7617406E-1,-1.2591416E-2,-3.3538938E-2,1.083866E-1,-2.848622E-2,-1.0716316E-2,9.8870444E-1,1.313396E-1,-6.2321717E-1,-3.1870812E-1,2.4453541E-2,-4.518342E-1,5.986043E-1,-1.6949007E-1,-8.554362E-1,-2.6161337E-1,1.806931E-1,-1.7653257E-2,8.213048E-1,-1.1406606E0,-4.2742356E-3,-1.2750992E-1,1.3097164E-1,-2.8520805E-1,-8.4762615E-1,4.660523E-1,5.8211084E-2,2.3030539E-1,5.588957E-1,9.9447004E-2,2.978571E-1,6.607809E-1,-5.297422E-1,-1.0690244E-1,2.6769817E-1,2.6843446E-1,4.5785123E-1,-1.0347901E-2,-3.772963E-1,-7.8382194E-2,1.1306819E0,-5.2192205E-1,2.5105828E-1,7.5921875E-1,6.512964E-2,8.2918346E-1,-8.8261074E-4,-4.2471975E-1,2.1669395E-1,2.4632269E-1,-5.8585876E-1,6.0083778E-3,-9.8175305E-1,-7.0693917E-3,-3.4815446E-2,-1.5775113E-1,-8.5138726E-1,-4.680195E-1,8.658226E-1,1.2262052E0,3.2173398E-1,-1.0733016E-2,-6.954315E-1,1.8147732E-1,-1.0339522E0,-3.91157E-3,3.0312981E-2,-2.7636327E-2,-1.462888E-2,3.2875165E-2,2.6427533E-3,-2.6447795E-2,5.629239E-3,2.6778975E-3,4.267566E-2,-9.771602E-3,-2.296136E-2,-1.8766534E-2,8.453089E-3,1.4804546E-2,-2.713659E-2,-0E0,-2.7237851E-2,-1.34116E-2,1.2852321E-2,4.7628134E-3,4.043199E-2,-0E0,-2.9447826E-2,4.0677015E-2,-8.222088E-3,2.8315838E-3,-1.8918108E-2,-1.351701E-2,1.120117E-2,-1.767859E-2,-3.371789E-2,-1.6485943E-2,-3.5370145E-2,2.8057424E-2,-4.7536897E-3,2.9068862E-3,-1.8719314E-2,-5.5731256E-3,2.7456688E-2,-7.506513E-4,3.7498493E-2,-3.41693E-2,1.3428385E-2,-2.3437286E-2,-7.065524E-3,1.081608E-3,-1.4247428E-2,-8.413262E-3,3.9921217E-3,1.4539779E-2,-1.9972563E-2,3.6808427E-2,9.6810353E-4,-2.0761043E-2,1.863828E-2,-2.7865278E-2,-8.374146E-3,-2.4420027E-2,-2.902006E-3,5.865089E-4,1.2261567E-2,2.8398743E-2,-1.155057E-2,-1.5503429E-2,-3.6434274E-2,-1.2094426E-2,-1.1422201E-3,1.0346683E-3,1.0455904E-2,1.1245745E-2,-1.2570698E-2,-2.884153E-2,2.360921E-3,-2.3141157E-2,1.6752688E-2,-8.290075E-3,3.1844112E-3,1.01773374E-4,9.875048E-3,-2.3221036E-3,1.8565932E-2,-7.959773E-3,4.3498776E-3,7.577097E-3,1.8985072E-2,-1.6840982E-3,3.1162702E-2,-2.1221014E-2,4.150715E-3,-1.0043566E-2,8.550531E-3,-2.1975322E-3,9.632212E-3,5.6962385E-3,1.4613704E-2,1.0723997E-2,1.7389743E-2,-2.0211978E-2,3.011066E-3,-2.384311E-2,-9.819586E-3,2.7584566E-3,-7.6235216E-3,8.2485145E-3,4.1227933E-2,2.2623355E-2,-2.0136775E-2,-6.788882E-3,2.7643606E-2,5.96279E-3,3.4581374E-2,3.0471593E-2,-5.146479E-3,3.7647605E-2,-1.9691885E-3,1.2316474E-2,-1.7871661E-2,-3.8057412E-3,-2.1188373E-2,-5.7553565E-3,2.9145623E-2,2.1406783E-2,-2.6449647E-2,1.3902443E-2,-1.9531308E-2,-1.26292175E-2,-3.178748E-2,-1.4034671E-2,2.1901596E-3,-3.0917304E-2,-7.654842E-3,-2.2783509E-2,4.9468304E-4,3.901249E-2,-2.5851694E-3,-4.5735657E-4,4.2848676E-2,4.71095E-3,2.1915872E-2,2.1264797E-2,-2.0427473E-3,-2.7108181E-2,2.143011E-2,-2.7744278E-2,2.4060044E-2,-1.4971057E-2,-3.5511974E-2],"categories":[],"categories_nodes":[],"categories_segments":[],"categories_sizes":[],"default_left":[0,0,0,0,0,0,0,0,0,0,0,0,0,0,0,0,0,0,0,0,0,0,0,0,0,0,0,0,0,0,0,0,0,0,0,0,0,0,0,0,0,0,0,0,0,0,0,0,0,0,0,0,0,0,0,0,0,0,0,0,0,0,0,0,0,0,0,0,0,0,0,0,0,0,0,0,0,0,0,0,0,0,0,0,0,0,0,0,0,0,0,0,0,0,0,0,0,0,0,0,0,0,0,0,0,0,0,0,0,0,0,0,0,0,0,0,0,0,0,0,0,0,0,0,0,0,0,0,0,0,0,0,0,0,0,0,0,0,0,0,0,0,0,0,0,0,0,0,0,0,0,0,0,0,0,0,0,0,0,0,0,0,0,0,0,0,0,0,0,0,0,0,0,0,0,0,0,0,0,0,0,0,0,0,0,0,0,0,0,0,0,0,0,0,0,0,0,0,0,0,0,0,0,0,0,0,0,0,0,0,0,0,0,0,0,0,0,0,0,0,0,0,0,0,0,0,0,0,0,0,0,0,0,0,0,0,0,0,0,0,0,0,0,0,0,0,0,0,0,0,0,0,0,0,0,0,0,0,0,0,0,0,0,0,0,0,0,0,0,0,0,0,0,0,0,0,0,0,0,0,0,0,0,0,0,0,0,0,0,0,0,0,0,0,0,0,0,0,0,0,0,0,0,0,0,0,0,0,0,0,0,0,0,0,0,0,0,0,0,0,0,0,0,0,0,0,0,0,0,0,0,0,0,0,0,0,0,0,0,0,0,0,0,0,0,0,0,0,0,0,0,0,0,0,0,0,0,0,0,0,0,0,0],"id":1,"left_children":[1,3,5,7,9,11,13,15,17,19,21,23,25,27,29,31,33,35,37,-1,39,41,43,45,47,49,51,53,55,57,59,61,63,65,67,69,71,73,-1,-1,75,77,79,81,83,85,87,89,91,93,95,97,99,101,103,105,107,109,111,113,115,117,119,121,123,125,127,129,131,-1,133,135,137,139,141,143,-1,-1,145,147,149,-1,151,153,155,157,159,161,163,165,167,169,-1,171,173,175,177,179,181,183,185,187,189,191,193,195,197,199,201,203,-1,-1,205,207,209,211,213,215,217,219,221,223,-1,-1,-1,225,227,-1,229,231,233,235,-1,-1,-1,237,239,241,-1,-1,-1,-1,243,-1,-1,-1,245,247,-1,249,251,-1,-1,253,-1,-1,255,257,259,261,263,265,267,269,271,273,275,-1,277,279,-1,281,283,285,287,289,291,293,295,297,299,301,303,305,307,309,311,313,315,317,319,321,323,325,327,329,331,333,335,337,339,-1,341,-1,-1,343,345,347,349,351,353,355,357,359,361,-1,-1,-1,-1,-1,-1,-1,-1,-1,-1,-1,-1,-1,-1,-1,-1,-1,-1,-1,-1,-1,-1,-1,-1,-1,-1,-1,-1,-1,-1,-1,-1,-1,-1,-1,-1,-1,-1,-1,-1,-1,-1,-1,-1,-1,-1,-1,-1,-1,-1,-1,-1,-1,-1,-1,-1,-1,-1,-1,-1,-1,-1,-1,-1,-1,-1,-1,-1,-1,-1,-1,-1,-1,-1,-1,-1,-1,-1,-1,-1,-1,-1,-1,-1,-1,-1,-1,-1,-1,-1,-1,-1,-1,-1,-1,-1,-1,-1,-1,-1,-1,-1,-1,-1,-1,-1,-1,-1,-1,-1,-1,-1,-1,-1,-1,-1,-1,-1,-1,-1,-1,-1,-1,-1,-1,-1,-1,-1,-1,-1,-1,-1,-1,-1,-1,-1,-1,-1,-1,-1,-1,-1,-1,-1,-1,-1,-1,-1],"loss_changes":[3.725819E2,3.546527E1,2.7674017E2,2.875621E1,1.4752975E1,1.6672572E2,4.621414E1,2.1193146E1,1.935524E1,6.510124E0,1.5018654E1,5.3869434E1,9.915204E1,2.5983093E1,2.6454973E1,1.2743149E1,1.8106033E1,1.2365035E1,1.5351202E1,0E0,3.0553894E0,1.1006073E1,2.1451294E1,3.866327E1,2.3884047E1,7.137572E1,3.2739746E1,2.920095E1,3.6571747E1,7.6033497E0,3.1439201E1,1.3341232E1,1.5332449E1,1.3355858E1,2.10463E1,4.1359735E0,1.4361817E1,1.38727665E1,0E0,0E0,7.6394653E-1,5.742676E0,8.412273E0,2.1724968E0,1.3895981E1,2.73186E1,1.507962E1,2.1620571E1,5.9577637E0,5.4778126E1,2.597557E1,2.3064377E1,2.0940857E1,1.8988045E1,2.2098234E1,1.5035199E1,1.7090363E1,3.9145317E0,7.858341E0,1.6748575E1,1.3717265E1,1.3142654E1,1.1840976E1,1.1195484E1,3.3985243E0,1.1667507E1,9.587402E0,1.3858389E1,1.217013E1,0E0,2.0791645E0,1.3633373E1,8.688316E0,1.6229362E0,5.1810217E0,1.5023909E0,0E0,0E0,5.9609756E0,3.7132568E0,9.590911E0,0E0,3.640194E-1,6.482359E0,6.8561497E0,1.3989128E1,2.1506687E1,1.1594546E1,9.0967865E0,1.7982082E1,1.0448488E1,2.1269627E0,0E0,3.654366E1,1.7312256E1,2.0480185E1,2.0498909E1,2.0270302E1,1.440304E1,1.6624092E1,1.9532043E1,1.7839722E1,6.1113224E0,1.56842785E1,1.1479944E1,8.276093E0,1.382678E1,1.6140938E1,7.3515472E0,1.6443481E0,0E0,0E0,3.013986E0,1.4430692E1,1.6018646E1,1.4589184E1,1.0507826E1,2.719073E0,1.276561E1,2.315209E0,1.2616917E1,3.685318E0,0E0,0E0,0E0,9.996639E0,1.9120478E1,0E0,8.662872E0,4.5965557E0,1.3552895E1,5.8402176E0,0E0,0E0,0E0,2.5007782E0,1.0130946E1,1.0289224E0,0E0,0E0,0E0,0E0,2.0967968E0,0E0,0E0,0E0,2.9977798E0,8.3231735E-1,0E0,3.3417377E0,8.075111E0,0E0,0E0,3.5656838E0,0E0,0E0,5.4503937E0,1.2091929E1,1.0374702E1,1.624247E1,1.6150513E1,7.3524194E0,5.1722703E0,1.0354076E1,6.51548E0,1.1032725E1,1.3287515E1,0E0,9.037689E0,1.20290756E-1,0E0,2.7550657E1,2.238866E1,1.2527259E1,9.963974E0,1.6297394E1,1.7540567E1,1.4726715E1,1.0404732E1,1.7671577E1,1.5028061E1,3.4083042E0,8.224405E0,1.3854442E1,9.38406E0,1.5439407E1,1.680542E1,1.1803162E1,1.717427E1,2.4911438E-1,1.9585199E0,1.2500441E1,1.46787615E1,1.1765282E1,1.0157989E1,7.439522E0,8.339373E0,1.40842705E1,1.3216155E1,1.4315151E1,1.7282852E1,0E0,5.55986E0,0E0,0E0,1.3615522E0,7.8367424E-1,6.158455E0,4.3707957E0,5.6823845E0,1.3733734E1,1.174697E1,1.0936136E1,7.5941935E0,1.4843578E0,0E0,0E0,0E0,0E0,0E0,0E0,0E0,0E0,0E0,0E0,0E0,0E0,0E0,0E0,0E0,0E0,0E0,0E0,0E0,0E0,0E0,0E0,0E0,0E0,0E0,0E0,0E0,0E0,0E0,0E0,0E0,0E0,0E0,0E0,0E0,0E0,0E0,0E0,0E0,0E0,0E0,0E0,0E0,0E0,0E0,0E0,0E0,0E0,0E0,0E0,0E0,0E0,0E0,0E0,0E0,0E0,0E0,0E0,0E0,0E0,0E0,0E0,0E0,0E0,0E0,0E0,0E0,0E0,0E0,0E0,0E0,0E0,0E0,0E0,0E0,0E0,0E0,0E0,0E0,0E0,0E0,0E0,0E0,0E0,0E0,0E0,0E0,0E0,0E0,0E0,0E0,0E0,0E0,0E0,0E0,0E0,0E0,0E0,0E0,0E0,0E0,0E0,0E0,0E0,0E0,0E0,0E0,0E0,0E0,0E0,0E0,0E0,0E0,0E0,0E0,0E0,0E0,0E0,0E0,0E0,0E0,0E0,0E0,0E0,0E0,0E0,0E0,0E0,0E0,0E0,0E0,0E0,0E0,0E0,0E0,0E0,0E0,0E0,0E0,0E0,0E0,0E0,0E0,0E0,0E0,0E0,0E0,0E0],"parents":[2147483647,0,0,1,1,2,2,3,3,4,4,5,5,6,6,7,7,8,8,9,9,10,10,11,11,12,12,13,13,14,14,15,15,16,16,17,17,18,18,20,20,21,21,22,22,23,23,24,24,25,25,26,26,27,27,28,28,29,29,30,30,31,31,32,32,33,33,34,34,35,35,36,36,37,37,40,40,41,41,42,42,43,43,44,44,45,45,46,46,47,47,48,48,49,49,50,50,51,51,52,52,53,53,54,54,55,55,56,56,57,57,58,58,59,59,60,60,61,61,62,62,63,63,64,64,65,65,66,66,67,67,68,68,70,70,71,71,72,72,73,73,74,74,75,75,78,78,79,79,80,80,82,82,83,83,84,84,85,85,86,86,87,87,88,88,89,89,90,90,91,91,93,93,94,94,95,95,96,96,97,97,98,98,99,99,100,100,101,101,102,102,103,103,104,104,105,105,106,106,107,107,108,108,109,109,112,112,113,113,114,114,115,115,116,116,117,117,118,118,119,119,120,120,121,121,125,125,126,126,128,128,129,129,130,130,131,131,135,135,136,136,137,137,142,142,146,146,147,147,149,149,150,150,153,153,156,156,157,157,158,158,159,159,160,160,161,161,162,162,163,163,164,164,165,165,166,166,168,168,169,169,171,171,172,172,173,173,174,174,175,175,176,176,177,177,178,178,179,179,180,180,181,181,182,182,183,183,184,184,185,185,186,186,187,187,188,188,189,189,190,190,191,191,192,192,193,193,194,194,195,195,196,196,197,197,198,198,199,199,200,200,202,202,205,205,206,206,207,207,208,208,209,209,210,210,211,211,212,212,213,213,214,214],"right_children":[2,4,6,8,10,12,14,16,18,20,22,24,26,28,30,32,34,36,38,-1,40,42,44,46,48,50,52,54,56,58,60,62,64,66,68,70,72,74,-1,-1,76,78,80,82,84,86,88,90,92,94,96,98,100,102,104,106,108,110,112,114,116,118,120,122,124,126,128,130,132,-1,134,136,138,140,142,144,-1,-1,146,148,150,-1,152,154,156,158,160,162,164,166,168,170,-1,172,174,176,178,180,182,184,186,188,190,192,194,196,198,200,202,204,-1,-1,206,208,210,212,214,216,218,220,222,224,-1,-1,-1,226,228,-1,230,232,234,236,-1,-1,-1,238,240,242,-1,-1,-1,-1,244,-1,-1,-1,246,248,-1,250,252,-1,-1,254,-1,-1,256,258,260,262,264,266,268,270,272,274,276,-1,278,280,-1,282,284,286,288,290,292,294,296,298,300,302,304,306,308,310,312,314,316,318,320,322,324,326,328,330,332,334,336,338,340,-1,342,-1,-1,344,346,348,350,352,354,356,358,360,362,-1,-1,-1,-1,-1,-1,-1,-1,-1,-1,-1,-1,-1,-1,-1,-1,-1,-1,-1,-1,-1,-1,-1,-1,-1,-1,-1,-1,-1,-1,-1,-1,-1,-1,-1,-1,-1,-1,-1,-1,-1,-1,-1,-1,-1,-1,-1,-1,-1,-1,-1,-1,-1,-1,-1,-1,-1,-1,-1,-1,-1,-1,-1,-1,-1,-1,-1,-1,-1,-1,-1,-1,-1,-1,-1,-1,-1,-1,-1,-1,-1,-1,-1,-1,-1,-1,-1,-1,-1,-1,-1,-1,-1,-1,-1,-1,-1,-1,-1,-1,-1,-1,-1,-1,-1,-1,-1,-1,-1,-1,-1,-1,-1,-1,-1,-1,-1,-1,-1,-1,-1,-1,-1,-1,-1,-1,-1,-1,-1,-1,-1,-1,-1,-1,-1,-1,-1,-1,-1,-1,-1,-1,-1,-1,-1,-1,-1,-1],"split_conditions":[6.597286E-2,5.23283E-1,3.6667737E-1,9.8267287E-1,5.4545456E-1,2.3711357E-1,9.5414287E-1,2.0910475E-2,9.3716717E-1,1.9844177E-1,8.823441E-1,9.37E-1,7.1405715E-1,4.583452E-1,6.2835425E-2,1E0,9.7108287E-1,7.956671E-2,9.712243E-1,7.48509E-3,2.9211435E-1,2.3407815E-1,2.0833853E-1,5.719637E-1,4.1670156E-1,7.371E-1,6.513614E-1,9.8264E-1,7.2727275E-1,4.5900095E-1,2.839765E-1,9.769371E-1,3.750018E-1,5.788177E-1,1E0,7.4480414E-1,5.1502323E-1,3.4732243E-1,4.705807E-2,-6.2568295E-3,2.3537418E-1,6.666667E-2,8E-3,5.8334224E-2,3.9969572E-1,5.4162856E-2,3.1444266E-1,5.601451E-1,9.8264426E-1,6.992761E-1,9.4270426E-1,4.5183134E-1,1.2500127E-1,6.28239E-1,6.571114E-1,8.3356366E-2,4.5834556E-1,8.823441E-1,6.1302856E-2,1.0002571E-1,5E-1,3.5819376E-1,9.431143E-2,9.6549284E-1,1.9342496E-1,5.0055194E-1,5.5926284E-3,2.5685602E-1,4.3333676E-1,-3.8225844E-3,9.650924E-1,6.629E-1,2.9676926E-1,9.8254144E-1,2.6559284E-1,9.5711863E-1,-3.842493E-2,4.853229E-3,3.1134604E-2,4.5387855E-1,2.857143E-1,-4.9442E-3,5E-1,3.1428573E-1,2.1529905E-1,1.5872826E-1,4.2853144E-1,6.971043E-1,1.0582292E-1,2.1993357E-1,4.1012356E-1,8.9700717E-1,6.970329E-3,6.1152E-1,5.0052893E-1,4.6666667E-1,9.8277855E-1,9.142443E-1,3.6363637E-1,4.7784573E-1,8.1151146E-1,1.7793718E-1,8.1242573E-1,8.2284E-1,8.9139426E-1,9.3285984E-1,5.026132E-1,4.481785E-2,3.916725E-1,2.7063066E-2,2.0176338E-3,3.180827E-2,5.727983E-1,4.474139E-1,5E-1,7.425651E-1,5.185185E-1,3.1416538E-1,3.5757384E-1,3.833613E-1,9.427571E-2,2.538675E-1,-1.9624919E-2,1.8257573E-3,-3.3568494E-2,3.3156E-2,2.3995E-1,2.376383E-2,3.4347096E-1,1.750007E-1,3.789943E-1,2.8603414E-1,-2.5785353E-2,3.447561E-3,3.479094E-2,3.8465636E-3,4.9676096E-1,2.2124065E-1,3.7495434E-2,4.2774048E-2,1.0111845E-2,-3.2705784E-2,9.8221284E-1,-3.8120954E-3,-2.9789537E-2,4.310796E-3,8.9378065E-1,2.8103682E-1,-3.112143E-3,2.5978786E-1,9.655517E-1,-1.2591416E-2,-3.3538938E-2,9.612446E-1,-2.848622E-2,-1.0716316E-2,6.981022E-1,5.030221E-1,5.5422854E-1,8.4444445E-1,2.9716E-1,1.4645047E-1,1.2224742E-1,2.4166782E-1,9.3708146E-1,9.2179045E-2,2.1667022E-1,-1.7653257E-2,7.0962745E-1,1.0497747E-1,-4.2742356E-3,2.5904858E-1,9.3704426E-1,7.713859E-1,9.145511E-1,1.4851286E-1,1.8859857E-1,4.931581E-1,7.117206E-2,2.2817643E-1,5.114142E-1,1.8287358E-1,8.7981E-1,1.5834476E-1,2.5995356E-1,9.8288286E-1,9.7699E-1,1.15373716E-1,1.4814815E-1,6.060606E-1,4.1637033E-1,5.782857E-3,9.1425145E-1,4.917581E-1,1.5118425E-1,5.007462E-1,4.7501278E-1,3.8334444E-1,4.4532013E-1,4.213083E-1,7.2380275E-2,6.0083778E-3,5.9727143E-2,-7.0693917E-3,-3.4815446E-2,5.152281E-1,4.2478666E-1,6.915143E-1,7.2011286E-1,7.974E-2,9.7722E-1,2.962963E-1,5.002807E-1,2.7744538E-1,6.754828E-1,-3.91157E-3,3.0312981E-2,-2.7636327E-2,-1.462888E-2,3.2875165E-2,2.6427533E-3,-2.6447795E-2,5.629239E-3,2.6778975E-3,4.267566E-2,-9.771602E-3,-2.296136E-2,-1.8766534E-2,8.453089E-3,1.4804546E-2,-2.713659E-2,-0E0,-2.7237851E-2,-1.34116E-2,1.2852321E-2,4.7628134E-3,4.043199E-2,-0E0,-2.9447826E-2,4.0677015E-2,-8.222088E-3,2.8315838E-3,-1.8918108E-2,-1.351701E-2,1.120117E-2,-1.767859E-2,-3.371789E-2,-1.6485943E-2,-3.5370145E-2,2.8057424E-2,-4.7536897E-3,2.9068862E-3,-1.8719314E-2,-5.5731256E-3,2.7456688E-2,-7.506513E-4,3.7498493E-2,-3.41693E-2,1.3428385E-2,-2.3437286E-2,-7.065524E-3,1.081608E-3,-1.4247428E-2,-8.413262E-3,3.9921217E-3,1.4539779E-2,-1.9972563E-2,3.6808427E-2,9.6810353E-4,-2.0761043E-2,1.863828E-2,-2.7865278E-2,-8.374146E-3,-2.4420027E-2,-2.902006E-3,5.865089E-4,1.2261567E-2,2.8398743E-2,-1.155057E-2,-1.5503429E-2,-3.6434274E-2,-1.2094426E-2,-1.1422201E-3,1.0346683E-3,1.0455904E-2,1.1245745E-2,-1.2570698E-2,-2.884153E-2,2.360921E-3,-2.3141157E-2,1.6752688E-2,-8.290075E-3,3.1844112E-3,1.01773374E-4,9.875048E-3,-2.3221036E-3,1.8565932E-2,-7.959773E-3,4.3498776E-3,7.577097E-3,1.8985072E-2,-1.6840982E-3,3.1162702E-2,-2.1221014E-2,4.150715E-3,-1.0043566E-2,8.550531E-3,-2.1975322E-3,9.632212E-3,5.6962385E-3,1.4613704E-2,1.0723997E-2,1.7389743E-2,-2.0211978E-2,3.011066E-3,-2.384311E-2,-9.819586E-3,2.7584566E-3,-7.6235216E-3,8.2485145E-3,4.1227933E-2,2.2623355E-2,-2.0136775E-2,-6.788882E-3,2.7643606E-2,5.96279E-3,3.4581374E-2,3.0471593E-2,-5.146479E-3,3.7647605E-2,-1.9691885E-3,1.2316474E-2,-1.7871661E-2,-3.8057412E-3,-2.1188373E-2,-5.7553565E-3,2.9145623E-2,2.1406783E-2,-2.6449647E-2,1.3902443E-2,-1.9531308E-2,-1.26292175E-2,-3.178748E-2,-1.4034671E-2,2.1901596E-3,-3.0917304E-2,-7.654842E-3,-2.2783509E-2,4.9468304E-4,3.901249E-2,-2.5851694E-3,-4.5735657E-4,4.2848676E-2,4.71095E-3,2.1915872E-2,2.1264797E-2,-2.0427473E-3,-2.7108181E-2,2.143011E-2,-2.7744278E-2,2.4060044E-2,-1.4971057E-2,-3.5511974E-2],"split_indices":[596,328,455,441,559,426,566,586,246,568,368,591,576,525,386,526,376,48,546,0,308,140,525,358,335,461,71,236,209,6,45,191,285,253,311,122,53,538,0,0,595,424,396,585,76,441,538,308,1,518,126,180,540,165,166,260,290,368,516,191,435,462,271,471,278,528,525,478,195,0,552,526,273,76,566,117,0,0,583,120,169,0,547,1,493,298,291,171,28,451,132,91,0,226,533,314,381,511,554,506,141,408,577,271,321,257,70,323,370,438,0,0,353,315,269,103,299,53,25,425,566,113,0,0,0,596,186,0,367,480,141,593,0,0,0,283,531,8,0,0,0,0,246,0,0,0,137,133,0,321,347,0,0,453,0,0,267,367,86,214,156,86,165,110,326,521,510,0,48,138,0,336,556,452,138,436,551,201,460,326,8,1,141,310,336,276,36,581,479,4,8,56,101,111,573,37,20,120,473,355,258,0,541,0,0,542,221,361,51,76,256,224,438,133,162,0,0,0,0,0,0,0,0,0,0,0,0,0,0,0,0,0,0,0,0,0,0,0,0,0,0,0,0,0,0,0,0,0,0,0,0,0,0,0,0,0,0,0,0,0,0,0,0,0,0,0,0,0,0,0,0,0,0,0,0,0,0,0,0,0,0,0,0,0,0,0,0,0,0,0,0,0,0,0,0,0,0,0,0,0,0,0,0,0,0,0,0,0,0,0,0,0,0,0,0,0,0,0,0,0,0,0,0,0,0,0,0,0,0,0,0,0,0,0,0,0,0,0,0,0,0,0,0,0,0,0,0,0,0,0,0,0,0,0,0,0,0,0,0,0,0,0,0],"split_type":[0,0,0,0,0,0,0,0,0,0,0,0,0,0,0,0,0,0,0,0,0,0,0,0,0,0,0,0,0,0,0,0,0,0,0,0,0,0,0,0,0,0,0,0,0,0,0,0,0,0,0,0,0,0,0,0,0,0,0,0,0,0,0,0,0,0,0,0,0,0,0,0,0,0,0,0,0,0,0,0,0,0,0,0,0,0,0,0,0,0,0,0,0,0,0,0,0,0,0,0,0,0,0,0,0,0,0,0,0,0,0,0,0,0,0,0,0,0,0,0,0,0,0,0,0,0,0,0,0,0,0,0,0,0,0,0,0,0,0,0,0,0,0,0,0,0,0,0,0,0,0,0,0,0,0,0,0,0,0,0,0,0,0,0,0,0,0,0,0,0,0,0,0,0,0,0,0,0,0,0,0,0,0,0,0,0,0,0,0,0,0,0,0,0,0,0,0,0,0,0,0,0,0,0,0,0,0,0,0,0,0,0,0,0,0,0,0,0,0,0,0,0,0,0,0,0,0,0,0,0,0,0,0,0,0,0,0,0,0,0,0,0,0,0,0,0,0,0,0,0,0,0,0,0,0,0,0,0,0,0,0,0,0,0,0,0,0,0,0,0,0,0,0,0,0,0,0,0,0,0,0,0,0,0,0,0,0,0,0,0,0,0,0,0,0,0,0,0,0,0,0,0,0,0,0,0,0,0,0,0,0,0,0,0,0,0,0,0,0,0,0,0,0,0,0,0,0,0,0,0,0,0,0,0,0,0,0,0,0,0,0,0,0,0,0,0,0,0,0,0,0,0,0,0,0,0,0,0,0,0,0,0,0],"sum_hessian":[1.5643E4,1.583E3,1.406E4,1.18E3,4.03E2,1.1471E4,2.589E3,1.057E3,1.23E2,8.1E1,3.22E2,1.782E3,9.689E3,1.895E3,6.94E2,3.93E2,6.64E2,8.6E1,3.7E1,3E0,7.8E1,2.52E2,7E1,1.211E3,5.71E2,4.574E3,5.115E3,1.218E3,6.77E2,6.2E1,6.32E2,3.66E2,2.7E1,5.35E2,1.29E2,1.6E1,7E1,2.5E1,1.2E1,4E0,7.4E1,1.14E2,1.38E2,2.5E1,4.5E1,9.78E2,2.33E2,5.45E2,2.6E1,2.418E3,2.156E3,2.145E3,2.97E3,1.015E3,2.03E2,2.6E2,4.17E2,3.2E1,3E1,2.78E2,3.54E2,3.13E2,5.3E1,1.6E1,1.1E1,4.52E2,8.3E1,1.03E2,2.6E1,5E0,1.1E1,5.7E1,1.3E1,9E0,1.6E1,1.7E1,5.7E1,4E0,1.1E2,3.5E1,1.03E2,4E0,2.1E1,2.2E1,2.3E1,2.01E2,7.77E2,4.8E1,1.85E2,4.84E2,6.1E1,2.2E1,4E0,2.187E3,2.31E2,1.23E3,9.26E2,2.067E3,7.8E1,6.65E2,2.305E3,9.98E2,1.7E1,1.06E2,9.7E1,5E1,2.1E2,2.72E2,1.45E2,2.9E1,3E0,3E0,2.7E1,5.1E1,2.27E2,3.18E2,3.6E1,7E0,3.06E2,1E1,4.3E1,1.2E1,4E0,3E0,8E0,3.5E2,1.02E2,3E0,8E1,3.2E1,7.1E1,2.3E1,3E0,3E0,8E0,3.8E1,1.9E1,6E0,7E0,6E0,3E0,5E0,1.1E1,3E0,1.4E1,4E0,1.06E2,3E1,5E0,1E1,9.3E1,3E0,1.8E1,1.3E1,9E0,4E0,1.9E1,2.8E1,1.73E2,2.91E2,4.86E2,3.4E1,1.4E1,2.3E1,1.62E2,1.22E2,3.62E2,5E0,5.6E1,1.9E1,3E0,1.119E3,1.068E3,1.39E2,9.2E1,1.38E2,1.092E3,6.57E2,2.69E2,1.061E3,1.006E3,1.1E1,6.7E1,1.53E2,5.12E2,9.07E2,1.398E3,1.58E2,8.4E2,6E0,1.1E1,6.2E1,4.4E1,5.4E1,4.3E1,1.8E1,3.2E1,1.69E2,4.1E1,2.5E1,2.47E2,5E0,1.4E2,3E0,2.6E1,1.7E1,1E1,4.2E1,9E0,2.1E1,2.06E2,2.84E2,3.4E1,9E0,2.7E1,3E0,4E0,1.93E2,1.13E2,6E0,4E0,2.4E1,1.9E1,3E0,9E0,2.86E2,6.4E1,3.4E1,6.8E1,4E0,7.6E1,7E0,2.5E1,2.9E1,4.2E1,6E0,1.7E1,3E0,3.5E1,4E0,1.5E1,3E0,3E0,4E0,7E0,1.7E1,8.9E1,6E0,2.4E1,6E0,4E0,1.9E1,7.4E1,1E1,3E0,4E0,1.5E1,5E0,2.3E1,1.22E2,5.1E1,8.9E1,2.02E2,1.27E2,3.59E2,6E0,2.8E1,6E0,8E0,1.4E1,9E0,1.43E2,1.9E1,2.7E1,9.5E1,2.13E2,1.49E2,5.1E1,5E0,3E0,1.6E1,2.73E2,8.46E2,7.41E2,3.27E2,2.3E1,1.16E2,8.2E1,1E1,9E0,1.29E2,1.36E2,9.56E2,2E2,4.57E2,2.3E1,2.46E2,1.17E2,9.44E2,8.88E2,1.18E2,4E0,7E0,5.3E1,1.4E1,9.7E1,5.6E1,6.9E1,4.43E2,6.69E2,2.38E2,7.69E2,6.29E2,2.2E1,1.36E2,8.8E1,7.52E2,3E0,3E0,3E0,8E0,6E0,5.6E1,2.6E1,1.8E1,2.3E1,3.1E1,8E0,3.5E1,1.2E1,6E0,1.9E1,1.3E1,8.3E1,8.6E1,2.7E1,1.4E1,1.8E1,7E0,1.4E1,2.33E2,1.8E1,1.22E2,7E0,1E1,7E0,3E0,2.6E1,1.6E1,6E0,3E0,3E0,1.8E1,1.48E2,5.8E1,2E1,2.64E2,3E1,4E0,3E0,6E0,7E0,2E1],"tree_param":{"num_deleted":"0","num_feature":"600","num_nodes":"363","size_leaf_vector":"1"}},{"base_weights":[-4.6521383E-3,-1.6360186E-1,1.4295614E-1,-4.9535728E-1,-8.551438E-2,1.9067015E-1,-1.6680393E-1,-5.9889394E-1,-2.8505525E-1,2.05105E-2,-2.9145238E-1,6.400271E-2,2.8127092E-1,-2.6118973E-1,1.0505021E-1,-6.773289E-1,-2.7899888E-1,-3.2152274E-1,8.4318733E-1,-4.5125744E-1,5.830898E-2,-2.228255E-1,-5.372705E-1,-4.0699714E-1,1.005411E-1,1.7493074E-1,3.528524E-1,-2.0894173E-1,-7.4085796E-1,-6.113437E-1,2.319848E-1,-5.652184E-1,-8.784957E-1,-7.0282066E-1,-6.743816E-2,-3.845642E-1,2.647822E-1,-1.4059399E-3,3.908699E-2,-8.178229E-1,-2.605246E-1,-4.4054665E-2,1.8967506E-1,-5.155321E-1,-1.625142E-1,-3.5626218E-1,-7.838626E-1,-5.5765665E-1,2.86979E-1,-5.115827E-2,1.8421003E-1,8.056881E-2,3.351111E-1,1.6707005E-1,4.0074492E-1,-2.4171479E-1,6.0959387E-1,1.4691301E-2,-8.332216E-1,1.0993198E-2,-7.26543E-1,-3.292224E-1,3.8053998E-1,-2.8729558E-1,-7.491962E-1,-9.185742E-1,1.4687362E-1,-8.379807E-1,3.1865227E-1,-2.4816324E-1,7.64053E-1,-1.0702127E-2,-4.8629126E-1,6.505303E-1,-7.271001E-1,-8.7836987E-1,1.50105925E-2,6.1529344E-1,-3.4721458E-1,-4.9529818E-1,-4.9658725E-3,2.6655931E-2,2.7273348E-1,-8.667798E-1,-3.93188E-1,-3.3244243E-1,-7.021682E-2,-5.5306023E-1,4.946712E-2,-1.1948398E0,-6.426053E-1,-7.974339E-1,-2.0883808E-1,-1.9930379E-1,9.052874E-1,-1.343057E-1,2.2014247E-1,3.583082E-1,1.1783923E-1,-1.7849397E-2,2.4566661E-1,3.309434E-2,4.0987688E-1,-2.6113272E-2,2.9800364E-1,1.4529769E-1,4.3355784E-1,-1.4919154E-1,-5.8261716E-1,6.859832E-2,1.1385467E0,-4.0502554E-1,-1.0735753E0,-8.6730725E-1,6.4567975E-3,7.176623E-1,-5.186609E-1,4.59937E-1,-4.3927354E-1,6.298854E-1,-3.714747E-1,-8.2005864E-1,-2.7090365E-1,-9.815216E-1,-3.3064216E-1,-1.098279E-2,3.9749774E-1,5.713742E-2,-9.904407E-1,-4.745868E-3,1.9692004E-2,-4.8827335E-1,8.594768E-2,-1.6090629E-1,1.1850293E0,-4.5335686E-1,4.017981E-1,-9.0571237E-1,-4.066653E-1,-1.0684599E-1,1.1531671E0,5.374189E-3,-3.4826662E-2,-2.2676438E-1,-1.003048E0,1.0397563E0,-1.8597052E-1,2.6666072E-1,-4.6270913E-1,-6.000262E-1,3.8719296E-2,-1.0503085E-1,1.54604E-1,-1.0595157E-1,2.2203083E-1,2.9796723E-2,3.6432958E-1,-9.532037E-1,1.2821127E-2,-4.7753963E-1,4.5687994E-1,-4.9852648E-1,-1.177337E-1,-1.2261723E-2,-3.9052242E-1,-6.362237E-1,7.431391E-1,8.5864794E-1,-1.9132517E-1,-3.7460685E-2,-1.4182927E-2,-7.608775E-1,-1.0258862E-1,-9.840797E-2,-8.629482E-1,-4.968039E-1,2.3182863E-1,6.057421E-1,-5.453049E-1,-3.2003692E-4,1.1956327E0,2.4434042E-1,-1.9419435E-1,-6.668043E-2,3.9098614E-1,-3.8638833E-1,3.9336258E-1,1.7575517E-2,2.3889539E-1,-1.3739486E-1,1.6820514E-1,-3.8564116E-2,3.285554E-1,7.872117E-1,-8.721783E-2,1.2843437E0,3.7530184E-1,-4.8826063E-1,8.615507E-2,4.492427E-3,4.7074434E-1,5.367912E-1,-3.411304E-2,3.959149E-1,6.498294E-1,-3.731628E-1,-4.704918E-3,-2.1553117E-1,-8.435916E-1,5.924303E-1,-4.5130843E-1,4.3262534E-2,8.512852E-3,-6.4750224E-1,2.4596032E-2,-9.565057E-3,-1.135483E0,-4.0801796E-3,-9.6335006E-1,5.383974E-3,-4.294992E-3,-4.3524187E-3,3.8529724E-2,1.4622442E-2,-6.369101E-1,5.404239E-1,-1.737847E-1,3.8185562E-3,-8.585932E-1,-1.2751137E-2,3.759086E-2,-1.8844297E-2,-3.93852E-3,-1.1587337E-2,-2.6852787E-2,-2.1182222E-2,1.4843562E-2,-3.4609523E-2,-2.5439568E-2,-2.0605197E-2,1.3408734E-2,5.8348253E-3,1.5806332E-2,-5.4016453E-3,6.672281E-3,-2.723974E-3,-3.1385306E-2,-1.8392462E-2,2.2863658E-2,-2.883486E-2,9.202848E-3,2.7201013E-3,-1.3804504E-2,4.5035888E-2,1.1736547E-2,-2.0829987E-2,1.2761851E-2,-8.187959E-3,2.012255E-2,-8.353333E-3,-3.1484228E-2,-2.046772E-2,-7.8008524E-3,2.1448195E-2,-2.4751585E-2,1.0211647E-2,4.4101343E-2,4.877228E-3,-2.4614193E-2,-0E0,-3.167346E-2,5.0844415E-3,3.8997166E-2,-1.1639518E-2,1.1260669E-3,2.553057E-2,-1.239245E-2,-1.8573958E-2,2.8631622E-3,1.9222442E-2,-1.955555E-2,3.0227654E-2,-9.823667E-3,-6.5417993E-3,9.6412527E-4,8.2314255E-5,8.398892E-3,-1.3323326E-2,4.125208E-4,1.8713873E-2,2.4891945E-3,2.9457284E-3,-1.4915637E-2,4.9384097E-3,1.3447344E-2,5.3956406E-5,-3.0008873E-2,1.0516731E-2,-1.6558329E-2,4.0154137E-2,-1.3582609E-3,2.5978826E-2,-1.6015975E-2,-1.01716705E-2,6.082226E-3,7.7255126E-3,-2.433449E-3,-1.6898109E-2,3.7831266E-3,1.166117E-3,-2.2707185E-2,3.5999216E-2,-9.939466E-3,3.355158E-2,-1.3047025E-2,-8.884558E-3,2.7213177E-2,-1.4743836E-2,-3.131361E-2,3.1381536E-2,-1.2472091E-2,7.6127467E-3,-2.1452904E-2,-2.730181E-2,-3.4432142E-4,-2.3087109E-2,2.2554735E-3,-3.6978724E-3,3.575551E-2,6.541445E-3,2.4510017E-2,-2.2302872E-2,5.776214E-4,1.4858343E-2,4.322278E-2,1.3148838E-3,2.873458E-2,-1.3112928E-2,-3.3529252E-3,-2.0052206E-2,2.7633035E-3,2.4637647E-2,6.5737385E-3,4.510934E-3,-2.132962E-2,1.2620614E-2,-1.7125499E-2,1.6725322E-3,-1.5960526E-2,1.738979E-2,5.2699395E-3,-2.8527994E-3,-2.4447992E-2,-1.0930922E-2,8.277136E-3,2.0429967E-2,-4.5450507E-3,1.093848E-2,-1.928734E-2,1.9098514E-3,4.2365476E-2,-5.095151E-3,3.2737486E-2,6.2139584E-3,4.4379313E-2,1.6355908E-2,7.032058E-3,-2.1981314E-2,6.411516E-3,1.292402E-2,-3.475791E-3,1.37051465E-2,-6.1726063E-3,1.6005395E-2,-1.4579731E-2,8.763845E-3,3.51864E-2,-2.2608949E-2,1.818987E-3,1.247548E-2,-3.0297912E-3,-8.27345E-3,2.0930272E-2,-1.229348E-2,3.6804847E-2,-1.0742914E-2,5.3626727E-3,4.4052545E-2,-1.1632227E-2,-1.0410469E-2,-2.9618884E-2,-1.4735656E-3,3.0215506E-2,-1.9675601E-2,-1.7340025E-3,-3.0607834E-2,-3.1538114E-3,-1.3237373E-2,-3.5829518E-2,-1.2283427E-2,-3.1848412E-2,2.297192E-3,-2.3159549E-2,2.0552505E-2,4.926594E-3,1.4146271E-2,-2.261214E-2,-2.9984163E-2,-1.1172203E-2],"categories":[],"categories_nodes":[],"categories_segments":[],"categories_sizes":[],"default_left":[0,0,0,0,0,0,0,0,0,0,0,0,0,0,0,0,0,0,0,0,0,0,0,0,0,0,0,0,0,0,0,0,0,0,0,0,0,0,0,0,0,0,0,0,0,0,0,0,0,0,0,0,0,0,0,0,0,0,0,0,0,0,0,0,0,0,0,0,0,0,0,0,0,0,0,0,0,0,0,0,0,0,0,0,0,0,0,0,0,0,0,0,0,0,0,0,0,0,0,0,0,0,0,0,0,0,0,0,0,0,0,0,0,0,0,0,0,0,0,0,0,0,0,0,0,0,0,0,0,0,0,0,0,0,0,0,0,0,0,0,0,0,0,0,0,0,0,0,0,0,0,0,0,0,0,0,0,0,0,0,0,0,0,0,0,0,0,0,0,0,0,0,0,0,0,0,0,0,0,0,0,0,0,0,0,0,0,0,0,0,0,0,0,0,0,0,0,0,0,0,0,0,0,0,0,0,0,0,0,0,0,0,0,0,0,0,0,0,0,0,0,0,0,0,0,0,0,0,0,0,0,0,0,0,0,0,0,0,0,0,0,0,0,0,0,0,0,0,0,0,0,0,0,0,0,0,0,0,0,0,0,0,0,0,0,0,0,0,0,0,0,0,0,0,0,0,0,0,0,0,0,0,0,0,0,0,0,0,0,0,0,0,0,0,0,0,0,0,0,0,0,0,0,0,0,0,0,0,0,0,0,0,0,0,0,0,0,0,0,0,0,0,0,0,0,0,0,0,0,0,0,0,0,0,0,0,0,0,0,0,0,0,0,0,0,0,0,0,0,0,0,0,0,0,0,0,0,0,0,0,0,0,0,0,0,0,0,0,0,0,0,0,0,0,0,0,0,0,0,0,0,0,0,0,0,0,0,0,0,0,0,0,0,0,0,0,0,0,0,0,0,0,0,0,0,0,0,0,0],"id":2,"left_children":[1,3,5,7,9,11,13,15,17,19,21,23,25,27,29,31,33,35,37,39,41,43,45,47,49,51,53,55,57,59,61,63,65,67,69,71,73,-1,-1,75,77,79,81,83,85,87,89,91,93,95,97,99,101,103,105,107,109,-1,111,-1,113,115,117,119,121,123,125,127,129,131,133,135,137,139,141,143,-1,145,147,149,151,153,155,157,159,161,163,165,167,169,171,173,175,177,179,181,183,185,187,189,191,193,195,197,199,201,203,205,207,209,211,213,215,217,219,221,223,225,227,229,231,233,235,237,239,-1,241,243,245,-1,-1,247,249,251,253,255,257,259,261,263,265,-1,-1,267,269,271,273,275,277,279,281,283,285,287,289,291,293,295,-1,297,299,301,303,305,307,309,311,313,315,-1,-1,317,319,321,323,325,327,329,331,-1,333,335,337,339,341,343,345,347,349,351,353,355,357,359,361,363,365,367,369,371,373,375,377,379,381,383,385,387,389,391,393,-1,-1,395,-1,-1,397,-1,399,-1,-1,-1,-1,-1,401,403,405,-1,407,-1,-1,-1,-1,-1,-1,-1,-1,-1,-1,-1,-1,-1,-1,-1,-1,-1,-1,-1,-1,-1,-1,-1,-1,-1,-1,-1,-1,-1,-1,-1,-1,-1,-1,-1,-1,-1,-1,-1,-1,-1,-1,-1,-1,-1,-1,-1,-1,-1,-1,-1,-1,-1,-1,-1,-1,-1,-1,-1,-1,-1,-1,-1,-1,-1,-1,-1,-1,-1,-1,-1,-1,-1,-1,-1,-1,-1,-1,-1,-1,-1,-1,-1,-1,-1,-1,-1,-1,-1,-1,-1,-1,-1,-1,-1,-1,-1,-1,-1,-1,-1,-1,-1,-1,-1,-1,-1,-1,-1,-1,-1,-1,-1,-1,-1,-1,-1,-1,-1,-1,-1,-1,-1,-1,-1,-1,-1,-1,-1,-1,-1,-1,-1,-1,-1,-1,-1,-1,-1,-1,-1,-1,-1,-1,-1,-1,-1,-1,-1,-1,-1,-1,-1,-1,-1,-1,-1,-1,-1,-1,-1,-1,-1,-1,-1,-1,-1,-1,-1,-1,-1,-1,-1,-1,-1,-1,-1,-1,-1,-1],"loss_changes":[3.6505182E2,1.9398683E2,1.19263596E2,3.0812347E1,1.3248148E2,8.017735E1,2.7677982E1,2.3677246E1,1.9680138E1,7.140462E1,3.4589676E1,5.0210613E1,3.0904388E1,1.9799587E1,2.5383858E1,1.6634644E1,1.6911743E1,1.707914E1,6.3241825E0,2.0444176E1,4.9898254E1,2.8341179E1,1.9647934E1,2.2143463E1,3.439408E1,2.4750141E1,2.1532959E1,1.9505701E1,9.307854E0,5.033125E0,1.988916E1,2.4991287E1,1.1389999E1,9.016884E0,1.9372747E1,1.5728329E1,1.7683096E1,0E0,0E0,8.538261E0,1.5143989E1,3.672392E1,2.1965473E1,1.1350792E1,2.0952858E1,2.0917713E1,1.0020569E1,1.4202343E1,1.1676589E1,2.1744297E1,2.008525E1,1.6844498E1,1.3671104E1,1.2707358E1,1.6089813E1,2.1792706E1,7.813693E0,0E0,6.9303703E0,0E0,4.0125313E0,1.0268336E1,1.2441166E1,1.5572437E1,9.734955E0,9.240555E0,1.5628417E0,7.7922287E0,1.4420948E0,8.58588E0,9.248967E0,1.662088E1,1.03877945E1,1.2790458E1,5.4166512E0,7.52993E0,0E0,6.4006643E0,1.2904856E1,9.363178E0,3.0668608E1,1.428463E1,2.3892937E1,8.289143E0,1.499139E1,1.6675396E1,1.6105042E1,1.9434284E1,1.698764E1,1.0650482E0,8.968849E0,4.4901505E0,9.278252E0,6.452299E0,4.6522875E0,1.6777767E1,1.1132926E1,1.2709137E1,1.5336277E1,1.4455071E1,9.159216E0,1.1207656E1,1.4076332E1,1.0614834E1,1.511006E1,1.5661446E1,1.3583893E1,1.7726566E1,1.3890678E1,4.366637E0,3.05064E0,8.829855E0,1.6418457E0,2.0066013E0,2.1052657E-1,4.2113223E0,5.440996E0,8.903667E0,4.221094E0,1.17906475E1,1.1123432E1,7.9242554E0,1.3698693E1,4.2461243E0,7.8094206E0,0E0,3.5504937E-2,3.9709237E-1,2.1981506E0,0E0,0E0,1.01280775E1,1.0634147E1,6.809311E-1,3.2390919E0,9.639617E0,8.751992E0,4.1740265E0,1.0882069E1,8.863845E0,4.469597E0,0E0,0E0,4.128791E0,4.335518E0,2.3495684E0,3.656667E-1,1.1914515E1,1.3382137E1,9.357006E0,1.0331669E1,1.8335846E1,1.4058378E1,1.3326067E1,1.2336245E1,1.067756E1,1.2953873E1,3.0698738E0,0E0,1.1797127E1,8.601139E0,1.3207413E1,1.4764483E1,1.3711708E1,1.1984484E1,1.362558E1,5.8837686E0,7.274413E0,7.922262E0,0E0,0E0,8.251289E0,1.0083588E1,2.3993652E0,3.6280746E0,6.992117E0,1.0139729E1,2.916751E-1,1.8763757E0,0E0,1.3246021E0,1.4306948E1,1.2670656E1,8.240818E0,1.0216431E1,3.9960177E0,1.23446045E1,1.4542862E1,1.2168949E1,1.1181223E1,1.4660459E1,7.2016044E0,1.0716091E1,7.449876E0,1.041395E1,3.305315E0,1.1045204E1,7.0724287E0,1.14996605E1,1.077074E1,1.1554028E1,1.0404783E1,1.0545229E1,1.4555435E1,1.1394936E1,1.3018194E1,2.1801195E1,1.8730825E1,5.660942E0,2.2739549E0,5.3464735E-1,0E0,0E0,4.632409E0,0E0,0E0,1.0249481E0,0E0,9.4221497E-1,0E0,0E0,0E0,0E0,0E0,3.887228E0,8.129063E0,7.86883E0,0E0,1.755352E-1,0E0,0E0,0E0,0E0,0E0,0E0,0E0,0E0,0E0,0E0,0E0,0E0,0E0,0E0,0E0,0E0,0E0,0E0,0E0,0E0,0E0,0E0,0E0,0E0,0E0,0E0,0E0,0E0,0E0,0E0,0E0,0E0,0E0,0E0,0E0,0E0,0E0,0E0,0E0,0E0,0E0,0E0,0E0,0E0,0E0,0E0,0E0,0E0,0E0,0E0,0E0,0E0,0E0,0E0,0E0,0E0,0E0,0E0,0E0,0E0,0E0,0E0,0E0,0E0,0E0,0E0,0E0,0E0,0E0,0E0,0E0,0E0,0E0,0E0,0E0,0E0,0E0,0E0,0E0,0E0,0E0,0E0,0E0,0E0,0E0,0E0,0E0,0E0,0E0,0E0,0E0,0E0,0E0,0E0,0E0,0E0,0E0,0E0,0E0,0E0,0E0,0E0,0E0,0E0,0E0,0E0,0E0,0E0,0E0,0E0,0E0,0E0,0E0,0E0,0E0,0E0,0E0,0E0,0E0,0E0,0E0,0E0,0E0,0E0,0E0,0E0,0E0,0E0,0E0,0E0,0E0,0E0,0E0,0E0,0E0,0E0,0E0,0E0,0E0,0E0,0E0,0E0,0E0,0E0,0E0,0E0,0E0,0E0,0E0,0E0,0E0,0E0,0E0,0E0,0E0,0E0,0E0,0E0,0E0,0E0,0E0,0E0,0E0,0E0,0E0,0E0,0E0,0E0,0E0,0E0,0E0,0E0,0E0,0E0,0E0,0E0,0E0,0E0,0E0,0E0],"parents":[2147483647,0,0,1,1,2,2,3,3,4,4,5,5,6,6,7,7,8,8,9,9,10,10,11,11,12,12,13,13,14,14,15,15,16,16,17,17,18,18,19,19,20,20,21,21,22,22,23,23,24,24,25,25,26,26,27,27,28,28,29,29,30,30,31,31,32,32,33,33,34,34,35,35,36,36,39,39,40,40,41,41,42,42,43,43,44,44,45,45,46,46,47,47,48,48,49,49,50,50,51,51,52,52,53,53,54,54,55,55,56,56,58,58,60,60,61,61,62,62,63,63,64,64,65,65,66,66,67,67,68,68,69,69,70,70,71,71,72,72,73,73,74,74,75,75,77,77,78,78,79,79,80,80,81,81,82,82,83,83,84,84,85,85,86,86,87,87,88,88,89,89,90,90,91,91,92,92,93,93,94,94,95,95,96,96,97,97,98,98,99,99,100,100,101,101,102,102,103,103,104,104,105,105,106,106,107,107,108,108,109,109,110,110,111,111,112,112,113,113,114,114,115,115,116,116,117,117,118,118,119,119,120,120,121,121,122,122,123,123,124,124,126,126,127,127,128,128,131,131,132,132,133,133,134,134,135,135,136,136,137,137,138,138,139,139,140,140,143,143,144,144,145,145,146,146,147,147,148,148,149,149,150,150,151,151,152,152,153,153,154,154,155,155,156,156,157,157,159,159,160,160,161,161,162,162,163,163,164,164,165,165,166,166,167,167,168,168,171,171,172,172,173,173,174,174,175,175,176,176,177,177,178,178,180,180,181,181,182,182,183,183,184,184,185,185,186,186,187,187,188,188,189,189,190,190,191,191,192,192,193,193,194,194,195,195,196,196,197,197,198,198,199,199,200,200,201,201,202,202,203,203,204,204,205,205,206,206,207,207,208,208,209,209,210,210,213,213,216,216,218,218,224,224,225,225,226,226,228,228],"right_children":[2,4,6,8,10,12,14,16,18,20,22,24,26,28,30,32,34,36,38,40,42,44,46,48,50,52,54,56,58,60,62,64,66,68,70,72,74,-1,-1,76,78,80,82,84,86,88,90,92,94,96,98,100,102,104,106,108,110,-1,112,-1,114,116,118,120,122,124,126,128,130,132,134,136,138,140,142,144,-1,146,148,150,152,154,156,158,160,162,164,166,168,170,172,174,176,178,180,182,184,186,188,190,192,194,196,198,200,202,204,206,208,210,212,214,216,218,220,222,224,226,228,230,232,234,236,238,240,-1,242,244,246,-1,-1,248,250,252,254,256,258,260,262,264,266,-1,-1,268,270,272,274,276,278,280,282,284,286,288,290,292,294,296,-1,298,300,302,304,306,308,310,312,314,316,-1,-1,318,320,322,324,326,328,330,332,-1,334,336,338,340,342,344,346,348,350,352,354,356,358,360,362,364,366,368,370,372,374,376,378,380,382,384,386,388,390,392,394,-1,-1,396,-1,-1,398,-1,400,-1,-1,-1,-1,-1,402,404,406,-1,408,-1,-1,-1,-1,-1,-1,-1,-1,-1,-1,-1,-1,-1,-1,-1,-1,-1,-1,-1,-1,-1,-1,-1,-1,-1,-1,-1,-1,-1,-1,-1,-1,-1,-1,-1,-1,-1,-1,-1,-1,-1,-1,-1,-1,-1,-1,-1,-1,-1,-1,-1,-1,-1,-1,-1,-1,-1,-1,-1,-1,-1,-1,-1,-1,-1,-1,-1,-1,-1,-1,-1,-1,-1,-1,-1,-1,-1,-1,-1,-1,-1,-1,-1,-1,-1,-1,-1,-1,-1,-1,-1,-1,-1,-1,-1,-1,-1,-1,-1,-1,-1,-1,-1,-1,-1,-1,-1,-1,-1,-1,-1,-1,-1,-1,-1,-1,-1,-1,-1,-1,-1,-1,-1,-1,-1,-1,-1,-1,-1,-1,-1,-1,-1,-1,-1,-1,-1,-1,-1,-1,-1,-1,-1,-1,-1,-1,-1,-1,-1,-1,-1,-1,-1,-1,-1,-1,-1,-1,-1,-1,-1,-1,-1,-1,-1,-1,-1,-1,-1,-1,-1,-1,-1,-1,-1,-1,-1,-1,-1,-1],"split_conditions":[5.0066E-1,9.682286E-2,3.8774148E-1,5.046752E-1,3.083497E-1,7.2552574E-1,9.7671854E-1,5.084486E-1,9.826543E-1,6.6690475E-2,4.764528E-1,9.699429E-2,5.825043E-1,5.0000405E-1,2.4291572E-1,3.416777E-1,8.75E-1,9.8275715E-1,2.500025E-1,7.4303806E-2,7.8241E-1,9.473828E-2,9.411765E-1,3.1667188E-1,4.857257E-1,9.7684574E-1,1.2168807E-1,5.688532E-1,2.4621794E-1,3.0899428E-2,2.2274095E-1,3.9893243E-1,5.76679E-1,4.833488E-1,5.158198E-1,7.6972514E-1,5.8199245E-1,-1.4059399E-3,3.908699E-2,9.821257E-1,5.092895E-2,2.8667143E-2,1.4166704E-1,8.842571E-2,4.742495E-1,5.925926E-1,1.6376072E-5,4.9737525E-1,4.2272428E-1,9.7152287E-1,9.77037E-1,9.3692714E-1,3.3725333E-1,6.7406285E-1,3.027362E-1,4.6432504E-1,3.8201094E-1,1.4691301E-2,3.4832287E-1,1.0993198E-2,4.5669252E-1,5.1272774E-1,7.2399336E-1,1.4814815E-1,6.7398E-1,9.5960283E-1,6.268142E-2,1.8361507E-1,9.22388E-1,4.9739143E-1,8.97076E-1,4.8968476E-1,9.68539E-2,4.971543E-1,3.829819E-1,2.4648798E-1,1.50105925E-2,5.0128764E-1,1.9749974E-1,8.9702713E-1,8.113871E-1,9.7133714E-1,4.398019E-1,9.826957E-1,4.416819E-1,4.857476E-1,4.4170302E-1,8.81891E-1,7.1428573E-1,5.0069046E-1,9.5960283E-1,7.982352E-2,6.743557E-1,2.2501452E-1,2.5991356E-1,4.7619048E-1,5.0461715E-1,5.842857E-3,8.9138573E-1,6.7424715E-1,3.3902857E-1,5.925926E-1,8.565714E-2,9.61995E-5,4.6531713E-1,1.8333623E-1,3.0002403E-1,3.9696902E-1,3.6666888E-1,4.4117868E-1,4.9325618E-1,9.8277855E-1,1.24153085E-1,1.1045054E-2,3.1886566E-1,6.981022E-1,1.7799431E-2,4.583452E-1,4.9362502E-1,9.769239E-1,3.2175618E-1,8.627053E-1,2.5001198E-1,1.6108857E-1,3.8728017E-1,-1.098279E-2,3.4200782E-1,3.9901638E-1,4.306317E-2,-4.745868E-3,1.9692004E-2,9.5951295E-1,1.5711643E-1,4.7417048E-1,5.0278187E-1,6.15384E-1,2.5718358E-1,6.218769E-1,3.534914E-2,4.8956478E-1,5.086631E-1,5.374189E-3,-3.4826662E-2,4.7042382E-1,3.3077213E-1,3.619619E-2,3.322377E-1,5.8782715E-1,3.0834275E-1,1.07590966E-1,7.2727275E-1,5.0473714E-1,5.0094855E-1,9.591511E-1,9.0257895E-1,5.7362086E-1,4.8188192E-1,3.4169685E-2,1.2821127E-2,3.529401E-2,2.9279053E-1,3.5121056E-1,4.5620012E-1,2.0179716E-1,8.171643E-1,4.6666667E-1,1E0,3.7501067E-1,1E0,-3.7460685E-2,-1.4182927E-2,2.8404585E-1,2.3677929E-1,4.95958E-1,4.000109E-1,6.7406285E-1,5.127807E-1,1.2359495E-1,7.986792E-1,-3.2003692E-4,2.750344E-1,9.8264855E-1,2.1998928E-1,2.6007286E-1,2.2424318E-1,3.5026416E-1,4.8333415E-1,3.5834295E-1,7.916667E-1,4.4166887E-1,3.5231906E-1,4.9429506E-2,9.7132856E-1,1.7905878E-1,5.6446755E-1,3.7899707E-3,4.375412E-1,9.770357E-1,1.0014873E-1,1.556549E-1,1.9167982E-1,1.7910472E-1,2.3143357E-1,3.6668485E-1,2.512393E-1,8.405879E-1,3.1845143E-1,6.1263554E-2,8.73E-1,4.6666905E-1,2.2582857E-1,4.3262534E-2,8.512852E-3,4.7798762E-1,2.4596032E-2,-9.565057E-3,1.7411715E-1,-4.0801796E-3,5.030221E-1,5.383974E-3,-4.294992E-3,-4.3524187E-3,3.8529724E-2,1.4622442E-2,1.8322395E-1,9.8277E-1,5.7144713E-1,3.8185562E-3,9.827557E-1,-1.2751137E-2,3.759086E-2,-1.8844297E-2,-3.93852E-3,-1.1587337E-2,-2.6852787E-2,-2.1182222E-2,1.4843562E-2,-3.4609523E-2,-2.5439568E-2,-2.0605197E-2,1.3408734E-2,5.8348253E-3,1.5806332E-2,-5.4016453E-3,6.672281E-3,-2.723974E-3,-3.1385306E-2,-1.8392462E-2,2.2863658E-2,-2.883486E-2,9.202848E-3,2.7201013E-3,-1.3804504E-2,4.5035888E-2,1.1736547E-2,-2.0829987E-2,1.2761851E-2,-8.187959E-3,2.012255E-2,-8.353333E-3,-3.1484228E-2,-2.046772E-2,-7.8008524E-3,2.1448195E-2,-2.4751585E-2,1.0211647E-2,4.4101343E-2,4.877228E-3,-2.4614193E-2,-0E0,-3.167346E-2,5.0844415E-3,3.8997166E-2,-1.1639518E-2,1.1260669E-3,2.553057E-2,-1.239245E-2,-1.8573958E-2,2.8631622E-3,1.9222442E-2,-1.955555E-2,3.0227654E-2,-9.823667E-3,-6.5417993E-3,9.6412527E-4,8.2314255E-5,8.398892E-3,-1.3323326E-2,4.125208E-4,1.8713873E-2,2.4891945E-3,2.9457284E-3,-1.4915637E-2,4.9384097E-3,1.3447344E-2,5.3956406E-5,-3.0008873E-2,1.0516731E-2,-1.6558329E-2,4.0154137E-2,-1.3582609E-3,2.5978826E-2,-1.6015975E-2,-1.01716705E-2,6.082226E-3,7.7255126E-3,-2.433449E-3,-1.6898109E-2,3.7831266E-3,1.166117E-3,-2.2707185E-2,3.5999216E-2,-9.939466E-3,3.355158E-2,-1.3047025E-2,-8.884558E-3,2.7213177E-2,-1.4743836E-2,-3.131361E-2,3.1381536E-2,-1.2472091E-2,7.6127467E-3,-2.1452904E-2,-2.730181E-2,-3.4432142E-4,-2.3087109E-2,2.2554735E-3,-3.6978724E-3,3.575551E-2,6.541445E-3,2.4510017E-2,-2.2302872E-2,5.776214E-4,1.4858343E-2,4.322278E-2,1.3148838E-3,2.873458E-2,-1.3112928E-2,-3.3529252E-3,-2.0052206E-2,2.7633035E-3,2.4637647E-2,6.5737385E-3,4.510934E-3,-2.132962E-2,1.2620614E-2,-1.7125499E-2,1.6725322E-3,-1.5960526E-2,1.738979E-2,5.2699395E-3,-2.8527994E-3,-2.4447992E-2,-1.0930922E-2,8.277136E-3,2.0429967E-2,-4.5450507E-3,1.093848E-2,-1.928734E-2,1.9098514E-3,4.2365476E-2,-5.095151E-3,3.2737486E-2,6.2139584E-3,4.4379313E-2,1.6355908E-2,7.032058E-3,-2.1981314E-2,6.411516E-3,1.292402E-2,-3.475791E-3,1.37051465E-2,-6.1726063E-3,1.6005395E-2,-1.4579731E-2,8.763845E-3,3.51864E-2,-2.2608949E-2,1.818987E-3,1.247548E-2,-3.0297912E-3,-8.27345E-3,2.0930272E-2,-1.229348E-2,3.6804847E-2,-1.0742914E-2,5.3626727E-3,4.4052545E-2,-1.1632227E-2,-1.0410469E-2,-2.9618884E-2,-1.4735656E-3,3.0215506E-2,-1.9675601E-2,-1.7340025E-3,-3.0607834E-2,-3.1538114E-3,-1.3237373E-2,-3.5829518E-2,-1.2283427E-2,-3.1848412E-2,2.297192E-3,-2.3159549E-2,2.0552505E-2,4.926594E-3,1.4146271E-2,-2.261214E-2,-2.9984163E-2,-1.1172203E-2],"split_indices":[556,586,335,101,595,531,166,526,551,336,350,541,136,440,311,555,354,431,490,266,491,406,194,175,366,281,510,165,255,31,31,28,145,390,513,187,598,0,0,226,48,41,375,216,591,44,20,371,46,441,257,256,56,336,171,35,48,0,496,0,190,182,108,464,511,61,98,283,37,146,372,31,353,226,121,23,0,196,278,521,411,356,6,361,380,311,390,248,44,326,61,208,561,440,11,124,546,111,421,221,51,304,46,255,583,410,425,188,595,568,56,381,443,283,13,27,423,525,68,77,136,582,260,26,240,0,63,23,370,0,0,383,241,111,248,483,296,222,546,211,62,0,0,581,82,351,68,406,355,292,389,261,16,37,367,588,391,383,0,68,253,347,123,123,421,279,263,145,433,0,0,35,346,143,485,376,73,0,3,0,565,261,421,211,463,108,510,385,429,485,196,513,281,30,353,108,198,381,255,238,525,125,496,170,521,523,141,543,462,20,46,0,0,371,0,0,471,0,107,0,0,0,0,0,133,441,426,0,41,0,0,0,0,0,0,0,0,0,0,0,0,0,0,0,0,0,0,0,0,0,0,0,0,0,0,0,0,0,0,0,0,0,0,0,0,0,0,0,0,0,0,0,0,0,0,0,0,0,0,0,0,0,0,0,0,0,0,0,0,0,0,0,0,0,0,0,0,0,0,0,0,0,0,0,0,0,0,0,0,0,0,0,0,0,0,0,0,0,0,0,0,0,0,0,0,0,0,0,0,0,0,0,0,0,0,0,0,0,0,0,0,0,0,0,0,0,0,0,0,0,0,0,0,0,0,0,0,0,0,0,0,0,0,0,0,0,0,0,0,0,0,0,0,0,0,0,0,0,0,0,0,0,0,0,0,0,0,0,0,0,0,0,0,0,0,0,0,0,0,0,0,0,0,0,0,0,0,0,0],"split_type":[0,0,0,0,0,0,0,0,0,0,0,0,0,0,0,0,0,0,0,0,0,0,0,0,0,0,0,0,0,0,0,0,0,0,0,0,0,0,0,0,0,0,0,0,0,0,0,0,0,0,0,0,0,0,0,0,0,0,0,0,0,0,0,0,0,0,0,0,0,0,0,0,0,0,0,0,0,0,0,0,0,0,0,0,0,0,0,0,0,0,0,0,0,0,0,0,0,0,0,0,0,0,0,0,0,0,0,0,0,0,0,0,0,0,0,0,0,0,0,0,0,0,0,0,0,0,0,0,0,0,0,0,0,0,0,0,0,0,0,0,0,0,0,0,0,0,0,0,0,0,0,0,0,0,0,0,0,0,0,0,0,0,0,0,0,0,0,0,0,0,0,0,0,0,0,0,0,0,0,0,0,0,0,0,0,0,0,0,0,0,0,0,0,0,0,0,0,0,0,0,0,0,0,0,0,0,0,0,0,0,0,0,0,0,0,0,0,0,0,0,0,0,0,0,0,0,0,0,0,0,0,0,0,0,0,0,0,0,0,0,0,0,0,0,0,0,0,0,0,0,0,0,0,0,0,0,0,0,0,0,0,0,0,0,0,0,0,0,0,0,0,0,0,0,0,0,0,0,0,0,0,0,0,0,0,0,0,0,0,0,0,0,0,0,0,0,0,0,0,0,0,0,0,0,0,0,0,0,0,0,0,0,0,0,0,0,0,0,0,0,0,0,0,0,0,0,0,0,0,0,0,0,0,0,0,0,0,0,0,0,0,0,0,0,0,0,0,0,0,0,0,0,0,0,0,0,0,0,0,0,0,0,0,0,0,0,0,0,0,0,0,0,0,0,0,0,0,0,0,0,0,0,0,0,0,0,0,0,0,0,0,0,0,0,0,0,0,0,0,0,0,0,0,0,0,0,0,0,0],"sum_hessian":[1.5557E4,7.491E3,8.066E3,1.426E3,6.065E3,6.99E3,1.076E3,9.54E2,4.72E2,4.004E3,2.061E3,2.916E3,4.074E3,7.99E2,2.77E2,7.65E2,1.89E2,4.58E2,1.4E1,2.96E2,3.708E3,1.613E3,4.48E2,2.09E2,2.707E3,1.641E3,2.433E3,7.22E2,7.7E1,4.1E1,2.36E2,4.94E2,2.71E2,6.2E1,1.27E2,4.14E2,4.4E1,5E0,9E0,1E2,1.96E2,2.084E3,1.624E3,2.74E2,1.339E3,2.6E2,1.88E2,1.72E2,3.7E1,9.62E2,1.745E3,1.034E3,6.07E2,5E2,1.933E3,6.95E2,2.7E1,5E0,7.2E1,4E0,3.7E1,4.9E1,1.87E2,1.98E2,2.96E2,2.61E2,1E1,5.5E1,7E0,1.05E2,2.2E1,8.9E1,3.25E2,3.2E1,1.2E1,9.6E1,4E0,1.7E1,1.79E2,1.65E2,1.919E3,5.49E2,1.075E3,6.9E1,2.05E2,4.7E2,8.69E2,1.75E2,8.5E1,4.6E1,1.42E2,1.01E2,7.1E1,2.1E1,1.6E1,7.37E2,2.25E2,4.8E2,1.265E3,6.48E2,3.86E2,1.21E2,4.86E2,2.02E2,2.98E2,2.21E2,1.712E3,5.48E2,1.47E2,1.4E1,1.3E1,2.7E1,4.5E1,3.1E1,6E0,7E0,4.2E1,1.71E2,1.6E1,1.6E1,1.82E2,2.57E2,3.9E1,2.35E2,2.6E1,3E0,7E0,8E0,4.7E1,3E0,4E0,6.1E1,4.4E1,7E0,1.5E1,4.3E1,4.6E1,5E1,2.75E2,1.3E1,1.9E1,4E0,8E0,1.6E1,8E1,1.1E1,6E0,2.8E1,1.51E2,1.38E2,2.7E1,1.18E3,7.39E2,3.27E2,2.22E2,2.95E2,7.8E2,6.5E1,4E0,1.87E2,1.8E1,2.64E2,2.06E2,7.37E2,1.32E2,1.65E2,1E1,1.9E1,6.6E1,4.2E1,4E0,1.16E2,2.6E1,9E0,9.2E1,4.3E1,2.8E1,6E0,1.5E1,4E0,1.2E1,1E2,6.37E2,8.4E1,1.41E2,2.1E1,4.59E2,6.93E2,5.72E2,3.95E2,2.53E2,8.7E1,2.99E2,1.6E1,1.05E2,1.7E1,4.69E2,3.9E1,1.63E2,1.11E2,1.87E2,6.9E1,1.52E2,1.461E3,2.51E2,2.14E2,3.34E2,6.2E1,8.5E1,7E0,7E0,9E0,4E0,2.3E1,4E0,4E0,4.1E1,4E0,2.7E1,3E0,3E0,3E0,4E0,4E0,3.8E1,1.52E2,1.9E1,7E0,9E0,6E0,1E1,8.7E1,9.5E1,3.9E1,2.18E2,2.5E1,1.4E1,9.9E1,1.36E2,1.8E1,8E0,4E0,3E0,3E0,5E0,3E0,4.4E1,5.6E1,5E0,7E0,3.7E1,4E0,3E0,1E1,5E0,3.4E1,9E0,1.3E1,3.3E1,1E1,4E1,9.4E1,1.81E2,6E0,7E0,6E0,1.3E1,1E1,6E0,4E0,7.6E1,3E0,8E0,3E0,3E0,1.5E1,1.3E1,1.18E2,3.3E1,5E0,1.33E2,7E0,2E1,6.47E2,5.33E2,3.35E2,4.04E2,8.5E1,2.42E2,5.6E1,1.66E2,2.62E2,3.3E1,2.32E2,5.48E2,3E0,6.2E1,1.5E1,1.72E2,6E0,1.2E1,6E0,2.58E2,1.22E2,8.4E1,1.49E2,5.88E2,9.9E1,3.3E1,2.5E1,1.4E2,7E0,3E0,1.6E1,3E0,6.1E1,5E0,6.1E1,5.5E1,5E0,2.1E1,6E0,3E0,8.7E1,5E0,2.9E1,1.4E1,2.1E1,7E0,3E0,3E0,1.1E1,4E0,4E0,8E0,7.9E1,2.1E1,1.6E2,4.77E2,1.7E1,6.7E1,3.9E1,1.02E2,8E0,1.3E1,4.47E2,1.2E1,6.49E2,4.4E1,8.8E1,4.84E2,3.73E2,2.2E1,4.2E1,2.11E2,1.1E1,7.6E1,2.89E2,1E1,8E0,8E0,9.9E1,6E0,3E0,1.4E1,2.11E2,2.58E2,2.9E1,1E1,6E1,1.03E2,3.5E1,7.6E1,1.76E2,1.1E1,5.1E1,1.8E1,1.7E1,1.35E2,1.405E3,5.6E1,1.2E1,2.39E2,2.1E2,4E0,1.14E2,2.2E2,5E0,5.7E1,2E1,6.5E1,3E0,4E0,4E0,3E0,1.3E1,1E1,4E0,3.7E1,5E0,2.2E1,6E0,3.2E1,1.09E2,4.3E1,9E0,1E1,6E0,3E0],"tree_param":{"num_deleted":"0","num_feature":"600","num_nodes":"409","size_leaf_vector":"1"}},{"base_weights":[3.2334118E-3,-1.5088022E-1,1.4828567E-1,-4.908887E-1,-7.89905E-2,2.0580153E-1,-9.7317554E-2,-5.851787E-1,-2.3989902E-1,-2.0126928E-2,-4.6634552E-1,9.943916E-2,2.815149E-1,-2.2994974E-1,1.0860107E-1,-4.8354265E-1,-7.7305627E-1,-3.8134608E-1,2.3325662E-1,-1.3398789E-1,1.2096954E-1,1.5075031E-1,-4.997667E-1,-9.064894E-3,2.354974E-1,-2.534066E-1,2.930825E-1,-4.6625155E-1,-1.1031143E-1,4.9993938E-1,-2.6544001E-2,-1.880536E-1,-5.8438E-1,-8.722797E-1,-3.691602E-1,1.5626732E-1,-4.8266497E-1,9.1943014E-1,-2.3440916E-2,-4.0851328E-1,-5.582056E-2,-2.7265626E-1,1.536306E-1,9.184428E-1,-4.91108E-1,-7.249478E-1,-4.2265815E-1,-1.3722773E-1,1.2241204E-1,-2.1743508E-1,2.7410504E-1,3.8212636E-1,-4.297533E-1,3.9195362E-1,2.5281227E-1,4.0433103E-1,-5.3728175E-1,-1.8909241E-1,2.6326424E-1,-2.3894738E-1,6.4576197E-1,5.7134952E-2,-5.0223744E-1,3.1448194E-1,-3.4667826E-1,-8.169643E-1,-4.34792E-1,-9.051314E-1,1.625775E-1,2.6642558E-1,-6.230899E-1,-6.5447015E-1,6.7544615E-1,-5.105481E-1,3.711589E-2,-5.568685E-3,1.2422572E0,5.402619E-1,-3.2778293E-1,2.8062326E-1,-4.6265432E-1,-1.7312411E-2,-4.362369E-1,-6.512254E-1,-4.813149E-2,1.7188881E-1,-3.7462515E-1,-1.2321974E-2,1.1830462E0,-9.271437E-1,1.3856342E-2,-8.360158E-1,-1.991412E-1,-7.574624E-3,-4.815149E-1,-4.7930813E-1,-6.833333E-2,-1.0837559E-1,2.2504017E-1,-7.495088E-1,3.3810942E-3,-1.8193349E-1,3.0976462E-1,-2.835706E-2,7.1728104E-1,-1.0569476E0,-2.7775168E-1,2.9111886E-1,5.543984E-1,1.7553854E-1,3.1816316E-1,8.44873E-1,-7.7196705E-1,2.9989854E-2,-5.682127E-1,-4.5998183E-1,-5.866955E-2,-3.1363714E-1,4.5122856E-1,3.3951265E-1,-7.66164E-1,3.154614E-1,9.269587E-1,1.3776347E-1,-4.6373844E-1,5.2064276E-1,-6.514524E-1,9.630462E-1,-4.299428E-2,-5.69746E-1,1.4582025E-1,-4.549797E-1,-9.223483E-1,3.1475004E-2,-4.706953E-1,-9.3322587E-1,8.399821E-2,-2.7736807E-3,9.665107E-3,7.767701E-1,-4.3252552E-1,-6.072281E-2,-9.168248E-1,1.6143339E-2,-9.355272E-1,-1.919609E-2,9.2549336E-1,-9.224403E-2,-6.387194E-1,4.4730706E-3,4.3328438E-2,1.0674028E0,-5.0316E-1,2.9441496E-2,-4.9854097E-1,-8.531473E-1,5.250943E-1,-5.708859E-1,-1.4058013E-1,-1.1662902E-1,9.5582195E-2,4.0094636E-2,-6.048826E-1,2.4611378E-2,-7.320616E-1,8.4415294E-2,-8.4646326E-1,1.0368408E-1,2.961169E-1,3.2154918E-2,-4.7262028E-1,2.2007679E-3,4.5334592E-2,-3.125287E-2,-1.1514335E-2,1.5525028E-2,-2.0041418E-1,-2.7639863E-1,-9.2066246E-1,-4.5212638E-1,7.303227E-1,3.876124E-1,-8.016457E-1,-3.167499E-1,-6.237123E-1,-6.060612E-1,1.9062716E-1,-6.4236706E-1,-1.0837985E-2,5.1267487E-1,-1.8370512E-1,5.349834E-1,1.3677639E-1,4.1186615E-4,-9.2037475E-1,3.4298502E-2,-1.0364739E-1,-5.4079324E-1,2.7888542E-1,-3.7386915E-1,3.3143112E-1,-3.0447154E-3,1.0333335E0,-3.550307E-2,-1.4493369E-2,-6.0976297E-1,-1.9235225E-2,9.613439E-2,4.2825335E-1,3.5510346E-1,6.7204946E-1,4.884415E-2,2.781036E-1,2.8518826E-1,5.6146336E-1,-1.6589839E-2,1.1679795E0,-2.9151952E-2,-1.0626315E-2,2.1034735E-1,-6.2837005E-1,5.818367E-1,-5.311358E-1,-1.0100175E-1,1.1231878E0,-2.9284984E-2,1.1436445E-2,4.5275327E-2,2.9875296E-1,1.3105914E-1,2.2523047E-2,-9.3551934E-1,-2.5168732E-3,1.0972328E0,1.0893048E-2,3.229212E-2,1.0589538E0,-6.968851E-1,1.9131719E-1,4.4857383E-1,-6.2134665E-1,-9.960258E-3,3.867497E-2,-3.6618166E-2,-8.2223994E-1,-3.8296822E-4,4.0939424E-2,2.7764926E-2,-1.15445005E-2,5.809259E-4,-2.0627694E-2,-1.1493375E-2,1.8665895E-2,-1.8847954E-2,2.1049744E-2,-1.7881913E-2,-3.1414486E-2,-1.6838964E-2,-5.7004427E-4,-1.8261999E-2,-3.0593498E-2,-2.1569418E-2,2.1887448E-2,3.6719132E-2,8.0460645E-3,1.9350387E-3,-2.1253673E-2,8.975088E-3,-1.165661E-2,-1.22173205E-2,-3.716365E-2,-7.0019024E-3,-3.24983E-2,4.0672988E-2,8.539398E-3,-1.507245E-2,1.2973938E-2,1.2781668E-2,-2.056149E-2,-3.3691287E-4,4.038991E-2,-2.3170142E-2,-4.7692072E-4,2.7720021E-2,-1.962531E-2,-1.04890615E-2,-3.0898921E-2,-6.6654314E-4,3.0099856E-2,-2.4424946E-2,-1.3279795E-2,8.563578E-4,-2.4157295E-2,-5.8701923E-3,2.9480953E-3,4.274178E-3,-9.474444E-3,-8.289595E-3,1.9328322E-2,-1.4311998E-2,-3.4738556E-2,1.1710525E-2,-2.4963036E-2,-5.459449E-3,1.6215129E-2,1.576065E-3,-3.1500038E-2,-1.1058091E-2,3.9225165E-3,-1.7833494E-2,9.737438E-3,-2.015362E-2,-7.0234115E-4,-1.2665484E-2,-7.498158E-5,-2.5338558E-2,1.23351095E-2,-4.318387E-3,-2.8966442E-2,-2.2807663E-2,1.317733E-2,3.1301107E-2,3.9429786E-3,3.3092994E-2,3.9002546E-3,1.281049E-2,-2.9794374E-2,-1.1606954E-2,6.106037E-3,2.1649854E-2,-1.9400608E-2,-2.0712333E-2,1.5663395E-2,2.5011081E-2,-1.3820617E-2,2.1178914E-2,-2.271506E-2,-3.1077233E-3,9.447095E-3,-1.18832085E-2,2.6809543E-2,8.095908E-3,-8.45792E-3,-7.3064957E-3,1.9157764E-2,-6.6036405E-3,6.818044E-3,-3.28183E-2,4.576861E-3,2.8089106E-3,-1.5222701E-2,1.6525904E-2,-2.0693904E-2,2.1260183E-2,-4.130897E-3,6.4643524E-3,-1.8545996E-2,4.753635E-3,1.2737526E-2,1.1990371E-2,3.625482E-2,-2.3923535E-2,6.1621456E-3,-2.1584602E-2,4.1776486E-3,-5.855019E-3,8.108038E-3,1.0997662E-2,2.8730867E-2,-1.7321156E-2,1.2113515E-2,8.286655E-3,2.3264706E-2,8.789859E-3,-1.3167158E-3,2.6248572E-3,1.2402867E-2,4.869451E-3,1.0647073E-2,-3.7904814E-4,2.0119416E-2,8.991624E-3,4.0552024E-2,2.6041223E-2,-1.0407783E-2,1.9773837E-2,-1.9991757E-2,9.381549E-4,3.6487803E-2,-8.864713E-3,-2.5648644E-2,-1.52951535E-2,1.278655E-4,7.2594644E-3,4.136775E-2,-1.7475627E-2,4.96383E-3,3.204527E-2,3.8472202E-3,4.6303248E-4,4.923659E-3,-1.2747098E-2,-3.1841625E-2,1.0769088E-2,4.0997855E-2,1.7925216E-2,-5.8057937E-3,-1.3192125E-2,9.350876E-3,1.217083E-2,3.796408E-2,-8.725167E-3,-3.4492116E-2,-8.686486E-3,8.482113E-3,3.412015E-2,-5.1645767E-3,-5.1928917E-3,-2.401539E-2,-2.2328004E-2,6.4483983E-3,-5.2994E-3,-2.9153975E-2],"categories":[],"categories_nodes":[],"categories_segments":[],"categories_sizes":[],"default_left":[0,0,0,0,0,0,0,0,0,0,0,0,0,0,0,0,0,0,0,0,0,0,0,0,0,0,0,0,0,0,0,0,0,0,0,0,0,0,0,0,0,0,0,0,0,0,0,0,0,0,0,0,0,0,0,0,0,0,0,0,0,0,0,0,0,0,0,0,0,0,0,0,0,0,0,0,0,0,0,0,0,0,0,0,0,0,0,0,0,0,0,0,0,0,0,0,0,0,0,0,0,0,0,0,0,0,0,0,0,0,0,0,0,0,0,0,0,0,0,0,0,0,0,0,0,0,0,0,0,0,0,0,0,0,0,0,0,0,0,0,0,0,0,0,0,0,0,0,0,0,0,0,0,0,0,0,0,0,0,0,0,0,0,0,0,0,0,0,0,0,0,0,0,0,0,0,0,0,0,0,0,0,0,0,0,0,0,0,0,0,0,0,0,0,0,0,0,0,0,0,0,0,0,0,0,0,0,0,0,0,0,0,0,0,0,0,0,0,0,0,0,0,0,0,0,0,0,0,0,0,0,0,0,0,0,0,0,0,0,0,0,0,0,0,0,0,0,0,0,0,0,0,0,0,0,0,0,0,0,0,0,0,0,0,0,0,0,0,0,0,0,0,0,0,0,0,0,0,0,0,0,0,0,0,0,0,0,0,0,0,0,0,0,0,0,0,0,0,0,0,0,0,0,0,0,0,0,0,0,0,0,0,0,0,0,0,0,0,0,0,0,0,0,0,0,0,0,0,0,0,0,0,0,0,0,0,0,0,0,0,0,0,0,0,0,0,0,0,0,0,0,0,0,0,0,0,0,0,0,0,0,0,0,0,0,0,0,0,0,0,0,0,0,0,0,0,0,0,0,0,0,0,0,0,0,0,0,0,0,0,0,0,0,0,0,0,0,0,0,0,0,0,0,0,0,0,0,0,0,0,0,0,0,0,0,0,0,0,0,0,0,0,0],"id":3,"left_children":[1,3,5,7,9,11,13,15,17,19,21,23,25,27,29,31,33,35,37,39,41,43,45,47,49,51,53,55,57,59,61,63,65,67,69,71,73,75,77,79,81,83,85,87,89,91,93,95,97,99,101,103,105,107,109,111,113,115,117,119,121,123,125,127,129,131,133,135,137,139,141,143,145,147,-1,-1,149,151,153,155,157,159,161,163,165,167,169,-1,171,173,175,177,179,181,183,185,187,189,191,193,195,197,199,-1,201,203,205,207,209,211,213,215,217,-1,219,221,223,225,227,229,231,233,235,237,239,241,243,245,247,249,251,253,255,-1,257,259,261,-1,-1,263,265,267,269,-1,271,-1,273,275,277,-1,-1,279,281,-1,283,285,287,289,291,293,295,297,299,-1,301,303,305,307,309,-1,311,-1,-1,-1,-1,-1,313,315,317,319,321,323,325,327,329,331,333,335,337,339,341,343,345,-1,347,-1,349,351,353,355,357,-1,359,-1,-1,361,363,365,367,369,371,373,375,377,379,-1,381,-1,-1,383,385,387,389,391,393,-1,395,-1,397,399,-1,401,-1,403,405,407,409,411,413,415,417,-1,-1,419,421,-1,-1,-1,-1,-1,-1,-1,-1,-1,-1,-1,-1,-1,-1,-1,-1,-1,-1,-1,-1,-1,-1,-1,-1,-1,-1,-1,-1,-1,-1,-1,-1,-1,-1,-1,-1,-1,-1,-1,-1,-1,-1,-1,-1,-1,-1,-1,-1,-1,-1,-1,-1,-1,-1,-1,-1,-1,-1,-1,-1,-1,-1,-1,-1,-1,-1,-1,-1,-1,-1,-1,-1,-1,-1,-1,-1,-1,-1,-1,-1,-1,-1,-1,-1,-1,-1,-1,-1,-1,-1,-1,-1,-1,-1,-1,-1,-1,-1,-1,-1,-1,-1,-1,-1,-1,-1,-1,-1,-1,-1,-1,-1,-1,-1,-1,-1,-1,-1,-1,-1,-1,-1,-1,-1,-1,-1,-1,-1,-1,-1,-1,-1,-1,-1,-1,-1,-1,-1,-1,-1,-1,-1,-1,-1,-1,-1,-1,-1,-1,-1,-1,-1,-1,-1,-1,-1,-1,-1,-1,-1,-1,-1,-1,-1,-1,-1,-1,-1,-1,-1,-1,-1,-1,-1,-1,-1,-1,-1],"loss_changes":[3.4935635E2,1.8510974E2,1.1375995E2,3.1063324E1,1.4258563E2,5.2472046E1,4.1768982E1,1.7831848E1,2.439807E1,8.728465E1,1.7125107E1,4.010597E1,2.3653595E1,2.6182713E1,3.1740189E1,1.8465363E1,1.2979279E1,1.5359776E1,1.4906831E1,6.445772E1,3.1219215E1,2.168203E1,1.3174377E1,2.5479319E1,2.113668E1,9.246988E0,1.4687683E1,1.952388E1,1.8259941E1,1.6787933E1,1.782647E1,1.2946281E1,1.573262E1,9.33255E0,1.1176471E1,1.9385452E1,1.1876411E1,8.5413E0,1.0792465E1,2.4996887E1,3.425535E1,1.5708375E1,2.165858E1,7.597233E0,5.388554E0,1.1293251E1,1.4263695E1,1.7965132E1,1.7705292E1,1.1238743E1,1.8136383E1,8.662891E0,5.674371E0,1.7395386E1,1.3297241E1,1.3096513E1,1.4263672E1,1.8010197E1,1.1866463E1,8.232105E0,1.1564781E1,1.5990244E1,1.05784E1,9.175417E0,1.3638323E1,6.3472977E0,1.5673782E1,7.3884735E0,4.190715E-1,7.5045147E0,7.940729E0,6.5764627E0,9.829707E0,1.2360176E1,0E0,0E0,3.6005E0,1.2694168E1,9.606554E0,1.3996708E1,2.1391205E1,2.3873045E1,1.7351948E1,8.799908E0,1.2633984E1,1.8290184E1,1.1077571E1,0E0,5.9203243E0,2.6719093E-1,1.4304174E0,7.3470917E0,8.767441E0,2.3573818E1,1.1727547E1,1.1026371E1,2.1017447E1,1.0821476E1,1.4003094E1,3.754819E0,8.518599E0,1.3571928E1,1.53908E1,0E0,4.079679E0,1.3261223E-1,4.4743814E0,1.7741371E1,9.295464E0,1.5793915E1,1.1275955E1,8.837269E0,1.0737944E-1,0E0,1.3475433E1,1.2609467E1,1.7371851E1,5.9226446E0,1.2595871E1,9.2788196E-1,1.437213E0,1.4401509E1,8.005001E0,1.4833286E1,7.629178E0,6.4212685E0,6.079361E0,5.6390295E0,8.909436E0,5.9810886E0,1.00891485E1,9.051914E0,4.871681E0,0E0,1.1390316E1,6.322464E0,4.6727333E0,0E0,0E0,2.251696E0,1.3443944E0,2.2488909E0,4.581032E0,0E0,1.1715908E0,0E0,6.0677795E0,1.2276606E1,9.162094E0,0E0,0E0,4.661537E0,9.5818186E-1,0E0,8.769231E0,3.0319214E-1,1.0851888E1,1.3925888E1,1.7749247E1,1.927465E1,1.924107E1,1.1111636E1,1.0523968E1,0E0,7.7798386E0,1.25272875E1,3.2655754E0,1.7933598E1,1.9608963E1,0E0,6.2669497E0,0E0,0E0,0E0,0E0,0E0,3.5149825E-1,9.376507E0,4.665802E0,8.331099E0,1.245235E0,8.948896E0,6.3629265E0,8.856417E0,8.928398E0,1.0654724E1,9.217111E0,9.517506E0,1.759569E1,9.059353E0,9.255007E0,9.390598E0,1.3098448E1,0E0,4.544281E0,0E0,5.1072187E0,7.8762712E0,6.60018E0,4.7813444E0,1.5987724E1,0E0,5.7707596E-1,0E0,0E0,3.7419443E0,3.5986881E0,1.41111965E1,1.2281792E1,7.251734E0,1.0203415E1,1.242255E1,1.7273186E1,1.0743813E1,1.0730255E1,0E0,1.8229103E0,0E0,0E0,8.050075E0,1.3363571E1,3.6794157E0,1.1536133E1,1.4512747E1,2.208517E0,0E0,1.7928748E0,0E0,9.320686E0,1.7740041E-2,0E0,1.07357025E-1,0E0,2.7175026E0,5.552224E0,1.4431287E0,7.413986E0,3.199131E0,1.3752993E1,3.7125888E0,3.2977734E0,0E0,0E0,2.7051823E0,4.154997E0,0E0,0E0,0E0,0E0,0E0,0E0,0E0,0E0,0E0,0E0,0E0,0E0,0E0,0E0,0E0,0E0,0E0,0E0,0E0,0E0,0E0,0E0,0E0,0E0,0E0,0E0,0E0,0E0,0E0,0E0,0E0,0E0,0E0,0E0,0E0,0E0,0E0,0E0,0E0,0E0,0E0,0E0,0E0,0E0,0E0,0E0,0E0,0E0,0E0,0E0,0E0,0E0,0E0,0E0,0E0,0E0,0E0,0E0,0E0,0E0,0E0,0E0,0E0,0E0,0E0,0E0,0E0,0E0,0E0,0E0,0E0,0E0,0E0,0E0,0E0,0E0,0E0,0E0,0E0,0E0,0E0,0E0,0E0,0E0,0E0,0E0,0E0,0E0,0E0,0E0,0E0,0E0,0E0,0E0,0E0,0E0,0E0,0E0,0E0,0E0,0E0,0E0,0E0,0E0,0E0,0E0,0E0,0E0,0E0,0E0,0E0,0E0,0E0,0E0,0E0,0E0,0E0,0E0,0E0,0E0,0E0,0E0,0E0,0E0,0E0,0E0,0E0,0E0,0E0,0E0,0E0,0E0,0E0,0E0,0E0,0E0,0E0,0E0,0E0,0E0,0E0,0E0,0E0,0E0,0E0,0E0,0E0,0E0,0E0,0E0,0E0,0E0,0E0,0E0,0E0,0E0,0E0,0E0,0E0,0E0,0E0,0E0,0E0,0E0,0E0,0E0,0E0,0E0,0E0,0E0,0E0,0E0,0E0,0E0,0E0,0E0,0E0,0E0],"parents":[2147483647,0,0,1,1,2,2,3,3,4,4,5,5,6,6,7,7,8,8,9,9,10,10,11,11,12,12,13,13,14,14,15,15,16,16,17,17,18,18,19,19,20,20,21,21,22,22,23,23,24,24,25,25,26,26,27,27,28,28,29,29,30,30,31,31,32,32,33,33,34,34,35,35,36,36,37,37,38,38,39,39,40,40,41,41,42,42,43,43,44,44,45,45,46,46,47,47,48,48,49,49,50,50,51,51,52,52,53,53,54,54,55,55,56,56,57,57,58,58,59,59,60,60,61,61,62,62,63,63,64,64,65,65,66,66,67,67,68,68,69,69,70,70,71,71,72,72,73,73,76,76,77,77,78,78,79,79,80,80,81,81,82,82,83,83,84,84,85,85,86,86,88,88,89,89,90,90,91,91,92,92,93,93,94,94,95,95,96,96,97,97,98,98,99,99,100,100,101,101,102,102,104,104,105,105,106,106,107,107,108,108,109,109,110,110,111,111,112,112,114,114,115,115,116,116,117,117,118,118,119,119,120,120,121,121,122,122,123,123,124,124,125,125,126,126,127,127,128,128,129,129,130,130,131,131,132,132,134,134,135,135,136,136,139,139,140,140,141,141,142,142,144,144,146,146,147,147,148,148,151,151,152,152,154,154,155,155,156,156,157,157,158,158,159,159,160,160,161,161,162,162,164,164,165,165,166,166,167,167,168,168,170,170,176,176,177,177,178,178,179,179,180,180,181,181,182,182,183,183,184,184,185,185,186,186,187,187,188,188,189,189,190,190,191,191,192,192,194,194,196,196,197,197,198,198,199,199,200,200,202,202,205,205,206,206,207,207,208,208,209,209,210,210,211,211,212,212,213,213,214,214,216,216,219,219,220,220,221,221,222,222,223,223,224,224,226,226,228,228,229,229,231,231,233,233,234,234,235,235,236,236,237,237,238,238,239,239,240,240,243,243,244,244],"right_children":[2,4,6,8,10,12,14,16,18,20,22,24,26,28,30,32,34,36,38,40,42,44,46,48,50,52,54,56,58,60,62,64,66,68,70,72,74,76,78,80,82,84,86,88,90,92,94,96,98,100,102,104,106,108,110,112,114,116,118,120,122,124,126,128,130,132,134,136,138,140,142,144,146,148,-1,-1,150,152,154,156,158,160,162,164,166,168,170,-1,172,174,176,178,180,182,184,186,188,190,192,194,196,198,200,-1,202,204,206,208,210,212,214,216,218,-1,220,222,224,226,228,230,232,234,236,238,240,242,244,246,248,250,252,254,256,-1,258,260,262,-1,-1,264,266,268,270,-1,272,-1,274,276,278,-1,-1,280,282,-1,284,286,288,290,292,294,296,298,300,-1,302,304,306,308,310,-1,312,-1,-1,-1,-1,-1,314,316,318,320,322,324,326,328,330,332,334,336,338,340,342,344,346,-1,348,-1,350,352,354,356,358,-1,360,-1,-1,362,364,366,368,370,372,374,376,378,380,-1,382,-1,-1,384,386,388,390,392,394,-1,396,-1,398,400,-1,402,-1,404,406,408,410,412,414,416,418,-1,-1,420,422,-1,-1,-1,-1,-1,-1,-1,-1,-1,-1,-1,-1,-1,-1,-1,-1,-1,-1,-1,-1,-1,-1,-1,-1,-1,-1,-1,-1,-1,-1,-1,-1,-1,-1,-1,-1,-1,-1,-1,-1,-1,-1,-1,-1,-1,-1,-1,-1,-1,-1,-1,-1,-1,-1,-1,-1,-1,-1,-1,-1,-1,-1,-1,-1,-1,-1,-1,-1,-1,-1,-1,-1,-1,-1,-1,-1,-1,-1,-1,-1,-1,-1,-1,-1,-1,-1,-1,-1,-1,-1,-1,-1,-1,-1,-1,-1,-1,-1,-1,-1,-1,-1,-1,-1,-1,-1,-1,-1,-1,-1,-1,-1,-1,-1,-1,-1,-1,-1,-1,-1,-1,-1,-1,-1,-1,-1,-1,-1,-1,-1,-1,-1,-1,-1,-1,-1,-1,-1,-1,-1,-1,-1,-1,-1,-1,-1,-1,-1,-1,-1,-1,-1,-1,-1,-1,-1,-1,-1,-1,-1,-1,-1,-1,-1,-1,-1,-1,-1,-1,-1,-1,-1,-1,-1,-1,-1,-1,-1],"split_conditions":[5.0078E-1,7.8776E-2,3.3334357E-1,6.3986427E-1,4.5001104E-1,5.048676E-1,7.944457E-1,3.416777E-1,5.008962E-1,7.142528E-1,7.4074075E-2,9.1976E-1,2.0580715E-1,2.4561429E-1,2.833355E-1,3.4582105E-1,7.232157E-1,5.8344483E-1,7.382027E-1,1.7999858E-1,2.4934286E-2,6.123286E-1,2.628393E-1,5.4279E-1,5.8334693E-2,9.948133E-1,9.9366885E-1,6.641758E-2,9.827371E-1,3.1411332E-1,4.666786E-1,8.1832266E-1,2.0570071E-1,6.140986E-1,9.0321106E-1,4.6291906E-1,5.8063823E-1,4.4181144E-1,9.483843E-1,3.838255E-2,4.674502E-1,4.032357E-2,4.6668145E-1,8.341486E-2,4.781219E-1,6.5723145E-1,4.6666667E-1,2.0762E-1,4.819381E-1,2.5011243E-2,2.1715356E-1,9.720286E-2,4.3618476E-1,9.8269284E-1,9.3154573E-1,3.8368246E-1,3.3077213E-1,3.533309E-1,9.48069E-1,3.8333592E-1,1.7505032E-1,6.357609E-1,5.073495E-1,1E0,3.5833526E-1,3.3201006E-1,2.8781411E-3,9.7712857E-1,8.7048906E-1,4.017968E-1,3.2937905E-1,5.185185E-1,5.8344588E-2,2.0349215E-1,3.711589E-2,-5.568685E-3,2.4266966E-1,7.4853283E-1,9.554437E-2,9.5856446E-1,7.8302574E-1,5.009038E-1,3.468747E-1,4.4985873E-1,4.177454E-1,9.654729E-1,5.8334056E-2,-1.2321974E-2,6.66675E-2,4.7076097E-1,2.092625E-1,1.9306673E-1,7.8846E-1,2.4376474E-1,4.7501364E-1,4.0834337E-1,9.714286E-2,1.1111111E-1,6.9287723E-1,7.5171836E-2,1.6679984E-2,7.769686E-1,1.7167857E-2,-2.835706E-2,5.151455E-1,4.3237048E-1,9.5402145E-1,8.6822426E-1,1.7430973E-1,8.2666856E-1,2.8226763E-1,1.4867286E-1,7.407407E-1,2.9989854E-2,7.3379815E-2,2.0795023E-2,5.5965585E-1,2.57145E-1,4.6471767E-2,3.3980963E-1,9.826843E-1,8.666667E-1,2.5965E-1,2.821223E-1,5.74E-3,4.4167918E-1,2.5423428E-1,1.8363178E-1,5.674472E-1,1.6989544E-1,7.916667E-1,7.881541E-1,8.4444445E-1,3.1475004E-2,9.5983285E-1,2.817805E-1,1.9996142E-1,-2.7736807E-3,9.665107E-3,2.1467143E-1,6.554961E-1,3.1997713E-1,3.559156E-1,1.6143339E-2,5.451692E-2,-1.919609E-2,9.769786E-1,5.4817E-1,1.4917843E-1,4.4730706E-3,4.3328438E-2,3.103215E-1,3.4623462E-1,2.9441496E-2,3.5179788E-3,9.715E-2,3.8661698E-1,1.6281785E-1,5.559775E-1,9.2563856E-1,3.776483E-1,5.007019E-1,8.84117E-1,2.4611378E-2,1.5308103E-1,9.431286E-1,5.185185E-1,8.000143E-2,9.4235E-2,3.2154918E-2,9.199671E-1,2.2007679E-3,4.5334592E-2,-3.125287E-2,-1.1514335E-2,1.5525028E-2,4.5514572E-1,3.0706316E-1,1.7803058E-2,5.0072855E-1,5.005695E-1,1.9419643E-1,5.1123595E-1,6.6302717E-1,2.5038704E-1,8.8546145E-1,4.746193E-1,1.1727789E-1,3.1511697E-1,2.0445353E-1,1.0518256E-1,3.6727428E-1,7.916667E-1,4.1186615E-4,7.5000286E-2,3.4298502E-2,9.827757E-1,5.0496274E-1,1.7546374E-1,4.6283144E-1,5.0083333E-1,-3.0447154E-3,9.708188E-1,-3.550307E-2,-1.4493369E-2,5.0485635E-1,5.2506857E-5,3.3397335E-1,2.8334522E-1,2.4556571E-1,1.9844612E-1,8.333333E-1,3.4200782E-1,3.9383495E-1,4.1666666E-1,-1.6589839E-2,7.7234805E-1,-2.9151952E-2,-1.0626315E-2,4.1191646E-1,3.2268858E-1,8.6855286E-1,4.1666678E-1,5.045204E-1,5.79E-3,-2.9284984E-2,1.7406024E-1,4.5275327E-2,5.833333E-1,5.064879E-1,2.2523047E-2,2.1993357E-1,-2.5168732E-3,4.190124E-2,3.7912858E-1,4.6667048E-1,2.6667365E-1,3.3712244E-1,1.2664685E-1,3.2248756E-1,3.904676E-1,-9.960258E-3,3.867497E-2,9.107441E-2,5.030221E-1,-3.8296822E-4,4.0939424E-2,2.7764926E-2,-1.15445005E-2,5.809259E-4,-2.0627694E-2,-1.1493375E-2,1.8665895E-2,-1.8847954E-2,2.1049744E-2,-1.7881913E-2,-3.1414486E-2,-1.6838964E-2,-5.7004427E-4,-1.8261999E-2,-3.0593498E-2,-2.1569418E-2,2.1887448E-2,3.6719132E-2,8.0460645E-3,1.9350387E-3,-2.1253673E-2,8.975088E-3,-1.165661E-2,-1.22173205E-2,-3.716365E-2,-7.0019024E-3,-3.24983E-2,4.0672988E-2,8.539398E-3,-1.507245E-2,1.2973938E-2,1.2781668E-2,-2.056149E-2,-3.3691287E-4,4.038991E-2,-2.3170142E-2,-4.7692072E-4,2.7720021E-2,-1.962531E-2,-1.04890615E-2,-3.0898921E-2,-6.6654314E-4,3.0099856E-2,-2.4424946E-2,-1.3279795E-2,8.563578E-4,-2.4157295E-2,-5.8701923E-3,2.9480953E-3,4.274178E-3,-9.474444E-3,-8.289595E-3,1.9328322E-2,-1.4311998E-2,-3.4738556E-2,1.1710525E-2,-2.4963036E-2,-5.459449E-3,1.6215129E-2,1.576065E-3,-3.1500038E-2,-1.1058091E-2,3.9225165E-3,-1.7833494E-2,9.737438E-3,-2.015362E-2,-7.0234115E-4,-1.2665484E-2,-7.498158E-5,-2.5338558E-2,1.23351095E-2,-4.318387E-3,-2.8966442E-2,-2.2807663E-2,1.317733E-2,3.1301107E-2,3.9429786E-3,3.3092994E-2,3.9002546E-3,1.281049E-2,-2.9794374E-2,-1.1606954E-2,6.106037E-3,2.1649854E-2,-1.9400608E-2,-2.0712333E-2,1.5663395E-2,2.5011081E-2,-1.3820617E-2,2.1178914E-2,-2.271506E-2,-3.1077233E-3,9.447095E-3,-1.18832085E-2,2.6809543E-2,8.095908E-3,-8.45792E-3,-7.3064957E-3,1.9157764E-2,-6.6036405E-3,6.818044E-3,-3.28183E-2,4.576861E-3,2.8089106E-3,-1.5222701E-2,1.6525904E-2,-2.0693904E-2,2.1260183E-2,-4.130897E-3,6.4643524E-3,-1.8545996E-2,4.753635E-3,1.2737526E-2,1.1990371E-2,3.625482E-2,-2.3923535E-2,6.1621456E-3,-2.1584602E-2,4.1776486E-3,-5.855019E-3,8.108038E-3,1.0997662E-2,2.8730867E-2,-1.7321156E-2,1.2113515E-2,8.286655E-3,2.3264706E-2,8.789859E-3,-1.3167158E-3,2.6248572E-3,1.2402867E-2,4.869451E-3,1.0647073E-2,-3.7904814E-4,2.0119416E-2,8.991624E-3,4.0552024E-2,2.6041223E-2,-1.0407783E-2,1.9773837E-2,-1.9991757E-2,9.381549E-4,3.6487803E-2,-8.864713E-3,-2.5648644E-2,-1.52951535E-2,1.278655E-4,7.2594644E-3,4.136775E-2,-1.7475627E-2,4.96383E-3,3.204527E-2,3.8472202E-3,4.6303248E-4,4.923659E-3,-1.2747098E-2,-3.1841625E-2,1.0769088E-2,4.0997855E-2,1.7925216E-2,-5.8057937E-3,-1.3192125E-2,9.350876E-3,1.217083E-2,3.796408E-2,-8.725167E-3,-3.4492116E-2,-8.686486E-3,8.482113E-3,3.412015E-2,-5.1645767E-3,-5.1928917E-3,-2.401539E-2,-2.2328004E-2,6.4483983E-3,-5.2994E-3,-2.9153975E-2],"split_indices":[556,586,590,126,590,486,261,555,521,286,484,141,491,306,315,323,101,307,112,261,561,317,431,286,510,42,147,198,161,196,555,457,361,120,382,146,30,176,126,578,130,551,230,126,201,481,264,596,371,315,256,436,231,326,471,365,197,563,197,590,105,103,142,102,20,113,373,106,267,295,56,9,480,208,0,0,143,391,48,237,16,451,273,267,150,466,455,0,10,178,393,288,381,270,430,55,506,409,272,363,335,16,71,0,427,76,551,186,555,541,590,101,59,0,383,508,220,221,3,125,26,469,586,360,26,445,351,48,277,88,119,218,484,0,191,143,96,0,0,61,72,296,258,0,510,0,176,141,583,0,0,147,123,0,408,86,268,491,258,11,570,596,388,0,588,201,444,596,211,0,341,0,0,0,0,0,1,233,483,571,21,61,32,238,207,141,343,353,190,598,423,296,459,0,220,0,376,52,70,351,341,0,117,0,0,58,150,308,495,516,343,59,438,538,19,0,322,0,0,398,272,501,320,502,96,0,408,0,379,112,0,211,0,190,446,381,515,315,438,13,376,0,0,243,367,0,0,0,0,0,0,0,0,0,0,0,0,0,0,0,0,0,0,0,0,0,0,0,0,0,0,0,0,0,0,0,0,0,0,0,0,0,0,0,0,0,0,0,0,0,0,0,0,0,0,0,0,0,0,0,0,0,0,0,0,0,0,0,0,0,0,0,0,0,0,0,0,0,0,0,0,0,0,0,0,0,0,0,0,0,0,0,0,0,0,0,0,0,0,0,0,0,0,0,0,0,0,0,0,0,0,0,0,0,0,0,0,0,0,0,0,0,0,0,0,0,0,0,0,0,0,0,0,0,0,0,0,0,0,0,0,0,0,0,0,0,0,0,0,0,0,0,0,0,0,0,0,0,0,0,0,0,0,0,0,0,0,0,0,0,0,0,0,0,0,0,0,0,0,0,0,0,0],"split_type":[0,0,0,0,0,0,0,0,0,0,0,0,0,0,0,0,0,0,0,0,0,0,0,0,0,0,0,0,0,0,0,0,0,0,0,0,0,0,0,0,0,0,0,0,0,0,0,0,0,0,0,0,0,0,0,0,0,0,0,0,0,0,0,0,0,0,0,0,0,0,0,0,0,0,0,0,0,0,0,0,0,0,0,0,0,0,0,0,0,0,0,0,0,0,0,0,0,0,0,0,0,0,0,0,0,0,0,0,0,0,0,0,0,0,0,0,0,0,0,0,0,0,0,0,0,0,0,0,0,0,0,0,0,0,0,0,0,0,0,0,0,0,0,0,0,0,0,0,0,0,0,0,0,0,0,0,0,0,0,0,0,0,0,0,0,0,0,0,0,0,0,0,0,0,0,0,0,0,0,0,0,0,0,0,0,0,0,0,0,0,0,0,0,0,0,0,0,0,0,0,0,0,0,0,0,0,0,0,0,0,0,0,0,0,0,0,0,0,0,0,0,0,0,0,0,0,0,0,0,0,0,0,0,0,0,0,0,0,0,0,0,0,0,0,0,0,0,0,0,0,0,0,0,0,0,0,0,0,0,0,0,0,0,0,0,0,0,0,0,0,0,0,0,0,0,0,0,0,0,0,0,0,0,0,0,0,0,0,0,0,0,0,0,0,0,0,0,0,0,0,0,0,0,0,0,0,0,0,0,0,0,0,0,0,0,0,0,0,0,0,0,0,0,0,0,0,0,0,0,0,0,0,0,0,0,0,0,0,0,0,0,0,0,0,0,0,0,0,0,0,0,0,0,0,0,0,0,0,0,0,0,0,0,0,0,0,0,0,0,0,0,0,0,0,0,0,0,0,0,0,0,0,0,0,0,0,0,0,0,0,0,0,0,0,0,0,0,0,0,0,0,0,0,0,0,0,0,0,0,0,0,0,0,0,0,0,0,0,0,0,0,0,0],"sum_hessian":[1.5626E4,7.576E3,8.05E3,1.321E3,6.255E3,6.523E3,1.527E3,9.59E2,3.62E2,5.431E3,8.24E2,2.714E3,3.809E3,9.29E2,5.98E2,6.25E2,3.34E2,2.79E2,8.3E1,3.006E3,2.425E3,4.2E1,7.82E2,1.51E3,1.204E3,8E1,3.729E3,3.11E2,6.18E2,1.53E2,4.45E2,1.6E2,4.65E2,2.67E2,6.7E1,4.4E1,2.35E2,2.2E1,6.1E1,6.65E2,2.341E3,1.85E2,2.24E3,1.9E1,2.3E1,1.97E2,5.85E2,7.65E2,7.45E2,9.4E1,1.11E3,1.7E1,6.3E1,1.076E3,2.653E3,2.3E1,2.88E2,5.11E2,1.07E2,2.5E1,1.28E2,3.79E2,6.6E1,3.8E1,1.22E2,1.8E2,2.85E2,2.59E2,8E0,1.9E1,4.8E1,1.7E1,2.7E1,2.32E2,3E0,5E0,1.7E1,2.1E1,4E1,4.8E1,6.17E2,2.127E3,2.14E2,6.8E1,1.17E2,2.166E3,7.4E1,3E0,1.6E1,1.2E1,1.1E1,1.62E2,3.5E1,7.3E1,5.12E2,1.27E2,6.38E2,2.29E2,5.16E2,2.7E1,6.7E1,8E1,1.03E3,3E0,1.4E1,1.1E1,5.2E1,6.66E2,4.1E2,1.218E3,1.435E3,1.7E1,6E0,5E0,2.83E2,1.65E2,3.46E2,2.6E1,8.1E1,1.2E1,1.3E1,6E1,6.8E1,3.29E2,5E1,8E0,5.8E1,1.3E1,2.5E1,8.4E1,3.8E1,4.2E1,1.38E2,6E0,2.79E2,2.52E2,7E0,3E0,5E0,1.1E1,8E0,1.7E1,3.1E1,3E0,1.4E1,4E0,2.3E1,5.5E1,1.77E2,3E0,1.4E1,1.4E1,7E0,4E0,3.6E1,8E0,4E1,4.61E2,1.56E2,1.132E3,9.95E2,5.6E1,1.58E2,3E0,6.5E1,1.01E2,1.6E1,1.4E3,7.66E2,4E0,7E1,4E0,1.2E1,9E0,3E0,3E0,8E0,2.2E1,1.4E2,2.8E1,7E0,4.9E1,2.4E1,2.39E2,2.73E2,1.07E2,2E1,5.7E1,5.81E2,2.4E1,2.05E2,1.13E2,4.03E2,5E0,2.2E1,5E0,6.2E1,4.5E1,3.5E1,3.1E1,9.99E2,4E0,1E1,8E0,3E0,2.2E1,3E1,2.76E2,3.9E2,1.54E2,2.56E2,5.46E2,6.72E2,1.266E3,1.69E2,3E0,1.4E1,3E0,3E0,2E1,2.63E2,1E1,1.55E2,3.35E2,1.1E1,8E0,1.8E1,9E0,7.2E1,9E0,3E0,1E1,3E0,1.6E1,4.4E1,9E0,5.9E1,1.9E1,3.1E2,7E0,4.3E1,4E0,4E0,1.3E1,4.5E1,4E0,9E0,6E0,1.9E1,1.4E1,7E1,1.8E1,2E1,3.7E1,5E0,4E1,9.8E1,2.32E2,4.7E1,5.5E1,1.97E2,3E0,4E0,5E0,6E0,3E0,5E0,8E0,9E0,1.3E1,1.8E1,3E0,1.1E1,1.3E1,1E1,3.1E1,2.4E1,7E0,1.7E2,3E0,1.1E1,4E0,3E0,3E0,3.3E1,3E0,5E0,1.9E1,2.1E1,1.57E2,3.04E2,1.25E2,3.1E1,8.28E2,3.04E2,8.94E2,1.01E2,3.7E1,1.9E1,1.3E2,2.8E1,5E0,6E1,6.4E1,3.7E1,3E0,1.3E1,7.5E1,1.325E3,2.3E1,7.43E2,4.8E1,2.2E1,3E0,5E0,1.2E1,1E1,8E0,1.32E2,2.1E1,7E0,4E0,3E0,1.2E1,3.7E1,3E0,2.1E1,2.11E2,2.8E1,4E0,2.69E2,1E2,7E0,1E1,1E1,4E0,5.3E1,4.53E2,1.28E2,7E0,1.7E1,3.6E1,1.69E2,1.3E1,1E2,8.1E1,3.22E2,1.9E1,3E0,4.2E1,2E1,5E0,4E1,1.7E1,1.8E1,9E0,2.2E1,3.51E2,6.48E2,3E0,7E0,1.8E1,4E0,5E0,2.5E1,1.03E2,1.73E2,3.51E2,3.9E1,7E0,1.47E2,5.4E1,2.02E2,1.5E2,3.96E2,2.8E2,3.92E2,4.6E2,8.06E2,2.7E1,1.42E2,3E0,1.1E1,9E0,1.1E1,7E0,2.56E2,6E0,4E0,9.1E1,6.4E1,6.8E1,2.67E2,3E0,8E0,3E0,1.5E1,1.2E1,6E1,3E0,6E0,3E0,7E0,5E0,1.1E1,1.1E1,3.3E1,3E0,6E0,1.5E1,4.4E1,1.1E1,8E0,4.9E1,2.61E2,3E0,4E0,1.3E1,3E1,3E0,1E1,9E0,3.6E1],"tree_param":{"num_deleted":"0","num_feature":"600","num_nodes":"423","size_leaf_vector":"1"}},{"base_weights":[4.4106313E-5,-3.2399532E-1,6.758311E-2,-4.011726E-1,1.5167389E-2,1.2706652E-1,-2.55981E-1,-4.9847573E-1,-2.0043902E-1,-5.374089E-1,1.333993E-1,-1.8794475E-1,1.6297027E-1,-3.5648024E-1,-4.4163767E-2,-6.2267816E-1,-3.7261412E-1,1.6563174E-1,-2.7594537E-1,-8.0489165E-1,-1.2590899E-1,2.1421784E-1,-4.9666432E-1,-3.2018408E-1,1.8726276E-1,6.280738E-2,2.4452332E-1,-4.2740825E-1,-1.6914783E-1,3.593078E-1,-1.3148531E-1,-5.3523827E-1,-8.4179467E-1,5.371376E-2,-4.3461132E-1,7.076646E-1,-3.1650864E-2,-8.353511E-1,-2.0438367E-1,-9.6954775E-1,-3.5727757E-1,-6.328395E-1,4.1062373E-1,-3.4690898E-2,3.9164224E-1,-7.306785E-1,4.3225592E-1,-4.6407017E-1,-6.383495E-2,2.515215E-1,-7.9574573E-1,-3.8859442E-2,1.8695429E-1,-1.4967366E-1,2.5787488E-1,-7.389791E-1,-3.7386662E-1,-3.4966692E-1,1.2881425E-1,9.500617E-1,1.2879074E-1,-2.8238952E-1,7.843303E-2,-5.865732E-1,-5.833229E-2,-3.9414322E-1,-9.4482374E-1,-8.133526E-2,1.2062591E0,-7.3221487E-1,-3.3243635E-1,1.2194799E0,-6.6904716E-2,-1.7335406E-1,1.0055864E0,-0E0,-9.9804825E-1,-4.794821E-1,-1.0096771E-1,-7.616838E-3,-1.0207782E0,1.9096522E-2,-2.2456162E-2,9.691728E-2,-9.8479784E-1,-1.8356273E-2,6.6258204E-1,6.839768E-1,-1.6787039E-1,1.18177876E-1,6.0002244E-1,-8.568186E-1,2.0461644E-3,3.435062E-2,-6.512718E-3,-3.6881146E-1,-7.9468995E-1,-2.3688328E-1,3.1317294E-1,-6.8151116E-1,3.241063E-1,3.6595338E-3,-9.940907E-1,-3.5999054E-1,9.082532E-3,9.3578964E-2,3.1667787E-1,4.3775874E-1,-2.9825038E-1,2.0660132E-1,3.4851682E-1,6.5308565E-1,-8.054424E-1,-9.0550095E-1,-3.481822E-1,-4.2722166E-1,6.5954465E-1,2.5765935E-2,9.9290556E-1,-3.1060437E-3,1.1527104E0,6.859327E-1,-7.835532E-2,5.226867E-1,-3.4605053E-1,-6.891411E-1,1.793345E-1,-7.064724E-1,-4.0409893E-1,-7.507052E-1,1.8295653E-1,1.3671106E-1,-1.021275E0,-4.823867E-1,-1.0325248E0,-7.424051E-1,1.31954E-1,1.3913511E-2,4.331767E-2,2.9040365E-2,-7.707692E-1,7.3909026E-1,-3.6170432E-1,1.4640551E-2,4.2722974E-2,2.6654268E-2,-7.075022E-1,-3.2875034E-1,5.2563953E-1,3.8600937E-2,1.17273955E-2,-5.2659273E-1,1.8041639E-2,2.3934934E-3,-1.0624497E0,-7.331541E-1,-1.583553E-1,2.2830822E-1,-2.172471E-1,-3.3575334E-2,-1.8031457E-2,-5.2423137E-3,4.8542195E-3,1.1864766E-2,-6.0266084E-3,-1.2339656E-2,-3.3171255E-2,8.8118243E-1,5.1345313E-3,-1.4470066E-2,1.2837758E0,1.5822996E-1,-5.0819623E-1,-3.340269E-1,4.063399E-1,8.561175E-1,3.1470028E-1,9.944886E-4,-9.8416424E-1,-6.146729E-1,-2.238316E-1,-4.740129E-1,-1.0018015E0,6.73114E-1,-3.3944035E-1,-3.4218737E-1,4.4320574E-1,-1.5920688E-1,-3.02434E-2,-3.585632E-1,3.873312E-1,-1.0118886E-2,-3.5795126E-2,-7.333981E-1,-2.2441806E-1,3.0151378E-2,-6.200967E-1,-4.9387553E-1,1.1689224E-1,-6.4104587E-1,3.3528244E-1,-3.5235897E-1,8.516659E-1,-1.5647876E-3,-5.54562E-1,1.0355821E-1,2.695844E-1,-1.395136E-1,3.6333957E-1,3.5428792E-2,-3.9179623E-4,1.6546715E-2,-8.617799E-1,1.2835021E-2,-1.0778885E0,-3.916678E-1,3.3604268E-2,4.2602035E-1,-4.9286032E-1,-1.3060965E-2,1.0376221E0,-3.2963336E-1,2.7458695E-1,4.431604E-2,2.1411015E-1,1.3511621E0,-0E0,-1.2744349E-2,9.473953E-1,-1.768673E-1,2.5617033E-2,1.0621873E0,-4.2344612E-1,-6.6623414E-1,-2.0820893E-1,2.1522414E-2,-9.081445E-1,2.4737999E-1,-7.255045E-1,1.0813565E-2,-2.192417E-2,-1.4559166E-3,-1.701868E-2,-3.173962E-2,-4.4399323E-3,-7.0287506E-3,2.4891663E-2,-1.8351791E-2,1.3281951E-2,-1.3359737E-2,-3.4155205E-2,-2.1824745E-2,1.1327535E-2,-3.332876E-2,-1.9695284E-2,1.2429652E-3,-3.4332782E-2,-3.5228515E-3,2.5466472E-2,-2.5120493E-2,5.943808E-3,4.133223E-2,-6.568771E-3,-1.759414E-2,-7.510574E-3,-3.7888074E-3,-2.8811725E-2,-1.4197338E-2,1.93172E-2,-2.3878969E-3,2.8472561E-2,-2.3825936E-2,-3.0701815E-3,-9.216544E-3,-3.3473723E-2,-2.467561E-2,1.4683473E-2,-1.1179631E-2,1.5449293E-2,-8.638396E-3,1.6375735E-2,-1.578573E-2,-3.5495253E-4,3.1716254E-2,9.83523E-3,-1.8324219E-2,7.231961E-3,1.1955626E-2,4.4985004E-2,3.9085887E-2,1.2988211E-3,-1.7624222E-2,2.408518E-2,2.2404036E-2,-1.7116068E-2,-5.710279E-4,2.3420008E-2,7.430918E-3,3.0220585E-2,2.9862931E-2,3.527688E-3,-3.2481153E-2,-2.178212E-3,6.1566317E-3,-2.181257E-2,-3.791306E-3,-2.6708856E-2,-1.9984217E-2,1.6721798E-2,6.647329E-3,-3.184138E-2,-2.2615548E-2,3.1772915E-2,1.7126678E-2,-1.2711299E-2,-1.8036945E-2,1.874215E-3,-3.7415929E-3,1.918595E-2,-1.0652019E-2,1.4548476E-3,-2.6495133E-2,4.3162275E-3,-1.6107066E-2,1.3073317E-2,2.4947772E-2,-2.4732912E-2,5.956854E-3,-1.0916841E-2,2.1207242E-3,-7.4316044E-3,-2.2067515E-2,2.0376028E-2,4.509981E-3,-2.3163076E-2,-1.1703777E-2,4.2689736E-3,-1.2249581E-3,-2.7032025E-2,5.6293607E-3,1.4171765E-2,1.4505887E-2,-1.9844355E-2,3.6645945E-2,2.6515892E-3,2.1239098E-2,-8.977651E-3,-2.1926519E-2,-2.5201282E-3,-1.3813245E-3,6.71365E-3,-5.3903926E-3,8.6411815E-3,3.0960802E-2,-7.542055E-3,1.0485749E-2,2.6652958E-2,6.430825E-3,-2.746559E-2,-3.486902E-2,-1.007512E-2,2.3979542E-3,-1.3061854E-2,3.5745095E-2,-3.1337496E-3,-1.1402031E-2,2.5081996E-2,3.269837E-3,-1.7127752E-2,3.997426E-2,8.380846E-3,1.820086E-2,-1.6914569E-2,3.0136496E-2,3.1928143E-3,-0E0,1.0989617E-2,1.0405883E-2,4.4383913E-2,-6.015232E-4,3.408884E-2,-1.006498E-2,1.1344694E-2,7.930248E-3,3.9575733E-2,7.633192E-3,-2.464387E-2,3.8122956E-3,-2.4709284E-2,-1.8287275E-2,-1.6277356E-3,2.621569E-3,-3.20053E-2,2.1404192E-2,3.3957725E-3,